<?xml version="1.0"?>
<opencv_storage>
<stage13>
  <maxWeakCount>14</maxWeakCount>
  <stageThreshold>-6.4707279205322266e-01</stageThreshold>
  <weakClassifiers>
    <_>
      <internalNodes>
        0 -1 30728 -136516612 -100909316 -1091239964 764461032
        1297641948 462700276 1970550564 -2065</internalNodes>
      <leafValues>
        6.4620357006788254e-03 8.1933367252349854e-01</leafValues></_>
    <_>
      <internalNodes>
        0 -1 20381 -1073792294 -81 -855750438 -940575006 -8739
        2147483647 -1041044738 -545268737</internalNodes>
      <leafValues>
        -4.5494511723518372e-01 5.4730200767517090e-01</leafValues></_>
    <_>
      <internalNodes>
        0 -1 687 -809047682 -660864249 1694656814 -276248482 1224874369
        -922615638 1501759078 -134222917</internalNodes>
      <leafValues>
        -4.9657553434371948e-01 4.4131118059158325e-01</leafValues></_>
    <_>
      <internalNodes>
        0 -1 34600 1999894833 -847052015 -1421193935 -248651115
        -637294083 -2003212083 -108816307 -37062295</internalNodes>
      <leafValues>
        -4.8609343171119690e-01 4.5298588275909424e-01</leafValues></_>
    <_>
      <internalNodes>
        0 -1 35190 -143924606 -1058891678 -1049472192 -1815525820
        122729098 140537150 661644517 -118494238</internalNodes>
      <leafValues>
        -3.7909713387489319e-01 5.2249580621719360e-01</leafValues></_>
    <_>
      <internalNodes>
        0 -1 35445 -1053958 915409518 706880368 2121532792 1073151448
        677395932 389411100 -10305</internalNodes>
      <leafValues>
        -3.9301526546478271e-01 5.1399183273315430e-01</leafValues></_>
    <_>
      <internalNodes>
        0 -1 13945 -1867492012 -1615630111 1200870875 -715587561
        -91067701 -58128181 -1962870053 468717574</internalNodes>
      <leafValues>
        -5.2747666835784912e-01 3.7977394461631775e-01</leafValues></_>
    <_>
      <internalNodes>
        0 -1 25885 -18952186 -1933917440 -1073176560 1200848128
        1074441306 134750208 1112556263 1869347055</internalNodes>
      <leafValues>
        -5.0555539131164551e-01 3.8754653930664063e-01</leafValues></_>
    <_>
      <internalNodes>
        0 -1 10264 -2013263856 404230733 -786935593 756023315 36733578
        -1702198615 1214446554 724191929</internalNodes>
      <leafValues>
        -5.2181226015090942e-01 3.8962683081626892e-01</leafValues></_>
    <_>
      <internalNodes>
        0 -1 34047 -1199039851 2070244829 1878998783 1039529903
        772995981 -1347092738 -231491 -1617423975</internalNodes>
      <leafValues>
        -4.3395227193832397e-01 4.6566563844680786e-01</leafValues></_>
    <_>
      <internalNodes>
        0 -1 33825 -475273693 -1278214228 -353688914 -201365521
        1129301675 1327130451 1979692023 -67111425</internalNodes>
      <leafValues>
        -3.3541598916053772e-01 6.2836086750030518e-01</leafValues></_>
    <_>
      <internalNodes>
        0 -1 15018 1360009435 829827328 335581267 1365789222 876651307
        -855113717 -968806192 1611313586</internalNodes>
      <leafValues>
        -5.0793594121932983e-01 3.9435780048370361e-01</leafValues></_>
    <_>
      <internalNodes>
        0 -1 30726 -293804281 -524948164 385873440 -743557629
        -1485494522 1278639948 -143198302 -480280149</internalNodes>
      <leafValues>
        -3.9495319128036499e-01 5.0210368633270264e-01</leafValues></_>
    <_>
      <internalNodes>
        0 -1 744 -286075218 1255096553 -670837617 -490681786 983042617
        875596842 -1065029308 -1874010540</internalNodes>
      <leafValues>
        -5.5127590894699097e-01 3.7339445948600769e-01</leafValues></_></weakClassifiers></stage13>
</opencv_storage>
