<?xml version="1.0"?>
<opencv_storage>
<stage17>
  <maxWeakCount>14</maxWeakCount>
  <stageThreshold>-9.6130681037902832e-01</stageThreshold>
  <weakClassifiers>
    <_>
      <internalNodes>
        0 -1 27755 -415547392 1006563199 -100967436 -1149536321
        -847259888 -1879052329 1958645904 -1959035209</internalNodes>
      <leafValues>
        -1.7616580426692963e-01 7.6903551816940308e-01</leafValues></_>
    <_>
      <internalNodes>
        0 -1 29689 -1248333048 -62484328 1681986320 1479360571
        -2006217396 -349634549 -1966439939 -342906437</internalNodes>
      <leafValues>
        -4.6621075272560120e-01 4.7822484374046326e-01</leafValues></_>
    <_>
      <internalNodes>
        0 -1 25025 -274028326 -543702592 -653230057 1177681930
        -591183481 -671018988 -100257507 -576173425</internalNodes>
      <leafValues>
        -5.7903939485549927e-01 3.4007623791694641e-01</leafValues></_>
    <_>
      <internalNodes>
        0 -1 27887 -67108865 -1141064202 1069334456 -269189152 712820696
        1056710140 -34328644 -16385</internalNodes>
      <leafValues>
        -3.5234391689300537e-01 5.5712652206420898e-01</leafValues></_>
    <_>
      <internalNodes>
        0 -1 30189 -1081373400 415761472 -1054290361 -1015300064
        -493188726 -620039638 -909378625 -1315079</internalNodes>
      <leafValues>
        -4.8442691564559937e-01 3.9908400177955627e-01</leafValues></_>
    <_>
      <internalNodes>
        0 -1 481 -361830554 -83894801 -1610682574 -285225500 1279533742
        -17301633 1717564893 -825793057</internalNodes>
      <leafValues>
        -4.3693387508392334e-01 4.4792169332504272e-01</leafValues></_>
    <_>
      <internalNodes>
        0 -1 21376 -682196208 -1896300157 -1073544916 1141121032
        203522220 194781720 1343516824 1606153657</internalNodes>
      <leafValues>
        -5.5813819169998169e-01 2.9512992501258850e-01</leafValues></_>
    <_>
      <internalNodes>
        0 -1 15790 -1190899500 -761769773 -1070539625 -1852948076
        -804980034 -607466350 -2061780263 -1695542071</internalNodes>
      <leafValues>
        -4.7948378324508667e-01 3.6678496003150940e-01</leafValues></_>
    <_>
      <internalNodes>
        0 -1 34062 -619971328 813979648 -1065336459 -1714580337
        -2012364595 -2008809191 -1047492434 -1700734935</internalNodes>
      <leafValues>
        -4.6026605367660522e-01 3.6605048179626465e-01</leafValues></_>
    <_>
      <internalNodes>
        0 -1 17904 -842143454 1503281541 138937358 428196139 298455440
        1244172820 -956223316 997784495</internalNodes>
      <leafValues>
        -5.0576245784759521e-01 3.3464607596397400e-01</leafValues></_>
    <_>
      <internalNodes>
        0 -1 748 -809046488 550049602 1459617946 -268301688 419531038
        1250052243 -402020848 -255468523</internalNodes>
      <leafValues>
        -5.5407559871673584e-01 3.2201972603797913e-01</leafValues></_>
    <_>
      <internalNodes>
        0 -1 34322 -1874070955 260105352 1094844573 -1793933312
        -2146933064 -1882513127 747362456 -2004101843</internalNodes>
      <leafValues>
        -3.9534309506416321e-01 4.4363924860954285e-01</leafValues></_>
    <_>
      <internalNodes>
        0 -1 14170 1383322967 -749530040 291568118 -1789971997
        2008956667 -1072037752 1350562043 -12864823</internalNodes>
      <leafValues>
        -2.8108882904052734e-01 6.1817532777786255e-01</leafValues></_>
    <_>
      <internalNodes>
        0 -1 25987 583270824 406852392 605295856 -1152683495 1615073161
        1316749442 -279303877 1867389275</internalNodes>
      <leafValues>
        -6.0510927438735962e-01 3.0080956220626831e-01</leafValues></_></weakClassifiers></stage17>
</opencv_storage>
