<?xml version="1.0"?>
<opencv_storage>
<stage20>
  <maxWeakCount>14</maxWeakCount>
  <stageThreshold>-1.2139159440994263e+00</stageThreshold>
  <weakClassifiers>
    <_>
      <internalNodes>
        0 -1 16260 1292159452 -1716486668 1578143316 -10936835
        -1345257484 -1086806020 1051999736 -1615327816</internalNodes>
      <leafValues>
        -1.3324709236621857e-01 7.6221704483032227e-01</leafValues></_>
    <_>
      <internalNodes>
        0 -1 26336 -2147253597 -86025339 -268468225 -8415409 -298057733
        -8388609 -488701969 -1039412821</internalNodes>
      <leafValues>
        -2.8991597890853882e-01 5.8815598487854004e-01</leafValues></_>
    <_>
      <internalNodes>
        0 -1 34559 -276824263 1965905723 1870642393 326983159 -8392705
        -33677891 -167828259 402640383</internalNodes>
      <leafValues>
        -3.6677205562591553e-01 5.0207316875457764e-01</leafValues></_>
    <_>
      <internalNodes>
        0 -1 33489 -878974454 -461193078 1141014528 -456141888
        -920395189 1107378304 1965203462 -208412181</internalNodes>
      <leafValues>
        -4.2840537428855896e-01 4.2331123352050781e-01</leafValues></_>
    <_>
      <internalNodes>
        0 -1 29665 -939541314 291025156 -647987056 1540637010 2122856600
        487081096 1509982984 2076178243</internalNodes>
      <leafValues>
        -4.3915271759033203e-01 3.9486551284790039e-01</leafValues></_>
    <_>
      <internalNodes>
        0 -1 12078 1364419283 -1150924527 -720825891 -208457709 12599816
        -1475190776 989933791 1533231261</internalNodes>
      <leafValues>
        -4.1796267032623291e-01 4.1823583841323853e-01</leafValues></_>
    <_>
      <internalNodes>
        0 -1 21328 -539123070 1501831300 336068760 1435324802
        -1448490834 293929728 286113954 467205099</internalNodes>
      <leafValues>
        -5.3734612464904785e-01 3.3161607384681702e-01</leafValues></_>
    <_>
      <internalNodes>
        0 -1 34855 -873739262 1131376814 -420609432 -1052102130
        -550504449 687982 1097840571 -745538641</internalNodes>
      <leafValues>
        -4.0624901652336121e-01 4.4777092337608337e-01</leafValues></_>
    <_>
      <internalNodes>
        0 -1 31646 -1090291885 -1359122441 -201343619 -243337385
        -1918897015 -268993163 -871015412 -390376361</internalNodes>
      <leafValues>
        -3.8356643915176392e-01 4.8069104552268982e-01</leafValues></_>
    <_>
      <internalNodes>
        0 -1 9383 1563488991 -20971518 1241645090 -251592445 -1181644286
        -1039988736 1781301346 -85077407</internalNodes>
      <leafValues>
        -4.1040763258934021e-01 4.4595143198966980e-01</leafValues></_>
    <_>
      <internalNodes>
        0 -1 23628 -98793854 95282607 1321160570 1127724898 -2108962881
        -1918369857 1473602306 -86272601</internalNodes>
      <leafValues>
        -3.6781853437423706e-01 4.6627098321914673e-01</leafValues></_>
    <_>
      <internalNodes>
        0 -1 28220 453530965 -788524847 -1073659559 -1878769469
        -1521818675 -2004713459 730120797 188236284</internalNodes>
      <leafValues>
        -6.0385543107986450e-01 2.8749030828475952e-01</leafValues></_>
    <_>
      <internalNodes>
        0 -1 1134 -2113895686 1883539591 805319609 1874870810
        -1865264918 -1165262711 -116946821 -620275133</internalNodes>
      <leafValues>
        -4.3295586109161377e-01 4.3305465579032898e-01</leafValues></_>
    <_>
      <internalNodes>
        0 -1 34540 -70589914 1475048300 1446994596 -1116997653
        -1222183637 243216196 -2019104857 -101728821</internalNodes>
      <leafValues>
        -3.6800721287727356e-01 5.0055742263793945e-01</leafValues></_></weakClassifiers></stage20>
</opencv_storage>
