<?xml version="1.0"?>
<opencv_storage>
<stage19>
  <maxWeakCount>15</maxWeakCount>
  <stageThreshold>-7.4942654371261597e-01</stageThreshold>
  <weakClassifiers>
    <_>
      <internalNodes>
        0 -1 30100 0 -1214745228 -671483911 -758851 -1174536719
        -537329668 215054332 -1273756348</internalNodes>
      <leafValues>
        -3.8430583477020264e-01 7.3775732517242432e-01</leafValues></_>
    <_>
      <internalNodes>
        0 -1 35185 -131075 -180357708 -33624711 887062013 -8413219
        -10560041 -276875835 -1107321475</internalNodes>
      <leafValues>
        -3.5942223668098450e-01 5.4286098480224609e-01</leafValues></_>
    <_>
      <internalNodes>
        0 -1 25071 -866073398 -246398182 -81955818 -181403582 -113131253
        -4284350 -410441342 -433439492</internalNodes>
      <leafValues>
        -5.8251297473907471e-01 3.5032579302787781e-01</leafValues></_>
    <_>
      <internalNodes>
        0 -1 165 -296752410 -115670777 -2129641215 -787398534 -257130242
        -96206822 -226304289 -307822525</internalNodes>
      <leafValues>
        -4.5916870236396790e-01 4.0937730669975281e-01</leafValues></_>
    <_>
      <internalNodes>
        0 -1 25338 -1132449412 -918584087 -1257262671 -1648275111
        52460873 -80598135 -73348709 196083864</internalNodes>
      <leafValues>
        -6.3591575622558594e-01 2.9976269602775574e-01</leafValues></_>
    <_>
      <internalNodes>
        0 -1 33447 -1068785118 1992802567 71925762 -584748983 1375965451
        1174487554 -1031396178 -227843121</internalNodes>
      <leafValues>
        -4.6503674983978271e-01 4.0447601675987244e-01</leafValues></_>
    <_>
      <internalNodes>
        0 -1 17811 -1671471931 486539266 -888340028 1426067799
        -1474100681 -1421145975 1800470531 144870083</internalNodes>
      <leafValues>
        -4.9661564826965332e-01 3.4904924035072327e-01</leafValues></_>
    <_>
      <internalNodes>
        0 -1 29444 1026563965 1524517185 -660025125 -1852620589
        -1476341225 -1197424379 -1874703117 -1668929444</internalNodes>
      <leafValues>
        -5.9060972929000854e-01 3.0133834481239319e-01</leafValues></_>
    <_>
      <internalNodes>
        0 -1 28545 -322394326 -1056701821 -653183228 1356898382
        814781291 672202802 1271537808 -36194581</internalNodes>
      <leafValues>
        -4.2611873149871826e-01 4.2215934395790100e-01</leafValues></_>
    <_>
      <internalNodes>
        0 -1 13364 965851576 344966232 1343300191 461181003 -1610317272
        -1338834680 -784193303 438984923</internalNodes>
      <leafValues>
        -4.7229373455047607e-01 3.9816415309906006e-01</leafValues></_>
    <_>
      <internalNodes>
        0 -1 29070 -357241340 -431516378 1102245920 -1862285242
        985790477 169056282 849512890 -1024988661</internalNodes>
      <leafValues>
        -4.2687407135963440e-01 4.1309827566146851e-01</leafValues></_>
    <_>
      <internalNodes>
        0 -1 29530 -1067269496 -576461938 -1736331245 -739569564
        -886390577 -594542582 -1859665718 -1073233566</internalNodes>
      <leafValues>
        -4.4098174571990967e-01 4.0211611986160278e-01</leafValues></_>
    <_>
      <internalNodes>
        0 -1 35458 -115608031 277060227 -2147368399 -1827421425
        1074761607 1619689602 -1744057563 -1046028099</internalNodes>
      <leafValues>
        -4.0443336963653564e-01 4.4648694992065430e-01</leafValues></_>
    <_>
      <internalNodes>
        0 -1 17923 1367356087 -1643953152 -1744813424 932483083
        -771669391 -1897889652 822280471 1502838979</internalNodes>
      <leafValues>
        -4.1584309935569763e-01 4.4476670026779175e-01</leafValues></_>
    <_>
      <internalNodes>
        0 -1 30978 781718321 -576940779 -921673243 -575764900
        -1609831751 -374734130 -1161672123 -1112799176</internalNodes>
      <leafValues>
        -5.7396978139877319e-01 3.1337809562683105e-01</leafValues></_></weakClassifiers></stage19>
</opencv_storage>
