<?xml version="1.0"?>
<opencv_storage>
<stage18>
  <maxWeakCount>16</maxWeakCount>
  <stageThreshold>-6.3671278953552246e-01</stageThreshold>
  <weakClassifiers>
    <_>
      <internalNodes>
        0 -1 23301 -1158739854 -120066 -54289 -1208538882 -286311809
        -16641 -889245957 -286523224</internalNodes>
      <leafValues>
        -2.9209622740745544e-01 7.4623829126358032e-01</leafValues></_>
    <_>
      <internalNodes>
        0 -1 33863 1566564181 -1786808460 -167800903 -142639105
        2146697117 -8421383 -570427911 1572339705</internalNodes>
      <leafValues>
        -4.0270176529884338e-01 5.0602066516876221e-01</leafValues></_>
    <_>
      <internalNodes>
        0 -1 17871 1356837887 413141586 -1678116869 -1828712230
        -990003361 -1953755475 238664703 -1475824149</internalNodes>
      <leafValues>
        -3.7378761172294617e-01 5.0806593894958496e-01</leafValues></_>
    <_>
      <internalNodes>
        0 -1 590 -480064606 -553776 -17833989 -738260236 1332707327
        -2637833 -722097025 -540597018</internalNodes>
      <leafValues>
        -3.8452231884002686e-01 4.7332540154457092e-01</leafValues></_>
    <_>
      <internalNodes>
        0 -1 24277 -1039449344 -91593993 1477173715 -283930809 21743787
        -2012704768 -1757298301 1092567335</internalNodes>
      <leafValues>
        -5.3147596120834351e-01 3.4696069359779358e-01</leafValues></_>
    <_>
      <internalNodes>
        0 -1 29399 289431037 -113483721 1077989717 -1789247216
        -1840716567 -358447990 -1978948933 -1344788228</internalNodes>
      <leafValues>
        -5.5345404148101807e-01 3.0294543504714966e-01</leafValues></_>
    <_>
      <internalNodes>
        0 -1 33471 -345512190 -1563770548 34097226 -838362746
        -1016723153 1115684888 -779394545 -236981697</internalNodes>
      <leafValues>
        -4.7022691369056702e-01 3.9778143167495728e-01</leafValues></_>
    <_>
      <internalNodes>
        0 -1 709 -898964673 1602880202 -2147475058 1308934336 -468498375
        59277312 710574314 -81462597</internalNodes>
      <leafValues>
        -4.1362446546554565e-01 4.2446410655975342e-01</leafValues></_>
    <_>
      <internalNodes>
        0 -1 21324 -178290398 -1591270512 143130792 -801030138
        -937139040 168304656 309240971 1269823370</internalNodes>
      <leafValues>
        -4.7422522306442261e-01 3.5976666212081909e-01</leafValues></_>
    <_>
      <internalNodes>
        0 -1 34575 -556931214 1998739576 574792532 -203088320 743748189
        452996724 130823991 -18504</internalNodes>
      <leafValues>
        -3.7603136897087097e-01 4.7249501943588257e-01</leafValues></_>
    <_>
      <internalNodes>
        0 -1 13977 1033265023 23505115 -1208516865 286667370 135344125
        -1417791669 658882423 -611847769</internalNodes>
      <leafValues>
        -3.7879362702369690e-01 4.6445104479789734e-01</leafValues></_>
    <_>
      <internalNodes>
        0 -1 28516 -202994338 -1321955072 350588956 488115230 521710368
        243794049 1237323912 -19950773</internalNodes>
      <leafValues>
        -4.4929796457290649e-01 3.9701113104820251e-01</leafValues></_>
    <_>
      <internalNodes>
        0 -1 664 -907521249 747696386 -515661409 -964426324 255946847
        965241403 277539216 -966469296</internalNodes>
      <leafValues>
        -4.5523139834403992e-01 3.8092640042304993e-01</leafValues></_>
    <_>
      <internalNodes>
        0 -1 29637 -490151896 1233915937 16789762 272667728 -491394288
        50331713 -419257687 -671104070</internalNodes>
      <leafValues>
        -4.4029840826988220e-01 4.1128566861152649e-01</leafValues></_>
    <_>
      <internalNodes>
        0 -1 22158 -213716873 -50298816 2059061689 1460293844
        -1372410637 -875980590 819380664 -21310773</internalNodes>
      <leafValues>
        -2.7396026253700256e-01 6.6563820838928223e-01</leafValues></_>
    <_>
      <internalNodes>
        0 -1 33801 -1020288382 -208175572 -471374162 -1149276434
        1610539403 127006647 2008179497 -2097152017</internalNodes>
      <leafValues>
        -3.3708640933036804e-01 5.1658707857131958e-01</leafValues></_></weakClassifiers></stage18>
</opencv_storage>
