<?xml version="1.0"?>
<opencv_storage>
<stage21>
  <maxWeakCount>16</maxWeakCount>
  <stageThreshold>-8.1944042444229126e-01</stageThreshold>
  <weakClassifiers>
    <_>
      <internalNodes>
        0 -1 30739 -1976825856 321928928 178784320 565194464 -477393974
        -613023902 -1431190805 -362610777</internalNodes>
      <leafValues>
        -1.3941018283367157e-01 7.5809842348098755e-01</leafValues></_>
    <_>
      <internalNodes>
        0 -1 680 -829755006 -964523326 1208097846 -287407586 1090572342
        1661094016 302235901 -561286781</internalNodes>
      <leafValues>
        -4.6312355995178223e-01 4.6160933375358582e-01</leafValues></_>
    <_>
      <internalNodes>
        0 -1 30144 -132719 -67143681 -1677738501 -4196409 -1885362035
        -1376395411 1224638476 -1914928241</internalNodes>
      <leafValues>
        -3.8132378458976746e-01 4.7720980644226074e-01</leafValues></_>
    <_>
      <internalNodes>
        0 -1 30259 -553716902 1498948752 51658900 1434468996 1074569352
        680567328 1476928136 -335549761</internalNodes>
      <leafValues>
        -4.3999251723289490e-01 3.9394557476043701e-01</leafValues></_>
    <_>
      <internalNodes>
        0 -1 26449 -1037942333 -618617025 -269293593 -1335862304
        -1495800095 -557097 -336593026 -1971325059</internalNodes>
      <leafValues>
        -3.7900853157043457e-01 4.2528840899467468e-01</leafValues></_>
    <_>
      <internalNodes>
        0 -1 35697 -11812712 -2083904820 1379998257 871384392 143763917
        201465984 1107708041 -34611048</internalNodes>
      <leafValues>
        -4.1033336520195007e-01 3.9353483915328979e-01</leafValues></_>
    <_>
      <internalNodes>
        0 -1 11959 -1325403659 -1070352415 989847539 -1779075077
        -1998333822 253851877 -1543767559 -902057729</internalNodes>
      <leafValues>
        -2.8592467308044434e-01 5.3719812631607056e-01</leafValues></_>
    <_>
      <internalNodes>
        0 -1 26643 -1498831096 -2025291756 1229530496 -918388653
        -130022849 34668552 1367583846 1237033963</internalNodes>
      <leafValues>
        -4.9630531668663025e-01 3.1600740551948547e-01</leafValues></_>
    <_>
      <internalNodes>
        0 -1 33952 369105336 455023634 1209047387 -545177591 -1467067935
        -91733810 -2093267240 488646196</internalNodes>
      <leafValues>
        -6.5598613023757935e-01 2.4609541893005371e-01</leafValues></_>
    <_>
      <internalNodes>
        0 -1 34890 -72628486 2005048082 641876856 -710906036 -1840726424
        672439472 264619149 -70324820</internalNodes>
      <leafValues>
        -3.4444040060043335e-01 4.7334522008895874e-01</leafValues></_>
    <_>
      <internalNodes>
        0 -1 5375 -1375492064 1426673728 -2126448234 716657154 576782553
        -1741709184 864376978 -1205911007</internalNodes>
      <leafValues>
        -5.4770511388778687e-01 3.1087616086006165e-01</leafValues></_>
    <_>
      <internalNodes>
        0 -1 25104 -22295248 1390069004 1880686616 1662993248 1778436494
        -1970486136 1979843136 1677714477</internalNodes>
      <leafValues>
        -4.3696871399879456e-01 3.6543643474578857e-01</leafValues></_>
    <_>
      <internalNodes>
        0 -1 33136 -400819709 1331077635 906526937 -1861156846
        -2146780639 -1935408974 -1651774952 -1924150749</internalNodes>
      <leafValues>
        -4.3691685795783997e-01 3.7456330657005310e-01</leafValues></_>
    <_>
      <internalNodes>
        0 -1 16095 855719997 1577537920 26300671 89266257 -1321002191
        -545243136 29166239 671892351</internalNodes>
      <leafValues>
        -4.6739572286605835e-01 3.3834406733512878e-01</leafValues></_>
    <_>
      <internalNodes>
        0 -1 34204 -303134148 1364478098 -1560149476 151273480 436951723
        436207745 1266778284 -69369149</internalNodes>
      <leafValues>
        -4.0458017587661743e-01 3.7486267089843750e-01</leafValues></_>
    <_>
      <internalNodes>
        0 -1 8918 1123716795 1363153034 554762369 1988457168 -636915258
        -1329328128 1208729749 1524588699</internalNodes>
      <leafValues>
        -3.9101925492286682e-01 4.1051578521728516e-01</leafValues></_></weakClassifiers></stage21>
</opencv_storage>
