<?xml version="1.0"?>
<opencv_storage>
<stage12>
  <maxWeakCount>13</maxWeakCount>
  <stageThreshold>-1.1567460298538208e+00</stageThreshold>
  <weakClassifiers>
    <_>
      <internalNodes>
        0 -1 27125 -30580736 -37065 1476243704 838695478 -1066112
        -16785409 -667500296 -1627422962</internalNodes>
      <leafValues>
        -2.0605355501174927e-01 7.9228615760803223e-01</leafValues></_>
    <_>
      <internalNodes>
        0 -1 926 -548738338 -1643268 800223086 -310333718 -168280846
        -1353498633 -147139089 -296245537</internalNodes>
      <leafValues>
        -3.6888036131858826e-01 5.8630222082138062e-01</leafValues></_>
    <_>
      <internalNodes>
        0 -1 28421 -650398692 -1727315189 1905644349 -1223769573
        -383540296 -1431590741 413698200 748660478</internalNodes>
      <leafValues>
        -5.1248520612716675e-01 4.4546154141426086e-01</leafValues></_>
    <_>
      <internalNodes>
        0 -1 26612 -101714945 856688768 1426067736 855905416 1207969930
        177733632 1150025880 -1076887558</internalNodes>
      <leafValues>
        -4.0165629982948303e-01 5.2761280536651611e-01</leafValues></_>
    <_>
      <internalNodes>
        0 -1 33895 1396671605 1396769368 21189169 1971388425 168968476
        -1156906999 -888708820 -1448128203</internalNodes>
      <leafValues>
        -5.1149541139602661e-01 3.9592942595481873e-01</leafValues></_>
    <_>
      <internalNodes>
        0 -1 27898 354317851 698356432 822169671 286575373 1753244362
        489722497 -87535213 -1079274789</internalNodes>
      <leafValues>
        -4.1863650083541870e-01 4.7385379672050476e-01</leafValues></_>
    <_>
      <internalNodes>
        0 -1 11849 -1156556971 -153910947 -804220423 -1114807863
        -1300192529 -226459639 -939223125 -1123006397</internalNodes>
      <leafValues>
        -4.0171352028846741e-01 5.0623744726181030e-01</leafValues></_>
    <_>
      <internalNodes>
        0 -1 35171 -99714124 50350378 1375862800 1426424456 1359680924
        234881168 544295564 -18627873</internalNodes>
      <leafValues>
        -4.7887423634529114e-01 4.0976080298423767e-01</leafValues></_>
    <_>
      <internalNodes>
        0 -1 785 -867006737 -142573050 -2147466550 1313095682 1611102778
        -1744821976 1698753691 -274283662</internalNodes>
      <leafValues>
        -4.6580797433853149e-01 4.2720848321914673e-01</leafValues></_>
    <_>
      <internalNodes>
        0 -1 36523 -347216325 539965283 -1409581180 -823984326
        2004811541 536346618 -704756463 -253239339</internalNodes>
      <leafValues>
        -4.3731763958930969e-01 4.5594125986099243e-01</leafValues></_>
    <_>
      <internalNodes>
        0 -1 27816 -531978494 -312991454 -662511360 1993687137
        2014171398 142958656 2019139885 1081853006</internalNodes>
      <leafValues>
        -5.3145456314086914e-01 3.9694067835807800e-01</leafValues></_>
    <_>
      <internalNodes>
        0 -1 12499 -881181259 -1872887726 17151251 962396369 177181626
        -91712981 411737339 649599432</internalNodes>
      <leafValues>
        -6.1004811525344849e-01 3.3201435208320618e-01</leafValues></_>
    <_>
      <internalNodes>
        0 -1 23640 1950508287 1426228292 1090519261 1394090280 403013855
        -1883239870 -1467505735 722168811</internalNodes>
      <leafValues>
        -4.7447967529296875e-01 4.3471735715866089e-01</leafValues></_></weakClassifiers></stage12>
</opencv_storage>
