<?xml version="1.0"?>
<opencv_storage>
<stage6>
  <maxWeakCount>10</maxWeakCount>
  <stageThreshold>-1.0299185514450073e+00</stageThreshold>
  <weakClassifiers>
    <_>
      <internalNodes>
        0 -1 13385 -1311730180 -8824324 -1078083659 -4358283 -51061768
        -1084178952 -38363139 738724896</internalNodes>
      <leafValues>
        -3.6020150780677795e-01 8.0450487136840820e-01</leafValues></_>
    <_>
      <internalNodes>
        0 -1 27007 -1073496062 -417612697 -268437657 -940583573
        -136841293 -1157627905 -134218835 -230424765</internalNodes>
      <leafValues>
        -3.3617442846298218e-01 7.6201021671295166e-01</leafValues></_>
    <_>
      <internalNodes>
        0 -1 14855 412094932 -1250357091 -788411169 -1656088387
        -1144508932 -627158887 170408383 464001193</internalNodes>
      <leafValues>
        -6.7111217975616455e-01 4.6889016032218933e-01</leafValues></_>
    <_>
      <internalNodes>
        0 -1 33471 -470815966 539600870 -68492800 -487856478 -1495804061
        565147443 -957266941 -201327873</internalNodes>
      <leafValues>
        -5.1371073722839355e-01 5.8331084251403809e-01</leafValues></_>
    <_>
      <internalNodes>
        0 -1 34262 -42991779 2105409471 -285219051 -168034315 -4195079
        -1116209219 -537047588 -50593809</internalNodes>
      <leafValues>
        -4.4199895858764648e-01 6.4019680023193359e-01</leafValues></_>
    <_>
      <internalNodes>
        0 -1 19552 -503136254 1342350370 1116424264 1115914246 151241372
        1082163233 1382261450 1112532235</internalNodes>
      <leafValues>
        -6.4695870876312256e-01 4.6614381670951843e-01</leafValues></_>
    <_>
      <internalNodes>
        0 -1 7190 1543568855 -149126690 -107998951 1406915403 -74069991
        -384974711 -375816063 1830844630</internalNodes>
      <leafValues>
        -5.7666409015655518e-01 4.7709715366363525e-01</leafValues></_>
    <_>
      <internalNodes>
        0 -1 775 -403256658 -537995193 -2105524006 -376420596 1703170693
        -666589056 1502692311 -9966722</internalNodes>
      <leafValues>
        -5.9617793560028076e-01 4.5204296708106995e-01</leafValues></_>
    <_>
      <internalNodes>
        0 -1 23108 277353872 1503187289 -2123754025 -82227179
        -2113631562 -1347796864 436754491 505938104</internalNodes>
      <leafValues>
        -6.9192934036254883e-01 3.9656764268875122e-01</leafValues></_>
    <_>
      <internalNodes>
        0 -1 27255 -477639414 -873627613 1224737280 1187619462 639664387
        86523909 1635841824 -1482710339</internalNodes>
      <leafValues>
        -5.4737299680709839e-01 4.9550285935401917e-01</leafValues></_></weakClassifiers></stage6>
</opencv_storage>
