<?xml version="1.0"?>
<opencv_storage>
<stage0>
  <maxWeakCount>4</maxWeakCount>
  <stageThreshold>-1.3437867164611816e+00</stageThreshold>
  <weakClassifiers>
    <_>
      <internalNodes>
        0 -1 18506 2097200 -4904388 771404543 -101510920 -1124160774
        -67174657 -1157842178 -1146214146</internalNodes>
      <leafValues>
        -7.2029441595077515e-01 9.1998243331909180e-01</leafValues></_>
    <_>
      <internalNodes>
        0 -1 28354 370188444 -1150280771 1343486876 -141307495
        -1427501924 -1684467043 -343360548 -69214248</internalNodes>
      <leafValues>
        -7.8291398286819458e-01 8.4004366397857666e-01</leafValues></_>
    <_>
      <internalNodes>
        0 -1 15317 1560572380 -1257202188 529555293 -1615507971
        -1385398852 -1078291984 1034960383 -1097333704</internalNodes>
      <leafValues>
        -6.9303947687149048e-01 8.3595269918441772e-01</leafValues></_>
    <_>
      <internalNodes>
        0 -1 11701 814874993 894763357 -578612737 1070928917 1016072699
        -1147424597 457312682 949486805</internalNodes>
      <leafValues>
        -7.8781569004058838e-01 7.2085064649581909e-01</leafValues></_></weakClassifiers></stage0>
</opencv_storage>
