<?xml version="1.0"?>
<opencv_storage>
<stage4>
  <maxWeakCount>10</maxWeakCount>
  <stageThreshold>-9.0331834554672241e-01</stageThreshold>
  <weakClassifiers>
    <_>
      <internalNodes>
        0 -1 24926 -632684344 -8418646 -268436801 -135583012 -1140880709
        -1 -1392538978 -1072978</internalNodes>
      <leafValues>
        -3.7264150381088257e-01 8.2029235363006592e-01</leafValues></_>
    <_>
      <internalNodes>
        0 -1 27227 -4391940 -1080545560 -1342424936 -1353400644
        902567932 739803133 1609838408 -1048609</internalNodes>
      <leafValues>
        -5.5339056253433228e-01 6.6957211494445801e-01</leafValues></_>
    <_>
      <internalNodes>
        0 -1 27812 -807407729 -345508033 -1074795653 -4243505
        -1884314102 -1970614354 -19952626 -1048625</internalNodes>
      <leafValues>
        -4.8930647969245911e-01 6.4175879955291748e-01</leafValues></_>
    <_>
      <internalNodes>
        0 -1 33848 1937759197 353479357 -1876694955 -1593142783
        -929439572 -1727856632 1775196620 -1912637415</internalNodes>
      <leafValues>
        -5.5686962604522705e-01 5.2248591184616089e-01</leafValues></_>
    <_>
      <internalNodes>
        0 -1 16572 289953237 -1689235048 1526777851 366872921
        -1576359699 -1143431023 -1191126277 -1951924072</internalNodes>
      <leafValues>
        -5.6088840961456299e-01 5.2250063419342041e-01</leafValues></_>
    <_>
      <internalNodes>
        0 -1 25844 -67968318 889324550 172097554 352387204 1330038474
        996240 -528550727 -168307797</internalNodes>
      <leafValues>
        -4.9437227845191956e-01 5.7627081871032715e-01</leafValues></_>
    <_>
      <internalNodes>
        0 -1 17204 1342210072 420155651 83961055 958345307 18884749
        -1743781668 184718267 440279135</internalNodes>
      <leafValues>
        -5.6367611885070801e-01 4.6347713470458984e-01</leafValues></_>
    <_>
      <internalNodes>
        0 -1 29581 -608709359 -335546497 -1149704471 905953215
        -1898479476 -1888026625 6195400 -1966094689</internalNodes>
      <leafValues>
        -4.5770138502120972e-01 5.9589612483978271e-01</leafValues></_>
    <_>
      <internalNodes>
        0 -1 34647 486551989 798524661 -779759205 -875687743 -1069004643
        -291928061 -2121528838 -1531962319</internalNodes>
      <leafValues>
        -5.0282925367355347e-01 5.2052998542785645e-01</leafValues></_>
    <_>
      <internalNodes>
        0 -1 1729 -2063712222 -711917565 671695884 -989216233 134417042
        -670660983 1251414415 -70285481</internalNodes>
      <leafValues>
        -6.2158757448196411e-01 4.1496962308883667e-01</leafValues></_></weakClassifiers></stage4>
</opencv_storage>
