<?xml version="1.0"?>
<opencv_storage>
<cascade>
  <stageType>BOOST</stageType>
  <featureType>HAAR</featureType>
  <height>20</height>
  <width>60</width>
  <stageParams>
    <boostType>GAB</boostType>
    <minHitRate>9.9900001287460327e-01</minHitRate>
    <maxFalseAlarm>4.0000000596046448e-01</maxFalseAlarm>
    <weightTrimRate>9.4999999999999996e-01</weightTrimRate>
    <maxDepth>1</maxDepth>
    <maxWeakCount>100</maxWeakCount></stageParams>
  <featureParams>
    <maxCatCount>0</maxCatCount>
    <featSize>1</featSize>
    <mode>ALL</mode></featureParams>
  <stageNum>16</stageNum>
  <stages>
    <!-- stage 0 -->
    <_>
      <maxWeakCount>10</maxWeakCount>
      <stageThreshold>-1.4637955427169800e+00</stageThreshold>
      <weakClassifiers>
        <_>
          <internalNodes>
            0 -1 30 8.4926463663578033e-02</internalNodes>
          <leafValues>
            -4.0684410929679871e-01 9.5290422439575195e-01</leafValues></_>
        <_>
          <internalNodes>
            0 -1 263 1.6151613090187311e-03</internalNodes>
          <leafValues>
            -3.6900237202644348e-01 8.4408992528915405e-01</leafValues></_>
        <_>
          <internalNodes>
            0 -1 358 1.3675360009074211e-02</internalNodes>
          <leafValues>
            -4.7541990876197815e-01 6.7708003520965576e-01</leafValues></_>
        <_>
          <internalNodes>
            0 -1 66 -2.5275282561779022e-02</internalNodes>
          <leafValues>
            8.2353055477142334e-01 -3.1953451037406921e-01</leafValues></_>
        <_>
          <internalNodes>
            0 -1 152 -3.5122521221637726e-02</internalNodes>
          <leafValues>
            -8.7400394678115845e-01 3.8158547878265381e-01</leafValues></_>
        <_>
          <internalNodes>
            0 -1 26 -2.8340259566903114e-02</internalNodes>
          <leafValues>
            6.9513946771621704e-01 -4.0306860208511353e-01</leafValues></_>
        <_>
          <internalNodes>
            0 -1 60 -1.6472917195642367e-05</internalNodes>
          <leafValues>
            4.1789460182189941e-01 -6.9065231084823608e-01</leafValues></_>
        <_>
          <internalNodes>
            0 -1 163 -2.6444220915436745e-02</internalNodes>
          <leafValues>
            8.5267478227615356e-01 -3.3194661140441895e-01</leafValues></_>
        <_>
          <internalNodes>
            0 -1 138 1.8155279103666544e-03</internalNodes>
          <leafValues>
            -2.3766781389713287e-01 8.7871563434600830e-01</leafValues></_>
        <_>
          <internalNodes>
            0 -1 92 1.7097789794206619e-02</internalNodes>
          <leafValues>
            2.9054713249206543e-01 -8.7352848052978516e-01</leafValues></_></weakClassifiers></_>
    <!-- stage 1 -->
    <_>
      <maxWeakCount>12</maxWeakCount>
      <stageThreshold>-1.4123927354812622e+00</stageThreshold>
      <weakClassifiers>
        <_>
          <internalNodes>
            0 -1 294 3.2958472147583961e-03</internalNodes>
          <leafValues>
            -4.3570768833160400e-01 8.6896753311157227e-01</leafValues></_>
        <_>
          <internalNodes>
            0 -1 347 -1.6270782798528671e-02</internalNodes>
          <leafValues>
            7.5846481323242188e-01 -4.2053204774856567e-01</leafValues></_>
        <_>
          <internalNodes>
            0 -1 55 -3.0026305466890335e-02</internalNodes>
          <leafValues>
            6.6714334487915039e-01 -3.4879314899444580e-01</leafValues></_>
        <_>
          <internalNodes>
            0 -1 20 9.7025558352470398e-03</internalNodes>
          <leafValues>
            -3.4372845292091370e-01 6.2200576066970825e-01</leafValues></_>
        <_>
          <internalNodes>
            0 -1 49 -4.2930105701088905e-03</internalNodes>
          <leafValues>
            3.9362332224845886e-01 -5.5338609218597412e-01</leafValues></_>
        <_>
          <internalNodes>
            0 -1 233 1.0131909511983395e-03</internalNodes>
          <leafValues>
            -2.8266048431396484e-01 8.5085898637771606e-01</leafValues></_>
        <_>
          <internalNodes>
            0 -1 222 4.1613820940256119e-04</internalNodes>
          <leafValues>
            -2.3070462048053741e-01 7.0881748199462891e-01</leafValues></_>
        <_>
          <internalNodes>
            0 -1 122 -4.5680142939090729e-03</internalNodes>
          <leafValues>
            7.0732957124710083e-01 -2.2904174029827118e-01</leafValues></_>
        <_>
          <internalNodes>
            0 -1 226 2.8005059808492661e-02</internalNodes>
          <leafValues>
            2.3485441505908966e-01 -9.0263634920120239e-01</leafValues></_>
        <_>
          <internalNodes>
            0 -1 112 5.0948439165949821e-03</internalNodes>
          <leafValues>
            -3.0082836747169495e-01 7.1311539411544800e-01</leafValues></_>
        <_>
          <internalNodes>
            0 -1 144 -8.4984824061393738e-02</internalNodes>
          <leafValues>
            7.9712277650833130e-01 -1.6572217643260956e-01</leafValues></_>
        <_>
          <internalNodes>
            0 -1 204 1.8335807835683227e-03</internalNodes>
          <leafValues>
            -2.1952308714389801e-01 6.4037245512008667e-01</leafValues></_></weakClassifiers></_>
    <!-- stage 2 -->
    <_>
      <maxWeakCount>14</maxWeakCount>
      <stageThreshold>-1.4164625406265259e+00</stageThreshold>
      <weakClassifiers>
        <_>
          <internalNodes>
            0 -1 172 3.2187424600124359e-02</internalNodes>
          <leafValues>
            -1.8217357993125916e-01 8.4849423170089722e-01</leafValues></_>
        <_>
          <internalNodes>
            0 -1 257 7.4746757745742798e-03</internalNodes>
          <leafValues>
            -3.3839529752731323e-01 7.7767664194107056e-01</leafValues></_>
        <_>
          <internalNodes>
            0 -1 132 3.2999091781675816e-03</internalNodes>
          <leafValues>
            -6.3684296607971191e-01 3.7365329265594482e-01</leafValues></_>
        <_>
          <internalNodes>
            0 -1 11 3.1687438488006592e-02</internalNodes>
          <leafValues>
            -2.7915921807289124e-01 6.5937042236328125e-01</leafValues></_>
        <_>
          <internalNodes>
            0 -1 24 -5.5717095732688904e-02</internalNodes>
          <leafValues>
            6.6180658340454102e-01 -2.6068329811096191e-01</leafValues></_>
        <_>
          <internalNodes>
            0 -1 188 7.1261925622820854e-03</internalNodes>
          <leafValues>
            -2.6973071694374084e-01 8.3695209026336670e-01</leafValues></_>
        <_>
          <internalNodes>
            0 -1 271 7.0539757143706083e-04</internalNodes>
          <leafValues>
            2.7440488338470459e-01 -7.2679501771926880e-01</leafValues></_>
        <_>
          <internalNodes>
            0 -1 286 1.0622196132317185e-03</internalNodes>
          <leafValues>
            -4.9737101793289185e-01 3.2375097274780273e-01</leafValues></_>
        <_>
          <internalNodes>
            0 -1 97 -2.3911273106932640e-02</internalNodes>
          <leafValues>
            -8.9408540725708008e-01 1.5076246857643127e-01</leafValues></_>
        <_>
          <internalNodes>
            0 -1 27 -2.1769726648926735e-02</internalNodes>
          <leafValues>
            6.3236165046691895e-01 -2.6402005553245544e-01</leafValues></_>
        <_>
          <internalNodes>
            0 -1 238 -6.9598143454641104e-04</internalNodes>
          <leafValues>
            -7.3351526260375977e-01 2.4044965207576752e-01</leafValues></_>
        <_>
          <internalNodes>
            0 -1 237 4.0082464693114161e-04</internalNodes>
          <leafValues>
            2.0219029486179352e-01 -7.4258470535278320e-01</leafValues></_>
        <_>
          <internalNodes>
            0 -1 213 -1.6341910231858492e-03</internalNodes>
          <leafValues>
            5.7575386762619019e-01 -3.1184148788452148e-01</leafValues></_>
        <_>
          <internalNodes>
            0 -1 223 1.0702856816351414e-03</internalNodes>
          <leafValues>
            -2.5454843044281006e-01 7.4385517835617065e-01</leafValues></_></weakClassifiers></_>
    <!-- stage 3 -->
    <_>
      <maxWeakCount>16</maxWeakCount>
      <stageThreshold>-1.3413158655166626e+00</stageThreshold>
      <weakClassifiers>
        <_>
          <internalNodes>
            0 -1 166 1.2326155602931976e-01</internalNodes>
          <leafValues>
            -9.2207789421081543e-02 8.9256757497787476e-01</leafValues></_>
        <_>
          <internalNodes>
            0 -1 282 2.1331380121409893e-03</internalNodes>
          <leafValues>
            -3.1541469693183899e-01 6.3877046108245850e-01</leafValues></_>
        <_>
          <internalNodes>
            0 -1 64 4.5949235558509827e-02</internalNodes>
          <leafValues>
            -3.1341952085494995e-01 6.5320110321044922e-01</leafValues></_>
        <_>
          <internalNodes>
            0 -1 68 5.2859848365187645e-03</internalNodes>
          <leafValues>
            2.6119840145111084e-01 -8.5855972766876221e-01</leafValues></_>
        <_>
          <internalNodes>
            0 -1 81 7.8099002130329609e-03</internalNodes>
          <leafValues>
            -2.5692313909530640e-01 8.4504514932632446e-01</leafValues></_>
        <_>
          <internalNodes>
            0 -1 312 -1.1673530098050833e-03</internalNodes>
          <leafValues>
            -8.2290905714035034e-01 2.0130719244480133e-01</leafValues></_>
        <_>
          <internalNodes>
            0 -1 311 1.6350324731320143e-03</internalNodes>
          <leafValues>
            1.7932936549186707e-01 -8.0957907438278198e-01</leafValues></_>
        <_>
          <internalNodes>
            0 -1 308 1.5489853685721755e-03</internalNodes>
          <leafValues>
            -5.7750427722930908e-01 2.4051854014396667e-01</leafValues></_>
        <_>
          <internalNodes>
            0 -1 186 1.6775980475358665e-04</internalNodes>
          <leafValues>
            -6.3876980543136597e-01 2.1187727153301239e-01</leafValues></_>
        <_>
          <internalNodes>
            0 -1 199 -2.2641108371317387e-03</internalNodes>
          <leafValues>
            -7.4495357275009155e-01 1.8394480645656586e-01</leafValues></_>
        <_>
          <internalNodes>
            0 -1 80 -7.2775319218635559e-02</internalNodes>
          <leafValues>
            7.5213259458541870e-01 -2.0503993332386017e-01</leafValues></_>
        <_>
          <internalNodes>
            0 -1 367 -2.2372748702764511e-02</internalNodes>
          <leafValues>
            5.0746935606002808e-01 -2.9700297117233276e-01</leafValues></_>
        <_>
          <internalNodes>
            0 -1 251 6.4027989283204079e-03</internalNodes>
          <leafValues>
            -1.8890988826751709e-01 8.6082583665847778e-01</leafValues></_>
        <_>
          <internalNodes>
            0 -1 320 -1.0020441841334105e-03</internalNodes>
          <leafValues>
            -7.7729332447052002e-01 2.2057111561298370e-01</leafValues></_>
        <_>
          <internalNodes>
            0 -1 216 8.0662816762924194e-03</internalNodes>
          <leafValues>
            -2.3589007556438446e-01 7.1599692106246948e-01</leafValues></_>
        <_>
          <internalNodes>
            0 -1 321 2.0813168957829475e-03</internalNodes>
          <leafValues>
            2.3067829012870789e-01 -8.2636010646820068e-01</leafValues></_></weakClassifiers></_>
    <!-- stage 4 -->
    <_>
      <maxWeakCount>20</maxWeakCount>
      <stageThreshold>-1.1997966766357422e+00</stageThreshold>
      <weakClassifiers>
        <_>
          <internalNodes>
            0 -1 287 7.4045700021088123e-03</internalNodes>
          <leafValues>
            -2.3926380276679993e-01 7.7626347541809082e-01</leafValues></_>
        <_>
          <internalNodes>
            0 -1 174 2.3749157786369324e-02</internalNodes>
          <leafValues>
            -3.1809845566749573e-01 6.5569269657135010e-01</leafValues></_>
        <_>
          <internalNodes>
            0 -1 301 -3.3909655176103115e-03</internalNodes>
          <leafValues>
            4.5513907074928284e-01 -5.1250052452087402e-01</leafValues></_>
        <_>
          <internalNodes>
            0 -1 258 1.8975872546434402e-02</internalNodes>
          <leafValues>
            -2.6148882508277893e-01 5.4348492622375488e-01</leafValues></_>
        <_>
          <internalNodes>
            0 -1 62 -2.8493891004472971e-03</internalNodes>
          <leafValues>
            2.3626622557640076e-01 -5.8784842491149902e-01</leafValues></_>
        <_>
          <internalNodes>
            0 -1 79 -2.3909555748105049e-02</internalNodes>
          <leafValues>
            -8.7606471776962280e-01 1.2037430703639984e-01</leafValues></_>
        <_>
          <internalNodes>
            0 -1 253 -3.6982237361371517e-04</internalNodes>
          <leafValues>
            -7.3730486631393433e-01 1.3775019347667694e-01</leafValues></_>
        <_>
          <internalNodes>
            0 -1 229 1.1723232455551624e-03</internalNodes>
          <leafValues>
            -2.1839159727096558e-01 5.6494963169097900e-01</leafValues></_>
        <_>
          <internalNodes>
            0 -1 252 8.6625322001054883e-04</internalNodes>
          <leafValues>
            1.5565279126167297e-01 -7.9062795639038086e-01</leafValues></_>
        <_>
          <internalNodes>
            0 -1 114 4.8211682587862015e-04</internalNodes>
          <leafValues>
            -2.7730298042297363e-01 4.7708132863044739e-01</leafValues></_>
        <_>
          <internalNodes>
            0 -1 119 2.5910703698173165e-04</internalNodes>
          <leafValues>
            1.9656024873256683e-01 -6.8939256668090820e-01</leafValues></_>
        <_>
          <internalNodes>
            0 -1 6 3.7386268377304077e-02</internalNodes>
          <leafValues>
            -2.0716591179370880e-01 6.4584481716156006e-01</leafValues></_>
        <_>
          <internalNodes>
            0 -1 241 6.8551785079762340e-04</internalNodes>
          <leafValues>
            -3.6496105790138245e-01 3.5125228762626648e-01</leafValues></_>
        <_>
          <internalNodes>
            0 -1 269 7.7342474833130836e-03</internalNodes>
          <leafValues>
            -1.5221394598484039e-01 8.0987578630447388e-01</leafValues></_>
        <_>
          <internalNodes>
            0 -1 298 -2.3380063939839602e-03</internalNodes>
          <leafValues>
            -7.3420166969299316e-01 1.8648962676525116e-01</leafValues></_>
        <_>
          <internalNodes>
            0 -1 37 -1.8239613622426987e-02</internalNodes>
          <leafValues>
            4.2301696538925171e-01 -2.6177412271499634e-01</leafValues></_>
        <_>
          <internalNodes>
            0 -1 38 3.0531058087944984e-02</internalNodes>
          <leafValues>
            -1.9560536742210388e-01 5.8178788423538208e-01</leafValues></_>
        <_>
          <internalNodes>
            0 -1 256 -1.6677735839039087e-03</internalNodes>
          <leafValues>
            -7.1084666252136230e-01 1.6553035378456116e-01</leafValues></_>
        <_>
          <internalNodes>
            0 -1 116 1.6711466014385223e-03</internalNodes>
          <leafValues>
            -1.7194217443466187e-01 7.2514915466308594e-01</leafValues></_>
        <_>
          <internalNodes>
            0 -1 361 7.9985489719547331e-05</internalNodes>
          <leafValues>
            2.0539854466915131e-01 -5.4597121477127075e-01</leafValues></_></weakClassifiers></_>
    <!-- stage 5 -->
    <_>
      <maxWeakCount>20</maxWeakCount>
      <stageThreshold>-1.3386073112487793e+00</stageThreshold>
      <weakClassifiers>
        <_>
          <internalNodes>
            0 -1 350 3.2130186446011066e-03</internalNodes>
          <leafValues>
            -1.9198311865329742e-01 7.5506758689880371e-01</leafValues></_>
        <_>
          <internalNodes>
            0 -1 228 2.8391876257956028e-03</internalNodes>
          <leafValues>
            -3.2465374469757080e-01 5.8114492893218994e-01</leafValues></_>
        <_>
          <internalNodes>
            0 -1 370 -2.5647152215242386e-02</internalNodes>
          <leafValues>
            5.0655132532119751e-01 -3.4006062150001526e-01</leafValues></_>
        <_>
          <internalNodes>
            0 -1 142 1.1163022369146347e-02</internalNodes>
          <leafValues>
            -2.7427610754966736e-01 6.4703512191772461e-01</leafValues></_>
        <_>
          <internalNodes>
            0 -1 232 1.5385355800390244e-03</internalNodes>
          <leafValues>
            -2.6227155327796936e-01 6.3764816522598267e-01</leafValues></_>
        <_>
          <internalNodes>
            0 -1 231 -1.2449163477867842e-03</internalNodes>
          <leafValues>
            6.6959750652313232e-01 -2.5499734282493591e-01</leafValues></_>
        <_>
          <internalNodes>
            0 -1 28 2.6755912229418755e-02</internalNodes>
          <leafValues>
            1.9980853796005249e-01 -8.4631717205047607e-01</leafValues></_>
        <_>
          <internalNodes>
            0 -1 70 1.5819970285519958e-03</internalNodes>
          <leafValues>
            -2.2921642661094666e-01 5.9882879257202148e-01</leafValues></_>
        <_>
          <internalNodes>
            0 -1 278 2.0126271992921829e-03</internalNodes>
          <leafValues>
            1.8713180720806122e-01 -7.1011090278625488e-01</leafValues></_>
        <_>
          <internalNodes>
            0 -1 179 3.3259885385632515e-03</internalNodes>
          <leafValues>
            -6.0676121711730957e-01 2.2200055420398712e-01</leafValues></_>
        <_>
          <internalNodes>
            0 -1 184 6.2871892005205154e-03</internalNodes>
          <leafValues>
            -2.1015992760658264e-01 6.8205100297927856e-01</leafValues></_>
        <_>
          <internalNodes>
            0 -1 2 -4.2911686003208160e-02</internalNodes>
          <leafValues>
            5.6833153963088989e-01 -2.1078434586524963e-01</leafValues></_>
        <_>
          <internalNodes>
            0 -1 246 -9.3311164528131485e-04</internalNodes>
          <leafValues>
            6.1763286590576172e-01 -1.8244315683841705e-01</leafValues></_>
        <_>
          <internalNodes>
            0 -1 87 2.1076597273349762e-02</internalNodes>
          <leafValues>
            1.7394194006919861e-01 -7.7947717905044556e-01</leafValues></_>
        <_>
          <internalNodes>
            0 -1 147 -1.5776978107169271e-03</internalNodes>
          <leafValues>
            4.9074038863182068e-01 -2.4412141740322113e-01</leafValues></_>
        <_>
          <internalNodes>
            0 -1 160 8.5833284538239241e-04</internalNodes>
          <leafValues>
            -1.8705631792545319e-01 6.1083465814590454e-01</leafValues></_>
        <_>
          <internalNodes>
            0 -1 76 6.2771304510533810e-04</internalNodes>
          <leafValues>
            2.0525686442852020e-01 -6.1720424890518188e-01</leafValues></_>
        <_>
          <internalNodes>
            0 -1 130 -2.6681995019316673e-02</internalNodes>
          <leafValues>
            4.8764908313751221e-01 -2.4130187928676605e-01</leafValues></_>
        <_>
          <internalNodes>
            0 -1 146 1.8253119196742773e-03</internalNodes>
          <leafValues>
            -1.8630887567996979e-01 5.2406334877014160e-01</leafValues></_>
        <_>
          <internalNodes>
            0 -1 275 2.9869680292904377e-04</internalNodes>
          <leafValues>
            1.6627579927444458e-01 -7.7061682939529419e-01</leafValues></_></weakClassifiers></_>
    <!-- stage 6 -->
    <_>
      <maxWeakCount>19</maxWeakCount>
      <stageThreshold>-1.0402230024337769e+00</stageThreshold>
      <weakClassifiers>
        <_>
          <internalNodes>
            0 -1 46 -7.3438748717308044e-02</internalNodes>
          <leafValues>
            8.3068066835403442e-01 3.0381383374333382e-02</leafValues></_>
        <_>
          <internalNodes>
            0 -1 341 1.3270334340631962e-02</internalNodes>
          <leafValues>
            -2.9622417688369751e-01 6.1278182268142700e-01</leafValues></_>
        <_>
          <internalNodes>
            0 -1 12 3.3947773277759552e-02</internalNodes>
          <leafValues>
            -2.7131670713424683e-01 5.5371278524398804e-01</leafValues></_>
        <_>
          <internalNodes>
            0 -1 309 8.9250772725790739e-04</internalNodes>
          <leafValues>
            -2.3418708145618439e-01 6.8778902292251587e-01</leafValues></_>
        <_>
          <internalNodes>
            0 -1 309 -6.6672591492533684e-04</internalNodes>
          <leafValues>
            6.3356035947799683e-01 -3.4820672869682312e-01</leafValues></_>
        <_>
          <internalNodes>
            0 -1 121 9.1541063738986850e-04</internalNodes>
          <leafValues>
            2.2975023090839386e-01 -7.5633054971694946e-01</leafValues></_>
        <_>
          <internalNodes>
            0 -1 173 9.9892262369394302e-04</internalNodes>
          <leafValues>
            -2.6773270964622498e-01 5.7628673315048218e-01</leafValues></_>
        <_>
          <internalNodes>
            0 -1 162 1.3965684920549393e-03</internalNodes>
          <leafValues>
            -2.0520848035812378e-01 7.4766033887863159e-01</leafValues></_>
        <_>
          <internalNodes>
            0 -1 156 -2.3710075765848160e-03</internalNodes>
          <leafValues>
            6.0091167688369751e-01 -2.3250333964824677e-01</leafValues></_>
        <_>
          <internalNodes>
            0 -1 48 4.5816483907401562e-03</internalNodes>
          <leafValues>
            2.1166665852069855e-01 -7.4722737073898315e-01</leafValues></_>
        <_>
          <internalNodes>
            0 -1 151 -4.4019889901392162e-04</internalNodes>
          <leafValues>
            -7.3005956411361694e-01 1.6304126381874084e-01</leafValues></_>
        <_>
          <internalNodes>
            0 -1 77 -4.3735913932323456e-03</internalNodes>
          <leafValues>
            3.8043159246444702e-01 -3.4647849202156067e-01</leafValues></_>
        <_>
          <internalNodes>
            0 -1 154 -1.4298418536782265e-02</internalNodes>
          <leafValues>
            -8.4024554491043091e-01 1.3223959505558014e-01</leafValues></_>
        <_>
          <internalNodes>
            0 -1 331 7.8651763033121824e-04</internalNodes>
          <leafValues>
            -2.2642534971237183e-01 5.8939433097839355e-01</leafValues></_>
        <_>
          <internalNodes>
            0 -1 143 4.9901986494660378e-04</internalNodes>
          <leafValues>
            1.8113300204277039e-01 -7.3334676027297974e-01</leafValues></_>
        <_>
          <internalNodes>
            0 -1 335 1.0701467981562018e-03</internalNodes>
          <leafValues>
            -2.7713766694068909e-01 4.7654747962951660e-01</leafValues></_>
        <_>
          <internalNodes>
            0 -1 337 1.1054154019802809e-03</internalNodes>
          <leafValues>
            -2.4826626479625702e-01 4.9267378449440002e-01</leafValues></_>
        <_>
          <internalNodes>
            0 -1 83 -1.7702087759971619e-02</internalNodes>
          <leafValues>
            -7.3249775171279907e-01 1.9002622365951538e-01</leafValues></_>
        <_>
          <internalNodes>
            0 -1 193 -7.1839122101664543e-03</internalNodes>
          <leafValues>
            -7.7972221374511719e-01 1.4581012725830078e-01</leafValues></_></weakClassifiers></_>
    <!-- stage 7 -->
    <_>
      <maxWeakCount>27</maxWeakCount>
      <stageThreshold>-1.1849272251129150e+00</stageThreshold>
      <weakClassifiers>
        <_>
          <internalNodes>
            0 -1 189 1.8695793114602566e-03</internalNodes>
          <leafValues>
            -3.7803137302398682e-01 7.2782313823699951e-01</leafValues></_>
        <_>
          <internalNodes>
            0 -1 254 3.5096281766891479e-01</internalNodes>
          <leafValues>
            -2.2454905509948730e-01 6.1645036935806274e-01</leafValues></_>
        <_>
          <internalNodes>
            0 -1 220 -3.3152813557535410e-04</internalNodes>
          <leafValues>
            3.0801287293434143e-01 -4.7813567519187927e-01</leafValues></_>
        <_>
          <internalNodes>
            0 -1 52 1.7169781494885683e-03</internalNodes>
          <leafValues>
            -2.2408451139926910e-01 5.6039905548095703e-01</leafValues></_>
        <_>
          <internalNodes>
            0 -1 54 -1.8919305875897408e-03</internalNodes>
          <leafValues>
            6.0578399896621704e-01 -2.2446224093437195e-01</leafValues></_>
        <_>
          <internalNodes>
            0 -1 299 -5.0032241269946098e-03</internalNodes>
          <leafValues>
            -5.8761173486709595e-01 2.3273503780364990e-01</leafValues></_>
        <_>
          <internalNodes>
            0 -1 259 -5.1353767048567533e-04</internalNodes>
          <leafValues>
            -7.7401155233383179e-01 1.2280642241239548e-01</leafValues></_>
        <_>
          <internalNodes>
            0 -1 307 1.9838437438011169e-03</internalNodes>
          <leafValues>
            -5.0720494985580444e-01 1.9014392793178558e-01</leafValues></_>
        <_>
          <internalNodes>
            0 -1 383 5.7179515715688467e-04</internalNodes>
          <leafValues>
            -2.0925533771514893e-01 5.3960829973220825e-01</leafValues></_>
        <_>
          <internalNodes>
            0 -1 15 6.9945747964084148e-04</internalNodes>
          <leafValues>
            1.9974733889102936e-01 -5.4631173610687256e-01</leafValues></_>
        <_>
          <internalNodes>
            0 -1 137 4.4716856791637838e-04</internalNodes>
          <leafValues>
            -1.9000551104545593e-01 5.6240820884704590e-01</leafValues></_>
        <_>
          <internalNodes>
            0 -1 277 8.1736163701862097e-04</internalNodes>
          <leafValues>
            1.4328472316265106e-01 -7.7238065004348755e-01</leafValues></_>
        <_>
          <internalNodes>
            0 -1 135 -8.2454562652856112e-04</internalNodes>
          <leafValues>
            5.8767992258071899e-01 -1.9126443564891815e-01</leafValues></_>
        <_>
          <internalNodes>
            0 -1 208 1.3344094622880220e-04</internalNodes>
          <leafValues>
            1.5912011265754700e-01 -6.9475513696670532e-01</leafValues></_>
        <_>
          <internalNodes>
            0 -1 175 3.0228286050260067e-03</internalNodes>
          <leafValues>
            -1.9445127248764038e-01 4.9272248148918152e-01</leafValues></_>
        <_>
          <internalNodes>
            0 -1 57 -4.6346429735422134e-03</internalNodes>
          <leafValues>
            2.0966863632202148e-01 -4.3183797597885132e-01</leafValues></_>
        <_>
          <internalNodes>
            0 -1 353 2.1322644897736609e-04</internalNodes>
          <leafValues>
            1.6573973000049591e-01 -5.7641589641571045e-01</leafValues></_>
        <_>
          <internalNodes>
            0 -1 389 -3.1560905277729034e-02</internalNodes>
          <leafValues>
            6.4906096458435059e-01 -1.5452703833580017e-01</leafValues></_>
        <_>
          <internalNodes>
            0 -1 4 -4.9560412764549255e-02</internalNodes>
          <leafValues>
            3.4799808263778687e-01 -2.6024878025054932e-01</leafValues></_>
        <_>
          <internalNodes>
            0 -1 386 9.2062703333795071e-04</internalNodes>
          <leafValues>
            -1.9398663938045502e-01 5.1813602447509766e-01</leafValues></_>
        <_>
          <internalNodes>
            0 -1 43 4.8242454067803919e-04</internalNodes>
          <leafValues>
            1.5051753818988800e-01 -6.5645599365234375e-01</leafValues></_>
        <_>
          <internalNodes>
            0 -1 148 4.8170928494073451e-04</internalNodes>
          <leafValues>
            -2.5120025873184204e-01 3.7728428840637207e-01</leafValues></_>
        <_>
          <internalNodes>
            0 -1 139 2.5089527480304241e-04</internalNodes>
          <leafValues>
            -2.1803610026836395e-01 3.9736041426658630e-01</leafValues></_>
        <_>
          <internalNodes>
            0 -1 58 9.1594103723764420e-03</internalNodes>
          <leafValues>
            -1.3433094322681427e-01 6.4342015981674194e-01</leafValues></_>
        <_>
          <internalNodes>
            0 -1 75 -2.5457467883825302e-02</internalNodes>
          <leafValues>
            3.5944697260856628e-01 -2.5657525658607483e-01</leafValues></_>
        <_>
          <internalNodes>
            0 -1 120 -2.8878159821033478e-02</internalNodes>
          <leafValues>
            -8.4988027811050415e-01 1.0207443684339523e-01</leafValues></_>
        <_>
          <internalNodes>
            0 -1 194 1.9025586079806089e-03</internalNodes>
          <leafValues>
            -3.8019099831581116e-01 2.2245723009109497e-01</leafValues></_></weakClassifiers></_>
    <!-- stage 8 -->
    <_>
      <maxWeakCount>29</maxWeakCount>
      <stageThreshold>-1.1963099241256714e+00</stageThreshold>
      <weakClassifiers>
        <_>
          <internalNodes>
            0 -1 190 4.3743476271629333e-03</internalNodes>
          <leafValues>
            -1.8622449040412903e-01 7.1205598115921021e-01</leafValues></_>
        <_>
          <internalNodes>
            0 -1 42 3.5059899091720581e-01</internalNodes>
          <leafValues>
            -1.9481009244918823e-01 6.4488852024078369e-01</leafValues></_>
        <_>
          <internalNodes>
            0 -1 342 -3.9759492501616478e-03</internalNodes>
          <leafValues>
            2.8993219137191772e-01 -5.7510036230087280e-01</leafValues></_>
        <_>
          <internalNodes>
            0 -1 109 -1.8295111134648323e-02</internalNodes>
          <leafValues>
            5.5922746658325195e-01 -2.3204421997070313e-01</leafValues></_>
        <_>
          <internalNodes>
            0 -1 128 1.0416978038847446e-03</internalNodes>
          <leafValues>
            -1.9521376490592957e-01 6.0069262981414795e-01</leafValues></_>
        <_>
          <internalNodes>
            0 -1 139 6.9414603058248758e-04</internalNodes>
          <leafValues>
            -1.9629400968551636e-01 5.7529425621032715e-01</leafValues></_>
        <_>
          <internalNodes>
            0 -1 153 5.1477991044521332e-02</internalNodes>
          <leafValues>
            1.6144637763500214e-01 -6.3794255256652832e-01</leafValues></_>
        <_>
          <internalNodes>
            0 -1 176 4.6243695542216301e-03</internalNodes>
          <leafValues>
            -4.6146494150161743e-01 1.8682210147380829e-01</leafValues></_>
        <_>
          <internalNodes>
            0 -1 196 6.2244292348623276e-04</internalNodes>
          <leafValues>
            -2.0495356619358063e-01 4.3665146827697754e-01</leafValues></_>
        <_>
          <internalNodes>
            0 -1 279 2.1470394858624786e-04</internalNodes>
          <leafValues>
            1.2468254566192627e-01 -7.6537925004959106e-01</leafValues></_>
        <_>
          <internalNodes>
            0 -1 274 -2.6148272445425391e-04</internalNodes>
          <leafValues>
            -6.7270004749298096e-01 1.2091059982776642e-01</leafValues></_>
        <_>
          <internalNodes>
            0 -1 267 9.4683047791477293e-05</internalNodes>
          <leafValues>
            -4.2045918107032776e-01 1.9760413467884064e-01</leafValues></_>
        <_>
          <internalNodes>
            0 -1 7 1.4389407820999622e-02</internalNodes>
          <leafValues>
            -2.8423848748207092e-01 3.1932574510574341e-01</leafValues></_>
        <_>
          <internalNodes>
            0 -1 29 -2.4643527343869209e-02</internalNodes>
          <leafValues>
            5.6710195541381836e-01 -1.7331862449645996e-01</leafValues></_>
        <_>
          <internalNodes>
            0 -1 355 5.0903169903904200e-04</internalNodes>
          <leafValues>
            -1.4941643178462982e-01 5.9683775901794434e-01</leafValues></_>
        <_>
          <internalNodes>
            0 -1 397 6.9188169436529279e-04</internalNodes>
          <leafValues>
            1.7772325873374939e-01 -5.6273585557937622e-01</leafValues></_>
        <_>
          <internalNodes>
            0 -1 78 -5.3239362314343452e-03</internalNodes>
          <leafValues>
            -7.1801024675369263e-01 1.1343654990196228e-01</leafValues></_>
        <_>
          <internalNodes>
            0 -1 363 7.0560199674218893e-04</internalNodes>
          <leafValues>
            -2.0792292058467865e-01 4.3578499555587769e-01</leafValues></_>
        <_>
          <internalNodes>
            0 -1 366 1.2008661869913340e-03</internalNodes>
          <leafValues>
            -1.6728363931179047e-01 5.5354881286621094e-01</leafValues></_>
        <_>
          <internalNodes>
            0 -1 96 1.3563088141381741e-03</internalNodes>
          <leafValues>
            1.6727517545223236e-01 -6.0222291946411133e-01</leafValues></_>
        <_>
          <internalNodes>
            0 -1 359 2.5388033827766776e-04</internalNodes>
          <leafValues>
            -2.3359639942646027e-01 3.9857268333435059e-01</leafValues></_>
        <_>
          <internalNodes>
            0 -1 270 -2.3676811542827636e-04</internalNodes>
          <leafValues>
            -6.8879288434982300e-01 1.4321762323379517e-01</leafValues></_>
        <_>
          <internalNodes>
            0 -1 124 7.0439567789435387e-03</internalNodes>
          <leafValues>
            1.0764992237091064e-01 -6.8748778104782104e-01</leafValues></_>
        <_>
          <internalNodes>
            0 -1 149 -3.3433153294026852e-04</internalNodes>
          <leafValues>
            3.8448354601860046e-01 -2.2754491865634918e-01</leafValues></_>
        <_>
          <internalNodes>
            0 -1 111 2.8088970575481653e-03</internalNodes>
          <leafValues>
            -1.6902351379394531e-01 4.9882483482360840e-01</leafValues></_>
        <_>
          <internalNodes>
            0 -1 203 -2.5114822201430798e-03</internalNodes>
          <leafValues>
            5.5104058980941772e-01 -1.4485155045986176e-01</leafValues></_>
        <_>
          <internalNodes>
            0 -1 113 -3.9713189005851746e-02</internalNodes>
          <leafValues>
            -7.4352633953094482e-01 1.3147695362567902e-01</leafValues></_>
        <_>
          <internalNodes>
            0 -1 225 -1.5327228233218193e-02</internalNodes>
          <leafValues>
            4.3391132354736328e-01 -1.9689856469631195e-01</leafValues></_>
        <_>
          <internalNodes>
            0 -1 380 -7.0636747404932976e-03</internalNodes>
          <leafValues>
            2.7845570445060730e-01 -3.0965775251388550e-01</leafValues></_></weakClassifiers></_>
    <!-- stage 9 -->
    <_>
      <maxWeakCount>28</maxWeakCount>
      <stageThreshold>-9.1902840137481689e-01</stageThreshold>
      <weakClassifiers>
        <_>
          <internalNodes>
            0 -1 283 3.2160850241780281e-03</internalNodes>
          <leafValues>
            -1.0284464061260223e-01 7.2336864471435547e-01</leafValues></_>
        <_>
          <internalNodes>
            0 -1 21 1.9797261804342270e-02</internalNodes>
          <leafValues>
            -2.9108256101608276e-01 5.5103498697280884e-01</leafValues></_>
        <_>
          <internalNodes>
            0 -1 248 2.1246485412120819e-02</internalNodes>
          <leafValues>
            -3.3023792505264282e-01 4.1899821162223816e-01</leafValues></_>
        <_>
          <internalNodes>
            0 -1 51 -2.1830333862453699e-03</internalNodes>
          <leafValues>
            2.6021152734756470e-01 -4.9660882353782654e-01</leafValues></_>
        <_>
          <internalNodes>
            0 -1 290 -4.1887350380420685e-03</internalNodes>
          <leafValues>
            -6.0433280467987061e-01 1.9665576517581940e-01</leafValues></_>
        <_>
          <internalNodes>
            0 -1 40 4.1730560362339020e-02</internalNodes>
          <leafValues>
            -2.5300136208534241e-01 4.8960241675376892e-01</leafValues></_>
        <_>
          <internalNodes>
            0 -1 277 -7.4172200402244925e-04</internalNodes>
          <leafValues>
            -6.9083213806152344e-01 1.2998555600643158e-01</leafValues></_>
        <_>
          <internalNodes>
            0 -1 266 -7.1906915400177240e-04</internalNodes>
          <leafValues>
            4.3975374102592468e-01 -2.6306548714637756e-01</leafValues></_>
        <_>
          <internalNodes>
            0 -1 324 7.0576034486293793e-03</internalNodes>
          <leafValues>
            1.2230891734361649e-01 -8.4408801794052124e-01</leafValues></_>
        <_>
          <internalNodes>
            0 -1 264 9.5147994579747319e-04</internalNodes>
          <leafValues>
            -2.2361779212951660e-01 4.6863910555839539e-01</leafValues></_>
        <_>
          <internalNodes>
            0 -1 315 -6.5287936013191938e-04</internalNodes>
          <leafValues>
            -6.1402624845504761e-01 1.5177692472934723e-01</leafValues></_>
        <_>
          <internalNodes>
            0 -1 102 -5.3812633268535137e-04</internalNodes>
          <leafValues>
            4.8802313208580017e-01 -1.8516562879085541e-01</leafValues></_>
        <_>
          <internalNodes>
            0 -1 91 1.6571749001741409e-03</internalNodes>
          <leafValues>
            -1.7380978167057037e-01 4.8098817467689514e-01</leafValues></_>
        <_>
          <internalNodes>
            0 -1 346 -1.6612962353974581e-03</internalNodes>
          <leafValues>
            -8.1228357553482056e-01 1.1355350911617279e-01</leafValues></_>
        <_>
          <internalNodes>
            0 -1 53 -1.1722183227539063e-01</internalNodes>
          <leafValues>
            -7.0417219400405884e-01 9.2002615332603455e-02</leafValues></_>
        <_>
          <internalNodes>
            0 -1 394 2.7179297059774399e-02</internalNodes>
          <leafValues>
            9.6141338348388672e-02 -7.7018129825592041e-01</leafValues></_>
        <_>
          <internalNodes>
            0 -1 396 -2.5729442131705582e-04</internalNodes>
          <leafValues>
            -4.9186950922012329e-01 1.6148938238620758e-01</leafValues></_>
        <_>
          <internalNodes>
            0 -1 381 -6.6182315349578857e-02</internalNodes>
          <leafValues>
            -6.9492870569229126e-01 1.0356803238391876e-01</leafValues></_>
        <_>
          <internalNodes>
            0 -1 273 2.2406326024793088e-04</internalNodes>
          <leafValues>
            8.8510178029537201e-02 -7.8959971666336060e-01</leafValues></_>
        <_>
          <internalNodes>
            0 -1 159 7.3324679397046566e-04</internalNodes>
          <leafValues>
            -3.9974656701087952e-01 1.7623148858547211e-01</leafValues></_>
        <_>
          <internalNodes>
            0 -1 103 1.1887457221746445e-02</internalNodes>
          <leafValues>
            1.1520092189311981e-01 -6.5767896175384521e-01</leafValues></_>
        <_>
          <internalNodes>
            0 -1 106 5.8363482821732759e-04</internalNodes>
          <leafValues>
            -2.1587158739566803e-01 3.7424504756927490e-01</leafValues></_>
        <_>
          <internalNodes>
            0 -1 104 -1.3083277270197868e-02</internalNodes>
          <leafValues>
            -7.1795737743377686e-01 1.1522681266069412e-01</leafValues></_>
        <_>
          <internalNodes>
            0 -1 88 -2.9865819960832596e-03</internalNodes>
          <leafValues>
            5.6026792526245117e-01 -1.6286107897758484e-01</leafValues></_>
        <_>
          <internalNodes>
            0 -1 17 -1.9601159146986902e-04</internalNodes>
          <leafValues>
            -5.0860404968261719e-01 1.6187471151351929e-01</leafValues></_>
        <_>
          <internalNodes>
            0 -1 354 3.2500061206519604e-03</internalNodes>
          <leafValues>
            1.1108458042144775e-01 -6.0779500007629395e-01</leafValues></_>
        <_>
          <internalNodes>
            0 -1 336 6.4680958166718483e-04</internalNodes>
          <leafValues>
            -1.9696530699729919e-01 4.0525504946708679e-01</leafValues></_>
        <_>
          <internalNodes>
            0 -1 164 5.0301209557801485e-04</internalNodes>
          <leafValues>
            1.3839253783226013e-01 -5.4822492599487305e-01</leafValues></_></weakClassifiers></_>
    <!-- stage 10 -->
    <_>
      <maxWeakCount>29</maxWeakCount>
      <stageThreshold>-1.1140639781951904e+00</stageThreshold>
      <weakClassifiers>
        <_>
          <internalNodes>
            0 -1 351 1.4726958237588406e-02</internalNodes>
          <leafValues>
            7.7129445970058441e-02 7.9262214899063110e-01</leafValues></_>
        <_>
          <internalNodes>
            0 -1 210 2.0937947556376457e-03</internalNodes>
          <leafValues>
            -5.9961980581283569e-01 3.5689026117324829e-01</leafValues></_>
        <_>
          <internalNodes>
            0 -1 13 2.9088543727993965e-02</internalNodes>
          <leafValues>
            -2.5648805499076843e-01 4.8272025585174561e-01</leafValues></_>
        <_>
          <internalNodes>
            0 -1 289 2.5990637950599194e-03</internalNodes>
          <leafValues>
            1.7853502929210663e-01 -6.7905265092849731e-01</leafValues></_>
        <_>
          <internalNodes>
            0 -1 93 5.2511936519294977e-04</internalNodes>
          <leafValues>
            -4.5375970005989075e-01 2.5434413552284241e-01</leafValues></_>
        <_>
          <internalNodes>
            0 -1 263 1.8482569139450788e-03</internalNodes>
          <leafValues>
            -4.3388068675994873e-01 2.3909823596477509e-01</leafValues></_>
        <_>
          <internalNodes>
            0 -1 262 3.9510865462943912e-04</internalNodes>
          <leafValues>
            1.0166442394256592e-01 -6.2957108020782471e-01</leafValues></_>
        <_>
          <internalNodes>
            0 -1 129 2.8890417888760567e-04</internalNodes>
          <leafValues>
            -2.2754882276058197e-01 3.9943122863769531e-01</leafValues></_>
        <_>
          <internalNodes>
            0 -1 99 -2.5461750919930637e-04</internalNodes>
          <leafValues>
            1.7581915855407715e-01 -5.4053795337677002e-01</leafValues></_>
        <_>
          <internalNodes>
            0 -1 86 -2.1592527627944946e-02</internalNodes>
          <leafValues>
            -7.2410511970520020e-01 1.0708207637071609e-01</leafValues></_>
        <_>
          <internalNodes>
            0 -1 141 9.7133748931810260e-04</internalNodes>
          <leafValues>
            -2.3032619059085846e-01 4.4653379917144775e-01</leafValues></_>
        <_>
          <internalNodes>
            0 -1 134 -2.3815608583390713e-03</internalNodes>
          <leafValues>
            5.1771354675292969e-01 -1.6271451115608215e-01</leafValues></_>
        <_>
          <internalNodes>
            0 -1 345 9.8452102392911911e-03</internalNodes>
          <leafValues>
            1.2065424770116806e-01 -6.8477851152420044e-01</leafValues></_>
        <_>
          <internalNodes>
            0 -1 340 -1.5578882768750191e-02</internalNodes>
          <leafValues>
            -6.8430471420288086e-01 1.0795262455940247e-01</leafValues></_>
        <_>
          <internalNodes>
            0 -1 318 3.3164825290441513e-03</internalNodes>
          <leafValues>
            -4.3225416541099548e-01 1.8834763765335083e-01</leafValues></_>
        <_>
          <internalNodes>
            0 -1 65 -8.4859915077686310e-02</internalNodes>
          <leafValues>
            5.2242738008499146e-01 -1.7449520528316498e-01</leafValues></_>
        <_>
          <internalNodes>
            0 -1 377 1.2705846689641476e-02</internalNodes>
          <leafValues>
            -1.3626232743263245e-01 5.3267401456832886e-01</leafValues></_>
        <_>
          <internalNodes>
            0 -1 249 2.1342909894883633e-03</internalNodes>
          <leafValues>
            -1.9906486570835114e-01 4.2777255177497864e-01</leafValues></_>
        <_>
          <internalNodes>
            0 -1 260 -1.0295254178345203e-03</internalNodes>
          <leafValues>
            -6.7807012796401978e-01 1.2117344886064529e-01</leafValues></_>
        <_>
          <internalNodes>
            0 -1 161 1.3673478970304132e-03</internalNodes>
          <leafValues>
            -1.7364637553691864e-01 4.7607442736625671e-01</leafValues></_>
        <_>
          <internalNodes>
            0 -1 140 3.1216995557770133e-04</internalNodes>
          <leafValues>
            -2.0670115947723389e-01 4.1769400238990784e-01</leafValues></_>
        <_>
          <internalNodes>
            0 -1 401 5.2400017157196999e-03</internalNodes>
          <leafValues>
            1.7174214124679565e-01 -4.7883844375610352e-01</leafValues></_>
        <_>
          <internalNodes>
            0 -1 108 -1.4017833396792412e-02</internalNodes>
          <leafValues>
            -6.4525032043457031e-01 1.2214174121618271e-01</leafValues></_>
        <_>
          <internalNodes>
            0 -1 94 -1.7997771501541138e-02</internalNodes>
          <leafValues>
            -6.3530677556991577e-01 1.0116617381572723e-01</leafValues></_>
        <_>
          <internalNodes>
            0 -1 56 -5.5313942721113563e-04</internalNodes>
          <leafValues>
            2.7399495244026184e-01 -3.1883025169372559e-01</leafValues></_>
        <_>
          <internalNodes>
            0 -1 25 7.2247060015797615e-03</internalNodes>
          <leafValues>
            -1.5110847353935242e-01 5.6965905427932739e-01</leafValues></_>
        <_>
          <internalNodes>
            0 -1 333 -1.2508679181337357e-02</internalNodes>
          <leafValues>
            3.4270989894866943e-01 -2.0886565744876862e-01</leafValues></_>
        <_>
          <internalNodes>
            0 -1 150 3.7328095640987158e-04</internalNodes>
          <leafValues>
            1.2368913739919662e-01 -6.0420030355453491e-01</leafValues></_>
        <_>
          <internalNodes>
            0 -1 245 -2.1444983780384064e-02</internalNodes>
          <leafValues>
            -6.8518137931823730e-01 9.3881487846374512e-02</leafValues></_></weakClassifiers></_>
    <!-- stage 11 -->
    <_>
      <maxWeakCount>26</maxWeakCount>
      <stageThreshold>-9.8237907886505127e-01</stageThreshold>
      <weakClassifiers>
        <_>
          <internalNodes>
            0 -1 338 5.6683933362364769e-03</internalNodes>
          <leafValues>
            -2.2482894361019135e-02 7.2562551498413086e-01</leafValues></_>
        <_>
          <internalNodes>
            0 -1 192 2.2817137651145458e-03</internalNodes>
          <leafValues>
            -3.4245979785919189e-01 4.3069553375244141e-01</leafValues></_>
        <_>
          <internalNodes>
            0 -1 14 4.1122309863567352e-02</internalNodes>
          <leafValues>
            -2.3654901981353760e-01 5.5215638875961304e-01</leafValues></_>
        <_>
          <internalNodes>
            0 -1 310 1.5688263811171055e-03</internalNodes>
          <leafValues>
            -1.6241657733917236e-01 6.3899135589599609e-01</leafValues></_>
        <_>
          <internalNodes>
            0 -1 292 6.7129061790183187e-04</internalNodes>
          <leafValues>
            1.3109646737575531e-01 -8.1742185354232788e-01</leafValues></_>
        <_>
          <internalNodes>
            0 -1 296 9.4847416039556265e-04</internalNodes>
          <leafValues>
            -2.3616404831409454e-01 4.7797980904579163e-01</leafValues></_>
        <_>
          <internalNodes>
            0 -1 209 1.6167629510164261e-02</internalNodes>
          <leafValues>
            1.2472785264253616e-01 -8.1765818595886230e-01</leafValues></_>
        <_>
          <internalNodes>
            0 -1 295 -7.3666044045239687e-04</internalNodes>
          <leafValues>
            4.2823591828346252e-01 -2.5637528300285339e-01</leafValues></_>
        <_>
          <internalNodes>
            0 -1 23 -1.2480556964874268e-01</internalNodes>
          <leafValues>
            4.2209324240684509e-01 -2.2630175948143005e-01</leafValues></_>
        <_>
          <internalNodes>
            0 -1 222 4.1282604797743261e-04</internalNodes>
          <leafValues>
            -2.0425212383270264e-01 4.3669292330741882e-01</leafValues></_>
        <_>
          <internalNodes>
            0 -1 110 -3.0151544138789177e-02</internalNodes>
          <leafValues>
            -7.0612943172454834e-01 1.4022754132747650e-01</leafValues></_>
        <_>
          <internalNodes>
            0 -1 230 1.0842815972864628e-03</internalNodes>
          <leafValues>
            -2.6781219244003296e-01 3.6743414402008057e-01</leafValues></_>
        <_>
          <internalNodes>
            0 -1 376 -7.2895362973213196e-04</internalNodes>
          <leafValues>
            2.5408679246902466e-01 -4.1975387930870056e-01</leafValues></_>
        <_>
          <internalNodes>
            0 -1 247 2.1442114375531673e-03</internalNodes>
          <leafValues>
            -1.8308603763580322e-01 4.9070176482200623e-01</leafValues></_>
        <_>
          <internalNodes>
            0 -1 240 -3.7608505226671696e-03</internalNodes>
          <leafValues>
            -8.0417370796203613e-01 1.2344664335250854e-01</leafValues></_>
        <_>
          <internalNodes>
            0 -1 329 -6.0174835380166769e-04</internalNodes>
          <leafValues>
            1.7183673381805420e-01 -4.5662271976470947e-01</leafValues></_>
        <_>
          <internalNodes>
            0 -1 127 -3.7854857742786407e-02</internalNodes>
          <leafValues>
            -8.1990569829940796e-01 9.8004803061485291e-02</leafValues></_>
        <_>
          <internalNodes>
            0 -1 45 2.4937629699707031e-02</internalNodes>
          <leafValues>
            1.7206889390945435e-01 -4.6689561009407043e-01</leafValues></_>
        <_>
          <internalNodes>
            0 -1 339 -2.0071766630280763e-04</internalNodes>
          <leafValues>
            -5.7953983545303345e-01 1.4924098551273346e-01</leafValues></_>
        <_>
          <internalNodes>
            0 -1 9 7.3407182935625315e-04</internalNodes>
          <leafValues>
            1.3618452847003937e-01 -5.0329184532165527e-01</leafValues></_>
        <_>
          <internalNodes>
            0 -1 131 6.2066931277513504e-03</internalNodes>
          <leafValues>
            -1.1946596205234528e-01 6.7524445056915283e-01</leafValues></_>
        <_>
          <internalNodes>
            0 -1 123 -2.6328336447477341e-02</internalNodes>
          <leafValues>
            -7.8026342391967773e-01 1.1694498360157013e-01</leafValues></_>
        <_>
          <internalNodes>
            0 -1 205 -4.1368728852830827e-04</internalNodes>
          <leafValues>
            3.7094721198081970e-01 -2.1429578959941864e-01</leafValues></_>
        <_>
          <internalNodes>
            0 -1 352 -4.0163546800613403e-03</internalNodes>
          <leafValues>
            -7.1593046188354492e-01 1.1681512743234634e-01</leafValues></_>
        <_>
          <internalNodes>
            0 -1 349 -2.9583863215520978e-04</internalNodes>
          <leafValues>
            1.6877570748329163e-01 -4.7337222099304199e-01</leafValues></_>
        <_>
          <internalNodes>
            0 -1 364 1.0718740522861481e-03</internalNodes>
          <leafValues>
            -1.7241559922695160e-01 5.0313496589660645e-01</leafValues></_></weakClassifiers></_>
    <!-- stage 12 -->
    <_>
      <maxWeakCount>35</maxWeakCount>
      <stageThreshold>-1.0437146425247192e+00</stageThreshold>
      <weakClassifiers>
        <_>
          <internalNodes>
            0 -1 167 4.4782115146517754e-03</internalNodes>
          <leafValues>
            -2.8351128101348877e-01 7.4897456169128418e-01</leafValues></_>
        <_>
          <internalNodes>
            0 -1 365 -1.6818672418594360e-02</internalNodes>
          <leafValues>
            4.7798520326614380e-01 -2.6804739236831665e-01</leafValues></_>
        <_>
          <internalNodes>
            0 -1 243 -1.3654213398694992e-03</internalNodes>
          <leafValues>
            3.1699138879776001e-01 -3.9997127652168274e-01</leafValues></_>
        <_>
          <internalNodes>
            0 -1 191 -3.0688862316310406e-03</internalNodes>
          <leafValues>
            5.5524492263793945e-01 -1.7444041371345520e-01</leafValues></_>
        <_>
          <internalNodes>
            0 -1 300 -1.1284889653325081e-02</internalNodes>
          <leafValues>
            -7.3524111509323120e-01 8.6668737232685089e-02</leafValues></_>
        <_>
          <internalNodes>
            0 -1 18 5.5070139933377504e-04</internalNodes>
          <leafValues>
            1.1483495682477951e-01 -5.7239180803298950e-01</leafValues></_>
        <_>
          <internalNodes>
            0 -1 221 -1.8675192259252071e-03</internalNodes>
          <leafValues>
            3.9364650845527649e-01 -1.8356709182262421e-01</leafValues></_>
        <_>
          <internalNodes>
            0 -1 399 5.5297126527875662e-04</internalNodes>
          <leafValues>
            1.2289587408304214e-01 -6.0692238807678223e-01</leafValues></_>
        <_>
          <internalNodes>
            0 -1 344 2.2882899793330580e-04</internalNodes>
          <leafValues>
            -3.8838219642639160e-01 1.9525524973869324e-01</leafValues></_>
        <_>
          <internalNodes>
            0 -1 31 -1.3519421219825745e-02</internalNodes>
          <leafValues>
            -6.0363262891769409e-01 1.1070818454027176e-01</leafValues></_>
        <_>
          <internalNodes>
            0 -1 343 7.2965060826390982e-04</internalNodes>
          <leafValues>
            1.4840853214263916e-01 -4.6846261620521545e-01</leafValues></_>
        <_>
          <internalNodes>
            0 -1 325 -4.6908034710213542e-04</internalNodes>
          <leafValues>
            2.1931543946266174e-01 -3.1752192974090576e-01</leafValues></_>
        <_>
          <internalNodes>
            0 -1 100 5.0751615315675735e-02</internalNodes>
          <leafValues>
            7.4997790157794952e-02 -8.6819821596145630e-01</leafValues></_>
        <_>
          <internalNodes>
            0 -1 72 -1.3040386838838458e-03</internalNodes>
          <leafValues>
            2.5819736719131470e-01 -2.4500824511051178e-01</leafValues></_>
        <_>
          <internalNodes>
            0 -1 236 -3.9090024074539542e-04</internalNodes>
          <leafValues>
            -7.7017939090728760e-01 7.5956337153911591e-02</leafValues></_>
        <_>
          <internalNodes>
            0 -1 384 4.2722810758277774e-04</internalNodes>
          <leafValues>
            -1.7260001599788666e-01 4.1353297233581543e-01</leafValues></_>
        <_>
          <internalNodes>
            0 -1 328 1.1669662781059742e-03</internalNodes>
          <leafValues>
            1.3298681378364563e-01 -5.3730648756027222e-01</leafValues></_>
        <_>
          <internalNodes>
            0 -1 234 9.2284055426716805e-04</internalNodes>
          <leafValues>
            -1.1338667571544647e-01 6.2166821956634521e-01</leafValues></_>
        <_>
          <internalNodes>
            0 -1 145 -3.9911709725856781e-02</internalNodes>
          <leafValues>
            -7.1788698434829712e-01 1.0626158118247986e-01</leafValues></_>
        <_>
          <internalNodes>
            0 -1 268 1.8715655896812677e-03</internalNodes>
          <leafValues>
            -1.5031498670578003e-01 4.4698047637939453e-01</leafValues></_>
        <_>
          <internalNodes>
            0 -1 198 2.6975125074386597e-03</internalNodes>
          <leafValues>
            -1.1756064742803574e-01 5.1011872291564941e-01</leafValues></_>
        <_>
          <internalNodes>
            0 -1 306 1.6799025237560272e-02</internalNodes>
          <leafValues>
            -2.9461842775344849e-01 2.1475221216678619e-01</leafValues></_>
        <_>
          <internalNodes>
            0 -1 3 -9.7329273819923401e-02</internalNodes>
          <leafValues>
            6.6837060451507568e-01 -9.1787494719028473e-02</leafValues></_>
        <_>
          <internalNodes>
            0 -1 384 -6.5340276341885328e-04</internalNodes>
          <leafValues>
            4.1436442732810974e-01 -1.3284248113632202e-01</leafValues></_>
        <_>
          <internalNodes>
            0 -1 47 3.4539354965090752e-03</internalNodes>
          <leafValues>
            -1.6828010976314545e-01 3.4559190273284912e-01</leafValues></_>
        <_>
          <internalNodes>
            0 -1 71 2.5901326909661293e-02</internalNodes>
          <leafValues>
            2.1123486757278442e-01 -3.2778736948966980e-01</leafValues></_>
        <_>
          <internalNodes>
            0 -1 385 2.1413440117612481e-04</internalNodes>
          <leafValues>
            9.2277295887470245e-02 -6.2011235952377319e-01</leafValues></_>
        <_>
          <internalNodes>
            0 -1 390 9.1945324093103409e-03</internalNodes>
          <leafValues>
            -1.0575002431869507e-01 6.1851847171783447e-01</leafValues></_>
        <_>
          <internalNodes>
            0 -1 372 -2.2996715269982815e-03</internalNodes>
          <leafValues>
            4.3769049644470215e-01 -1.3441103696823120e-01</leafValues></_>
        <_>
          <internalNodes>
            0 -1 388 1.1928533785976470e-04</internalNodes>
          <leafValues>
            2.0253762602806091e-01 -3.5212638974189758e-01</leafValues></_>
        <_>
          <internalNodes>
            0 -1 73 -1.8380012363195419e-02</internalNodes>
          <leafValues>
            -9.3402349948883057e-01 6.1233416199684143e-02</leafValues></_>
        <_>
          <internalNodes>
            0 -1 371 -7.4304861482232809e-04</internalNodes>
          <leafValues>
            -7.6698160171508789e-01 5.5086478590965271e-02</leafValues></_>
        <_>
          <internalNodes>
            0 -1 371 1.4888933219481260e-04</internalNodes>
          <leafValues>
            1.1334456503391266e-01 -4.3270120024681091e-01</leafValues></_>
        <_>
          <internalNodes>
            0 -1 168 2.2010745014995337e-03</internalNodes>
          <leafValues>
            -1.7688447237014771e-01 3.3309805393218994e-01</leafValues></_>
        <_>
          <internalNodes>
            0 -1 400 7.4123963713645935e-05</internalNodes>
          <leafValues>
            1.9084808230400085e-01 -3.0600875616073608e-01</leafValues></_></weakClassifiers></_>
    <!-- stage 13 -->
    <_>
      <maxWeakCount>38</maxWeakCount>
      <stageThreshold>-1.1155552864074707e+00</stageThreshold>
      <weakClassifiers>
        <_>
          <internalNodes>
            0 -1 157 6.9606667384505272e-03</internalNodes>
          <leafValues>
            -5.5900622159242630e-02 7.2269386053085327e-01</leafValues></_>
        <_>
          <internalNodes>
            0 -1 319 4.2773882159963250e-04</internalNodes>
          <leafValues>
            -3.6555659770965576e-01 4.6079739928245544e-01</leafValues></_>
        <_>
          <internalNodes>
            0 -1 314 -4.2250361293554306e-03</internalNodes>
          <leafValues>
            2.9514619708061218e-01 -3.5460534691810608e-01</leafValues></_>
        <_>
          <internalNodes>
            0 -1 368 -2.0999753847718239e-02</internalNodes>
          <leafValues>
            2.6495710015296936e-01 -3.5491278767585754e-01</leafValues></_>
        <_>
          <internalNodes>
            0 -1 82 -2.4244375526905060e-03</internalNodes>
          <leafValues>
            -4.7194308042526245e-01 2.0026910305023193e-01</leafValues></_>
        <_>
          <internalNodes>
            0 -1 181 6.5569678554311395e-04</internalNodes>
          <leafValues>
            -2.0924511551856995e-01 3.9313605427742004e-01</leafValues></_>
        <_>
          <internalNodes>
            0 -1 180 -1.9679276738315821e-03</internalNodes>
          <leafValues>
            4.5902132987976074e-01 -2.2020053863525391e-01</leafValues></_>
        <_>
          <internalNodes>
            0 -1 280 2.7176772709935904e-04</internalNodes>
          <leafValues>
            1.8981195986270905e-01 -4.8424604535102844e-01</leafValues></_>
        <_>
          <internalNodes>
            0 -1 235 6.2454449944198132e-03</internalNodes>
          <leafValues>
            -1.6178594529628754e-01 5.1988494396209717e-01</leafValues></_>
        <_>
          <internalNodes>
            0 -1 105 -2.4949423968791962e-02</internalNodes>
          <leafValues>
            -7.0608496665954590e-01 1.3498443365097046e-01</leafValues></_>
        <_>
          <internalNodes>
            0 -1 387 -1.8542546778917313e-02</internalNodes>
          <leafValues>
            -7.2306346893310547e-01 8.9062340557575226e-02</leafValues></_>
        <_>
          <internalNodes>
            0 -1 201 2.4522687308490276e-03</internalNodes>
          <leafValues>
            -4.9590480327606201e-01 1.0314017534255981e-01</leafValues></_>
        <_>
          <internalNodes>
            0 -1 85 1.4982697553932667e-02</internalNodes>
          <leafValues>
            8.9838653802871704e-02 -6.6516119241714478e-01</leafValues></_>
        <_>
          <internalNodes>
            0 -1 35 1.4349160483106971e-04</internalNodes>
          <leafValues>
            1.0291551798582077e-01 -5.6594002246856689e-01</leafValues></_>
        <_>
          <internalNodes>
            0 -1 214 -2.6707944925874472e-04</internalNodes>
          <leafValues>
            4.3099731206893921e-01 -1.5900537371635437e-01</leafValues></_>
        <_>
          <internalNodes>
            0 -1 219 1.3935689348727465e-03</internalNodes>
          <leafValues>
            -2.0505356788635254e-01 3.3575254678726196e-01</leafValues></_>
        <_>
          <internalNodes>
            0 -1 255 -1.1891755275428295e-03</internalNodes>
          <leafValues>
            -5.8526217937469482e-01 1.1913933604955673e-01</leafValues></_>
        <_>
          <internalNodes>
            0 -1 224 7.3705427348613739e-04</internalNodes>
          <leafValues>
            -1.7426912486553192e-01 3.8409706950187683e-01</leafValues></_>
        <_>
          <internalNodes>
            0 -1 215 3.2563670538365841e-04</internalNodes>
          <leafValues>
            -1.9229854643344879e-01 3.7418341636657715e-01</leafValues></_>
        <_>
          <internalNodes>
            0 -1 1 7.3804128915071487e-03</internalNodes>
          <leafValues>
            1.3349658250808716e-01 -5.0838750600814819e-01</leafValues></_>
        <_>
          <internalNodes>
            0 -1 101 -4.6434059739112854e-02</internalNodes>
          <leafValues>
            -7.1303308010101318e-01 8.7087735533714294e-02</leafValues></_>
        <_>
          <internalNodes>
            0 -1 207 2.0092044025659561e-02</internalNodes>
          <leafValues>
            8.6119763553142548e-02 -6.6261821985244751e-01</leafValues></_>
        <_>
          <internalNodes>
            0 -1 284 5.6538963690400124e-04</internalNodes>
          <leafValues>
            -1.9060286879539490e-01 3.3229312300682068e-01</leafValues></_>
        <_>
          <internalNodes>
            0 -1 326 -6.9825397804379463e-04</internalNodes>
          <leafValues>
            2.9389283061027527e-01 -2.1241015195846558e-01</leafValues></_>
        <_>
          <internalNodes>
            0 -1 10 -3.1366987968795002e-04</internalNodes>
          <leafValues>
            -3.9651030302047729e-01 1.5541730821132660e-01</leafValues></_>
        <_>
          <internalNodes>
            0 -1 185 -5.0955545157194138e-03</internalNodes>
          <leafValues>
            4.2618504166603088e-01 -1.4274549484252930e-01</leafValues></_>
        <_>
          <internalNodes>
            0 -1 313 7.6457601971924305e-03</internalNodes>
          <leafValues>
            7.3957048356533051e-02 -8.6323589086532593e-01</leafValues></_>
        <_>
          <internalNodes>
            0 -1 244 -9.6880341880023479e-04</internalNodes>
          <leafValues>
            2.6889717578887939e-01 -2.1424128115177155e-01</leafValues></_>
        <_>
          <internalNodes>
            0 -1 281 1.4050153549760580e-03</internalNodes>
          <leafValues>
            9.8786741495132446e-02 -5.8330506086349487e-01</leafValues></_>
        <_>
          <internalNodes>
            0 -1 5 2.9538139700889587e-02</internalNodes>
          <leafValues>
            -2.2181572020053864e-01 2.7322560548782349e-01</leafValues></_>
        <_>
          <internalNodes>
            0 -1 8 -5.5241594091057777e-03</internalNodes>
          <leafValues>
            5.7061952352523804e-01 -1.4985406398773193e-01</leafValues></_>
        <_>
          <internalNodes>
            0 -1 391 1.2942325323820114e-02</internalNodes>
          <leafValues>
            -8.8266000151634216e-02 5.9639698266983032e-01</leafValues></_>
        <_>
          <internalNodes>
            0 -1 402 2.1951987873762846e-03</internalNodes>
          <leafValues>
            1.1689177900552750e-01 -5.5651152133941650e-01</leafValues></_>
        <_>
          <internalNodes>
            0 -1 323 -1.1649011867120862e-03</internalNodes>
          <leafValues>
            2.2814014554023743e-01 -2.5167682766914368e-01</leafValues></_>
        <_>
          <internalNodes>
            0 -1 202 -3.1867385841906071e-03</internalNodes>
          <leafValues>
            -5.6877970695495605e-01 1.0976351052522659e-01</leafValues></_>
        <_>
          <internalNodes>
            0 -1 32 4.9875611439347267e-03</internalNodes>
          <leafValues>
            -1.0626039654016495e-01 6.2174630165100098e-01</leafValues></_>
        <_>
          <internalNodes>
            0 -1 200 -1.5534800477325916e-03</internalNodes>
          <leafValues>
            2.8208968043327332e-01 -1.9497992098331451e-01</leafValues></_>
        <_>
          <internalNodes>
            0 -1 187 8.0365287140011787e-03</internalNodes>
          <leafValues>
            -1.0355588048696518e-01 6.5078556537628174e-01</leafValues></_></weakClassifiers></_>
    <!-- stage 14 -->
    <_>
      <maxWeakCount>48</maxWeakCount>
      <stageThreshold>-1.1784222126007080e+00</stageThreshold>
      <weakClassifiers>
        <_>
          <internalNodes>
            0 -1 294 5.8878865092992783e-03</internalNodes>
          <leafValues>
            -1.4326647855341434e-02 7.2835212945938110e-01</leafValues></_>
        <_>
          <internalNodes>
            0 -1 19 2.4955864995718002e-02</internalNodes>
          <leafValues>
            -2.4974676966667175e-01 5.0539124011993408e-01</leafValues></_>
        <_>
          <internalNodes>
            0 -1 69 -5.7761110365390778e-03</internalNodes>
          <leafValues>
            2.6366597414016724e-01 -3.7895026803016663e-01</leafValues></_>
        <_>
          <internalNodes>
            0 -1 34 -3.6990784108638763e-02</internalNodes>
          <leafValues>
            2.7681785821914673e-01 -3.6884742975234985e-01</leafValues></_>
        <_>
          <internalNodes>
            0 -1 240 5.7452493347227573e-03</internalNodes>
          <leafValues>
            1.1503416299819946e-01 -7.0844906568527222e-01</leafValues></_>
        <_>
          <internalNodes>
            0 -1 291 3.7860241718590260e-04</internalNodes>
          <leafValues>
            -4.2706930637359619e-01 1.6957402229309082e-01</leafValues></_>
        <_>
          <internalNodes>
            0 -1 293 -3.1672805547714233e-02</internalNodes>
          <leafValues>
            -6.8315523862838745e-01 1.0377995669841766e-01</leafValues></_>
        <_>
          <internalNodes>
            0 -1 382 5.6745612528175116e-04</internalNodes>
          <leafValues>
            -1.6422291100025177e-01 4.5053684711456299e-01</leafValues></_>
        <_>
          <internalNodes>
            0 -1 165 -2.9093706980347633e-02</internalNodes>
          <leafValues>
            4.1383701562881470e-01 -1.8256627023220062e-01</leafValues></_>
        <_>
          <internalNodes>
            0 -1 379 4.9506570212543011e-04</internalNodes>
          <leafValues>
            -1.7668227851390839e-01 4.1869246959686279e-01</leafValues></_>
        <_>
          <internalNodes>
            0 -1 316 -3.6585427005775273e-04</internalNodes>
          <leafValues>
            -5.9599393606185913e-01 1.0922195017337799e-01</leafValues></_>
        <_>
          <internalNodes>
            0 -1 374 4.0233388426713645e-04</internalNodes>
          <leafValues>
            -1.9403964281082153e-01 3.6496531963348389e-01</leafValues></_>
        <_>
          <internalNodes>
            0 -1 67 8.8242400670424104e-04</internalNodes>
          <leafValues>
            1.2545895576477051e-01 -5.2783668041229248e-01</leafValues></_>
        <_>
          <internalNodes>
            0 -1 369 4.2312301229685545e-04</internalNodes>
          <leafValues>
            -1.8823562562465668e-01 3.6472010612487793e-01</leafValues></_>
        <_>
          <internalNodes>
            0 -1 356 8.3423852920532227e-03</internalNodes>
          <leafValues>
            1.2552228569984436e-01 -5.7050728797912598e-01</leafValues></_>
        <_>
          <internalNodes>
            0 -1 362 -1.3530036667361856e-03</internalNodes>
          <leafValues>
            1.9089776277542114e-01 -3.4164759516716003e-01</leafValues></_>
        <_>
          <internalNodes>
            0 -1 288 3.9724167436361313e-03</internalNodes>
          <leafValues>
            -1.1230016499757767e-01 5.2849435806274414e-01</leafValues></_>
        <_>
          <internalNodes>
            0 -1 22 4.4439485645852983e-04</internalNodes>
          <leafValues>
            1.3217595219612122e-01 -4.5437192916870117e-01</leafValues></_>
        <_>
          <internalNodes>
            0 -1 183 5.5430456995964050e-03</internalNodes>
          <leafValues>
            7.0365980267524719e-02 -6.8679845333099365e-01</leafValues></_>
        <_>
          <internalNodes>
            0 -1 297 1.4497728552669287e-03</internalNodes>
          <leafValues>
            -2.6415613293647766e-01 1.9995245337486267e-01</leafValues></_>
        <_>
          <internalNodes>
            0 -1 178 -1.5423169359564781e-02</internalNodes>
          <leafValues>
            -6.7276793718338013e-01 7.6642744243144989e-02</leafValues></_>
        <_>
          <internalNodes>
            0 -1 84 -1.7734916764311492e-04</internalNodes>
          <leafValues>
            -4.6638286113739014e-01 1.1062067002058029e-01</leafValues></_>
        <_>
          <internalNodes>
            0 -1 334 5.5647738277912140e-02</internalNodes>
          <leafValues>
            8.5158310830593109e-02 -6.0665082931518555e-01</leafValues></_>
        <_>
          <internalNodes>
            0 -1 330 -1.9028130918741226e-03</internalNodes>
          <leafValues>
            -3.7003093957901001e-01 1.6778485476970673e-01</leafValues></_>
        <_>
          <internalNodes>
            0 -1 125 -3.6035932600498199e-02</internalNodes>
          <leafValues>
            4.0128931403160095e-01 -1.5351648628711700e-01</leafValues></_>
        <_>
          <internalNodes>
            0 -1 126 -5.6082336232066154e-04</internalNodes>
          <leafValues>
            3.5486075282096863e-01 -1.5711408853530884e-01</leafValues></_>
        <_>
          <internalNodes>
            0 -1 158 -5.4686982184648514e-02</internalNodes>
          <leafValues>
            -8.7324291467666626e-01 6.5284751355648041e-02</leafValues></_>
        <_>
          <internalNodes>
            0 -1 169 -1.0669887997210026e-03</internalNodes>
          <leafValues>
            4.1427081823348999e-01 -1.5451052784919739e-01</leafValues></_>
        <_>
          <internalNodes>
            0 -1 95 3.6430073669180274e-04</internalNodes>
          <leafValues>
            9.2662364244461060e-02 -6.2672221660614014e-01</leafValues></_>
        <_>
          <internalNodes>
            0 -1 272 1.2494798749685287e-02</internalNodes>
          <leafValues>
            -1.4843986928462982e-01 3.5842308402061462e-01</leafValues></_>
        <_>
          <internalNodes>
            0 -1 305 5.7105411542579532e-04</internalNodes>
          <leafValues>
            -2.5616931915283203e-01 2.3683857917785645e-01</leafValues></_>
        <_>
          <internalNodes>
            0 -1 392 1.3967231847345829e-02</internalNodes>
          <leafValues>
            8.8607549667358398e-02 -5.9040868282318115e-01</leafValues></_>
        <_>
          <internalNodes>
            0 -1 197 1.4114968944340944e-03</internalNodes>
          <leafValues>
            -1.8946617841720581e-01 2.8748172521591187e-01</leafValues></_>
        <_>
          <internalNodes>
            0 -1 357 -1.7089754692278802e-04</internalNodes>
          <leafValues>
            1.6947670280933380e-01 -3.4766295552253723e-01</leafValues></_>
        <_>
          <internalNodes>
            0 -1 348 -1.8315289169549942e-02</internalNodes>
          <leafValues>
            -5.6928771734237671e-01 9.0972647070884705e-02</leafValues></_>
        <_>
          <internalNodes>
            0 -1 398 5.0409883260726929e-04</internalNodes>
          <leafValues>
            1.0705431550741196e-01 -4.6858540177345276e-01</leafValues></_>
        <_>
          <internalNodes>
            0 -1 136 -3.0731526203453541e-03</internalNodes>
          <leafValues>
            3.6071223020553589e-01 -1.4740808308124542e-01</leafValues></_>
        <_>
          <internalNodes>
            0 -1 118 -6.2033007852733135e-03</internalNodes>
          <leafValues>
            3.8569477200508118e-01 -1.3307893276214600e-01</leafValues></_>
        <_>
          <internalNodes>
            0 -1 227 -1.0839146561920643e-02</internalNodes>
          <leafValues>
            -5.4195582866668701e-01 1.1263308674097061e-01</leafValues></_>
        <_>
          <internalNodes>
            0 -1 276 -2.7063197921961546e-04</internalNodes>
          <leafValues>
            -4.5708107948303223e-01 1.0430044680833817e-01</leafValues></_>
        <_>
          <internalNodes>
            0 -1 218 2.7913870289921761e-03</internalNodes>
          <leafValues>
            -1.3184820115566254e-01 4.3359559774398804e-01</leafValues></_>
        <_>
          <internalNodes>
            0 -1 16 3.1585965189151466e-04</internalNodes>
          <leafValues>
            1.3009585440158844e-01 -4.8640763759613037e-01</leafValues></_>
        <_>
          <internalNodes>
            0 -1 195 2.7369207236915827e-03</internalNodes>
          <leafValues>
            1.6936255991458893e-01 -2.9633462429046631e-01</leafValues></_>
        <_>
          <internalNodes>
            0 -1 155 -1.1371487751603127e-02</internalNodes>
          <leafValues>
            -7.1687781810760498e-01 7.3107220232486725e-02</leafValues></_>
        <_>
          <internalNodes>
            0 -1 41 2.5202399119734764e-03</internalNodes>
          <leafValues>
            -1.7612335085868835e-01 3.9509841799736023e-01</leafValues></_>
        <_>
          <internalNodes>
            0 -1 393 1.2156968005001545e-02</internalNodes>
          <leafValues>
            8.7612517178058624e-02 -6.4064329862594604e-01</leafValues></_>
        <_>
          <internalNodes>
            0 -1 115 3.6589807132259011e-04</internalNodes>
          <leafValues>
            -2.0497614145278931e-01 2.6455789804458618e-01</leafValues></_>
        <_>
          <internalNodes>
            0 -1 36 4.2445743456482887e-03</internalNodes>
          <leafValues>
            -2.0144343376159668e-01 2.6759406924247742e-01</leafValues></_></weakClassifiers></_>
    <!-- stage 15 -->
    <_>
      <maxWeakCount>42</maxWeakCount>
      <stageThreshold>-1.0133763551712036e+00</stageThreshold>
      <weakClassifiers>
        <_>
          <internalNodes>
            0 -1 212 4.4188695028424263e-03</internalNodes>
          <leafValues>
            -1.5184381976723671e-02 7.0262718200683594e-01</leafValues></_>
        <_>
          <internalNodes>
            0 -1 239 8.7117840303108096e-04</internalNodes>
          <leafValues>
            3.0881178379058838e-01 -5.9805691242218018e-01</leafValues></_>
        <_>
          <internalNodes>
            0 -1 261 3.0757799744606018e-01</internalNodes>
          <leafValues>
            -2.9827994108200073e-01 4.3443444371223450e-01</leafValues></_>
        <_>
          <internalNodes>
            0 -1 61 -1.5206013340502977e-03</internalNodes>
          <leafValues>
            1.6195529699325562e-01 -5.3413420915603638e-01</leafValues></_>
        <_>
          <internalNodes>
            0 -1 317 1.7449121514800936e-04</internalNodes>
          <leafValues>
            1.5442474186420441e-01 -4.8955419659614563e-01</leafValues></_>
        <_>
          <internalNodes>
            0 -1 89 6.2663699500262737e-03</internalNodes>
          <leafValues>
            -3.6648917198181152e-01 2.0525076985359192e-01</leafValues></_>
        <_>
          <internalNodes>
            0 -1 217 4.9262162297964096e-02</internalNodes>
          <leafValues>
            1.0425291210412979e-01 -7.4862289428710938e-01</leafValues></_>
        <_>
          <internalNodes>
            0 -1 206 -6.4593425486236811e-04</internalNodes>
          <leafValues>
            3.5232278704643250e-01 -2.1784101426601410e-01</leafValues></_>
        <_>
          <internalNodes>
            0 -1 39 -9.9974974989891052e-02</internalNodes>
          <leafValues>
            -8.8184922933578491e-01 5.7228263467550278e-02</leafValues></_>
        <_>
          <internalNodes>
            0 -1 63 3.5033363848924637e-02</internalNodes>
          <leafValues>
            9.9931016564369202e-02 -5.2701127529144287e-01</leafValues></_>
        <_>
          <internalNodes>
            0 -1 107 1.0435834527015686e-02</internalNodes>
          <leafValues>
            -1.8405777215957642e-01 3.4078019857406616e-01</leafValues></_>
        <_>
          <internalNodes>
            0 -1 265 3.7107884418219328e-04</internalNodes>
          <leafValues>
            -1.9884361326694489e-01 3.2381933927536011e-01</leafValues></_>
        <_>
          <internalNodes>
            0 -1 285 6.5070728305727243e-04</internalNodes>
          <leafValues>
            -1.4953404664993286e-01 4.1268980503082275e-01</leafValues></_>
        <_>
          <internalNodes>
            0 -1 242 -7.9114995896816254e-03</internalNodes>
          <leafValues>
            -5.5569684505462646e-01 1.1743178963661194e-01</leafValues></_>
        <_>
          <internalNodes>
            0 -1 302 1.5679148491472006e-03</internalNodes>
          <leafValues>
            8.0586209893226624e-02 -7.0260667800903320e-01</leafValues></_>
        <_>
          <internalNodes>
            0 -1 224 -1.9094718154519796e-03</internalNodes>
          <leafValues>
            5.3127056360244751e-01 -1.1768355965614319e-01</leafValues></_>
        <_>
          <internalNodes>
            0 -1 360 -4.3852366507053375e-03</internalNodes>
          <leafValues>
            -5.9785610437393188e-01 1.0010624676942825e-01</leafValues></_>
        <_>
          <internalNodes>
            0 -1 373 -1.0079042986035347e-02</internalNodes>
          <leafValues>
            -7.1963882446289063e-01 6.8693093955516815e-02</leafValues></_>
        <_>
          <internalNodes>
            0 -1 250 4.2812894098460674e-03</internalNodes>
          <leafValues>
            6.9862134754657745e-02 -7.2795301675796509e-01</leafValues></_>
        <_>
          <internalNodes>
            0 -1 59 1.0687062749639153e-03</internalNodes>
          <leafValues>
            -2.0187556743621826e-01 3.1287083029747009e-01</leafValues></_>
        <_>
          <internalNodes>
            0 -1 211 -4.6080732718110085e-03</internalNodes>
          <leafValues>
            -6.5571331977844238e-01 9.7071275115013123e-02</leafValues></_>
        <_>
          <internalNodes>
            0 -1 44 -3.1351407524198294e-03</internalNodes>
          <leafValues>
            3.1566393375396729e-01 -2.0555159449577332e-01</leafValues></_>
        <_>
          <internalNodes>
            0 -1 171 -1.0281135328114033e-03</internalNodes>
          <leafValues>
            4.7625064849853516e-01 -1.1179392039775848e-01</leafValues></_>
        <_>
          <internalNodes>
            0 -1 304 -9.8114763386547565e-04</internalNodes>
          <leafValues>
            -5.6139361858367920e-01 1.1939354985952377e-01</leafValues></_>
        <_>
          <internalNodes>
            0 -1 182 7.4279040563851595e-04</internalNodes>
          <leafValues>
            -2.3221981525421143e-01 2.4433928728103638e-01</leafValues></_>
        <_>
          <internalNodes>
            0 -1 177 -1.6288310289382935e-03</internalNodes>
          <leafValues>
            3.8677954673767090e-01 -1.5726764500141144e-01</leafValues></_>
        <_>
          <internalNodes>
            0 -1 50 -1.2822440476156771e-04</internalNodes>
          <leafValues>
            -4.3282863497734070e-01 1.3717158138751984e-01</leafValues></_>
        <_>
          <internalNodes>
            0 -1 170 -1.0038826614618301e-02</internalNodes>
          <leafValues>
            -4.5970737934112549e-01 1.1240289360284805e-01</leafValues></_>
        <_>
          <internalNodes>
            0 -1 327 6.3632032833993435e-03</internalNodes>
          <leafValues>
            -1.0840974748134613e-01 5.3659963607788086e-01</leafValues></_>
        <_>
          <internalNodes>
            0 -1 303 2.8523833025246859e-03</internalNodes>
          <leafValues>
            -1.4013814926147461e-01 3.7285870313644409e-01</leafValues></_>
        <_>
          <internalNodes>
            0 -1 74 -1.7989160260185599e-03</internalNodes>
          <leafValues>
            3.8895800709724426e-01 -1.3627520203590393e-01</leafValues></_>
        <_>
          <internalNodes>
            0 -1 0 1.1866799555718899e-02</internalNodes>
          <leafValues>
            -1.4097155630588531e-01 4.2643845081329346e-01</leafValues></_>
        <_>
          <internalNodes>
            0 -1 90 -2.1329045295715332e-02</internalNodes>
          <leafValues>
            -4.6077522635459900e-01 1.3328108191490173e-01</leafValues></_>
        <_>
          <internalNodes>
            0 -1 133 2.7689002454280853e-03</internalNodes>
          <leafValues>
            -1.5933400392532349e-01 3.7345904111862183e-01</leafValues></_>
        <_>
          <internalNodes>
            0 -1 117 6.6196185071021318e-04</internalNodes>
          <leafValues>
            -2.4365143477916718e-01 2.2839917242527008e-01</leafValues></_>
        <_>
          <internalNodes>
            0 -1 378 3.8537176442332566e-04</internalNodes>
          <leafValues>
            -1.5572391450405121e-01 3.3653607964515686e-01</leafValues></_>
        <_>
          <internalNodes>
            0 -1 322 -5.3980303928256035e-03</internalNodes>
          <leafValues>
            -4.6089082956314087e-01 1.2769687175750732e-01</leafValues></_>
        <_>
          <internalNodes>
            0 -1 375 -1.3773273676633835e-02</internalNodes>
          <leafValues>
            2.0897927880287170e-01 -2.7923357486724854e-01</leafValues></_>
        <_>
          <internalNodes>
            0 -1 395 3.3152272226288915e-04</internalNodes>
          <leafValues>
            -1.5862466394901276e-01 3.6431416869163513e-01</leafValues></_>
        <_>
          <internalNodes>
            0 -1 98 -1.7919220030307770e-02</internalNodes>
          <leafValues>
            -8.1728190183639526e-01 7.8185938298702240e-02</leafValues></_>
        <_>
          <internalNodes>
            0 -1 332 -2.9619882116094232e-04</internalNodes>
          <leafValues>
            -5.5011367797851563e-01 8.4560833871364594e-02</leafValues></_>
        <_>
          <internalNodes>
            0 -1 33 -2.3175396490842104e-03</internalNodes>
          <leafValues>
            2.6902759075164795e-01 -2.0563527941703796e-01</leafValues></_></weakClassifiers></_></stages>
  <features>
    <_>
      <rects>
        <_>
          0 0 8 12 -1.</_>
        <_>
          0 0 4 6 2.</_>
        <_>
          4 6 4 6 2.</_></rects>
      <tilted>0</tilted></_>
    <_>
      <rects>
        <_>
          0 1 1 18 -1.</_>
        <_>
          0 7 1 6 3.</_></rects>
      <tilted>0</tilted></_>
    <_>
      <rects>
        <_>
          0 1 56 4 -1.</_>
        <_>
          0 3 56 2 2.</_></rects>
      <tilted>0</tilted></_>
    <_>
      <rects>
        <_>
          0 2 60 17 -1.</_>
        <_>
          15 2 30 17 2.</_></rects>
      <tilted>0</tilted></_>
    <_>
      <rects>
        <_>
          0 2 58 6 -1.</_>
        <_>
          0 4 58 2 3.</_></rects>
      <tilted>0</tilted></_>
    <_>
      <rects>
        <_>
          0 3 14 17 -1.</_>
        <_>
          7 3 7 17 2.</_></rects>
      <tilted>0</tilted></_>
    <_>
      <rects>
        <_>
          0 4 10 12 -1.</_>
        <_>
          5 4 5 12 2.</_></rects>
      <tilted>0</tilted></_>
    <_>
      <rects>
        <_>
          0 5 12 9 -1.</_>
        <_>
          6 5 6 9 2.</_></rects>
      <tilted>0</tilted></_>
    <_>
      <rects>
        <_>
          0 5 14 3 -1.</_>
        <_>
          7 5 7 3 2.</_></rects>
      <tilted>0</tilted></_>
    <_>
      <rects>
        <_>
          0 6 3 3 -1.</_>
        <_>
          0 7 3 1 3.</_></rects>
      <tilted>0</tilted></_>
    <_>
      <rects>
        <_>
          0 6 4 3 -1.</_>
        <_>
          0 7 4 1 3.</_></rects>
      <tilted>0</tilted></_>
    <_>
      <rects>
        <_>
          0 6 12 9 -1.</_>
        <_>
          6 6 6 9 2.</_></rects>
      <tilted>0</tilted></_>
    <_>
      <rects>
        <_>
          0 6 14 11 -1.</_>
        <_>
          7 6 7 11 2.</_></rects>
      <tilted>0</tilted></_>
    <_>
      <rects>
        <_>
          0 7 12 8 -1.</_>
        <_>
          6 7 6 8 2.</_></rects>
      <tilted>0</tilted></_>
    <_>
      <rects>
        <_>
          0 7 14 8 -1.</_>
        <_>
          7 7 7 8 2.</_></rects>
      <tilted>0</tilted></_>
    <_>
      <rects>
        <_>
          0 8 1 6 -1.</_>
        <_>
          0 10 1 2 3.</_></rects>
      <tilted>0</tilted></_>
    <_>
      <rects>
        <_>
          0 8 2 3 -1.</_>
        <_>
          0 9 2 1 3.</_></rects>
      <tilted>0</tilted></_>
    <_>
      <rects>
        <_>
          0 9 1 2 -1.</_>
        <_>
          0 10 1 1 2.</_></rects>
      <tilted>0</tilted></_>
    <_>
      <rects>
        <_>
          0 9 3 3 -1.</_>
        <_>
          0 10 3 1 3.</_></rects>
      <tilted>0</tilted></_>
    <_>
      <rects>
        <_>
          0 9 20 7 -1.</_>
        <_>
          10 9 10 7 2.</_></rects>
      <tilted>0</tilted></_>
    <_>
      <rects>
        <_>
          0 10 14 7 -1.</_>
        <_>
          7 10 7 7 2.</_></rects>
      <tilted>0</tilted></_>
    <_>
      <rects>
        <_>
          0 10 20 6 -1.</_>
        <_>
          10 10 10 6 2.</_></rects>
      <tilted>0</tilted></_>
    <_>
      <rects>
        <_>
          0 12 2 3 -1.</_>
        <_>
          0 13 2 1 3.</_></rects>
      <tilted>0</tilted></_>
    <_>
      <rects>
        <_>
          1 0 43 9 -1.</_>
        <_>
          1 3 43 3 3.</_></rects>
      <tilted>0</tilted></_>
    <_>
      <rects>
        <_>
          1 2 55 6 -1.</_>
        <_>
          1 4 55 2 3.</_></rects>
      <tilted>0</tilted></_>
    <_>
      <rects>
        <_>
          1 3 26 3 -1.</_>
        <_>
          1 4 26 1 3.</_></rects>
      <tilted>0</tilted></_>
    <_>
      <rects>
        <_>
          1 16 53 4 -1.</_>
        <_>
          1 18 53 2 2.</_></rects>
      <tilted>0</tilted></_>
    <_>
      <rects>
        <_>
          3 0 22 6 -1.</_>
        <_>
          3 2 22 2 3.</_></rects>
      <tilted>0</tilted></_>
    <_>
      <rects>
        <_>
          3 8 56 2 -1.</_>
        <_>
          31 8 28 2 2.</_></rects>
      <tilted>0</tilted></_>
    <_>
      <rects>
        <_>
          4 0 20 4 -1.</_>
        <_>
          4 2 20 2 2.</_></rects>
      <tilted>0</tilted></_>
    <_>
      <rects>
        <_>
          4 3 46 16 -1.</_>
        <_>
          4 7 46 8 2.</_></rects>
      <tilted>0</tilted></_>
    <_>
      <rects>
        <_>
          4 9 54 1 -1.</_>
        <_>
          31 9 27 1 2.</_></rects>
      <tilted>0</tilted></_>
    <_>
      <rects>
        <_>
          5 11 5 4 -1.</_>
        <_>
          4 12 5 2 2.</_></rects>
      <tilted>1</tilted></_>
    <_>
      <rects>
        <_>
          6 2 22 2 -1.</_>
        <_>
          6 3 22 1 2.</_></rects>
      <tilted>0</tilted></_>
    <_>
      <rects>
        <_>
          6 13 51 4 -1.</_>
        <_>
          6 15 51 2 2.</_></rects>
      <tilted>0</tilted></_>
    <_>
      <rects>
        <_>
          7 0 3 1 -1.</_>
        <_>
          8 0 1 1 3.</_></rects>
      <tilted>0</tilted></_>
    <_>
      <rects>
        <_>
          7 0 7 6 -1.</_>
        <_>
          5 2 7 2 3.</_></rects>
      <tilted>1</tilted></_>
    <_>
      <rects>
        <_>
          7 1 36 4 -1.</_>
        <_>
          7 3 36 2 2.</_></rects>
      <tilted>0</tilted></_>
    <_>
      <rects>
        <_>
          7 2 39 4 -1.</_>
        <_>
          7 4 39 2 2.</_></rects>
      <tilted>0</tilted></_>
    <_>
      <rects>
        <_>
          7 3 30 17 -1.</_>
        <_>
          17 3 10 17 3.</_></rects>
      <tilted>0</tilted></_>
    <_>
      <rects>
        <_>
          7 4 44 6 -1.</_>
        <_>
          7 6 44 2 3.</_></rects>
      <tilted>0</tilted></_>
    <_>
      <rects>
        <_>
          7 10 21 2 -1.</_>
        <_>
          7 11 21 1 2.</_></rects>
      <tilted>0</tilted></_>
    <_>
      <rects>
        <_>
          8 0 42 20 -1.</_>
        <_>
          8 5 42 10 2.</_></rects>
      <tilted>0</tilted></_>
    <_>
      <rects>
        <_>
          8 1 4 3 -1.</_>
        <_>
          9 1 2 3 2.</_></rects>
      <tilted>0</tilted></_>
    <_>
      <rects>
        <_>
          8 5 12 3 -1.</_>
        <_>
          12 6 4 1 9.</_></rects>
      <tilted>0</tilted></_>
    <_>
      <rects>
        <_>
          8 7 45 6 -1.</_>
        <_>
          23 9 15 2 9.</_></rects>
      <tilted>0</tilted></_>
    <_>
      <rects>
        <_>
          8 13 42 6 -1.</_>
        <_>
          8 16 42 3 2.</_></rects>
      <tilted>0</tilted></_>
    <_>
      <rects>
        <_>
          9 1 22 4 -1.</_>
        <_>
          20 1 11 4 2.</_></rects>
      <tilted>0</tilted></_>
    <_>
      <rects>
        <_>
          9 3 15 4 -1.</_>
        <_>
          14 3 5 4 3.</_></rects>
      <tilted>0</tilted></_>
    <_>
      <rects>
        <_>
          9 3 28 6 -1.</_>
        <_>
          16 3 14 6 2.</_></rects>
      <tilted>0</tilted></_>
    <_>
      <rects>
        <_>
          9 4 2 2 -1.</_>
        <_>
          9 4 1 1 2.</_>
        <_>
          10 5 1 1 2.</_></rects>
      <tilted>0</tilted></_>
    <_>
      <rects>
        <_>
          9 5 24 4 -1.</_>
        <_>
          15 5 12 4 2.</_></rects>
      <tilted>0</tilted></_>
    <_>
      <rects>
        <_>
          9 6 3 7 -1.</_>
        <_>
          10 6 1 7 3.</_></rects>
      <tilted>0</tilted></_>
    <_>
      <rects>
        <_>
          9 6 39 9 -1.</_>
        <_>
          22 9 13 3 9.</_></rects>
      <tilted>0</tilted></_>
    <_>
      <rects>
        <_>
          9 7 3 6 -1.</_>
        <_>
          10 7 1 6 3.</_></rects>
      <tilted>0</tilted></_>
    <_>
      <rects>
        <_>
          9 13 37 4 -1.</_>
        <_>
          9 15 37 2 2.</_></rects>
      <tilted>0</tilted></_>
    <_>
      <rects>
        <_>
          10 2 12 8 -1.</_>
        <_>
          10 2 6 4 2.</_>
        <_>
          16 6 6 4 2.</_></rects>
      <tilted>0</tilted></_>
    <_>
      <rects>
        <_>
          10 2 27 8 -1.</_>
        <_>
          19 2 9 8 3.</_></rects>
      <tilted>0</tilted></_>
    <_>
      <rects>
        <_>
          10 2 43 2 -1.</_>
        <_>
          10 3 43 1 2.</_></rects>
      <tilted>0</tilted></_>
    <_>
      <rects>
        <_>
          10 5 4 3 -1.</_>
        <_>
          10 6 4 1 3.</_></rects>
      <tilted>0</tilted></_>
    <_>
      <rects>
        <_>
          10 5 24 4 -1.</_>
        <_>
          16 5 12 4 2.</_></rects>
      <tilted>0</tilted></_>
    <_>
      <rects>
        <_>
          10 5 28 4 -1.</_>
        <_>
          17 5 14 4 2.</_></rects>
      <tilted>0</tilted></_>
    <_>
      <rects>
        <_>
          10 5 27 4 -1.</_>
        <_>
          19 5 9 4 3.</_></rects>
      <tilted>0</tilted></_>
    <_>
      <rects>
        <_>
          10 6 30 6 -1.</_>
        <_>
          20 8 10 2 9.</_></rects>
      <tilted>0</tilted></_>
    <_>
      <rects>
        <_>
          10 10 41 8 -1.</_>
        <_>
          10 12 41 4 2.</_></rects>
      <tilted>0</tilted></_>
    <_>
      <rects>
        <_>
          11 1 41 6 -1.</_>
        <_>
          11 4 41 3 2.</_></rects>
      <tilted>0</tilted></_>
    <_>
      <rects>
        <_>
          11 2 32 6 -1.</_>
        <_>
          11 4 32 2 3.</_></rects>
      <tilted>0</tilted></_>
    <_>
      <rects>
        <_>
          11 3 6 3 -1.</_>
        <_>
          13 3 2 3 3.</_></rects>
      <tilted>0</tilted></_>
    <_>
      <rects>
        <_>
          11 3 27 6 -1.</_>
        <_>
          20 3 9 6 3.</_></rects>
      <tilted>0</tilted></_>
    <_>
      <rects>
        <_>
          11 4 24 5 -1.</_>
        <_>
          17 4 12 5 2.</_></rects>
      <tilted>0</tilted></_>
    <_>
      <rects>
        <_>
          11 6 3 8 -1.</_>
        <_>
          12 6 1 8 3.</_></rects>
      <tilted>0</tilted></_>
    <_>
      <rects>
        <_>
          11 6 27 9 -1.</_>
        <_>
          20 9 9 3 9.</_></rects>
      <tilted>0</tilted></_>
    <_>
      <rects>
        <_>
          11 7 10 2 -1.</_>
        <_>
          16 7 5 2 2.</_></rects>
      <tilted>0</tilted></_>
    <_>
      <rects>
        <_>
          11 7 19 4 -1.</_>
        <_>
          11 9 19 2 2.</_></rects>
      <tilted>0</tilted></_>
    <_>
      <rects>
        <_>
          11 13 8 3 -1.</_>
        <_>
          11 14 8 1 3.</_></rects>
      <tilted>0</tilted></_>
    <_>
      <rects>
        <_>
          11 15 39 4 -1.</_>
        <_>
          11 17 39 2 2.</_></rects>
      <tilted>0</tilted></_>
    <_>
      <rects>
        <_>
          12 0 6 3 -1.</_>
        <_>
          14 0 2 3 3.</_></rects>
      <tilted>0</tilted></_>
    <_>
      <rects>
        <_>
          12 0 2 9 -1.</_>
        <_>
          12 3 2 3 3.</_></rects>
      <tilted>0</tilted></_>
    <_>
      <rects>
        <_>
          12 0 12 5 -1.</_>
        <_>
          16 0 4 5 3.</_></rects>
      <tilted>0</tilted></_>
    <_>
      <rects>
        <_>
          12 0 24 8 -1.</_>
        <_>
          18 0 12 8 2.</_></rects>
      <tilted>0</tilted></_>
    <_>
      <rects>
        <_>
          12 0 27 6 -1.</_>
        <_>
          12 3 27 3 2.</_></rects>
      <tilted>0</tilted></_>
    <_>
      <rects>
        <_>
          12 5 16 3 -1.</_>
        <_>
          12 6 16 1 3.</_></rects>
      <tilted>0</tilted></_>
    <_>
      <rects>
        <_>
          12 10 34 4 -1.</_>
        <_>
          12 12 34 2 2.</_></rects>
      <tilted>0</tilted></_>
    <_>
      <rects>
        <_>
          12 14 27 6 -1.</_>
        <_>
          21 14 9 6 3.</_></rects>
      <tilted>0</tilted></_>
    <_>
      <rects>
        <_>
          13 3 4 2 -1.</_>
        <_>
          14 3 2 2 2.</_></rects>
      <tilted>0</tilted></_>
    <_>
      <rects>
        <_>
          13 3 21 17 -1.</_>
        <_>
          20 3 7 17 3.</_></rects>
      <tilted>0</tilted></_>
    <_>
      <rects>
        <_>
          13 5 28 5 -1.</_>
        <_>
          20 5 14 5 2.</_></rects>
      <tilted>0</tilted></_>
    <_>
      <rects>
        <_>
          13 5 32 7 -1.</_>
        <_>
          21 5 16 7 2.</_></rects>
      <tilted>0</tilted></_>
    <_>
      <rects>
        <_>
          13 5 10 2 -1.</_>
        <_>
          13 6 10 1 2.</_></rects>
      <tilted>0</tilted></_>
    <_>
      <rects>
        <_>
          13 5 40 6 -1.</_>
        <_>
          23 5 20 6 2.</_></rects>
      <tilted>0</tilted></_>
    <_>
      <rects>
        <_>
          13 7 20 8 -1.</_>
        <_>
          13 11 20 4 2.</_></rects>
      <tilted>0</tilted></_>
    <_>
      <rects>
        <_>
          13 8 6 2 -1.</_>
        <_>
          15 8 2 2 3.</_></rects>
      <tilted>0</tilted></_>
    <_>
      <rects>
        <_>
          13 9 26 4 -1.</_>
        <_>
          26 9 13 4 2.</_></rects>
      <tilted>0</tilted></_>
    <_>
      <rects>
        <_>
          13 10 34 4 -1.</_>
        <_>
          13 12 34 2 2.</_></rects>
      <tilted>0</tilted></_>
    <_>
      <rects>
        <_>
          13 12 21 8 -1.</_>
        <_>
          20 12 7 8 3.</_></rects>
      <tilted>0</tilted></_>
    <_>
      <rects>
        <_>
          13 18 3 2 -1.</_>
        <_>
          14 18 1 2 3.</_></rects>
      <tilted>0</tilted></_>
    <_>
      <rects>
        <_>
          14 0 8 5 -1.</_>
        <_>
          16 0 4 5 2.</_></rects>
      <tilted>0</tilted></_>
    <_>
      <rects>
        <_>
          14 0 21 7 -1.</_>
        <_>
          21 0 7 7 3.</_></rects>
      <tilted>0</tilted></_>
    <_>
      <rects>
        <_>
          14 2 12 8 -1.</_>
        <_>
          20 2 6 8 2.</_></rects>
      <tilted>0</tilted></_>
    <_>
      <rects>
        <_>
          14 3 20 6 -1.</_>
        <_>
          19 3 10 6 2.</_></rects>
      <tilted>0</tilted></_>
    <_>
      <rects>
        <_>
          14 5 26 8 -1.</_>
        <_>
          27 5 13 8 2.</_></rects>
      <tilted>0</tilted></_>
    <_>
      <rects>
        <_>
          14 6 21 6 -1.</_>
        <_>
          21 8 7 2 9.</_></rects>
      <tilted>0</tilted></_>
    <_>
      <rects>
        <_>
          14 9 4 1 -1.</_>
        <_>
          15 9 2 1 2.</_></rects>
      <tilted>0</tilted></_>
    <_>
      <rects>
        <_>
          14 9 22 4 -1.</_>
        <_>
          25 9 11 4 2.</_></rects>
      <tilted>0</tilted></_>
    <_>
      <rects>
        <_>
          15 4 5 9 -1.</_>
        <_>
          15 7 5 3 3.</_></rects>
      <tilted>0</tilted></_>
    <_>
      <rects>
        <_>
          15 4 15 14 -1.</_>
        <_>
          20 4 5 14 3.</_></rects>
      <tilted>0</tilted></_>
    <_>
      <rects>
        <_>
          15 10 1 3 -1.</_>
        <_>
          14 11 1 1 3.</_></rects>
      <tilted>1</tilted></_>
    <_>
      <rects>
        <_>
          15 12 16 4 -1.</_>
        <_>
          15 13 16 2 2.</_></rects>
      <tilted>0</tilted></_>
    <_>
      <rects>
        <_>
          16 2 9 6 -1.</_>
        <_>
          19 5 3 6 3.</_></rects>
      <tilted>1</tilted></_>
    <_>
      <rects>
        <_>
          16 3 19 4 -1.</_>
        <_>
