<?xml version="1.0"?>
<opencv_storage>
<stage15>
  <maxWeakCount>42</maxWeakCount>
  <stageThreshold>-1.0133763551712036e+00</stageThreshold>
  <weakClassifiers>
    <_>
      <internalNodes>
        0 -1 680577 4.4188695028424263e-03</internalNodes>
      <leafValues>
        -1.5184381976723671e-02 7.0262718200683594e-01</leafValues></_>
    <_>
      <internalNodes>
        0 -1 733883 8.7117840303108096e-04</internalNodes>
      <leafValues>
        3.0881178379058838e-01 -5.9805691242218018e-01</leafValues></_>
    <_>
      <internalNodes>
        0 -1 753712 3.0757799744606018e-01</internalNodes>
      <leafValues>
        -2.9827994108200073e-01 4.3443444371223450e-01</leafValues></_>
    <_>
      <internalNodes>
        0 -1 303132 -1.5206013340502977e-03</internalNodes>
      <leafValues>
        1.6195529699325562e-01 -5.3413420915603638e-01</leafValues></_>
    <_>
      <internalNodes>
        0 -1 820937 1.7449121514800936e-04</internalNodes>
      <leafValues>
        1.5442474186420441e-01 -4.8955419659614563e-01</leafValues></_>
    <_>
      <internalNodes>
        0 -1 383510 6.2663699500262737e-03</internalNodes>
      <leafValues>
        -3.6648917198181152e-01 2.0525076985359192e-01</leafValues></_>
    <_>
      <internalNodes>
        0 -1 692191 4.9262162297964096e-02</internalNodes>
      <leafValues>
        1.0425291210412979e-01 -7.4862289428710938e-01</leafValues></_>
    <_>
      <internalNodes>
        0 -1 667019 -6.4593425486236811e-04</internalNodes>
      <leafValues>
        3.5232278704643250e-01 -2.1784101426601410e-01</leafValues></_>
    <_>
      <internalNodes>
        0 -1 215183 -9.9974974989891052e-02</internalNodes>
      <leafValues>
        -8.8184922933578491e-01 5.7228263467550278e-02</leafValues></_>
    <_>
      <internalNodes>
        0 -1 305273 3.5033363848924637e-02</internalNodes>
      <leafValues>
        9.9931016564369202e-02 -5.2701127529144287e-01</leafValues></_>
    <_>
      <internalNodes>
        0 -1 444183 1.0435834527015686e-02</internalNodes>
      <leafValues>
        -1.8405777215957642e-01 3.4078019857406616e-01</leafValues></_>
    <_>
      <internalNodes>
        0 -1 758304 3.7107884418219328e-04</internalNodes>
      <leafValues>
        -1.9884361326694489e-01 3.2381933927536011e-01</leafValues></_>
    <_>
      <internalNodes>
        0 -1 775321 6.5070728305727243e-04</internalNodes>
      <leafValues>
        -1.4953404664993286e-01 4.1268980503082275e-01</leafValues></_>
    <_>
      <internalNodes>
        0 -1 736986 -7.9114995896816254e-03</internalNodes>
      <leafValues>
        -5.5569684505462646e-01 1.1743178963661194e-01</leafValues></_>
    <_>
      <internalNodes>
        0 -1 801988 1.5679148491472006e-03</internalNodes>
      <leafValues>
        8.0586209893226624e-02 -7.0260667800903320e-01</leafValues></_>
    <_>
      <internalNodes>
        0 -1 704904 -1.9094718154519796e-03</internalNodes>
      <leafValues>
        5.3127056360244751e-01 -1.1768355965614319e-01</leafValues></_>
    <_>
      <internalNodes>
        0 -1 950654 -4.3852366507053375e-03</internalNodes>
      <leafValues>
        -5.9785610437393188e-01 1.0010624676942825e-01</leafValues></_>
    <_>
      <internalNodes>
        0 -1 978144 -1.0079042986035347e-02</internalNodes>
      <leafValues>
        -7.1963882446289063e-01 6.8693093955516815e-02</leafValues></_>
    <_>
      <internalNodes>
        0 -1 743872 4.2812894098460674e-03</internalNodes>
      <leafValues>
        6.9862134754657745e-02 -7.2795301675796509e-01</leafValues></_>
    <_>
      <internalNodes>
        0 -1 302836 1.0687062749639153e-03</internalNodes>
      <leafValues>
        -2.0187556743621826e-01 3.1287083029747009e-01</leafValues></_>
    <_>
      <internalNodes>
        0 -1 679312 -4.6080732718110085e-03</internalNodes>
      <leafValues>
        -6.5571331977844238e-01 9.7071275115013123e-02</leafValues></_>
    <_>
      <internalNodes>
        0 -1 247349 -3.1351407524198294e-03</internalNodes>
      <leafValues>
        3.1566393375396729e-01 -2.0555159449577332e-01</leafValues></_>
    <_>
      <internalNodes>
        0 -1 602398 -1.0281135328114033e-03</internalNodes>
      <leafValues>
        4.7625064849853516e-01 -1.1179392039775848e-01</leafValues></_>
    <_>
      <internalNodes>
        0 -1 803266 -9.8114763386547565e-04</internalNodes>
      <leafValues>
        -5.6139361858367920e-01 1.1939354985952377e-01</leafValues></_>
    <_>
      <internalNodes>
        0 -1 624514 7.4279040563851595e-04</internalNodes>
      <leafValues>
        -2.3221981525421143e-01 2.4433928728103638e-01</leafValues></_>
    <_>
      <internalNodes>
        0 -1 616443 -1.6288310289382935e-03</internalNodes>
      <leafValues>
        3.8677954673767090e-01 -1.5726764500141144e-01</leafValues></_>
    <_>
      <internalNodes>
        0 -1 272826 -1.2822440476156771e-04</internalNodes>
      <leafValues>
        -4.3282863497734070e-01 1.3717158138751984e-01</leafValues></_>
    <_>
      <internalNodes>
        0 -1 600149 -1.0038826614618301e-02</internalNodes>
      <leafValues>
        -4.5970737934112549e-01 1.1240289360284805e-01</leafValues></_>
    <_>
      <internalNodes>
        0 -1 858208 6.3632032833993435e-03</internalNodes>
      <leafValues>
        -1.0840974748134613e-01 5.3659963607788086e-01</leafValues></_>
    <_>
      <internalNodes>
        0 -1 802787 2.8523833025246859e-03</internalNodes>
      <leafValues>
        -1.4013814926147461e-01 3.7285870313644409e-01</leafValues></_>
    <_>
      <internalNodes>
        0 -1 341520 -1.7989160260185599e-03</internalNodes>
      <leafValues>
        3.8895800709724426e-01 -1.3627520203590393e-01</leafValues></_>
    <_>
      <internalNodes>
        0 -1 336 1.1866799555718899e-02</internalNodes>
      <leafValues>
        -1.4097155630588531e-01 4.2643845081329346e-01</leafValues></_>
    <_>
      <internalNodes>
        0 -1 387409 -2.1329045295715332e-02</internalNodes>
      <leafValues>
        -4.6077522635459900e-01 1.3328108191490173e-01</leafValues></_>
    <_>
      <internalNodes>
        0 -1 529971 2.7689002454280853e-03</internalNodes>
      <leafValues>
        -1.5933400392532349e-01 3.7345904111862183e-01</leafValues></_>
    <_>
      <internalNodes>
        0 -1 469934 6.6196185071021318e-04</internalNodes>
      <leafValues>
        -2.4365143477916718e-01 2.2839917242527008e-01</leafValues></_>
    <_>
      <internalNodes>
        0 -1 986994 3.8537176442332566e-04</internalNodes>
      <leafValues>
        -1.5572391450405121e-01 3.3653607964515686e-01</leafValues></_>
    <_>
      <internalNodes>
        0 -1 837285 -5.3980303928256035e-03</internalNodes>
      <leafValues>
        -4.6089082956314087e-01 1.2769687175750732e-01</leafValues></_>
    <_>
      <internalNodes>
        0 -1 979291 -1.3773273676633835e-02</internalNodes>
      <leafValues>
        2.0897927880287170e-01 -2.7923357486724854e-01</leafValues></_>
    <_>
      <internalNodes>
        0 -1 1019139 3.3152272226288915e-04</internalNodes>
      <leafValues>
        -1.5862466394901276e-01 3.6431416869163513e-01</leafValues></_>
    <_>
      <internalNodes>
        0 -1 402474 -1.7919220030307770e-02</internalNodes>
      <leafValues>
        -8.1728190183639526e-01 7.8185938298702240e-02</leafValues></_>
    <_>
      <internalNodes>
        0 -1 870186 -2.9619882116094232e-04</internalNodes>
      <leafValues>
        -5.5011367797851563e-01 8.4560833871364594e-02</leafValues></_>
    <_>
      <internalNodes>
        0 -1 184715 -2.3175396490842104e-03</internalNodes>
      <leafValues>
        2.6902759075164795e-01 -2.0563527941703796e-01</leafValues></_></weakClassifiers></stage15>
</opencv_storage>
