<?xml version="1.0"?>
<opencv_storage>
<cascade>
  <stageType>BOOST</stageType>
  <featureType>LBP</featureType>
  <height>20</height>
  <width>60</width>
  <stageParams>
    <boostType>GAB</boostType>
    <minHitRate>9.9900001287460327e-01</minHitRate>
    <maxFalseAlarm>4.0000000596046448e-01</maxFalseAlarm>
    <weightTrimRate>9.4999999999999996e-01</weightTrimRate>
    <maxDepth>1</maxDepth>
    <maxWeakCount>100</maxWeakCount></stageParams>
  <featureParams>
    <maxCatCount>256</maxCatCount>
    <featSize>1</featSize></featureParams>
  <stageNum>16</stageNum>
  <stages>
    <!-- stage 0 -->
    <_>
      <maxWeakCount>3</maxWeakCount>
      <stageThreshold>-1.1129832267761230e+00</stageThreshold>
      <weakClassifiers>
        <_>
          <internalNodes>
            0 -1 28 1048827 -686747279 1561435615 2146767127 -1534356037
            -105283398 -1173831681 -1142150417</internalNodes>
          <leafValues>
            -8.9463222026824951e-01 8.0971658229827881e-01</leafValues></_>
        <_>
          <internalNodes>
            0 -1 15 355504637 -644852400 898719231 -2641452 -396846084
            -89486663 -653539073 -1078720084</internalNodes>
          <leafValues>
            -8.9903837442398071e-01 8.1672680377960205e-01</leafValues></_>
        <_>
          <internalNodes>
            0 -1 51 -1752124964 -76538945 1377041311 -141307493
            -1427207012 -1684499809 1871297500 -69206055</internalNodes>
          <leafValues>
            -9.5326852798461914e-01 6.8068742752075195e-01</leafValues></_></weakClassifiers></_>
    <!-- stage 1 -->
    <_>
      <maxWeakCount>3</maxWeakCount>
      <stageThreshold>-1.1026318073272705e+00</stageThreshold>
      <weakClassifiers>
        <_>
          <internalNodes>
            0 -1 34 -201334054 -787263293 134238392 -773861237
            -1065242215 -1981640702 -1926498069 -4195585</internalNodes>
          <leafValues>
            -8.4015983343124390e-01 6.8336671590805054e-01</leafValues></_>
        <_>
          <internalNodes>
            0 -1 65 -238039804 1342275585 1073741837 1392545802
            -939265879 1241546763 -1139750164 -33557781</internalNodes>
          <leafValues>
            -8.8907641172409058e-01 6.0826820135116577e-01</leafValues></_>
        <_>
          <internalNodes>
            0 -1 4 -499719202 -266812224 17097027 -871987162 100911105
            1913159715 705283263 -41434689</internalNodes>
          <leafValues>
            -7.7502590417861938e-01 6.2660437822341919e-01</leafValues></_></weakClassifiers></_>
    <!-- stage 2 -->
    <_>
      <maxWeakCount>3</maxWeakCount>
      <stageThreshold>-9.8392552137374878e-01</stageThreshold>
      <weakClassifiers>
        <_>
          <internalNodes>
            0 -1 27 -640315144 -141485095 620871897 1026752985
            -104612869 -87324536 -887576065 -1120049</internalNodes>
          <leafValues>
            -8.5278654098510742e-01 5.6648451089859009e-01</leafValues></_>
        <_>
          <internalNodes>
            0 -1 35 -2811427 -682272393 1364509919 -1749085731
            -796747265 -341702495 -358229765 -1074262280</internalNodes>
          <leafValues>
            -8.5361438989639282e-01 5.7172805070877075e-01</leafValues></_>
        <_>
          <internalNodes>
            0 -1 54 -694724331 -573374125 1561432573 -46050926
            -662505319 -5602932 1201719516 -34618373</internalNodes>
          <leafValues>
            -6.9679564237594604e-01 7.2761029005050659e-01</leafValues></_></weakClassifiers></_>
    <!-- stage 3 -->
    <_>
      <maxWeakCount>3</maxWeakCount>
      <stageThreshold>-1.0737245082855225e+00</stageThreshold>
      <weakClassifiers>
        <_>
          <internalNodes>
            0 -1 36 134218973 -573222635 -1726892577 -15007659
            -1207894849 -90005336 -1883188549 -1080360501</internalNodes>
          <leafValues>
            -8.8785046339035034e-01 6.6108006238937378e-01</leafValues></_>
        <_>
          <internalNodes>
            0 -1 22 -1785660995 -575401091 -1992189475 -548466379
            -1060067137 -22019873 -1719096577 -1123542836</internalNodes>
          <leafValues>
            -8.2926619052886963e-01 7.2039133310317993e-01</leafValues></_>
        <_>
          <internalNodes>
            0 -1 13 386929845 -1118306212 1398374367 -1617097428
            1012427005 -1413840727 427858877 798622392</internalNodes>
          <leafValues>
            -8.6606854200363159e-01 6.4339214563369751e-01</leafValues></_></weakClassifiers></_>
    <!-- stage 4 -->
    <_>
      <maxWeakCount>5</maxWeakCount>
      <stageThreshold>-1.2837314605712891e+00</stageThreshold>
      <weakClassifiers>
        <_>
          <internalNodes>
            0 -1 49 2111295887 -1152139145 293754107 -544516461
            -1452561910 -1900904262 -376444661 -336610389</internalNodes>
          <leafValues>
            -8.2608693838119507e-01 5.0089764595031738e-01</leafValues></_>
        <_>
          <internalNodes>
            0 -1 53 978860503 -741013103 -1852449281 -44346979
            -207953733 -335511536 268676059 -1079430497</internalNodes>
          <leafValues>
            -8.0933946371078491e-01 5.4412049055099487e-01</leafValues></_>
        <_>
          <internalNodes>
            0 -1 9 -1023129858 -595197822 -451932997 -276167668
            1484900605 -1078787870 -1950170465 -295462374</internalNodes>
          <leafValues>
            -7.2550272941589355e-01 5.5142885446548462e-01</leafValues></_>
        <_>
          <internalNodes>
            0 -1 52 -386421507 -187442423 429086047 2140000709
            -1323832593 -1383880118 755883 11520443</internalNodes>
          <leafValues>
            -7.5459569692611694e-01 5.6436485052108765e-01</leafValues></_>
        <_>
          <internalNodes>
            0 -1 40 -934861154 -577306557 -2063302341 -1995108349
            -635267909 -935165429 404265215 -1895071605</internalNodes>
          <leafValues>
            -7.6409870386123657e-01 5.7072615623474121e-01</leafValues></_></weakClassifiers></_>
    <!-- stage 5 -->
    <_>
      <maxWeakCount>5</maxWeakCount>
      <stageThreshold>-1.0866768360137939e+00</stageThreshold>
      <weakClassifiers>
        <_>
          <internalNodes>
            0 -1 66 -181668963 -577795053 -1685923499 -317631229
            -259802887 -104232733 -374351187 -3415041</internalNodes>
          <leafValues>
            -7.5787401199340820e-01 5.5785125494003296e-01</leafValues></_>
        <_>
          <internalNodes>
            0 -1 18 1360067543 1997903015 -1810803233 2111418381
            1363362031 -1084014455 462129611 -112228689</internalNodes>
          <leafValues>
            -6.7148709297180176e-01 6.4343225955963135e-01</leafValues></_>
        <_>
          <internalNodes>
            0 -1 42 -807757090 -81984556 500041081 1473267784
            -1987333201 -1178927031 -1115440933 -1733592154</internalNodes>
          <leafValues>
            -7.1869903802871704e-01 6.1062353849411011e-01</leafValues></_>
        <_>
          <internalNodes>
            0 -1 47 -1164001284 -1280518132 -2080227312 -1090207100
            873317064 269486977 1369556640 2145385387</internalNodes>
          <leafValues>
            -8.2380104064941406e-01 4.8350140452384949e-01</leafValues></_>
        <_>
          <internalNodes>
            0 -1 11 1562704343 -217902950 1157682251 1997914373
            2022342830 -1170014198 1598083243 2075941131</internalNodes>
          <leafValues>
            -7.3703747987747192e-01 5.9121567010879517e-01</leafValues></_></weakClassifiers></_>
    <!-- stage 6 -->
    <_>
      <maxWeakCount>5</maxWeakCount>
      <stageThreshold>-1.1980464458465576e+00</stageThreshold>
      <weakClassifiers>
        <_>
          <internalNodes>
            0 -1 50 -547424274 1539604936 -1605860664 2009106644
            2013327576 134250624 -661086804 -277</internalNodes>
          <leafValues>
            -8.4862387180328369e-01 3.8216561079025269e-01</leafValues></_>
        <_>
          <internalNodes>
            0 -1 19 1937544412 -6776419 218117631 -13024803 -338635522
            -73891416 -1987712065 -1081591320</internalNodes>
          <leafValues>
            -8.2165241241455078e-01 4.6427673101425171e-01</leafValues></_>
        <_>
          <internalNodes>
            0 -1 73 991166259 -1300260721 17144855 1440188315 -968767553
            -133447670 -1906122817 -71319777</internalNodes>
          <leafValues>
            -6.9497382640838623e-01 5.9726434946060181e-01</leafValues></_>
        <_>
          <internalNodes>
            0 -1 16 -1827645743 -34401827 -753281537 -35693089
            -1710198541 -1987428168 -1471149125 1049821907</internalNodes>
          <leafValues>
            -6.9823485612869263e-01 6.1568933725357056e-01</leafValues></_>
        <_>
          <internalNodes>
            0 -1 70 -304094462 1616490496 -2013183962 -2117877120
            872529955 0 -242786301 -743442245</internalNodes>
          <leafValues>
            -6.7927521467208862e-01 6.6472464799880981e-01</leafValues></_></weakClassifiers></_>
    <!-- stage 7 -->
    <_>
      <maxWeakCount>5</maxWeakCount>
      <stageThreshold>-1.1721512079238892e+00</stageThreshold>
      <weakClassifiers>
        <_>
          <internalNodes>
            0 -1 58 2010118999 1595242003 1559356031 -417345481
            -394925569 -335970143 -531838242 -6433813</internalNodes>
          <leafValues>
            -7.4219536781311035e-01 4.6745562553405762e-01</leafValues></_>
        <_>
          <internalNodes>
            0 -1 45 -1818494200 -1184087877 -1786263696 -536886195
            -1937003858 -1198915421 -394002693 -71595637</internalNodes>
          <leafValues>
            -7.7848953008651733e-01 4.1471847891807556e-01</leafValues></_>
        <_>
          <internalNodes>
            0 -1 25 277878239 -587001317 -721412739 -580689723
            -266094339 -14581744 1060613371 758060952</internalNodes>
          <leafValues>
            -7.4685430526733398e-01 4.8668384552001953e-01</leafValues></_>
        <_>
          <internalNodes>
            0 -1 76 1949301117 1561611336 -1592696227 2097611851
            -1360420611 -391148167 -536131156 -304874579</internalNodes>
          <leafValues>
            -7.2441291809082031e-01 5.2133679389953613e-01</leafValues></_>
        <_>
          <internalNodes>
            0 -1 41 -926759206 -620654333 1430262453 -704596863
            -1995380517 -30768998 -720418453 -620838693</internalNodes>
          <leafValues>
            -6.0694533586502075e-01 6.2117552757263184e-01</leafValues></_></weakClassifiers></_>
    <!-- stage 8 -->
    <_>
      <maxWeakCount>5</maxWeakCount>
      <stageThreshold>-1.1021993160247803e+00</stageThreshold>
      <weakClassifiers>
        <_>
          <internalNodes>
            0 -1 55 -1069300734 -257995953 1099006471 -251398134
            -486292949 -1912602111 -662191997 -222037041</internalNodes>
          <leafValues>
            -7.6533907651901245e-01 3.6952713131904602e-01</leafValues></_>
        <_>
          <internalNodes>
            0 -1 0 2145376204 -638063726 -788057681 -248966632
            -746071619 -14219093 -322187282 2011009646</internalNodes>
          <leafValues>
            -7.3302692174911499e-01 4.7210326790809631e-01</leafValues></_>
        <_>
          <internalNodes>
            0 -1 57 -210242275 -74362535 -1727806051 -674656037
            -1987477368 -1104019062 237996168 -1159990397</internalNodes>
          <leafValues>
            -6.1626487970352173e-01 5.9060108661651611e-01</leafValues></_>
        <_>
          <internalNodes>
            0 -1 8 -808541734 -82570989 -1472541428 354681218 -803077381
            -53280621 -1962698610 -10272593</internalNodes>
          <leafValues>
            -6.9651925563812256e-01 5.2914255857467651e-01</leafValues></_>
        <_>
          <internalNodes>
            0 -1 23 1548803839 -1642626670 222872543 1896042506
            -226375039 -1037942784 704811509 -1112155989</internalNodes>
          <leafValues>
            -6.3278132677078247e-01 6.0955834388732910e-01</leafValues></_></weakClassifiers></_>
    <!-- stage 9 -->
    <_>
      <maxWeakCount>5</maxWeakCount>
      <stageThreshold>-1.1236293315887451e+00</stageThreshold>
      <weakClassifiers>
        <_>
          <internalNodes>
            0 -1 63 -528401 -141881215 -719302041 -217902772 -1362385782
            -4988373 -513299762 -69472769</internalNodes>
          <leafValues>
            -7.0645791292190552e-01 4.6443516016006470e-01</leafValues></_>
        <_>
          <internalNodes>
            0 -1 64 -779617383 -707210855 1158123805 -653819245
            -351749415 -1333064562 -1380340323 -106189073</internalNodes>
          <leafValues>
            -5.9920960664749146e-01 5.8930909633636475e-01</leafValues></_>
        <_>
          <internalNodes>
            0 -1 20 294654357 -1252763169 -1793997217 -11464225
            941679295 -89112501 453000635 1032600048</internalNodes>
          <leafValues>
            -8.5763400793075562e-01 4.0662187337875366e-01</leafValues></_>
        <_>
          <internalNodes>
            0 -1 10 -465099770 -71056271 -788409953 -573597742
            1101525825 -880185334 -534383649 -340023389</internalNodes>
          <leafValues>
            -7.3118948936462402e-01 4.4704401493072510e-01</leafValues></_>
        <_>
          <internalNodes>
            0 -1 32 -620238641 1401496787 658514442 402728211 -534035557
            1155586 -1040019425 1393550335</internalNodes>
          <leafValues>
            -5.9589058160781860e-01 5.9941101074218750e-01</leafValues></_></weakClassifiers></_>
    <!-- stage 10 -->
    <_>
      <maxWeakCount>5</maxWeakCount>
      <stageThreshold>-1.0883754491806030e+00</stageThreshold>
      <weakClassifiers>
        <_>
          <internalNodes>
            0 -1 60 -579864811 -69532547 -669970979 -39104497
            -1950110483 -1161920381 -376713268 -1073765457</internalNodes>
          <leafValues>
            -6.9744598865509033e-01 4.3568465113639832e-01</leafValues></_>
        <_>
          <internalNodes>
            0 -1 21 -68157750 -1858633070 557974542 1399271891
            1025196050 1494089922 -167571478 1617689551</internalNodes>
          <leafValues>
            -7.4171608686447144e-01 4.2386242747306824e-01</leafValues></_>
        <_>
          <internalNodes>
            0 -1 68 -1319600903 -607074919 -1325370899 -44821166
            -1845290849 -1081489272 998788093 -1682165572</internalNodes>
          <leafValues>
            -6.6666471958160400e-01 5.0332093238830566e-01</leafValues></_>
        <_>
          <internalNodes>
            0 -1 74 -581986467 420840219 269980685 847860129 -1961944067
            1753948168 -372308787 2100296079</internalNodes>
          <leafValues>
            -6.8664026260375977e-01 5.1547956466674805e-01</leafValues></_>
        <_>
          <internalNodes>
            0 -1 26 -72752130 201359899 -1073741614 1460213810
            1479043272 1118060672 17531290 -69207877</internalNodes>
          <leafValues>
            -5.9461754560470581e-01 6.2950593233108521e-01</leafValues></_></weakClassifiers></_>
    <!-- stage 11 -->
    <_>
      <maxWeakCount>5</maxWeakCount>
      <stageThreshold>-1.1288235187530518e+00</stageThreshold>
      <weakClassifiers>
        <_>
          <internalNodes>
            0 -1 6 -652610066 -573470508 -1894966001 -1625735039
            -1466266977 -1180159830 -1962603845 -74249845</internalNodes>
          <leafValues>
            -7.3529410362243652e-01 3.6496350169181824e-01</leafValues></_>
        <_>
          <internalNodes>
            0 -1 63 -944394289 -216820580 -1802969619 -717122351
            709821070 -24100730 -1954288918 -19934529</internalNodes>
          <leafValues>
            -6.6987180709838867e-01 4.7504490613937378e-01</leafValues></_>
        <_>
          <internalNodes>
            0 -1 43 -258993784 1573924040 -578432259 -539261587
            -535942991 -4554104 -2046137877 -1363504952</internalNodes>
          <leafValues>
            -7.0301979780197144e-01 4.6628794074058533e-01</leafValues></_>
        <_>
          <internalNodes>
            0 -1 29 -1932470017 -113879788 -116057835 -711900104
            -1500826945 -1082654696 -1433818741 -1467067793</internalNodes>
          <leafValues>
            -6.4088767766952515e-01 5.2202165126800537e-01</leafValues></_>
        <_>
          <internalNodes>
            0 -1 44 -1042295414 1119903880 -2145288192 -1932423033
            -22896121 1115817993 42157472 -1871976513</internalNodes>
          <leafValues>
            -6.4931547641754150e-01 5.5400484800338745e-01</leafValues></_></weakClassifiers></_>
    <!-- stage 12 -->
    <_>
      <maxWeakCount>7</maxWeakCount>
      <stageThreshold>-1.4041024446487427e+00</stageThreshold>
      <weakClassifiers>
        <_>
          <internalNodes>
            0 -1 5 -270533121 -574221549 -788504334 -141112230
            1350771374 -660398069 -1108430385 -11013137</internalNodes>
          <leafValues>
            -6.6199815273284912e-01 4.8717948794364929e-01</leafValues></_>
        <_>
          <internalNodes>
            0 -1 24 -1659855812 1033601177 -1852762725 -1622654475
            -1164381954 -1149103991 -1961698821 169756764</internalNodes>
          <leafValues>
            -7.8347623348236084e-01 3.7370654940605164e-01</leafValues></_>
        <_>
          <internalNodes>
            0 -1 69 -1653580847 -1311536835 -736636641 -1248782081
            -1710637575 -48512663 -1995835397 -1147381400</internalNodes>
          <leafValues>
            -6.1119645833969116e-01 5.3230446577072144e-01</leafValues></_>
        <_>
          <internalNodes>
            0 -1 62 1843218572 -114321189 -267529761 1586319507
            -872174968 -1482772312 -2069397366 -1893730629</internalNodes>
          <leafValues>
            -7.0957201719284058e-01 4.6611636877059937e-01</leafValues></_>
        <_>
          <internalNodes>
            0 -1 67 1894748812 1074582532 -2126229498 -1063300317 428
            403179648 425202670 -13649106</internalNodes>
          <leafValues>
            -7.5988090038299561e-01 4.4558203220367432e-01</leafValues></_>
        <_>
          <internalNodes>
            0 -1 39 -812259350 2006532399 -1316982672 -649357105
            1082434048 830473221 -2094472741 2076408799</internalNodes>
          <leafValues>
            -7.1919196844100952e-01 4.7328069806098938e-01</leafValues></_>
        <_>
          <internalNodes>
            0 -1 1 -530135958 -131899117 -1601665909 -384593775 34150997
            -843414003 -368864548 -2069146293</internalNodes>
          <leafValues>
            -6.8674981594085693e-01 4.9155783653259277e-01</leafValues></_></weakClassifiers></_>
    <!-- stage 13 -->
    <_>
      <maxWeakCount>6</maxWeakCount>
      <stageThreshold>-1.0245836973190308e+00</stageThreshold>
      <weakClassifiers>
        <_>
          <internalNodes>
            0 -1 72 -578856161 -243072547 -1983479075 -1952743289
            -606749955 -309622621 -1414818724 -1393558289</internalNodes>
          <leafValues>
            -7.1792155504226685e-01 3.1777378916740417e-01</leafValues></_>
        <_>
          <internalNodes>
            0 -1 37 -136839270 -754224815 855966366 295632919
            -1719016721 -1370480373 1744990974 2072771274</internalNodes>
          <leafValues>
            -7.3156696557998657e-01 3.6414596438407898e-01</leafValues></_>
        <_>
          <internalNodes>
            0 -1 12 876634109 -303479981 -1734841123 -13220070
            -305599813 -1350190311 -828310628 -1442301119</internalNodes>
          <leafValues>
            -6.1851733922958374e-01 5.0844258069992065e-01</leafValues></_>
        <_>
          <internalNodes>
            0 -1 14 -379883273 2034272434 -779517633 1427347740
            1388396849 67395632 1234012923 1526955050</internalNodes>
          <leafValues>
            -7.7819323539733887e-01 3.6552569270133972e-01</leafValues></_>
        <_>
          <internalNodes>
            0 -1 17 -335025921 277725251 289480119 923495169 1711336915
            805961734 -2083877493 160074395</internalNodes>
          <leafValues>
            -6.5558457374572754e-01 4.7791939973831177e-01</leafValues></_>
        <_>
          <internalNodes>
            0 -1 56 433197406 -581630895 1091293469 -1383645045
            839958755 -599015294 -670856565 -1163850546</internalNodes>
          <leafValues>
            -7.8771233558654785e-01 4.1240927577018738e-01</leafValues></_></weakClassifiers></_>
    <!-- stage 14 -->
    <_>
      <maxWeakCount>7</maxWeakCount>
      <stageThreshold>-1.3414252996444702e+00</stageThreshold>
      <weakClassifiers>
        <_>
          <internalNodes>
            0 -1 48 -2098210 -1749516022 1462800 -144932682 -804722476
            428378401 1485414624 -4197493</internalNodes>
          <leafValues>
            -7.5170844793319702e-01 2.5723472237586975e-01</leafValues></_>
        <_>
          <internalNodes>
            0 -1 7 1315860415 -46546926 -1953398647 -1279201069
            -152320517 -108527088 -392503152 -846996809</internalNodes>
          <leafValues>
            -6.1047345399856567e-01 4.4224631786346436e-01</leafValues></_>
        <_>
          <internalNodes>
            0 -1 61 -833361142 -653167733 1882243081 -133439357
            -267164037 -383530877 1900665350 1145799170</internalNodes>
          <leafValues>
            -7.1204239130020142e-01 3.8617342710494995e-01</leafValues></_>
        <_>
          <internalNodes>
            0 -1 33 -1723301894 -1717878381 -2147401369 1566071504
            -670787682 -1400249207 -2007964068 -1894250320</internalNodes>
          <leafValues>
            -7.5494438409805298e-01 4.0310257673263550e-01</leafValues></_>
        <_>
          <internalNodes>
            0 -1 38 -251670209 1493337473 -41872899 -1852030701
            1770776981 -83197689 -1952755318 281784863</internalNodes>
          <leafValues>
            -6.0758477449417114e-01 5.4335314035415649e-01</leafValues></_>
        <_>
          <internalNodes>
            0 -1 31 1700151775 -611319755 -1818900385 357605432
            -2075669888 -370048768 -1704869420 -1870119418</internalNodes>
          <leafValues>
            -5.9033030271530151e-01 5.3574585914611816e-01</leafValues></_>
        <_>
          <internalNodes>
            0 -1 75 -273685726 -2129084135 -2145791482 -1849482925
            -402202319 1099436096 17555978 -38024502</internalNodes>
          <leafValues>
            -5.8472442626953125e-01 5.3472286462783813e-01</leafValues></_></weakClassifiers></_>
    <!-- stage 15 -->
    <_>
      <maxWeakCount>6</maxWeakCount>
      <stageThreshold>-1.0740962028503418e+00</stageThreshold>
      <weakClassifiers>
        <_>
          <internalNodes>
            0 -1 71 -641541699 -539273129 -1154289153 -574551921
            -1440583243 -1173815107 -935376035 -71341511</internalNodes>
          <leafValues>
            -7.2052401304244995e-01 2.7397260069847107e-01</leafValues></_>
        <_>
          <internalNodes>
            0 -1 59 -28501740 -482498339 -802333971 -153829219
            -1431983107 -1735688053 -370677058 -1713824967</internalNodes>
          <leafValues>
            -7.5282019376754761e-01 3.2764866948127747e-01</leafValues></_>
        <_>
          <internalNodes>
            0 -1 3 -1579121 574007699 -1878833970 -997994405 19130935
            1073774987 -590626134 -733746181</internalNodes>
          <leafValues>
            -5.7817012071609497e-01 5.1020169258117676e-01</leafValues></_>
        <_>
          <internalNodes>
            0 -1 46 -276320762 1750916106 -494599910 -1056464256
            -922517074 942572042 1309632615 1930162706</internalNodes>
          <leafValues>
            -7.3271220922470093e-01 3.8378423452377319e-01</leafValues></_>
        <_>
          <internalNodes>
            0 -1 2 1072937774 -7270263 127448461 -104756437 1359155308
            -662011776 -1190574065 -573859685</internalNodes>
          <leafValues>
            -6.6403782367706299e-01 4.6701467037200928e-01</leafValues></_>
        <_>
          <internalNodes>
            0 -1 30 1158674175 460139776 -2029975505 12797058 -402620279
            -901134208 303658155 10883302</internalNodes>
          <leafValues>
            -8.3975273370742798e-01 3.8418123126029968e-01</leafValues></_></weakClassifiers></_></stages>
  <features>
    <_>
      <rect>
        0 0 20 6</rect></_>
    <_>
      <rect>
        0 2 4 3</rect></_>
    <_>
      <rect>
        0 6 20 3</rect></_>
    <_>
      <rect>
        0 7 3 3</rect></_>
    <_>
      <rect>
        0 7 6 3</rect></_>
    <_>
      <rect>
        0 7 7 4</rect></_>
    <_>
      <rect>
        0 12 20 1</rect></_>
    <_>
      <rect>
        1 3 13 4</rect></_>
    <_>
      <rect>
        1 11 9 2</rect></_>
    <_>
      <rect>
        1 13 8 1</rect></_>
    <_>
      <rect>
        2 2 6 4</rect></_>
    <_>
      <rect>
        6 0 11 6</rect></_>
    <_>
      <rect>
        6 1 6 1</rect></_>
    <_>
      <rect>
        9 4 6 1</rect></_>
    <_>
      <rect>
        9 7 10 1</rect></_>
    <_>
      <rect>
        9 11 12 3</rect></_>
    <_>
      <rect>
        10 5 5 1</rect></_>
    <_>
      <rect>
        11 11 13 1</rect></_>
    <_>
      <rect>
        12 5 8 2</rect></_>
    <_>
      <rect>
        12 12 11 2</rect></_>
    <_>
      <rect>
        13 4 6 1</rect></_>
    <_>
      <rect>
        13 8 2 2</rect></_>
    <_>
      <rect>
        13 13 12 2</rect></_>
    <_>
      <rect>
        14 5 12 4</rect></_>
    <_>
      <rect>
        14 13 7 1</rect></_>
    <_>
      <rect>
        15 4 7 1</rect></_>
    <_>
      <rect>
        15 8 2 3</rect></_>
    <_>
      <rect>
        16 5 12 2</rect></_>
    <_>
      <rect>
        17 4 8 2</rect></_>
    <_>
      <rect>
        18 6 7 1</rect></_>
    <_>
      <rect>
        18 7 8 2</rect></_>
    <_>
      <rect>
        19 7 7 1</rect></_>
    <_>
      <rect>
        20 7 2 2</rect></_>
    <_>
      <rect>
        20 15 5 1</rect></_>
    <_>
      <rect>
        21 5 9 2</rect></_>
    <_>
      <rect>
        21 13 5 2</rect></_>
    <_>
      <rect>
        22 5 5 1</rect></_>
    <_>
      <rect>
        22 7 8 1</rect></_>
    <_>
      <rect>
        23 6 3 1</rect></_>
    <_>
      <rect>
        24 9 2 1</rect></_>
    <_>
      <rect>
        25 1 7 4</rect></_>
    <_>
      <rect>
        26 6 3 1</rect></_>
    <_>
      <rect>
        26 7 4 1</rect></_>
    <_>
      <rect>
        26 13 5 1</rect></_>
    <_>
      <rect>
        27 9 1 1</rect></_>
    <_>
      <rect>
        27 10 11 2</rect></_>
    <_>
      <rect>
        28 7 1 2</rect></_>
    <_>
      <rect>
        28 9 1 3</rect></_>
    <_>
      <rect>
        28 11 1 2</rect></_>
    <_>
      <rect>
        29 7 10 2</rect></_>
    <_>
      <rect>
        29 11 1 2</rect></_>
    <_>
      <rect>
        30 5 8 5</rect></_>
    <_>
      <rect>
        30 7 5 2</rect></_>
    <_>
      <rect>
        31 5 2 1</rect></_>
    <_>
      <rect>
        31 6 5 1</rect></_>
    <_>
      <rect>
        32 4 1 3</rect></_>
    <_>
      <rect>
        32 5 2 1</rect></_>
    <_>
      <rect>
        32 7 5 1</rect></_>
    <_>
      <rect>
        33 4 9 3</rect></_>
    <_>
      <rect>
        33 6 3 1</rect></_>
    <_>
      <rect>
        33 6 4 1</rect></_>
    <_>
      <rect>
        33 7 1 2</rect></_>
    <_>
      <rect>
        33 8 5 1</rect></_>
    <_>
      <rect>
        34 7 5 2</rect></_>
    <_>
      <rect>
        36 11 8 2</rect></_>
    <_>
      <rect>
        38 5 7 5</rect></_>
    <_>
      <rect>
        38 9 7 3</rect></_>
    <_>
      <rect>
        39 10 2 2</rect></_>
    <_>
      <rect>
        40 2 3 1</rect></_>
    <_>
      <rect>
        40 3 3 1</rect></_>
    <_>
      <rect>
        40 9 1 1</rect></_>
    <_>
      <rect>
        40 12 4 1</rect></_>
    <_>
      <rect>
        41 12 6 2</rect></_>
    <_>
      <rect>
        42 4 4 3</rect></_>
    <_>
      <rect>
        42 8 6 4</rect></_>
    <_>
      <rect>
        42 9 1 1</rect></_>
    <_>
      <rect>
        43 8 4 3</rect></_></features></cascade>
</opencv_storage>
