<?xml version="1.0"?>
<opencv_storage>
<stage13>
  <maxWeakCount>6</maxWeakCount>
  <stageThreshold>-1.0245836973190308e+00</stageThreshold>
  <weakClassifiers>
    <_>
      <internalNodes>
        0 -1 33914 -578856161 -243072547 -1983479075 -1952743289
        -606749955 -309622621 -1414818724 -1393558289</internalNodes>
      <leafValues>
        -7.1792155504226685e-01 3.1777378916740417e-01</leafValues></_>
    <_>
      <internalNodes>
        0 -1 22900 -136839270 -754224815 855966366 295632919 -1719016721
        -1370480373 1744990974 2072771274</internalNodes>
      <leafValues>
        -7.3156696557998657e-01 3.6414596438407898e-01</leafValues></_>
    <_>
      <internalNodes>
        0 -1 7257 876634109 -303479981 -1734841123 -13220070 -305599813
        -1350190311 -828310628 -1442301119</internalNodes>
      <leafValues>
        -6.1851733922958374e-01 5.0844258069992065e-01</leafValues></_>
    <_>
      <internalNodes>
        0 -1 11060 -379883273 2034272434 -779517633 1427347740
        1388396849 67395632 1234012923 1526955050</internalNodes>
      <leafValues>
        -7.7819323539733887e-01 3.6552569270133972e-01</leafValues></_>
    <_>
      <internalNodes>
        0 -1 13326 -335025921 277725251 289480119 923495169 1711336915
        805961734 -2083877493 160074395</internalNodes>
      <leafValues>
        -6.5558457374572754e-01 4.7791939973831177e-01</leafValues></_>
    <_>
      <internalNodes>
        0 -1 29489 433197406 -581630895 1091293469 -1383645045 839958755
        -599015294 -670856565 -1163850546</internalNodes>
      <leafValues>
        -7.8771233558654785e-01 4.1240927577018738e-01</leafValues></_></weakClassifiers></stage13>
</opencv_storage>
