<?xml version="1.0"?>
<opencv_storage>
<stage15>
  <maxWeakCount>6</maxWeakCount>
  <stageThreshold>-1.0740962028503418e+00</stageThreshold>
  <weakClassifiers>
    <_>
      <internalNodes>
        0 -1 33531 -641541699 -539273129 -1154289153 -574551921
        -1440583243 -1173815107 -935376035 -71341511</internalNodes>
      <leafValues>
        -7.2052401304244995e-01 2.7397260069847107e-01</leafValues></_>
    <_>
      <internalNodes>
        0 -1 30104 -28501740 -482498339 -802333971 -153829219
        -1431983107 -1735688053 -370677058 -1713824967</internalNodes>
      <leafValues>
        -7.5282019376754761e-01 3.2764866948127747e-01</leafValues></_>
    <_>
      <internalNodes>
        0 -1 750 -1579121 574007699 -1878833970 -997994405 19130935
        1073774987 -590626134 -733746181</internalNodes>
      <leafValues>
        -5.7817012071609497e-01 5.1020169258117676e-01</leafValues></_>
    <_>
      <internalNodes>
        0 -1 27146 -276320762 1750916106 -494599910 -1056464256
        -922517074 942572042 1309632615 1930162706</internalNodes>
      <leafValues>
        -7.3271220922470093e-01 3.8378423452377319e-01</leafValues></_>
    <_>
      <internalNodes>
        0 -1 738 1072937774 -7270263 127448461 -104756437 1359155308
        -662011776 -1190574065 -573859685</internalNodes>
      <leafValues>
        -6.6403782367706299e-01 4.6701467037200928e-01</leafValues></_>
    <_>
      <internalNodes>
        0 -1 19636 1158674175 460139776 -2029975505 12797058 -402620279
        -901134208 303658155 10883302</internalNodes>
      <leafValues>
        -8.3975273370742798e-01 3.8418123126029968e-01</leafValues></_></weakClassifiers></stage15>
</opencv_storage>
