<?xml version="1.0"?>
<opencv_storage>
<stage11>
  <maxWeakCount>5</maxWeakCount>
  <stageThreshold>-1.1288235187530518e+00</stageThreshold>
  <weakClassifiers>
    <_>
      <internalNodes>
        0 -1 1118 -652610066 -573470508 -1894966001 -1625735039
        -1466266977 -1180159830 -1962603845 -74249845</internalNodes>
      <leafValues>
        -7.3529410362243652e-01 3.6496350169181824e-01</leafValues></_>
    <_>
      <internalNodes>
        0 -1 30679 -944394289 -216820580 -1802969619 -717122351
        709821070 -24100730 -1954288918 -19934529</internalNodes>
      <leafValues>
        -6.6987180709838867e-01 4.7504490613937378e-01</leafValues></_>
    <_>
      <internalNodes>
        0 -1 26013 -258993784 1573924040 -578432259 -539261587
        -535942991 -4554104 -2046137877 -1363504952</internalNodes>
      <leafValues>
        -7.0301979780197144e-01 4.6628794074058533e-01</leafValues></_>
    <_>
      <internalNodes>
        0 -1 19575 -1932470017 -113879788 -116057835 -711900104
        -1500826945 -1082654696 -1433818741 -1467067793</internalNodes>
      <leafValues>
        -6.4088767766952515e-01 5.2202165126800537e-01</leafValues></_>
    <_>
      <internalNodes>
        0 -1 26577 -1042295414 1119903880 -2145288192 -1932423033
        -22896121 1115817993 42157472 -1871976513</internalNodes>
      <leafValues>
        -6.4931547641754150e-01 5.5400484800338745e-01</leafValues></_></weakClassifiers></stage11>
</opencv_storage>
