<?xml version="1.0"?>
<opencv_storage>
<stage12>
  <maxWeakCount>7</maxWeakCount>
  <stageThreshold>-1.4041024446487427e+00</stageThreshold>
  <weakClassifiers>
    <_>
      <internalNodes>
        0 -1 767 -270533121 -574221549 -788504334 -141112230 1350771374
        -660398069 -1108430385 -11013137</internalNodes>
      <leafValues>
        -6.6199815273284912e-01 4.8717948794364929e-01</leafValues></_>
    <_>
      <internalNodes>
        0 -1 16287 -1659855812 1033601177 -1852762725 -1622654475
        -1164381954 -1149103991 -1961698821 169756764</internalNodes>
      <leafValues>
        -7.8347623348236084e-01 3.7370654940605164e-01</leafValues></_>
    <_>
      <internalNodes>
        0 -1 33319 -1653580847 -1311536835 -736636641 -1248782081
        -1710637575 -48512663 -1995835397 -1147381400</internalNodes>
      <leafValues>
        -6.1119645833969116e-01 5.3230446577072144e-01</leafValues></_>
    <_>
      <internalNodes>
        0 -1 30184 1843218572 -114321189 -267529761 1586319507
        -872174968 -1482772312 -2069397366 -1893730629</internalNodes>
      <leafValues>
        -7.0957201719284058e-01 4.6611636877059937e-01</leafValues></_>
    <_>
      <internalNodes>
        0 -1 33100 1894748812 1074582532 -2126229498 -1063300317 428
        403179648 425202670 -13649106</internalNodes>
      <leafValues>
        -7.5988090038299561e-01 4.4558203220367432e-01</leafValues></_>
    <_>
      <internalNodes>
        0 -1 24483 -812259350 2006532399 -1316982672 -649357105
        1082434048 830473221 -2094472741 2076408799</internalNodes>
      <leafValues>
        -7.1919196844100952e-01 4.7328069806098938e-01</leafValues></_>
    <_>
      <internalNodes>
        0 -1 260 -530135958 -131899117 -1601665909 -384593775 34150997
        -843414003 -368864548 -2069146293</internalNodes>
      <leafValues>
        -6.8674981594085693e-01 4.9155783653259277e-01</leafValues></_></weakClassifiers></stage12>
</opencv_storage>
