<?xml version="1.0"?>
<opencv_storage>
<stage14>
  <maxWeakCount>7</maxWeakCount>
  <stageThreshold>-1.3414252996444702e+00</stageThreshold>
  <weakClassifiers>
    <_>
      <internalNodes>
        0 -1 27286 -2098210 -1749516022 1462800 -144932682 -804722476
        428378401 1485414624 -4197493</internalNodes>
      <leafValues>
        -7.5170844793319702e-01 2.5723472237586975e-01</leafValues></_>
    <_>
      <internalNodes>
        0 -1 1665 1315860415 -46546926 -1953398647 -1279201069
        -152320517 -108527088 -392503152 -846996809</internalNodes>
      <leafValues>
        -6.1047345399856567e-01 4.4224631786346436e-01</leafValues></_>
    <_>
      <internalNodes>
        0 -1 30133 -833361142 -653167733 1882243081 -133439357
        -267164037 -383530877 1900665350 1145799170</internalNodes>
      <leafValues>
        -7.1204239130020142e-01 3.8617342710494995e-01</leafValues></_>
    <_>
      <internalNodes>
        0 -1 21574 -1723301894 -1717878381 -2147401369 1566071504
        -670787682 -1400249207 -2007964068 -1894250320</internalNodes>
      <leafValues>
        -7.5494438409805298e-01 4.0310257673263550e-01</leafValues></_>
    <_>
      <internalNodes>
        0 -1 23588 -251670209 1493337473 -41872899 -1852030701
        1770776981 -83197689 -1952755318 281784863</internalNodes>
      <leafValues>
        -6.0758477449417114e-01 5.4335314035415649e-01</leafValues></_>
    <_>
      <internalNodes>
        0 -1 20476 1700151775 -611319755 -1818900385 357605432
        -2075669888 -370048768 -1704869420 -1870119418</internalNodes>
      <leafValues>
        -5.9033030271530151e-01 5.3574585914611816e-01</leafValues></_>
    <_>
      <internalNodes>
        0 -1 34227 -273685726 -2129084135 -2145791482 -1849482925
        -402202319 1099436096 17555978 -38024502</internalNodes>
      <leafValues>
        -5.8472442626953125e-01 5.3472286462783813e-01</leafValues></_></weakClassifiers></stage14>
</opencv_storage>
