<?xml version="1.0"?>
<opencv_storage>
<stage11>
  <maxWeakCount>15</maxWeakCount>
  <stageThreshold>-4.3385112285614014e-01</stageThreshold>
  <weakClassifiers>
    <_>
      <internalNodes>
        0 -1 34262 -34611875 1551892469 -285219059 -2047148298
        -1212194883 905969079 -570620604 352320973</internalNodes>
      <leafValues>
        -9.7276262938976288e-02 8.0500894784927368e-01</leafValues></_>
    <_>
      <internalNodes>
        0 -1 28421 -12583076 -1140850817 -1074465411 -4587717 -276856424
        -1409290369 417892552 549248239</internalNodes>
      <leafValues>
        -4.2650932073593140e-01 5.6962198019027710e-01</leafValues></_>
    <_>
      <internalNodes>
        0 -1 922 1788528878 35799100 -324640057 -1953601650 -1451158571
        -16007120 -245647329 -1343237733</internalNodes>
      <leafValues>
        -4.9343919754028320e-01 4.4966387748718262e-01</leafValues></_>
    <_>
      <internalNodes>
        0 -1 16899 1895363835 -720891368 218160473 420478977 -1336174372
        -1088782302 136948555 149669551</internalNodes>
      <leafValues>
        -4.6018081903457642e-01 4.3522557616233826e-01</leafValues></_>
    <_>
      <internalNodes>
        0 -1 32655 -1040989952 34570287 0 -1035763388 1935182415 213666
        899350562 -207097349</internalNodes>
      <leafValues>
        -4.9181485176086426e-01 4.0739861130714417e-01</leafValues></_>
    <_>
      <internalNodes>
        0 -1 35805 -451420382 1953669893 -452804331 -1855598543
        -2109359971 -846487543 1620478346 537060098</internalNodes>
      <leafValues>
        -5.0751006603240967e-01 4.0929090976715088e-01</leafValues></_>
    <_>
      <internalNodes>
        0 -1 33136 -402981231 769327070 2147479451 2079195001
        -1610621015 -595591301 -1107460647 -587202563</internalNodes>
      <leafValues>
        -4.2704725265502930e-01 4.9840018153190613e-01</leafValues></_>
    <_>
      <internalNodes>
        0 -1 34875 -146021888 1094846530 -2145890304 2139803908
        -1274680427 67174426 -486530678 -3161909</internalNodes>
      <leafValues>
        -4.3085506558418274e-01 4.9384030699729919e-01</leafValues></_>
    <_>
      <internalNodes>
        0 -1 32415 337780021 -122437487 -241109729 -1257108672
        -1207177027 -1970306925 193426396 179832088</internalNodes>
      <leafValues>
        -6.1352622509002686e-01 3.3215752243995667e-01</leafValues></_>
    <_>
      <internalNodes>
        0 -1 33471 -303044348 17359362 -2134867950 1904050250 672281387
        109797510 -486341974 -469769634</internalNodes>
      <leafValues>
        -4.8422625660896301e-01 4.2146340012550354e-01</leafValues></_>
    <_>
      <internalNodes>
        0 -1 19512 -1723313921 -318762446 -1074331657 -1660873806
        -335609871 -1107644450 2058223615 -657801053</internalNodes>
      <leafValues>
        -3.9918035268783569e-01 5.0852715969085693e-01</leafValues></_>
    <_>
      <internalNodes>
        0 -1 1132 1867951814 109283331 -1475082785 1251483883
        -1752098583 -14776189 -805175065 -29185689</internalNodes>
      <leafValues>
        -4.9089401960372925e-01 4.1603001952171326e-01</leafValues></_>
    <_>
      <internalNodes>
        0 -1 27060 -2073995137 -1249820245 -703504101 -41926638
        -125771213 -905314304 -419366221 -1170924289</internalNodes>
      <leafValues>
        -4.4513902068138123e-01 4.6836343407630920e-01</leafValues></_>
    <_>
      <internalNodes>
        0 -1 18983 -603417960 58724889 -1878961737 758982165 1124103071
        -1911023560 -2087931272 219040314</internalNodes>
      <leafValues>
        -5.3303718566894531e-01 3.8618394732475281e-01</leafValues></_>
    <_>
      <internalNodes>
        0 -1 20508 -867311382 356615125 8322 -111980266 1133224590
        906143490 22606763 1929630127</internalNodes>
      <leafValues>
        -5.1643598079681396e-01 3.9814293384552002e-01</leafValues></_></weakClassifiers></stage11>
</opencv_storage>
