<?xml version="1.0"?>
<opencv_storage>
<stage8>
  <maxWeakCount>13</maxWeakCount>
  <stageThreshold>-4.6660700440406799e-01</stageThreshold>
  <weakClassifiers>
    <_>
      <internalNodes>
        0 -1 23608 -562050560 -33185 1660645592 -1077975322 -403706268
        -536870915 -1258489106 -138444914</internalNodes>
      <leafValues>
        -1.7916665971279144e-01 8.0881059169769287e-01</leafValues></_>
    <_>
      <internalNodes>
        0 -1 639 2103508990 -3346442 -1073938434 -5701634 1571880950
        -542883843 2096988159 -4390913</internalNodes>
      <leafValues>
        -5.0797259807586670e-01 5.7860291004180908e-01</leafValues></_>
    <_>
      <internalNodes>
        0 -1 24400 -898050338 -547327297 -1141182689 1598034224
        -957370549 -548430402 -663116195 -13763898</internalNodes>
      <leafValues>
        -4.3295928835868835e-01 5.5470412969589233e-01</leafValues></_>
    <_>
      <internalNodes>
        0 -1 34062 -83888333 842513975 -1073741833 -402915337
        -1216366677 -1292369925 -336413134 -1204814019</internalNodes>
      <leafValues>
        -4.0997201204299927e-01 5.3190302848815918e-01</leafValues></_>
    <_>
      <internalNodes>
        0 -1 17000 -105385234 1351041030 168102080 434487961 1610941344
        1073745952 -1995886422 2059135935</internalNodes>
      <leafValues>
        -4.5590266585350037e-01 4.9529594182968140e-01</leafValues></_>
    <_>
      <internalNodes>
        0 -1 28847 387716149 -714466859 -1190571555 -1749671866
        -1685472855 -1081964343 172656890 -1096284884</internalNodes>
      <leafValues>
        -5.5641198158264160e-01 3.8597393035888672e-01</leafValues></_>
    <_>
      <internalNodes>
        0 -1 33825 -1562648574 1623322882 -2138791896 -791242294
        1907089931 100734472 1896833091 -402658835</internalNodes>
      <leafValues>
        -4.8529130220413208e-01 4.3370631337165833e-01</leafValues></_>
    <_>
      <internalNodes>
        0 -1 23633 -67132982 1935380672 1090584648 328831446 269660250
        50479114 -1073700342 54262235</internalNodes>
      <leafValues>
        -5.1728665828704834e-01 4.0169006586074829e-01</leafValues></_>
    <_>
      <internalNodes>
        0 -1 2475 -1244650019 -306364325 -1810815813 -1717386981
        -665429067 -1718884224 -578779075 -1911536840</internalNodes>
      <leafValues>
        -4.6475830674171448e-01 4.5838403701782227e-01</leafValues></_>
    <_>
      <internalNodes>
        0 -1 34227 -290594046 1403321642 -425327872 -748525652
        -143146611 259479151 -1216895228 -72355362</internalNodes>
      <leafValues>
        -4.2091223597526550e-01 4.9965140223503113e-01</leafValues></_>
    <_>
      <internalNodes>
        0 -1 59 -603133358 -79183744 -150773745 -246300344 -359988752
        -251658103 2013987522 -285256640</internalNodes>
      <leafValues>
        -5.1582670211791992e-01 4.2118203639984131e-01</leafValues></_>
    <_>
      <internalNodes>
        0 -1 19442 402661583 297812000 -910225323 420118656 -1715545981
        -1878898688 -1182168901 -1696010001</internalNodes>
      <leafValues>
        -5.7131218910217285e-01 3.9224812388420105e-01</leafValues></_>
    <_>
      <internalNodes>
        0 -1 34661 2134225850 -785673718 -1073147253 1162150166
        -939503483 59375688 -1065123624 994684858</internalNodes>
      <leafValues>
        -5.3278678655624390e-01 4.0149387717247009e-01</leafValues></_></weakClassifiers></stage8>
</opencv_storage>
