<?xml version="1.0"?>
<opencv_storage>
<stage19>
  <maxWeakCount>12</maxWeakCount>
  <stageThreshold>-1.0882087945938110e+00</stageThreshold>
  <weakClassifiers>
    <_>
      <internalNodes>
        0 -1 28320 211354837 -1688567884 -311427 -1343545490 -555974699
        -805830657 1073545214 -1364907891</internalNodes>
      <leafValues>
        -3.4542314708232880e-02 8.1529247760772705e-01</leafValues></_>
    <_>
      <internalNodes>
        0 -1 1075 -731285840 -1419198939 1861119654 -1715736930 -797281
        -1961339022 1070552923 -294418557</internalNodes>
      <leafValues>
        -3.0490779876708984e-01 6.6208815574645996e-01</leafValues></_>
    <_>
      <internalNodes>
        0 -1 24440 -200674858 -751664576 -1163707886 292821570
        -2008366392 -1943959488 1211769991 -11546209</internalNodes>
      <leafValues>
        -3.4493574500083923e-01 7.1913331747055054e-01</leafValues></_>
    <_>
      <internalNodes>
        0 -1 36465 -95958270 -570375024 1140883472 1346424842
        -2146926000 -796393472 302156161 1082180390</internalNodes>
      <leafValues>
        -4.7483080625534058e-01 5.3294044733047485e-01</leafValues></_>
    <_>
      <internalNodes>
        0 -1 11044 -780078894 2098299520 345 -787415037 -2147215320
        -2139062264 9029768 1513312603</internalNodes>
      <leafValues>
        -4.8104414343833923e-01 5.1262348890304565e-01</leafValues></_>
    <_>
      <internalNodes>
        0 -1 31808 -612501336 1648667433 -1288396680 285220537
        -1217100566 171334372 489878122 -1170258741</internalNodes>
      <leafValues>
        -4.2610368132591248e-01 5.8121997117996216e-01</leafValues></_>
    <_>
      <internalNodes>
        0 -1 31142 -9580011 -1242239116 -197109 -16982019 712311877
        -1358987401 72551577 -54964719</internalNodes>
      <leafValues>
        -4.0978848934173584e-01 5.6790220737457275e-01</leafValues></_>
    <_>
      <internalNodes>
        0 -1 11036 -646851704 -209770689 543568305 2006428842 286856
        -1626319346 1229055224 1497341839</internalNodes>
      <leafValues>
        -3.8574060797691345e-01 6.0012620687484741e-01</leafValues></_>
    <_>
      <internalNodes>
        0 -1 748 -1073225714 8634458 84017436 1879343104 -536328190
        210501672 -2144531296 -459623807</internalNodes>
      <leafValues>
        -5.6733214855194092e-01 4.2127937078475952e-01</leafValues></_>
    <_>
      <internalNodes>
        0 -1 19847 2031106152 558892060 1107297304 1527451686
        -1031176006 -2013265408 -1035974133 222972161</internalNodes>
      <leafValues>
        -5.6338948011398315e-01 4.1537600755691528e-01</leafValues></_>
    <_>
      <internalNodes>
        0 -1 11166 1619118080 -984853231 419681412 1476464642 134217992
        -515899240 536928715 2072701698</internalNodes>
      <leafValues>
        -5.4106944799423218e-01 4.7270932793617249e-01</leafValues></_>
    <_>
      <internalNodes>
        0 -1 35134 268657056 1343508757 -1023409984 1476444328
        -2012708697 235405320 134910347 352461547</internalNodes>
      <leafValues>
        -6.1245363950729370e-01 4.0893876552581787e-01</leafValues></_></weakClassifiers></stage19>
</opencv_storage>
