<?xml version="1.0"?>
<opencv_storage>
<stage2>
  <maxWeakCount>7</maxWeakCount>
  <stageThreshold>-5.5476224422454834e-01</stageThreshold>
  <weakClassifiers>
    <_>
      <internalNodes>
        0 -1 19006 -1325900548 -475664 1073627069 2138377716 -1079443457
        -67321876 -269434885 201327648</internalNodes>
      <leafValues>
        -6.0542541742324829e-01 8.5114097595214844e-01</leafValues></_>
    <_>
      <internalNodes>
        0 -1 10752 276828405 1475613951 2147385343 528418301 184183551
        -17055745 -2131757057 989532415</internalNodes>
      <leafValues>
        -6.3369530439376831e-01 7.3534244298934937e-01</leafValues></_>
    <_>
      <internalNodes>
        0 -1 25020 -796729606 -143574786 -138756099 -683008062
        -613482514 -344065 -10813443 -104404785</internalNodes>
      <leafValues>
        -5.4399001598358154e-01 7.0124471187591553e-01</leafValues></_>
    <_>
      <internalNodes>
        0 -1 21858 278420981 -76120582 1073429503 -14807749 -1129005315
        -4407841 -1741153283 -1346895819</internalNodes>
      <leafValues>
        -5.0505810976028442e-01 7.2080802917480469e-01</leafValues></_>
    <_>
      <internalNodes>
        0 -1 27813 -111163136 -1263534010 -2130706423 -44363497
        -388192344 -1473347412 -875705446 -1077941617</internalNodes>
      <leafValues>
        -6.5941542387008667e-01 5.6177461147308350e-01</leafValues></_>
    <_>
      <internalNodes>
        0 -1 15348 681578644 287244545 139582453 487885137 -2011686742
        -74415736 -2012075013 -1417148264</internalNodes>
      <leafValues>
        -5.5627566576004028e-01 5.9329670667648315e-01</leafValues></_>
    <_>
      <internalNodes>
        0 -1 492 -993311666 -539021698 738094124 -16882006 -533331886
        -16842802 101699567 -536883410</internalNodes>
      <leafValues>
        -5.7335633039474487e-01 5.7833528518676758e-01</leafValues></_></weakClassifiers></stage2>
</opencv_storage>
