<?xml version="1.0"?>
<opencv_storage>
<stage10>
  <maxWeakCount>14</maxWeakCount>
  <stageThreshold>-5.9992551803588867e-01</stageThreshold>
  <weakClassifiers>
    <_>
      <internalNodes>
        0 -1 28974 -65333248 -33652740 -67764771 -101228564 -36965383
        -8462337 -1335960324 -35849044</internalNodes>
      <leafValues>
        -6.7518249154090881e-02 8.1153494119644165e-01</leafValues></_>
    <_>
      <internalNodes>
        0 -1 1078 -344992796 1899052779 -2110018 -1184895233 -704684563
        -1827094664 -134357094 -100694086</internalNodes>
      <leafValues>
        -3.7089154124259949e-01 6.5049964189529419e-01</leafValues></_>
    <_>
      <internalNodes>
        0 -1 30679 -843591697 -278529 213838463 -621838371 185305738
        -284324561 183216334 -886048001</internalNodes>
      <leafValues>
        -3.7683272361755371e-01 5.9359967708587646e-01</leafValues></_>
    <_>
      <internalNodes>
        0 -1 15812 1929507295 1398221776 -34340873 2040265465 -136579077
        -353370386 -207487173 -614472709</internalNodes>
      <leafValues>
        -3.0761453509330750e-01 6.6881549358367920e-01</leafValues></_>
    <_>
      <internalNodes>
        0 -1 1039 -60363538 -541716769 776482435 -487544 1972852422
        -537403404 -671334465 -280817825</internalNodes>
      <leafValues>
        -4.3371245265007019e-01 4.5974242687225342e-01</leafValues></_>
    <_>
      <internalNodes>
        0 -1 34833 -1996490447 -2143233780 -733132524 1354776779
        -2013099819 -100499321 -930430288 -123430405</internalNodes>
      <leafValues>
        -4.3901056051254272e-01 4.4015809893608093e-01</leafValues></_>
    <_>
      <internalNodes>
        0 -1 30097 -863780318 -33624505 -268441029 -4457664 -823394745
        -285327506 234327790 -2112380414</internalNodes>
      <leafValues>
        -4.2513328790664673e-01 4.8490071296691895e-01</leafValues></_>
    <_>
      <internalNodes>
        0 -1 34331 1023966677 1032149009 1636858811 1535889625
        -2098797894 -911273846 -1979119268 -1634184948</internalNodes>
      <leafValues>
        -4.7831869125366211e-01 4.5324257016181946e-01</leafValues></_>
    <_>
      <internalNodes>
        0 -1 24620 18358428 -1689018008 84263755 1599975765 591958206
        -1976923336 -578518789 -1737879492</internalNodes>
      <leafValues>
        -5.4627370834350586e-01 3.7230214476585388e-01</leafValues></_>
    <_>
      <internalNodes>
        0 -1 25801 -445776754 1406131010 -1976845738 1368096768
        1574432746 1287847882 2010343323 -803737405</internalNodes>
      <leafValues>
        -4.1807538270950317e-01 4.8650863766670227e-01</leafValues></_>
    <_>
      <internalNodes>
        0 -1 21169 -1473752900 -44839933 1493293585 -1249689280
        -1202673215 -1160777655 -2146242405 685662890</internalNodes>
      <leafValues>
        -5.1630055904388428e-01 3.8439986109733582e-01</leafValues></_>
    <_>
      <internalNodes>
        0 -1 590 -955593598 -37649792 285297777 -1081818924 2034989469
        -1647468530 1329828213 -831561481</internalNodes>
      <leafValues>
        -4.4300079345703125e-01 4.4977995753288269e-01</leafValues></_>
    <_>
      <internalNodes>
        0 -1 34971 1052267581 71323665 -1856826789 -1656438700 42645757
        -930398177 -2104882824 533208528</internalNodes>
      <leafValues>
        -6.2084358930587769e-01 3.4967210888862610e-01</leafValues></_>
    <_>
      <internalNodes>
        0 -1 35135 811053710 943968706 19214338 -440106739 1086742533
        325189809 -320339225 361689998</internalNodes>
      <leafValues>
        -6.2328350543975830e-01 3.3656281232833862e-01</leafValues></_></weakClassifiers></stage10>
</opencv_storage>
