<?xml version="1.0"?>
<opencv_storage>
<stage18>
  <maxWeakCount>17</maxWeakCount>
  <stageThreshold>-6.7292737960815430e-01</stageThreshold>
  <weakClassifiers>
    <_>
      <internalNodes>
        0 -1 28320 67835351 -1613742154 -262275 -1091624978 -1612939401
        -805306369 -1073938434 -1397478770</internalNodes>
      <leafValues>
        4.8986487090587616e-02 7.9749768972396851e-01</leafValues></_>
    <_>
      <internalNodes>
        0 -1 20416 -117711681 -49711822 963641343 1562537926 -1866613378
        -1144670754 -1971847689 6406271</internalNodes>
      <leafValues>
        -2.5968113541603088e-01 5.9912830591201782e-01</leafValues></_>
    <_>
      <internalNodes>
        0 -1 24570 -801913929 281093587 -1076660513 362487273
        -2064378721 141235602 -1258426193 463467771</internalNodes>
      <leafValues>
        -3.8409850001335144e-01 4.6870765089988708e-01</leafValues></_>
    <_>
      <internalNodes>
        0 -1 46 -825824538 -251273199 -1860115493 -753172221 -494835108
        -2147442686 -1073641382 -504534012</internalNodes>
      <leafValues>
        -4.8817688226699829e-01 3.8122299313545227e-01</leafValues></_>
    <_>
      <internalNodes>
        0 -1 27856 -181884402 -1457487597 8741760 50368907 587772416
        186122752 1496009120 1809820650</internalNodes>
      <leafValues>
        -5.3239512443542480e-01 3.1525313854217529e-01</leafValues></_>
    <_>
      <internalNodes>
        0 -1 34149 1124852325 293681920 34318401 134334617 -2013134103
        310935560 33727176 -1458593623</internalNodes>
      <leafValues>
        -5.9953135251998901e-01 2.4465009570121765e-01</leafValues></_>
    <_>
      <internalNodes>
        0 -1 30646 -1348250761 -1375854189 -2139062053 -782217181
        1073742849 -2002712439 155730369 -334273241</internalNodes>
      <leafValues>
        -4.4579863548278809e-01 3.6981377005577087e-01</leafValues></_>
    <_>
      <internalNodes>
        0 -1 34835 -412106365 1357630953 -1561427320 -571810618
        -1596201043 707624911 -1220284673 -68419665</internalNodes>
      <leafValues>
        -2.6968315243721008e-01 6.6553986072540283e-01</leafValues></_>
    <_>
      <internalNodes>
        0 -1 14354 1426086293 -1791688483 364855293 871451873 -13070853
        -35978058 -1180561445 -1618118827</internalNodes>
      <leafValues>
        -2.3484690487384796e-01 6.5060997009277344e-01</leafValues></_>
    <_>
      <internalNodes>
        0 -1 21323 -938548733 1096450359 16793815 -1748465524 -100417369
        214433920 805634116 -786553889</internalNodes>
      <leafValues>
        -3.6313036084175110e-01 4.4102305173873901e-01</leafValues></_>
    <_>
      <internalNodes>
        0 -1 5557 -113186089 -67884346 2062380915 -855468390 950175898
        -733990719 1425275821 1532721354</internalNodes>
      <leafValues>
        -3.4027409553527832e-01 4.9693384766578674e-01</leafValues></_>
    <_>
      <internalNodes>
        0 -1 1887 253561879 176292290 1476757207 679133338 1766023437
        1008205920 -217101983 -798995788</internalNodes>
      <leafValues>
        -5.1785635948181152e-01 3.1410837173461914e-01</leafValues></_>
    <_>
      <internalNodes>
        0 -1 23076 -170356307 -1411350186 1090584724 1300234246
        -519569266 503447712 850309602 -1901442869</internalNodes>
      <leafValues>
        -3.7169453501701355e-01 4.3525511026382446e-01</leafValues></_>
    <_>
      <internalNodes>
        0 -1 34593 -721145404 -645644152 -2147476196 1695646225
        -1056916996 1283457056 143650472 -1631191024</internalNodes>
      <leafValues>
        -4.4396162033081055e-01 3.6907553672790527e-01</leafValues></_>
    <_>
      <internalNodes>
        0 -1 35266 83906901 134308184 26316985 890307153 138959881
        -1947200447 -1568537674 927481916</internalNodes>
      <leafValues>
        -5.7767301797866821e-01 2.8593817353248596e-01</leafValues></_>
    <_>
      <internalNodes>
        0 -1 11074 1982976187 1594353567 -1761366307 588856619
        -672740352 -686674308 -810854932 1242612445</internalNodes>
      <leafValues>
        -3.8291168212890625e-01 4.7360527515411377e-01</leafValues></_>
    <_>
      <internalNodes>
        0 -1 15279 1522643250 -873718479 107252563 1411118828 401901711
        -69839737 1888752019 248360888</internalNodes>
      <leafValues>
        -3.6616456508636475e-01 4.6560606360435486e-01</leafValues></_></weakClassifiers></stage18>
</opencv_storage>
