<?xml version="1.0"?>
<opencv_storage>
<stage17>
  <maxWeakCount>16</maxWeakCount>
  <stageThreshold>-3.6376631259918213e-01</stageThreshold>
  <weakClassifiers>
    <_>
      <internalNodes>
        0 -1 30108 -650706944 -243781 -16957848 -1077969035 -1388720892
        -1157627921 -329433020 -130438071</internalNodes>
      <leafValues>
        -1.1664482206106186e-01 7.5765252113342285e-01</leafValues></_>
    <_>
      <internalNodes>
        0 -1 920 -1120530 -864310 -302486302 1227419630 -554305616
        -705398985 764612309 -9961888</internalNodes>
      <leafValues>
        -4.1156929731369019e-01 5.0316572189331055e-01</leafValues></_>
    <_>
      <internalNodes>
        0 -1 27106 -431570934 -1279536254 -135411823 -500443903
        1046603710 -68182106 -277624866 -749472253</internalNodes>
      <leafValues>
        -4.0870124101638794e-01 4.7394022345542908e-01</leafValues></_>
    <_>
      <internalNodes>
        0 -1 16903 -655372035 -658496247 -1846302989 352714493
        -1897995522 -3178641 787742199 -2002196625</internalNodes>
      <leafValues>
        -3.2485684752464294e-01 5.5244386196136475e-01</leafValues></_>
    <_>
      <internalNodes>
        0 -1 33447 -445650398 1374400015 -940635392 -961742993
        1650324264 78850029 -463526462 -201330705</internalNodes>
      <leafValues>
        -4.0218836069107056e-01 4.2235565185546875e-01</leafValues></_>
    <_>
      <internalNodes>
        0 -1 13378 102269364 -1827143140 1095864571 488247936 -913571159
        -125632308 -1182786657 134760584</internalNodes>
      <leafValues>
        -6.2196183204650879e-01 2.6046794652938843e-01</leafValues></_>
    <_>
      <internalNodes>
        0 -1 34005 947918493 -1178213295 296962533 1703069441
        -1844254485 -611830560 1435239300 -1970255424</internalNodes>
      <leafValues>
        -5.3857284784317017e-01 2.8473928570747375e-01</leafValues></_>
    <_>
      <internalNodes>
        0 -1 34855 -353408926 1092799204 547718146 1372082968
        -1021193790 71450632 -431246154 1401945039</internalNodes>
      <leafValues>
        -4.8177161812782288e-01 3.5106399655342102e-01</leafValues></_>
    <_>
      <internalNodes>
        0 -1 19720 -288455936 776348072 1220542504 63218320 1213245931
        134742305 436302332 1475324679</internalNodes>
      <leafValues>
        -5.4869526624679565e-01 2.9713460803031921e-01</leafValues></_>
    <_>
      <internalNodes>
        0 -1 13930 438916371 -716484341 1098962588 2131673299 466576275
        -863463295 -545004013 -1160089451</internalNodes>
      <leafValues>
        -4.3914780020713806e-01 3.8702514767646790e-01</leafValues></_>
    <_>
      <internalNodes>
        0 -1 11062 -636150311 -938653588 200795 -48766607 -1972725507
        973340672 -1839054709 721420473</internalNodes>
      <leafValues>
        -4.0867221355438232e-01 4.2679703235626221e-01</leafValues></_>
    <_>
      <internalNodes>
        0 -1 33075 -420827390 1301581571 -2004139456 -784211646
        1109516907 17539328 -1547611482 -1819544402</internalNodes>
      <leafValues>
        -4.5500463247299194e-01 3.8552418351173401e-01</leafValues></_>
    <_>
      <internalNodes>
        0 -1 21379 -881067750 1900394536 420351386 457561958 1666040554
        248250410 940100555 -69408839</internalNodes>
      <leafValues>
        -3.5705012083053589e-01 4.8499974608421326e-01</leafValues></_>
    <_>
      <internalNodes>
        0 -1 34604 -1065166380 25239552 1342376025 907231240 -2130449603
        8598221 1066799101 1014737133</internalNodes>
      <leafValues>
        -5.1044768095016479e-01 3.4797626733779907e-01</leafValues></_>
    <_>
      <internalNodes>
        0 -1 30091 -695863965 -1874067449 -1866462617 1146888713
        -868202203 -1869870910 218630487 424364331</internalNodes>
      <leafValues>
        -5.0220352411270142e-01 3.6562016606330872e-01</leafValues></_>
    <_>
      <internalNodes>
        0 -1 24389 1473183872 1342886594 -804749271 1911227024 462213416
        1343258688 -1576630134 1596325437</internalNodes>
      <leafValues>
        -5.9881412982940674e-01 3.0284038186073303e-01</leafValues></_></weakClassifiers></stage17>
</opencv_storage>
