<?xml version="1.0"?>
<opencv_storage>
<cascade>
  <stageType>BOOST</stageType>
  <featureType>HAAR</featureType>
  <height>20</height>
  <width>60</width>
  <stageParams>
    <boostType>GAB</boostType>
    <minHitRate>9.9900001287460327e-01</minHitRate>
    <maxFalseAlarm>4.0000000596046448e-01</maxFalseAlarm>
    <weightTrimRate>9.4999999999999996e-01</weightTrimRate>
    <maxDepth>1</maxDepth>
    <maxWeakCount>100</maxWeakCount></stageParams>
  <featureParams>
    <maxCatCount>0</maxCatCount>
    <featSize>1</featSize>
    <mode>ALL</mode></featureParams>
  <stageNum>14</stageNum>
  <stages>
    <!-- stage 0 -->
    <_>
      <maxWeakCount>6</maxWeakCount>
      <stageThreshold>-1.5074659585952759e+00</stageThreshold>
      <weakClassifiers>
        <_>
          <internalNodes>
            0 -1 10 1.2059050798416138e-01</internalNodes>
          <leafValues>
            -8.5319352149963379e-01 8.7583148479461670e-01</leafValues></_>
        <_>
          <internalNodes>
            0 -1 43 -2.3873183876276016e-02</internalNodes>
          <leafValues>
            8.4831660985946655e-01 -6.3979595899581909e-01</leafValues></_>
        <_>
          <internalNodes>
            0 -1 152 -4.3007796630263329e-03</internalNodes>
          <leafValues>
            5.5927217006683350e-01 -7.6851701736450195e-01</leafValues></_>
        <_>
          <internalNodes>
            0 -1 148 -2.1550862118601799e-02</internalNodes>
          <leafValues>
            6.1518043279647827e-01 -5.9421157836914063e-01</leafValues></_>
        <_>
          <internalNodes>
            0 -1 109 3.1764997402206063e-04</internalNodes>
          <leafValues>
            -6.7540794610977173e-01 4.9138620495796204e-01</leafValues></_>
        <_>
          <internalNodes>
            0 -1 13 8.8445231085643172e-04</internalNodes>
          <leafValues>
            -3.5252615809440613e-01 8.4476238489151001e-01</leafValues></_></weakClassifiers></_>
    <!-- stage 1 -->
    <_>
      <maxWeakCount>7</maxWeakCount>
      <stageThreshold>-1.1453151702880859e+00</stageThreshold>
      <weakClassifiers>
        <_>
          <internalNodes>
            0 -1 137 2.8733616694808006e-02</internalNodes>
          <leafValues>
            -8.0065715312957764e-01 3.9352640509605408e-01</leafValues></_>
        <_>
          <internalNodes>
            0 -1 64 1.0638518258929253e-02</internalNodes>
          <leafValues>
            -7.7530574798583984e-01 3.1469726562500000e-01</leafValues></_>
        <_>
          <internalNodes>
            0 -1 98 1.0331604862585664e-03</internalNodes>
          <leafValues>
            -5.6300449371337891e-01 4.4802698493003845e-01</leafValues></_>
        <_>
          <internalNodes>
            0 -1 2 3.0247725546360016e-02</internalNodes>
          <leafValues>
            -3.4966772794723511e-01 7.4681413173675537e-01</leafValues></_>
        <_>
          <internalNodes>
            0 -1 24 5.4464850109070539e-04</internalNodes>
          <leafValues>
            3.2886850833892822e-01 -8.4475934505462646e-01</leafValues></_>
        <_>
          <internalNodes>
            0 -1 53 7.2639109566807747e-04</internalNodes>
          <leafValues>
            -3.0545917153358459e-01 8.2305610179901123e-01</leafValues></_>
        <_>
          <internalNodes>
            0 -1 100 -9.5592271536588669e-03</internalNodes>
          <leafValues>
            -7.8198063373565674e-01 3.0887910723686218e-01</leafValues></_></weakClassifiers></_>
    <!-- stage 2 -->
    <_>
      <maxWeakCount>6</maxWeakCount>
      <stageThreshold>-1.3879388570785522e+00</stageThreshold>
      <weakClassifiers>
        <_>
          <internalNodes>
            0 -1 29 7.6546460390090942e-02</internalNodes>
          <leafValues>
            -7.8145086765289307e-01 8.5401457548141479e-01</leafValues></_>
        <_>
          <internalNodes>
            0 -1 21 -9.6060231328010559e-02</internalNodes>
          <leafValues>
            8.6500340700149536e-01 -5.5499601364135742e-01</leafValues></_>
        <_>
          <internalNodes>
            0 -1 37 -5.8423228561878204e-02</internalNodes>
          <leafValues>
            7.1740269660949707e-01 -3.8224980235099792e-01</leafValues></_>
        <_>
          <internalNodes>
            0 -1 65 4.2237482964992523e-02</internalNodes>
          <leafValues>
            3.0900654196739197e-01 -9.2547601461410522e-01</leafValues></_>
        <_>
          <internalNodes>
            0 -1 47 1.0526054538786411e-02</internalNodes>
          <leafValues>
            -3.4035024046897888e-01 9.1858673095703125e-01</leafValues></_>
        <_>
          <internalNodes>
            0 -1 46 -8.1466708797961473e-04</internalNodes>
          <leafValues>
            -9.3817490339279175e-01 3.6210149526596069e-01</leafValues></_></weakClassifiers></_>
    <!-- stage 3 -->
    <_>
      <maxWeakCount>9</maxWeakCount>
      <stageThreshold>-1.4955652952194214e+00</stageThreshold>
      <weakClassifiers>
        <_>
          <internalNodes>
            0 -1 42 -1.3603174686431885e-01</internalNodes>
          <leafValues>
            4.1894736886024475e-01 -6.8195122480392456e-01</leafValues></_>
        <_>
          <internalNodes>
            0 -1 83 7.7103385701775551e-03</internalNodes>
          <leafValues>
            -6.0533559322357178e-01 5.0826704502105713e-01</leafValues></_>
        <_>
          <internalNodes>
            0 -1 14 -8.9917115867137909e-02</internalNodes>
          <leafValues>
            5.6941205263137817e-01 -4.0774118900299072e-01</leafValues></_>
        <_>
          <internalNodes>
            0 -1 149 -3.5911165177822113e-02</internalNodes>
          <leafValues>
            6.0129070281982422e-01 -3.6922496557235718e-01</leafValues></_>
        <_>
          <internalNodes>
            0 -1 78 2.8584222309291363e-03</internalNodes>
          <leafValues>
            -6.6914999485015869e-01 2.8905552625656128e-01</leafValues></_>
        <_>
          <internalNodes>
            0 -1 38 1.2366386363282800e-03</internalNodes>
          <leafValues>
            2.3618677258491516e-01 -8.4388601779937744e-01</leafValues></_>
        <_>
          <internalNodes>
            0 -1 36 1.0977165075019002e-03</internalNodes>
          <leafValues>
            -6.4607632160186768e-01 2.7640888094902039e-01</leafValues></_>
        <_>
          <internalNodes>
            0 -1 120 -1.1733525898307562e-03</internalNodes>
          <leafValues>
            -9.2162466049194336e-01 1.8729333579540253e-01</leafValues></_>
        <_>
          <internalNodes>
            0 -1 31 -5.2077900618314743e-03</internalNodes>
          <leafValues>
            6.3878488540649414e-01 -3.1733724474906921e-01</leafValues></_></weakClassifiers></_>
    <!-- stage 4 -->
    <_>
      <maxWeakCount>9</maxWeakCount>
      <stageThreshold>-1.7831448316574097e+00</stageThreshold>
      <weakClassifiers>
        <_>
          <internalNodes>
            0 -1 15 2.4148428440093994e-01</internalNodes>
          <leafValues>
            -6.8008047342300415e-01 3.4782609343528748e-01</leafValues></_>
        <_>
          <internalNodes>
            0 -1 74 -1.4043396804481745e-03</internalNodes>
          <leafValues>
            5.5502885580062866e-01 -4.4843843579292297e-01</leafValues></_>
        <_>
          <internalNodes>
            0 -1 80 1.1221506865695119e-03</internalNodes>
          <leafValues>
            -2.7954173088073730e-01 7.4460566043853760e-01</leafValues></_>
        <_>
          <internalNodes>
            0 -1 75 1.1469337623566389e-03</internalNodes>
          <leafValues>
            -2.4614723026752472e-01 8.0403870344161987e-01</leafValues></_>
        <_>
          <internalNodes>
            0 -1 126 8.4577186498790979e-04</internalNodes>
          <leafValues>
            -4.7386279702186584e-01 4.2136925458908081e-01</leafValues></_>
        <_>
          <internalNodes>
            0 -1 85 1.7257637809962034e-03</internalNodes>
          <leafValues>
            -2.3312753438949585e-01 8.1562632322311401e-01</leafValues></_>
        <_>
          <internalNodes>
            0 -1 92 2.5112354196608067e-03</internalNodes>
          <leafValues>
            -2.4178558588027954e-01 6.9759023189544678e-01</leafValues></_>
        <_>
          <internalNodes>
            0 -1 60 -4.3801907449960709e-03</internalNodes>
          <leafValues>
            -8.4567731618881226e-01 2.8243330121040344e-01</leafValues></_>
        <_>
          <internalNodes>
            0 -1 84 -3.4980120835825801e-04</internalNodes>
          <leafValues>
            5.1438236236572266e-01 -4.0197017788887024e-01</leafValues></_></weakClassifiers></_>
    <!-- stage 5 -->
    <_>
      <maxWeakCount>11</maxWeakCount>
      <stageThreshold>-1.6985689401626587e+00</stageThreshold>
      <weakClassifiers>
        <_>
          <internalNodes>
            0 -1 8 5.2194267511367798e-02</internalNodes>
          <leafValues>
            -6.8627452850341797e-01 2.2336769104003906e-01</leafValues></_>
        <_>
          <internalNodes>
            0 -1 128 1.5536344144493341e-03</internalNodes>
          <leafValues>
            -7.2534584999084473e-01 2.4143458902835846e-01</leafValues></_>
        <_>
          <internalNodes>
            0 -1 160 3.2850436400622129e-04</internalNodes>
          <leafValues>
            2.9265373945236206e-01 -5.6405979394912720e-01</leafValues></_>
        <_>
          <internalNodes>
            0 -1 61 1.0231883497908711e-03</internalNodes>
          <leafValues>
            2.1701298654079437e-01 -8.3942353725433350e-01</leafValues></_>
        <_>
          <internalNodes>
            0 -1 68 1.9699935801327229e-03</internalNodes>
          <leafValues>
            -3.1892129778862000e-01 6.2882941961288452e-01</leafValues></_>
        <_>
          <internalNodes>
            0 -1 1 1.8692561425268650e-03</internalNodes>
          <leafValues>
            -6.2167602777481079e-01 2.9650017619132996e-01</leafValues></_>
        <_>
          <internalNodes>
            0 -1 73 8.1546336878091097e-04</internalNodes>
          <leafValues>
            -6.9356483221054077e-01 2.1228779852390289e-01</leafValues></_>
        <_>
          <internalNodes>
            0 -1 155 7.1932451101019979e-04</internalNodes>
          <leafValues>
            -2.9306414723396301e-01 6.8250727653503418e-01</leafValues></_>
        <_>
          <internalNodes>
            0 -1 102 7.8121409751474857e-04</internalNodes>
          <leafValues>
            2.6252079010009766e-01 -9.4180244207382202e-01</leafValues></_>
        <_>
          <internalNodes>
            0 -1 81 5.7533604558557272e-04</internalNodes>
          <leafValues>
            1.7213466763496399e-01 -7.4854385852813721e-01</leafValues></_>
        <_>
          <internalNodes>
            0 -1 157 1.6201713588088751e-03</internalNodes>
          <leafValues>
            -2.6832255721092224e-01 6.2774723768234253e-01</leafValues></_></weakClassifiers></_>
    <!-- stage 6 -->
    <_>
      <maxWeakCount>10</maxWeakCount>
      <stageThreshold>-1.1948812007904053e+00</stageThreshold>
      <weakClassifiers>
        <_>
          <internalNodes>
            0 -1 5 4.3438106775283813e-02</internalNodes>
          <leafValues>
            -5.5105483531951904e-01 4.8571428656578064e-01</leafValues></_>
        <_>
          <internalNodes>
            0 -1 93 -1.0598546359688044e-03</internalNodes>
          <leafValues>
            2.9786819219589233e-01 -6.5792262554168701e-01</leafValues></_>
        <_>
          <internalNodes>
            0 -1 71 1.0988233983516693e-01</internalNodes>
          <leafValues>
            -5.6784951686859131e-01 3.1581267714500427e-01</leafValues></_>
        <_>
          <internalNodes>
            0 -1 118 1.8562398618087173e-03</internalNodes>
          <leafValues>
            -2.5367563962936401e-01 7.4219995737075806e-01</leafValues></_>
        <_>
          <internalNodes>
            0 -1 77 3.4635434858500957e-03</internalNodes>
          <leafValues>
            -6.5228021144866943e-01 3.1914535164833069e-01</leafValues></_>
        <_>
          <internalNodes>
            0 -1 122 4.2097939876839519e-04</internalNodes>
          <leafValues>
            -3.2144716382026672e-01 5.9541666507720947e-01</leafValues></_>
        <_>
          <internalNodes>
            0 -1 99 1.7506966833025217e-03</internalNodes>
          <leafValues>
            2.6314744353294373e-01 -9.0911334753036499e-01</leafValues></_>
        <_>
          <internalNodes>
            0 -1 94 -1.4787149848416448e-03</internalNodes>
          <leafValues>
            5.4127866029739380e-01 -3.5654765367507935e-01</leafValues></_>
        <_>
          <internalNodes>
            0 -1 135 -2.1982509642839432e-03</internalNodes>
          <leafValues>
            2.5251209735870361e-01 -5.9446877241134644e-01</leafValues></_>
        <_>
          <internalNodes>
            0 -1 134 -5.5594285950064659e-03</internalNodes>
          <leafValues>
            7.3568546772003174e-01 -2.2930082678794861e-01</leafValues></_></weakClassifiers></_>
    <!-- stage 7 -->
    <_>
      <maxWeakCount>10</maxWeakCount>
      <stageThreshold>-1.5222127437591553e+00</stageThreshold>
      <weakClassifiers>
        <_>
          <internalNodes>
            0 -1 106 -2.6862546801567078e-02</internalNodes>
          <leafValues>
            2.7850466966629028e-01 -6.7253887653350830e-01</leafValues></_>
        <_>
          <internalNodes>
            0 -1 12 -8.3690658211708069e-02</internalNodes>
          <leafValues>
            4.5474320650100708e-01 -3.7045207619667053e-01</leafValues></_>
        <_>
          <internalNodes>
            0 -1 156 -9.9100461229681969e-03</internalNodes>
          <leafValues>
            3.9811939001083374e-01 -4.4685074687004089e-01</leafValues></_>
        <_>
          <internalNodes>
            0 -1 101 4.5419193338602781e-04</internalNodes>
          <leafValues>
            1.7178274691104889e-01 -8.7775838375091553e-01</leafValues></_>
        <_>
          <internalNodes>
            0 -1 121 2.9380477499216795e-03</internalNodes>
          <leafValues>
            -4.7772181034088135e-01 3.6193045973777771e-01</leafValues></_>
        <_>
          <internalNodes>
            0 -1 26 -1.0624295100569725e-03</internalNodes>
          <leafValues>
            2.5354173779487610e-01 -6.8607795238494873e-01</leafValues></_>
        <_>
          <internalNodes>
            0 -1 44 -1.4735013246536255e-02</internalNodes>
          <leafValues>
            -8.1014055013656616e-01 1.2850269675254822e-01</leafValues></_>
        <_>
          <internalNodes>
            0 -1 35 6.6698581213131547e-04</internalNodes>
          <leafValues>
            -3.2248473167419434e-01 4.8932331800460815e-01</leafValues></_>
        <_>
          <internalNodes>
            0 -1 66 1.0790883563458920e-02</internalNodes>
          <leafValues>
            2.0335866510868073e-01 -9.3344742059707642e-01</leafValues></_>
        <_>
          <internalNodes>
            0 -1 67 -7.5233969837427139e-03</internalNodes>
          <leafValues>
            -8.9601862430572510e-01 1.0432278364896774e-01</leafValues></_></weakClassifiers></_>
    <!-- stage 8 -->
    <_>
      <maxWeakCount>15</maxWeakCount>
      <stageThreshold>-1.4185200929641724e+00</stageThreshold>
      <weakClassifiers>
        <_>
          <internalNodes>
            0 -1 25 -6.2781855463981628e-02</internalNodes>
          <leafValues>
            2.3255814611911774e-01 -6.3008129596710205e-01</leafValues></_>
        <_>
          <internalNodes>
            0 -1 125 -3.5015144385397434e-03</internalNodes>
          <leafValues>
            2.6171571016311646e-01 -6.0544627904891968e-01</leafValues></_>
        <_>
          <internalNodes>
            0 -1 133 5.2211503498256207e-04</internalNodes>
          <leafValues>
            1.6064007580280304e-01 -7.9848676919937134e-01</leafValues></_>
        <_>
          <internalNodes>
            0 -1 70 2.2263634018599987e-03</internalNodes>
          <leafValues>
            -6.5792441368103027e-01 2.2765879333019257e-01</leafValues></_>
        <_>
          <internalNodes>
            0 -1 131 1.7858447972685099e-03</internalNodes>
          <leafValues>
            1.7549131810665131e-01 -7.2489011287689209e-01</leafValues></_>
        <_>
          <internalNodes>
            0 -1 33 -8.7763683404773474e-04</internalNodes>
          <leafValues>
            2.9184851050376892e-01 -4.9831745028495789e-01</leafValues></_>
        <_>
          <internalNodes>
            0 -1 141 5.1401916425675154e-04</internalNodes>
          <leafValues>
            -2.8180652856826782e-01 5.4723060131072998e-01</leafValues></_>
        <_>
          <internalNodes>
            0 -1 161 6.1036720871925354e-03</internalNodes>
          <leafValues>
            2.0084851980209351e-01 -6.9797527790069580e-01</leafValues></_>
        <_>
          <internalNodes>
            0 -1 48 -2.7618545573204756e-04</internalNodes>
          <leafValues>
            -7.7427101135253906e-01 1.7981496453285217e-01</leafValues></_>
        <_>
          <internalNodes>
            0 -1 138 9.8840217106044292e-04</internalNodes>
          <leafValues>
            -2.9467543959617615e-01 5.0858414173126221e-01</leafValues></_>
        <_>
          <internalNodes>
            0 -1 79 -8.8718840852379799e-03</internalNodes>
          <leafValues>
            -7.8592449426651001e-01 2.0951350033283234e-01</leafValues></_>
        <_>
          <internalNodes>
            0 -1 108 1.9231643527746201e-02</internalNodes>
          <leafValues>
            1.3790015876293182e-01 -8.0958557128906250e-01</leafValues></_>
        <_>
          <internalNodes>
            0 -1 136 9.3302130699157715e-04</internalNodes>
          <leafValues>
            -3.6332756280899048e-01 4.2849001288414001e-01</leafValues></_>
        <_>
          <internalNodes>
            0 -1 147 -1.0176011361181736e-02</internalNodes>
          <leafValues>
            -9.3159860372543335e-01 1.8858437240123749e-01</leafValues></_>
        <_>
          <internalNodes>
            0 -1 32 -1.2485381448641419e-03</internalNodes>
          <leafValues>
            -7.9831820726394653e-01 1.4920236170291901e-01</leafValues></_></weakClassifiers></_>
    <!-- stage 9 -->
    <_>
      <maxWeakCount>17</maxWeakCount>
      <stageThreshold>-1.5347617864608765e+00</stageThreshold>
      <weakClassifiers>
        <_>
          <internalNodes>
            0 -1 76 -1.8826534505933523e-03</internalNodes>
          <leafValues>
            1.6573557257652283e-01 -6.1163032054901123e-01</leafValues></_>
        <_>
          <internalNodes>
            0 -1 3 3.9474666118621826e-02</internalNodes>
          <leafValues>
            -3.7432801723480225e-01 3.7952706217765808e-01</leafValues></_>
        <_>
          <internalNodes>
            0 -1 129 -1.6570861043874174e-04</internalNodes>
          <leafValues>
            -7.0766520500183105e-01 1.6225874423980713e-01</leafValues></_>
        <_>
          <internalNodes>
            0 -1 104 -1.8999199382960796e-03</internalNodes>
          <leafValues>
            2.8831347823143005e-01 -4.7635444998741150e-01</leafValues></_>
        <_>
          <internalNodes>
            0 -1 54 6.4293453469872475e-03</internalNodes>
          <leafValues>
            -5.5791455507278442e-01 2.0982673764228821e-01</leafValues></_>
        <_>
          <internalNodes>
            0 -1 56 -3.0472487211227417e-02</internalNodes>
          <leafValues>
            -7.5982880592346191e-01 1.4873109757900238e-01</leafValues></_>
        <_>
          <internalNodes>
            0 -1 30 5.5810739286243916e-04</internalNodes>
          <leafValues>
            -3.1926298141479492e-01 3.5921043157577515e-01</leafValues></_>
        <_>
          <internalNodes>
            0 -1 58 6.1139417812228203e-04</internalNodes>
          <leafValues>
            1.2859210371971130e-01 -7.4792879819869995e-01</leafValues></_>
        <_>
          <internalNodes>
            0 -1 27 1.0108105838298798e-02</internalNodes>
          <leafValues>
            2.2132326662540436e-01 -5.2109259366989136e-01</leafValues></_>
        <_>
          <internalNodes>
            0 -1 39 2.6781909400597215e-04</internalNodes>
          <leafValues>
            1.1681719124317169e-01 -7.5437682867050171e-01</leafValues></_>
        <_>
          <internalNodes>
            0 -1 40 -1.8269228748977184e-03</internalNodes>
          <leafValues>
            -5.5882453918457031e-01 2.0173531770706177e-01</leafValues></_>
        <_>
          <internalNodes>
            0 -1 6 -2.9497253126464784e-04</internalNodes>
          <leafValues>
            -7.3890221118927002e-01 1.5926708281040192e-01</leafValues></_>
        <_>
          <internalNodes>
            0 -1 123 4.0852716192603111e-03</internalNodes>
          <leafValues>
            -4.8774650692939758e-01 2.6981604099273682e-01</leafValues></_>
        <_>
          <internalNodes>
            0 -1 96 2.0043484866619110e-02</internalNodes>
          <leafValues>
            1.0446304827928543e-01 -9.3151354789733887e-01</leafValues></_>
        <_>
          <internalNodes>
            0 -1 116 -3.9425585418939590e-04</internalNodes>
          <leafValues>
            -8.3934444189071655e-01 1.0930281877517700e-01</leafValues></_>
        <_>
          <internalNodes>
            0 -1 28 -1.8931069644168019e-03</internalNodes>
          <leafValues>
            4.5501103997230530e-01 -2.6315605640411377e-01</leafValues></_>
        <_>
          <internalNodes>
            0 -1 34 7.1865215431898832e-04</internalNodes>
          <leafValues>
            -2.3319850862026215e-01 5.3318345546722412e-01</leafValues></_></weakClassifiers></_>
    <!-- stage 10 -->
    <_>
      <maxWeakCount>15</maxWeakCount>
      <stageThreshold>-1.4518913030624390e+00</stageThreshold>
      <weakClassifiers>
        <_>
          <internalNodes>
            0 -1 143 -2.5287222117185593e-02</internalNodes>
          <leafValues>
            1.1041009426116943e-01 -6.5819859504699707e-01</leafValues></_>
        <_>
          <internalNodes>
            0 -1 62 4.8451842740178108e-03</internalNodes>
          <leafValues>
            -4.1345751285552979e-01 3.4054768085479736e-01</leafValues></_>
        <_>
          <internalNodes>
            0 -1 20 -1.0482379002496600e-03</internalNodes>
          <leafValues>
            3.6309492588043213e-01 -3.4458240866661072e-01</leafValues></_>
        <_>
          <internalNodes>
            0 -1 130 2.6733383536338806e-02</internalNodes>
          <leafValues>
            1.5166363120079041e-01 -8.2127499580383301e-01</leafValues></_>
        <_>
          <internalNodes>
            0 -1 144 6.3743796199560165e-03</internalNodes>
          <leafValues>
            1.3484905660152435e-01 -8.9458602666854858e-01</leafValues></_>
        <_>
          <internalNodes>
            0 -1 110 6.8051385460421443e-04</internalNodes>
          <leafValues>
            1.6620045900344849e-01 -6.7587190866470337e-01</leafValues></_>
        <_>
          <internalNodes>
            0 -1 114 1.2046971824020147e-03</internalNodes>
          <leafValues>
            -2.2865238785743713e-01 5.9654402732849121e-01</leafValues></_>
        <_>
          <internalNodes>
            0 -1 113 -3.0627544037997723e-03</internalNodes>
          <leafValues>
            7.2091948986053467e-01 -1.7327187955379486e-01</leafValues></_>
        <_>
          <internalNodes>
            0 -1 119 1.5517784282565117e-02</internalNodes>
          <leafValues>
            1.2586961686611176e-01 -9.5169806480407715e-01</leafValues></_>
        <_>
          <internalNodes>
            0 -1 151 6.1037493869662285e-03</internalNodes>
          <leafValues>
            -3.0545499920845032e-01 3.8588094711303711e-01</leafValues></_>
        <_>
          <internalNodes>
            0 -1 11 8.2056466490030289e-03</internalNodes>
          <leafValues>
            1.7790709435939789e-01 -7.6879489421844482e-01</leafValues></_>
        <_>
          <internalNodes>
            0 -1 89 7.8073947224766016e-04</internalNodes>
          <leafValues>
            -4.7792330384254456e-01 2.2079968452453613e-01</leafValues></_>
        <_>
          <internalNodes>
            0 -1 19 4.2400974780321121e-03</internalNodes>
          <leafValues>
            -2.4378943443298340e-01 4.9987936019897461e-01</leafValues></_>
        <_>
          <internalNodes>
            0 -1 49 -9.5731616020202637e-03</internalNodes>
          <leafValues>
            -7.6034671068191528e-01 1.5864543616771698e-01</leafValues></_>
        <_>
          <internalNodes>
            0 -1 23 9.7697084129322320e-05</internalNodes>
          <leafValues>
            1.5923419594764709e-01 -6.5005469322204590e-01</leafValues></_></weakClassifiers></_>
    <!-- stage 11 -->
    <_>
      <maxWeakCount>13</maxWeakCount>
      <stageThreshold>-1.3185831308364868e+00</stageThreshold>
      <weakClassifiers>
        <_>
          <internalNodes>
            0 -1 146 7.3592051863670349e-02</internalNodes>
          <leafValues>
            -5.6079852581024170e-01 2.9648241400718689e-01</leafValues></_>
        <_>
          <internalNodes>
            0 -1 142 -4.7955874470062554e-04</internalNodes>
          <leafValues>
            1.5680101513862610e-01 -6.1572003364562988e-01</leafValues></_>
        <_>
          <internalNodes>
            0 -1 0 2.2733205929398537e-02</internalNodes>
          <leafValues>
            -3.4635451436042786e-01 3.7281733751296997e-01</leafValues></_>
        <_>
          <internalNodes>
            0 -1 51 -3.3049717545509338e-02</internalNodes>
          <leafValues>
            5.5604708194732666e-01 -2.1796171367168427e-01</leafValues></_>
        <_>
          <internalNodes>
            0 -1 139 -3.1928233802318573e-03</internalNodes>
          <leafValues>
            1.9657815992832184e-01 -5.6104445457458496e-01</leafValues></_>
        <_>
          <internalNodes>
            0 -1 115 -5.9363531181588769e-04</internalNodes>
          <leafValues>
            -7.7113670110702515e-01 1.5071624517440796e-01</leafValues></_>
        <_>
          <internalNodes>
            0 -1 105 6.8512244615703821e-04</internalNodes>
          <leafValues>
            -2.3440702259540558e-01 6.0286974906921387e-01</leafValues></_>
        <_>
          <internalNodes>
            0 -1 50 2.4113088846206665e-02</internalNodes>
          <leafValues>
            1.6871584951877594e-01 -9.0992105007171631e-01</leafValues></_>
        <_>
          <internalNodes>
            0 -1 112 9.1112032532691956e-04</internalNodes>
          <leafValues>
            -3.0259963870048523e-01 4.5474028587341309e-01</leafValues></_>
        <_>
          <internalNodes>
            0 -1 91 -3.7317842245101929e-02</internalNodes>
          <leafValues>
            -7.7007031440734863e-01 1.7634758353233337e-01</leafValues></_>
        <_>
          <internalNodes>
            0 -1 97 3.3380236709490418e-04</internalNodes>
          <leafValues>
            -2.8463727235794067e-01 4.3774405121803284e-01</leafValues></_>
        <_>
          <internalNodes>
            0 -1 22 -8.3922233898192644e-04</internalNodes>
          <leafValues>
            2.2322146594524384e-01 -5.3864550590515137e-01</leafValues></_>
        <_>
          <internalNodes>
            0 -1 95 6.4095319248735905e-04</internalNodes>
          <leafValues>
            -2.4124099314212799e-01 5.0050067901611328e-01</leafValues></_></weakClassifiers></_>
    <!-- stage 12 -->
    <_>
      <maxWeakCount>16</maxWeakCount>
      <stageThreshold>-1.5992444753646851e+00</stageThreshold>
      <weakClassifiers>
        <_>
          <internalNodes>
            0 -1 88 1.9827228784561157e-01</internalNodes>
          <leafValues>
            -5.2276557683944702e-01 3.8216561079025269e-01</leafValues></_>
        <_>
          <internalNodes>
            0 -1 55 -1.3312300667166710e-02</internalNodes>
          <leafValues>
            5.6775087118148804e-01 -2.5308781862258911e-01</leafValues></_>
        <_>
          <internalNodes>
            0 -1 82 1.5191934071481228e-03</internalNodes>
          <leafValues>
            -2.5703796744346619e-01 5.1193010807037354e-01</leafValues></_>
        <_>
          <internalNodes>
            0 -1 45 -2.3295598104596138e-02</internalNodes>
          <leafValues>
            -7.8606265783309937e-01 1.8982414901256561e-01</leafValues></_>
        <_>
          <internalNodes>
            0 -1 90 3.8831597194075584e-03</internalNodes>
          <leafValues>
            -5.2687215805053711e-01 2.7666279673576355e-01</leafValues></_>
        <_>
          <internalNodes>
            0 -1 63 2.1904585883021355e-03</internalNodes>
          <leafValues>
            -2.5607237219810486e-01 5.4422324895858765e-01</leafValues></_>
        <_>
          <internalNodes>
            0 -1 16 -4.5581862330436707e-02</internalNodes>
          <leafValues>
            -9.5337688922882080e-01 1.6584582626819611e-01</leafValues></_>
        <_>
          <internalNodes>
            0 -1 72 -1.0015906300395727e-03</internalNodes>
          <leafValues>
            4.8251387476921082e-01 -3.2307949662208557e-01</leafValues></_>
        <_>
          <internalNodes>
            0 -1 107 2.2772882948629558e-04</internalNodes>
          <leafValues>
            1.9857087731361389e-01 -6.8322288990020752e-01</leafValues></_>
        <_>
          <internalNodes>
            0 -1 86 2.4002860300242901e-03</internalNodes>
          <leafValues>
            -2.4149504303932190e-01 5.6327962875366211e-01</leafValues></_>
        <_>
          <internalNodes>
            0 -1 59 2.6938639348372817e-04</internalNodes>
          <leafValues>
            1.9639742374420166e-01 -6.4764755964279175e-01</leafValues></_>
        <_>
          <internalNodes>
            0 -1 17 1.5234777238219976e-03</internalNodes>
          <leafValues>
            1.6210779547691345e-01 -7.6128101348876953e-01</leafValues></_>
        <_>
          <internalNodes>
            0 -1 52 -2.6542111299932003e-04</internalNodes>
          <leafValues>
            -7.5439107418060303e-01 1.2289413064718246e-01</leafValues></_>
        <_>
          <internalNodes>
            0 -1 150 -8.2210614345967770e-04</internalNodes>
          <leafValues>
            5.2460068464279175e-01 -2.4185855686664581e-01</leafValues></_>
        <_>
          <internalNodes>
            0 -1 154 4.5716826571151614e-04</internalNodes>
          <leafValues>
            -2.2076457738876343e-01 5.0185132026672363e-01</leafValues></_>
        <_>
          <internalNodes>
            0 -1 87 4.5158211141824722e-03</internalNodes>
          <leafValues>
            -4.1372105479240417e-01 2.8434935212135315e-01</leafValues></_></weakClassifiers></_>
    <!-- stage 13 -->
    <_>
      <maxWeakCount>19</maxWeakCount>
      <stageThreshold>-1.4885623455047607e+00</stageThreshold>
      <weakClassifiers>
        <_>
          <internalNodes>
            0 -1 111 6.4445552416145802e-03</internalNodes>
          <leafValues>
            -7.4751770496368408e-01 3.3962264657020569e-02</leafValues></_>
        <_>
          <internalNodes>
            0 -1 153 -4.6572401188313961e-03</internalNodes>
          <leafValues>
            4.7641789913177490e-01 -3.1405869126319885e-01</leafValues></_>
        <_>
          <internalNodes>
            0 -1 117 2.4693176965229213e-04</internalNodes>
          <leafValues>
            -5.7211929559707642e-01 1.9802939891815186e-01</leafValues></_>
        <_>
          <internalNodes>
            0 -1 85 2.0458591170608997e-03</internalNodes>
          <leafValues>
            -1.9186796247959137e-01 6.2109673023223877e-01</leafValues></_>
        <_>
          <internalNodes>
            0 -1 4 2.0828098058700562e-03</internalNodes>
          <leafValues>
            1.9006289541721344e-01 -5.5316090583801270e-01</leafValues></_>
        <_>
          <internalNodes>
            0 -1 18 -8.1493461038917303e-04</internalNodes>
          <leafValues>
            4.3863451480865479e-01 -2.2616004943847656e-01</leafValues></_>
        <_>
          <internalNodes>
            0 -1 158 1.0248333215713501e-02</internalNodes>
          <leafValues>
            -1.6983684897422791e-01 7.2509872913360596e-01</leafValues></_>
        <_>
          <internalNodes>
            0 -1 9 -1.1268284171819687e-02</internalNodes>
          <leafValues>
            6.0511958599090576e-01 -1.4532956480979919e-01</leafValues></_>
        <_>
          <internalNodes>
            0 -1 132 5.1133724628016353e-04</internalNodes>
          <leafValues>
            -5.4380428791046143e-01 1.9157782196998596e-01</leafValues></_>
        <_>
          <internalNodes>
            0 -1 7 1.2662235647439957e-02</internalNodes>
          <leafValues>
            1.8374271690845490e-01 -7.2830045223236084e-01</leafValues></_>
        <_>
          <internalNodes>
            0 -1 124 2.0291432738304138e-03</internalNodes>
          <leafValues>
            -2.2602780163288116e-01 4.8910561203956604e-01</leafValues></_>
        <_>
          <internalNodes>
            0 -1 127 2.3570549674332142e-03</internalNodes>
          <leafValues>
            -3.6950099468231201e-01 2.6290270686149597e-01</leafValues></_>
        <_>
          <internalNodes>
            0 -1 140 -2.5436718016862869e-02</internalNodes>
          <leafValues>
            -9.1727530956268311e-01 7.6047092676162720e-02</leafValues></_>
        <_>
          <internalNodes>
            0 -1 41 -2.7305379509925842e-02</internalNodes>
          <leafValues>
            -8.4601825475692749e-01 8.4446392953395844e-02</leafValues></_>
        <_>
          <internalNodes>
            0 -1 69 1.4906262513250113e-03</internalNodes>
          <leafValues>
            -2.1313294768333435e-01 5.0326383113861084e-01</leafValues></_>
        <_>
          <internalNodes>
            0 -1 159 2.1812896011397243e-04</internalNodes>
          <leafValues>
            1.8695975840091705e-01 -4.9543115496635437e-01</leafValues></_>
        <_>
          <internalNodes>
            0 -1 57 -1.9096968753729016e-04</internalNodes>
          <leafValues>
            -5.3046059608459473e-01 1.7999958992004395e-01</leafValues></_>
        <_>
          <internalNodes>
            0 -1 145 6.4021879807114601e-03</internalNodes>
          <leafValues>
            -2.0983284711837769e-01 5.5971741676330566e-01</leafValues></_>
        <_>
          <internalNodes>
            0 -1 103 -8.0333780497312546e-03</internalNodes>
          <leafValues>
            -8.2324796915054321e-01 1.5441210567951202e-01</leafValues></_></weakClassifiers></_></stages>
  <features>
    <_>
      <rects>
        <_>
          0 3 14 15 -1.</_>
        <_>
          7 3 7 15 2.</_></rects>
      <tilted>0</tilted></_>
    <_>
      <rects>
        <_>
          0 3 22 12 -1.</_>
        <_>
          0 3 11 6 2.</_>
        <_>
          11 9 11 6 2.</_></rects>
      <tilted>0</tilted></_>
    <_>
      <rects>
        <_>
          0 4 12 10 -1.</_>
        <_>
          6 4 6 10 2.</_></rects>
      <tilted>0</tilted></_>
    <_>
      <rects>
        <_>
          0 4 14 14 -1.</_>
        <_>
          7 4 7 14 2.</_></rects>
      <tilted>0</tilted></_>
    <_>
      <rects>
        <_>
          0 6 1 12 -1.</_>
        <_>
          0 10 1 4 3.</_></rects>
      <tilted>0</tilted></_>
    <_>
      <rects>
        <_>
          0 6 12 8 -1.</_>
        <_>
          6 6 6 8 2.</_></rects>
      <tilted>0</tilted></_>
    <_>
      <rects>
        <_>
          0 10 2 3 -1.</_>
        <_>
          0 11 2 1 3.</_></rects>
      <tilted>0</tilted></_>
    <_>
      <rects>
        <_>
          2 9 13 8 -1.</_>
        <_>
          2 13 13 4 2.</_></rects>
      <tilted>0</tilted></_>
    <_>
      <rects>
        <_>
          3 4 56 4 -1.</_>
        <_>
          3 6 56 2 2.</_></rects>
      <tilted>0</tilted></_>
    <_>
      <rects>
        <_>
          3 7 8 8 -1.</_>
        <_>
          5 7 4 8 2.</_></rects>
      <tilted>0</tilted></_>
    <_>
      <rects>
        <_>
          5 3 40 16 -1.</_>
        <_>
          5 7 40 8 2.</_></rects>
      <tilted>0</tilted></_>
    <_>
      <rects>
        <_>
          5 9 50 1 -1.</_>
        <_>
          30 9 25 1 2.</_></rects>
      <tilted>0</tilted></_>
    <_>
      <rects>
        <_>
          6 0 38 8 -1.</_>
        <_>
          6 2 38 4 2.</_></rects>
      <tilted>0</tilted></_>
    <_>
      <rects>
        <_>
          9 10 3 3 -1.</_>
        <_>
          10 10 1 3 3.</_></rects>
      <tilted>0</tilted></_>
    <_>
      <rects>
        <_>
          10 0 27 9 -1.</_>
        <_>
          10 3 27 3 3.</_></rects>
      <tilted>0</tilted></_>
    <_>
      <rects>
        <_>
          10 3 38 16 -1.</_>
        <_>
          10 7 38 8 2.</_></rects>
      <tilted>0</tilted></_>
    <_>
      <rects>
        <_>
          10 5 24 15 -1.</_>
        <_>
          16 5 12 15 2.</_></rects>
      <tilted>0</tilted></_>
    <_>
      <rects>
        <_>
          10 5 30 6 -1.</_>
        <_>
          20 5 10 6 3.</_></rects>
      <tilted>0</tilted></_>
    <_>
      <rects>
        <_>
          10 6 12 2 -1.</_>
        <_>
          10 6 6 1 2.</_>
        <_>
          16 7 6 1 2.</_></rects>
      <tilted>0</tilted></_>
    <_>
      <rects>
        <_>
          10 8 6 4 -1.</_>
        <_>
          12 8 2 4 3.</_></rects>
      <tilted>0</tilted></_>
    <_>
      <rects>
        <_>
          10 8 5 6 -1.</_>
        <_>
          10 10 5 2 3.</_></rects>
      <tilted>0</tilted></_>
    <_>
      <rects>
        <_>
          11 0 38 9 -1.</_>
        <_>
          11 3 38 3 3.</_></rects>
      <tilted>0</tilted></_>
    <_>
      <rects>
        <_>
          11 3 20 6 -1.</_>
        <_>
          16 3 10 6 2.</_></rects>
      <tilted>0</tilted></_>
    <_>
      <rects>
        <_>
          11 4 3 1 -1.</_>
        <_>
          12 4 1 1 3.</_></rects>
      <tilted>0</tilted></_>
    <_>
      <rects>
        <_>
          11 4 24 6 -1.</_>
        <_>
          17 4 12 6 2.</_></rects>
      <tilted>0</tilted></_>
    <_>
      <rects>
        <_>
          11 12 15 8 -1.</_>
        <_>
          11 16 15 4 2.</_></rects>
      <tilted>0</tilted></_>
    <_>
      <rects>
        <_>
          12 4 28 5 -1.</_>
        <_>
          19 4 14 5 2.</_></rects>
      <tilted>0</tilted></_>
    <_>
      <rects>
        <_>
          12 7 33 6 -1.</_>
        <_>
          23 9 11 2 9.</_></rects>
      <tilted>0</tilted></_>
    <_>
      <rects>
        <_>
          12 9 4 11 -1.</_>
        <_>
          13 9 2 11 2.</_></rects>
      <tilted>0</tilted></_>
    <_>
      <rects>
        <_>
          12 9 35 9 -1.</_>
        <_>
          12 12 35 3 3.</_></rects>
      <tilted>0</tilted></_>
    <_>
      <rects>
        <_>
          12 10 3 3 -1.</_>
        <_>
          13 10 1 3 3.</_></rects>
      <tilted>0</tilted></_>
    <_>
      <rects>
        <_>
          12 14 12 3 -1.</_>
        <_>
          12 15 12 1 3.</_></rects>
      <tilted>0</tilted></_>
    <_>
      <rects>
        <_>
          13 3 9 2 -1.</_>
        <_>
          16 3 3 2 3.</_></rects>
      <tilted>0</tilted></_>
    <_>
      <rects>
        <_>
          13 4 3 2 -1.</_>
        <_>
          13 4 3 1 2.</_></rects>
      <tilted>1</tilted></_>
    <_>
      <rects>
        <_>
          13 10 3 2 -1.</_>
        <_>
          14 10 1 2 3.</_></rects>
      <tilted>0</tilted></_>
    <_>
      <rects>
        <_>
          14 8 3 3 -1.</_>
        <_>
          15 8 1 3 3.</_></rects>
      <tilted>0</tilted></_>
    <_>
      <rects>
        <_>
          14 10 35 4 -1.</_>
        <_>
          14 12 35 2 2.</_></rects>
      <tilted>0</tilted></_>
    <_>
      <rects>
        <_>
          14 14 41 6 -1.</_>
        <_>
          14 17 41 3 2.</_></rects>
      <tilted>0</tilted></_>
    <_>
      <rects>
        <_>
          14 18 9 2 -1.</_>
        <_>
          17 18 3 2 3.</_></rects>
      <tilted>0</tilted></_>
    <_>
      <rects>
        <_>
          15 2 4 2 -1.</_>
        <_>
          16 2 2 2 2.</_></rects>
      <tilted>0</tilted></_>
    <_>
      <rects>
        <_>
          15 2 26 10 -1.</_>
        <_>
          28 2 13 10 2.</_></rects>
      <tilted>0</tilted></_>
    <_>
      <rects>
        <_>
          15 3 32 15 -1.</_>
        <_>
          23 3 16 15 2.</_></rects>
      <tilted>0</tilted></_>
    <_>
      <rects>
        <_>
          15 12 33 8 -1.</_>
        <_>
          15 16 33 4 2.</_></rects>
      <tilted>0</tilted></_>
    <_>
      <rects>
        <_>
          16 2 25 6 -1.</_>
        <_>
          16 4 25 2 3.</_></rects>
      <tilted>0</tilted></_>
    <_>
      <rects>
        <_>
          16 3 20 7 -1.</_>
        <_>
          21 3 10 7 2.</_></rects>
      <tilted>0</tilted></_>
    <_>
      <rects>
        <_>
          16 3 36 17 -1.</_>
        <_>
          25 3 18 17 2.</_></rects>
      <tilted>0</tilted></_>
    <_>
      <rects>
        <_>
          16 17 6 3 -1.</_>
        <_>
          18 17 2 3 3.</_></rects>
      <tilted>0</tilted></_>
    <_>
      <rects>
        <_>
          17 12 25 3 -1.</_>
        <_>
          17 13 25 1 3.</_></rects>
      <tilted>0</tilted></_>
    <_>
      <rects>
        <_>
          18 2 2 3 -1.</_>
        <_>
          19 2 1 3 2.</_></rects>
      <tilted>0</tilted></_>
    <_>
      <rects>
        <_>
          18 7 11 8 -1.</_>
        <_>
          18 11 11 4 2.</_></rects>
      <tilted>0</tilted></_>
    <_>
      <rects>
        <_>
          18 12 32 8 -1.</_>
        <_>
          26 12 16 8 2.</_></rects>
      <tilted>0</tilted></_>
    <_>
      <rects>
        <_>
          19 2 41 4 -1.</_>
        <_>
          19 4 41 2 2.</_></rects>
      <tilted>0</tilted></_>
    <_>
      <rects>
        <_>
          19 3 4 2 -1.</_>
        <_>
          20 3 2 2 2.</_></rects>
      <tilted>0</tilted></_>
    <_>
      <rects>
        <_>
          19 9 3 1 -1.</_>
        <_>
          20 9 1 1 3.</_></rects>
      <tilted>0</tilted></_>
    <_>
      <rects>
        <_>
          19 11 18 6 -1.</_>
        <_>
          25 13 6 2 9.</_></rects>
      <tilted>0</tilted></_>
    <_>
      <rects>
        <_>
          20 4 16 3 -1.</_>
        <_>
          20 5 16 1 3.</_></rects>
      <tilted>0</tilted></_>
    <_>
      <rects>
        <_>
          20 5 37 9 -1.</_>
        <_>
          20 8 37 3 3.</_></rects>
      <tilted>0</tilted></_>
    <_>
      <rects>
        <_>
          20 18 8 1 -1.</_>
        <_>
          22 18 4 1 2.</_></rects>
      <tilted>0</tilted></_>
    <_>
      <rects>
        <_>
          20 18 6 2 -1.</_>
        <_>
          22 18 2 2 3.</_></rects>
      <tilted>0</tilted></_>
    <_>
      <rects>
        <_>
          20 18 9 1 -1.</_>
        <_>
          23 18 3 1 3.</_></rects>
      <tilted>0</tilted></_>
    <_>
      <rects>
        <_>
          21 4 20 4 -1.</_>
        <_>
          26 4 10 4 2.</_></rects>
      <tilted>0</tilted></_>
    <_>
      <rects>
        <_>
          21 5 16 1 -1.</_>
        <_>
          25 5 8 1 2.</_></rects>
      <tilted>0</tilted></_>
    <_>
      <rects>
        <_>
          21 5 16 4 -1.</_>
        <_>
          21 5 8 2 2.</_>
        <_>
          29 7 8 2 2.</_></rects>
      <tilted>0</tilted></_>
    <_>
      <rects>
        <_>
          21 8 3 5 -1.</_>
        <_>
          22 8 1 5 3.</_></rects>
      <tilted>0</tilted></_>
    <_>
      <rects>
        <_>
          22 6 24 3 -1.</_>
        <_>
          30 7 8 1 9.</_></rects>
      <tilted>0</tilted></_>
    <_>
      <rects>
        <_>
          22 6 24 14 -1.</_>
        <_>
          34 6 12 14 2.</_></rects>
      <tilted>0</tilted></_>
    <_>
      <rects>
        <_>
          22 13 15 7 -1.</_>
        <_>
          27 13 5 7 3.</_></rects>
      <tilted>0</tilted></_>
    <_>
      <rects>
        <_>
          22 14 15 4 -1.</_>
        <_>
          27 14 5 4 3.</_></rects>
      <tilted>0</tilted></_>
    <_>
      <rects>
        <_>
          23 7 4 5 -1.</_>
        <_>
          24 7 2 5 2.</_></rects>
      <tilted>0</tilted></_>
    <_>
      <rects>
        <_>
          23 9 14 2 -1.</_>
        <_>
          23 9 7 1 2.</_>
        <_>
          30 10 7 1 2.</_></rects>
      <tilted>0</tilted></_>
    <_>
      <rects>
        <_>
          24 1 21 8 -1.</_>
        <_>
          31 1 7 8 3.</_></rects>
      <tilted>0</tilted></_>
    <_>
      <rects>
        <_>
          24 4 33 15 -1.</_>
        <_>
          24 9 33 5 3.</_></rects>
      <tilted>0</tilted></_>
    <_>
      <rects>
        <_>
          24 5 4 4 -1.</_>
        <_>
          24 5 2 2 2.</_>
        <_>
          26 7 2 2 2.</_></rects>
      <tilted>0</tilted></_>
    <_>
      <rects>
        <_>
          25 6 15 3 -1.</_>
        <_>
          30 6 5 3 3.</_></rects>
      <tilted>0</tilted></_>
    <_>
      <rects>
        <_>
          25 7 4 7 -1.</_>
        <_>
          26 7 2 7 2.</_></rects>
      <tilted>0</tilted></_>
    <_>
      <rects>
        <_>
          25 8 3 2 -1.</_>
        <_>
          26 8 1 2 3.</_></rects>
      <tilted>0</tilted></_>
    <_>
      <rects>
        <_>
          25 8 12 2 -1.</_>
        <_>
          25 8 6 1 2.</_>
        <_>
          31 9 6 1 2.</_></rects>
      <tilted>0</tilted></_>
    <_>
      <rects>
        <_>
          26 5 20 4 -1.</_>
        <_>
          31 5 10 4 2.</_></rects>
      <tilted>0</tilted></_>
    <_>
      <rects>
        <_>
          26 6 20 4 -1.</_>
        <_>
          31 6 10 4 2.</_></rects>
      <tilted>0</tilted></_>
    <_>
      <rects>
        <_>
          26 7 16 8 -1.</_>
        <_>
          34 7 8 8 2.</_></rects>
      <tilted>0</tilted></_>
    <_>
      <rects>
        <_>
          26 9 3 3 -1.</_>
        <_>
          27 9 1 3 3.</_></rects>
      <tilted>0</tilted></_>
    <_>
      <rects>
        <_>
          27 5 9 1 -1.</_>
        <_>
          30 5 3 1 3.</_></rects>
      <tilted>0</tilted></_>
    <_>
      <rects>
        <_>
          27 10 3 3 -1.</_>
        <_>
          28 10 1 3 3.</_></rects>
      <tilted>0</tilted></_>
    <_>
      <rects>
        <_>
          28 7 22 4 -1.</_>
        <_>
          28 7 11 2 2.</_>
        <_>
          39 9 11 2 2.</_></rects>
      <tilted>0</tilted></_>
    <_>
      <rects>
        <_>
          28 10 4 1 -1.</_>
        <_>
          29 10 2 1 2.</_></rects>
      <tilted>0</tilted></_>
    <_>
      <rects>
        <_>
          28 10 3 3 -1.</_>
        <_>
          29 10 1 3 3.</_></rects>
      <tilted>0</tilted></_>
    <_>
      <rects>
        <_>
          28 10 3 5 -1.</_>
        <_>
          29 10 1 5 3.</_></rects>
      <tilted>0</tilted></_>
    <_>
      <rects>
        <_>
          28 14 32 4 -1.</_>
        <_>
          28 14 16 2 2.</_>
        <_>
          44 16 16 2 2.</_></rects>
      <tilted>0</tilted></_>
    <_>
      <rects>
        <_>
          29 0 16 20 -1.</_>
        <_>
          29 5 16 10 2.</_></rects>
      <tilted>0</tilted></_>
    <_>
      <rects>
        <_>
          29 6 3 3 -1.</_>
        <_>
          30 7 1 1 9.</_></rects>
      <tilted>0</tilted></_>
    <_>
      <rects>
        <_>
          29 6 16 8 -1.</_>
        <_>
          29 6 8 4 2.</_>
        <_>
          37 10 8 4 2.</_></rects>
      <tilted>0</tilted></_>
    <_>
      <rects>
        <_>
          29 6 27 6 -1.</_>
        <_>
          38 8 9 2 9.</_></rects>
      <tilted>0</tilted></_>
    <_>
      <rects>
        <_>
          29 7 3 7 -1.</_>
        <_>
          30 7 1 7 3.</_></rects>
      <tilted>0</tilted></_>
    <_>
      <rects>
        <_>
          29 7 8 8 -1.</_>
        <_>
          29 9 8 4 2.</_></rects>
      <tilted>0</tilted></_>
    <_>
      <rects>
        <_>
          29 9 3 4 -1.</_>
        <_>
          30 9 1 4 3.</_></rects>
      <tilted>0</tilted></_>
    <_>
      <rects>
        <_>
          29 12 3 1 -1.</_>
        <_>
          30 12 1 1 3.</_></rects>
      <tilted>0</tilted></_>
    <_>
      <rects>
        <_>
          30 4 20 8 -1.</_>
        <_>
          35 4 10 8 2.</_></rects>
      <tilted>0</tilted></_>
    <_>
      <rects>
        <_>
          30 11 3 1 -1.</_>
        <_>
          31 11 1 1 3.</_></rects>
      <tilted>0</tilted></_>
    <_>
      <rects>
        <_>
          30 11 1 6 -1.</_>
        <_>
          30 13 1 2 3.</_></rects>
      <tilted>0</tilted></_>
    <_>
      <rects>
        <_>
          31 3 9 3 -1.</_>
        <_>
          34 3 3 3 3.</_></rects>
      <tilted>0</tilted></_>
    <_>
      <rects>
        <_>
          31 3 14 12 -1.</_>
        <_>
          38 3 7 12 2.</_></rects>
      <tilted>0</tilted></_>
    <_>
      <rects>
        <_>
          31 4 3 3 -1.</_>
        <_>
          32 4 1 3 3.</_></rects>
      <tilted>0</tilted></_>
    <_>
      <rects>
        <_>
          31 4 6 3 -1.</_>
        <_>
          33 4 2 3 3.</_></rects>
      <tilted>0</tilted></_>
    <_>
      <rects>
        <_>
          31 4 20 14 -1.</_>
        <_>
          36 4 10 14 2.</_></rects>
      <tilted>0</tilted></_>
    <_>
      <rects>
        <_>
          31 7 16 1 -1.</_>
        <_>
          39 7 8 1 2.</_></rects>
      <tilted>0</tilted></_>
    <_>
      <rects>
        <_>
          31 11 3 1 -1.</_>
        <_>
          32 11 1 1 3.</_></rects>
      <tilted>0</tilted></_>
    <_>
      <rects>
        <_>
          31 13 19 4 -1.</_>
        <_>
          31 15 19 2 2.</_></rects>
      <tilted>0</tilted></_>
    <_>
      <rects>
        <_>
          32 5 6 1 -1.</_>
        <_>
          34 5 2 1 3.</_></rects>
      <tilted>0</tilted></_>
    <_>
      <rects>
        <_>
          32 5 16 10 -1.</_>
        <_>
          36 5 8 10 2.</_></rects>
      <tilted>0</tilted></_>
    <_>
      <rects>
        <_>
          32 6 2 3 -1.</_>
        <_>
          32 7 2 1 3.</_></rects>
      <tilted>0</tilted></_>
    <_>
      <rects>
        <_>
          32 6 6 2 -1.</_>
        <_>
          34 6 2 2 3.</_></rects>
      <tilted>0</tilted></_>
    <_>
      <rects>
        <_>
          32 7 16 6 -1.</_>
        <_>
          32 7 8 3 2.</_>
        <_>
          40 10 8 3 2.</_></rects>
      <tilted>0</tilted></_>
    <_>
      <rects>
        <_>
          32 10 3 2 -1.</_>
        <_>
          33 10 1 2 3.</_></rects>
      <tilted>0</tilted></_>
    <_>
      <rects>
        <_>
          32 10 3 3 -1.</_>
        <_>
          33 10 1 3 3.</_></rects>
      <tilted>0</tilted></_>
    <_>
      <rects>
        <_>
          32 11 3 2 -1.</_>
        <_>
          33 11 1 2 3.</_></rects>
      <tilted>0</tilted></_>
    <_>
      <rects>
        <_>
          33 4 4 4 -1.</_>
        <_>
          34 4 2 4 2.</_></rects>
      <tilted>0</tilted></_>
    <_>
      <rects>
        <_>
          33 5 6 1 -1.</_>
        <_>
          35 5 2 1 3.</_></rects>
      <tilted>0</tilted></_>
    <_>
      <rects>
        <_>
          33 6 3 3 -1.</_>
        <_>
          34 7 1 1 9.</_></rects>
      <tilted>0</tilted></_>
    <_>
      <rects>
        <_>
          33 10 3 3 -1.</_>
        <_>
          34 10 1 3 3.</_></rects>
      <tilted>0</tilted></_>
    <_>
      <rects>
        <_>
          33 13 15 7 -1.</_>
        <_>
          38 13 5 7 3.</_></rects>
      <tilted>0</tilted></_>
    <_>
      <rects>
        <_>
          34 3 4 5 -1.</_>
        <_>
          36 3 2 5 2.</_></rects>
      <tilted>0</tilted></_>
    <_>
      <rects>
        <_>
          34 9 10 5 -1.</_>
        <_>
          39 9 5 5 2.</_></rects>
      <tilted>0</tilted></_>
    <_>
      <rects>
        <_>
          34 10 3 1 -1.</_>
        <_>
          35 10 1 1 3.</_></rects>
      <tilted>0</tilted></_>
    <_>
      <rects>
        <_>
          34 10 15 5 -1.</_>
        <_>
          39 10 5 5 3.</_></rects>
      <tilted>0</tilted></_>
    <_>
      <rects>
        <_>
          34 13 2 3 -1.</_>
        <_>
          34 14 2 1 3.</_></rects>
      <tilted>0</tilted></_>
    <_>
      <rects>
        <_>
          35 3 12 6 -1.</_>
        <_>
          35 3 6 3 2.</_>
        <_>
          41 6 6 3 2.</_></rects>
      <tilted>0</tilted></_>
    <_>
      <rects>
        <_>
          35 6 4 3 -1.</_>
        <_>
          35 7 4 1 3.</_></rects>
      <tilted>0</tilted></_>
    <_>
      <rects>
        <_>
          35 9 12 5 -1.</_>
        <_>
          38 9 6 5 2.</_></rects>
      <tilted>0</tilted></_>
    <_>
      <rects>
        <_>
          35 11 16 5 -1.</_>
        <_>
          39 11 8 5 2.</_></rects>
      <tilted>0</tilted></_>
    <_>
      <rects>
        <_>
          36 17 2 2 -1.</_>
        <_>
          37 17 1 2 2.</_></rects>
      <tilted>0</tilted></_>
    <_>
      <rects>
        <_>
          37 5 8 9 -1.</_>
        <_>
          37 8 8 3 3.</_></rects>
      <tilted>0</tilted></_>
    <_>
      <rects>
        <_>
          37 7 6 2 -1.</_>
        <_>
          37 7 3 2 2.</_></rects>
      <tilted>1</tilted></_>
    <_>
      <rects>
        <_>
          37 9 11 4 -1.</_>
        <_>
          37 11 11 2 2.</_></rects>
      <tilted>0</tilted></_>
    <_>
      <rects>
        <_>
          38 18 8 2 -1.</_>
        <_>
          40 18 4 2 2.</_></rects>
      <tilted>0</tilted></_>
    <_>
      <rects>
        <_>
          40 3 8 3 -1.</_>
        <_>
          40 4 8 1 3.</_></rects>
      <tilted>0</tilted></_>
    <_>
      <rects>
        <_>
          40 5 18 10 -1.</_>
        <_>
          40 5 9 5 2.</_>
        <_>
          49 10 9 5 2.</_></rects>
      <tilted>0</tilted></_>
    <_>
      <rects>
        <_>
          40 8 3 4 -1.</_>
        <_>
          41 8 1 4 3.</_></rects>
      <tilted>0</tilted></_>
    <_>
      <rects>
        <_>
          41 2 8 9 -1.</_>
        <_>
          38 5 8 3 3.</_></rects>
      <tilted>1</tilted></_>
    <_>
      <rects>
        <_>
          41 8 3 2 -1.</_>
        <_>
          42 8 1 2 3.</_></rects>
      <tilted>0</tilted></_>
    <_>
      <rects>
        <_>
          42 6 18 8 -1.</_>
        <_>
          42 6 9 4 2.</_>
        <_>
          51 10 9 4 2.</_></rects>
      <tilted>0</tilted></_>
    <_>
      <rects>
        <_>
          42 7 9 6 -1.</_>
        <_>
          45 9 3 2 9.</_></rects>
      <tilted>0</tilted></_>
    <_>
      <rects>
        <_>
          42 9 3 1 -1.</_>
        <_>
          43 9 1 1 3.</_></rects>
      <tilted>0</tilted></_>
    <_>
      <rects>
        <_>
          42 10 8 6 -1.</_>
        <_>
          46 10 4 6 2.</_></rects>
      <tilted>0</tilted></_>
    <_>
      <rects>
        <_>
          42 11 18 4 -1.</_>
        <_>
          51 11 9 4 2.</_></rects>
      <tilted>0</tilted></_>
    <_>
      <rects>
        <_>
          42 13 9 5 -1.</_>
        <_>
          45 13 3 5 3.</_></rects>
      <tilted>0</tilted></_>
    <_>
      <rects>
        <_>
          43 15 16 4 -1.</_>
        <_>
          47 15 8 4 2.</_></rects>
      <tilted>0</tilted></_>
    <_>
      <rects>
        <_>
          44 0 8 12 -1.</_>
        <_>
          40 4 8 4 3.</_></rects>
      <tilted>1</tilted></_>
    <_>
      <rects>
        <_>
          44 7 15 8 -1.</_>
        <_>
          44 9 15 4 2.</_></rects>
      <tilted>0</tilted></_>
    <_>
      <rects>
        <_>
          44 9 16 9 -1.</_>
        <_>
          52 9 8 9 2.</_></rects>
      <tilted>0</tilted></_>
    <_>
      <rects>
        <_>
          46 7 14 10 -1.</_>
        <_>
          53 7 7 10 2.</_></rects>
      <tilted>0</tilted></_>
    <_>
      <rects>
        <_>
          46 8 3 1 -1.</_>
        <_>
          47 9 1 1 3.</_></rects>
      <tilted>1</tilted></_>
    <_>
      <rects>
        <_>
          46 14 12 6 -1.</_>
        <_>
          46 14 6 3 2.</_>
        <_>
          52 17 6 3 2.</_></rects>
      <tilted>0</tilted></_>
    <_>
      <rects>
        <_>
          47 4 3 8 -1.</_>
        <_>
          47 4 3 4 2.</_></rects>
      <tilted>1</tilted></_>
    <_>
      <rects>
        <_>
          48 3 12 4 -1.</_>
        <_>
          48 3 6 2 2.</_>
        <_>
          54 5 6 2 2.</_></rects>
      <tilted>0</tilted></_>
    <_>
      <rects>
        <_>
          49 8 3 1 -1.</_>
        <_>
          50 8 1 1 3.</_></rects>
      <tilted>0</tilted></_>
    <_>
      <rects>
        <_>
          49 9 3 1 -1.</_>
        <_>
          50 9 1 1 3.</_></rects>
      <tilted>0</tilted></_>
    <_>
      <rects>
        <_>
          49 9 10 9 -1.</_>
        <_>
          54 9 5 9 2.</_></rects>
      <tilted>0</tilted></_>
    <_>
      <rects>
        <_>
          51 5 3 6 -1.</_>
        <_>
          52 5 1 6 3.</_></rects>
      <tilted>0</tilted></_>
    <_>
      <rects>
        <_>
          52 5 6 8 -1.</_>
        <_>
          54 5 2 8 3.</_></rects>
      <tilted>0</tilted></_>
    <_>
      <rects>
        <_>
          58 7 2 3 -1.</_>
        <_>
          58 8 2 1 3.</_></rects>
      <tilted>0</tilted></_>
    <_>
      <rects>
        <_>
          59 0 1 14 -1.</_>
        <_>
          59 7 1 7 2.</_></rects>
      <tilted>0</tilted></_>
    <_>
      <rects>
        <_>
          59 2 1 18 -1.</_>
        <_>
          59 8 1 6 3.</_></rects>
      <tilted>0</tilted></_></features></cascade>
</opencv_storage>
