<?xml version="1.0"?>
<opencv_storage>
<stage1>
  <maxWeakCount>7</maxWeakCount>
  <stageThreshold>-1.1453151702880859e+00</stageThreshold>
  <weakClassifiers>
    <_>
      <internalNodes>
        0 -1 912309 2.8733616694808006e-02</internalNodes>
      <leafValues>
        -8.0065715312957764e-01 3.9352640509605408e-01</leafValues></_>
    <_>
      <internalNodes>
        0 -1 598986 1.0638518258929253e-02</internalNodes>
      <leafValues>
        -7.7530574798583984e-01 3.1469726562500000e-01</leafValues></_>
    <_>
      <internalNodes>
        0 -1 759124 1.0331604862585664e-03</internalNodes>
      <leafValues>
        -5.6300449371337891e-01 4.4802698493003845e-01</leafValues></_>
    <_>
      <internalNodes>
        0 -1 11357 3.0247725546360016e-02</internalNodes>
      <leafValues>
        -3.4966772794723511e-01 7.4681413173675537e-01</leafValues></_>
    <_>
      <internalNodes>
        0 -1 328013 5.4464850109070539e-04</internalNodes>
      <leafValues>
        3.2886850833892822e-01 -8.4475934505462646e-01</leafValues></_>
    <_>
      <internalNodes>
        0 -1 535866 7.2639109566807747e-04</internalNodes>
      <leafValues>
        -3.0545917153358459e-01 8.2305610179901123e-01</leafValues></_>
    <_>
      <internalNodes>
        0 -1 768108 -9.5592271536588669e-03</internalNodes>
      <leafValues>
        -7.8198063373565674e-01 3.0887910723686218e-01</leafValues></_></weakClassifiers></stage1>
</opencv_storage>
