<?xml version="1.0"?>
<opencv_storage>
<stage10>
  <maxWeakCount>15</maxWeakCount>
  <stageThreshold>-1.4518913030624390e+00</stageThreshold>
  <weakClassifiers>
    <_>
      <internalNodes>
        0 -1 930638 -2.5287222117185593e-02</internalNodes>
      <leafValues>
        1.1041009426116943e-01 -6.5819859504699707e-01</leafValues></_>
    <_>
      <internalNodes>
        0 -1 575754 4.8451842740178108e-03</internalNodes>
      <leafValues>
        -4.1345751285552979e-01 3.4054768085479736e-01</leafValues></_>
    <_>
      <internalNodes>
        0 -1 308381 -1.0482379002496600e-03</internalNodes>
      <leafValues>
        3.6309492588043213e-01 -3.4458240866661072e-01</leafValues></_>
    <_>
      <internalNodes>
        0 -1 863603 2.6733383536338806e-02</internalNodes>
      <leafValues>
        1.5166363120079041e-01 -8.2127499580383301e-01</leafValues></_>
    <_>
      <internalNodes>
        0 -1 931236 6.3743796199560165e-03</internalNodes>
      <leafValues>
        1.3484905660152435e-01 -8.9458602666854858e-01</leafValues></_>
    <_>
      <internalNodes>
        0 -1 788174 6.8051385460421443e-04</internalNodes>
      <leafValues>
        1.6620045900344849e-01 -6.7587190866470337e-01</leafValues></_>
    <_>
      <internalNodes>
        0 -1 792727 1.2046971824020147e-03</internalNodes>
      <leafValues>
        -2.2865238785743713e-01 5.9654402732849121e-01</leafValues></_>
    <_>
      <internalNodes>
        0 -1 791984 -3.0627544037997723e-03</internalNodes>
      <leafValues>
        7.2091948986053467e-01 -1.7327187955379486e-01</leafValues></_>
    <_>
      <internalNodes>
        0 -1 810114 1.5517784282565117e-02</internalNodes>
      <leafValues>
        1.2586961686611176e-01 -9.5169806480407715e-01</leafValues></_>
    <_>
      <internalNodes>
        0 -1 972020 6.1037493869662285e-03</internalNodes>
      <leafValues>
        -3.0545499920845032e-01 3.8588094711303711e-01</leafValues></_>
    <_>
      <internalNodes>
        0 -1 169908 8.2056466490030289e-03</internalNodes>
      <leafValues>
        1.7790709435939789e-01 -7.6879489421844482e-01</leafValues></_>
    <_>
      <internalNodes>
        0 -1 736465 7.8073947224766016e-04</internalNodes>
      <leafValues>
        -4.7792330384254456e-01 2.2079968452453613e-01</leafValues></_>
    <_>
      <internalNodes>
        0 -1 308174 4.2400974780321121e-03</internalNodes>
      <leafValues>
        -2.4378943443298340e-01 4.9987936019897461e-01</leafValues></_>
    <_>
      <internalNodes>
        0 -1 510682 -9.5731616020202637e-03</internalNodes>
      <leafValues>
        -7.6034671068191528e-01 1.5864543616771698e-01</leafValues></_>
    <_>
      <internalNodes>
        0 -1 327417 9.7697084129322320e-05</internalNodes>
      <leafValues>
        1.5923419594764709e-01 -6.5005469322204590e-01</leafValues></_></weakClassifiers></stage10>
</opencv_storage>
