<?xml version="1.0"?>
<opencv_storage>
<stage6>
  <maxWeakCount>10</maxWeakCount>
  <stageThreshold>-1.1948812007904053e+00</stageThreshold>
  <weakClassifiers>
    <_>
      <internalNodes>
        0 -1 15876 4.3438106775283813e-02</internalNodes>
      <leafValues>
        -5.5105483531951904e-01 4.8571428656578064e-01</leafValues></_>
    <_>
      <internalNodes>
        0 -1 738240 -1.0598546359688044e-03</internalNodes>
      <leafValues>
        2.9786819219589233e-01 -6.5792262554168701e-01</leafValues></_>
    <_>
      <internalNodes>
        0 -1 638831 1.0988233983516693e-01</internalNodes>
      <leafValues>
        -5.6784951686859131e-01 3.1581267714500427e-01</leafValues></_>
    <_>
      <internalNodes>
        0 -1 808038 1.8562398618087173e-03</internalNodes>
      <leafValues>
        -2.5367563962936401e-01 7.4219995737075806e-01</leafValues></_>
    <_>
      <internalNodes>
        0 -1 679305 3.4635434858500957e-03</internalNodes>
      <leafValues>
        -6.5228021144866943e-01 3.1914535164833069e-01</leafValues></_>
    <_>
      <internalNodes>
        0 -1 823518 4.2097939876839519e-04</internalNodes>
      <leafValues>
        -3.2144716382026672e-01 5.9541666507720947e-01</leafValues></_>
    <_>
      <internalNodes>
        0 -1 767635 1.7506966833025217e-03</internalNodes>
      <leafValues>
        2.6314744353294373e-01 -9.0911334753036499e-01</leafValues></_>
    <_>
      <internalNodes>
        0 -1 739831 -1.4787149848416448e-03</internalNodes>
      <leafValues>
        5.4127866029739380e-01 -3.5654765367507935e-01</leafValues></_>
    <_>
      <internalNodes>
        0 -1 903155 -2.1982509642839432e-03</internalNodes>
      <leafValues>
        2.5251209735870361e-01 -5.9446877241134644e-01</leafValues></_>
    <_>
      <internalNodes>
        0 -1 901102 -5.5594285950064659e-03</internalNodes>
      <leafValues>
        7.3568546772003174e-01 -2.2930082678794861e-01</leafValues></_></weakClassifiers></stage6>
</opencv_storage>
