<?xml version="1.0"?>
<opencv_storage>
<stage11>
  <maxWeakCount>13</maxWeakCount>
  <stageThreshold>-1.3185831308364868e+00</stageThreshold>
  <weakClassifiers>
    <_>
      <internalNodes>
        0 -1 943905 7.3592051863670349e-02</internalNodes>
      <leafValues>
        -5.6079852581024170e-01 2.9648241400718689e-01</leafValues></_>
    <_>
      <internalNodes>
        0 -1 930011 -4.7955874470062554e-04</internalNodes>
      <leafValues>
        1.5680101513862610e-01 -6.1572003364562988e-01</leafValues></_>
    <_>
      <internalNodes>
        0 -1 9003 2.2733205929398537e-02</internalNodes>
      <leafValues>
        -3.4635451436042786e-01 3.7281733751296997e-01</leafValues></_>
    <_>
      <internalNodes>
        0 -1 526135 -3.3049717545509338e-02</internalNodes>
      <leafValues>
        5.5604708194732666e-01 -2.1796171367168427e-01</leafValues></_>
    <_>
      <internalNodes>
        0 -1 927698 -3.1928233802318573e-03</internalNodes>
      <leafValues>
        1.9657815992832184e-01 -5.6104445457458496e-01</leafValues></_>
    <_>
      <internalNodes>
        0 -1 801872 -5.9363531181588769e-04</internalNodes>
      <leafValues>
        -7.7113670110702515e-01 1.5071624517440796e-01</leafValues></_>
    <_>
      <internalNodes>
        0 -1 776076 6.8512244615703821e-04</internalNodes>
      <leafValues>
        -2.3440702259540558e-01 6.0286974906921387e-01</leafValues></_>
    <_>
      <internalNodes>
        0 -1 516320 2.4113088846206665e-02</internalNodes>
      <leafValues>
        1.6871584951877594e-01 -9.0992105007171631e-01</leafValues></_>
    <_>
      <internalNodes>
        0 -1 791970 9.1112032532691956e-04</internalNodes>
      <leafValues>
        -3.0259963870048523e-01 4.5474028587341309e-01</leafValues></_>
    <_>
      <internalNodes>
        0 -1 737157 -3.7317842245101929e-02</internalNodes>
      <leafValues>
        -7.7007031440734863e-01 1.7634758353233337e-01</leafValues></_>
    <_>
      <internalNodes>
        0 -1 759109 3.3380236709490418e-04</internalNodes>
      <leafValues>
        -2.8463727235794067e-01 4.3774405121803284e-01</leafValues></_>
    <_>
      <internalNodes>
        0 -1 325721 -8.3922233898192644e-04</internalNodes>
      <leafValues>
        2.2322146594524384e-01 -5.3864550590515137e-01</leafValues></_>
    <_>
      <internalNodes>
        0 -1 742192 6.4095319248735905e-04</internalNodes>
      <leafValues>
        -2.4124099314212799e-01 5.0050067901611328e-01</leafValues></_></weakClassifiers></stage11>
</opencv_storage>
