<?xml version="1.0"?>
<opencv_storage>
<stage11>
  <maxWeakCount>11</maxWeakCount>
  <stageThreshold>-1.1254926919937134e+00</stageThreshold>
  <weakClassifiers>
    <_>
      <internalNodes>
        0 -1 28922 4565 -2736129 -268599299 -2130178 -1074282500
        -1048579 -1242040390 -1077602389</internalNodes>
      <leafValues>
        -5.0877191126346588e-02 8.1605505943298340e-01</leafValues></_>
    <_>
      <internalNodes>
        0 -1 33482 -2172963 2100893469 -4342791 -47317059 2132615164
        -8446524 -1375863303 -583</internalNodes>
      <leafValues>
        -3.5497742891311646e-01 6.2314200401306152e-01</leafValues></_>
    <_>
      <internalNodes>
        0 -1 15013 1893454303 1358960426 293190135 1434777343 -520122114
        -285016193 2020999159 684697727</internalNodes>
      <leafValues>
        -4.2067503929138184e-01 5.6987768411636353e-01</leafValues></_>
    <_>
      <internalNodes>
        0 -1 33990 -616693965 -42664157 -1073741825 2146877301 -4194371
        -131077 -268697607 -1171849701</internalNodes>
      <leafValues>
        -3.7005171179771423e-01 6.0152941942214966e-01</leafValues></_>
    <_>
      <internalNodes>
        0 -1 24437 -538979386 1909444674 16783366 1130075595 1365262986
        4738 -1878850837 1374149614</internalNodes>
      <leafValues>
        -5.0466609001159668e-01 4.1692194342613220e-01</leafValues></_>
    <_>
      <internalNodes>
        0 -1 1130 -867259650 -490167120 63983069 -401735514 -520023361
        -878048204 436865209 -1354288365</internalNodes>
      <leafValues>
        -4.7103956341743469e-01 4.5631867647171021e-01</leafValues></_>
    <_>
      <internalNodes>
        0 -1 19001 93334684 1062568576 739574169 -1118092919 -1542977060
        -1993500456 680003672 193594272</internalNodes>
      <leafValues>
        -6.1506003141403198e-01 3.4779423475265503e-01</leafValues></_>
    <_>
      <internalNodes>
        0 -1 15095 487902975 -1156349938 1292129365 138580167 686756525
        942702603 138463449 1045490687</internalNodes>
      <leafValues>
        -4.7891598939895630e-01 4.2341735959053040e-01</leafValues></_>
    <_>
      <internalNodes>
        0 -1 33867 -439688702 -2042462140 -2146090848 -1043058270
        -939429878 19931416 -1316866547 -3177253</internalNodes>
      <leafValues>
        -4.9071189761161804e-01 4.2543447017669678e-01</leafValues></_>
    <_>
      <internalNodes>
        0 -1 34005 649081309 -347028735 1226102239 -451451992
        -1609929989 -678920064 -1593308170 411570304</internalNodes>
      <leafValues>
        -6.0820132493972778e-01 3.4768757224082947e-01</leafValues></_>
    <_>
      <internalNodes>
        0 -1 34558 -704385263 2023387351 117659909 -779943677 1493952241
        1015709960 554428452 -775304223</internalNodes>
      <leafValues>
        -5.6428599357604980e-01 3.7013027071952820e-01</leafValues></_></weakClassifiers></stage11>
</opencv_storage>
