<?xml version="1.0"?>
<opencv_storage>
<stage10>
  <maxWeakCount>12</maxWeakCount>
  <stageThreshold>-6.2227743864059448e-01</stageThreshold>
  <weakClassifiers>
    <_>
      <internalNodes>
        0 -1 31530 1367017548 -153133227 -8390913 -536917537 -268460914
        -32769 -1056975672 -41984697</internalNodes>
      <leafValues>
        -2.1205098927021027e-01 7.9426354169845581e-01</leafValues></_>
    <_>
      <internalNodes>
        0 -1 24400 -334311494 -583884042 -68488226 1493172400 -285266226
        -1622204994 -1460093699 -26250310</internalNodes>
      <leafValues>
        -3.9173334836959839e-01 6.1835265159606934e-01</leafValues></_>
    <_>
      <internalNodes>
        0 -1 27857 -671353894 260849672 -1744830060 1372065921
        1682483340 1744883720 -678849816 -85988645</internalNodes>
      <leafValues>
        -4.2004275321960449e-01 5.9912514686584473e-01</leafValues></_>
    <_>
      <internalNodes>
        0 -1 33523 -16515241 -37756986 -32941 -377487457 -1613234567
        -1242562778 -1073881667 -35652161</internalNodes>
      <leafValues>
        -3.4809249639511108e-01 6.3309323787689209e-01</leafValues></_>
    <_>
      <internalNodes>
        0 -1 32118 1766261903 -889198723 -269156357 -541100179
        1752301698 -1117893170 -397917502 -788562845</internalNodes>
      <leafValues>
        -4.5280283689498901e-01 4.7930672764778137e-01</leafValues></_>
    <_>
      <internalNodes>
        0 -1 423 1288095471 1474055775 -320864897 -319897627 1713836651
        -622752 -1351622833 -550961179</internalNodes>
      <leafValues>
        -4.4600632786750793e-01 4.7448331117630005e-01</leafValues></_>
    <_>
      <internalNodes>
        0 -1 30204 -856692222 -819350195 -1564517688 -782851090
        125286157 1720989508 -1244273566 -684984497</internalNodes>
      <leafValues>
        -4.2717152833938599e-01 4.8935845494270325e-01</leafValues></_>
    <_>
      <internalNodes>
        0 -1 19501 811095192 -1660415208 428197147 1360091537 1476976150
        -356349941 142627482 984249513</internalNodes>
      <leafValues>
        -6.1568742990493774e-01 3.5101404786109924e-01</leafValues></_>
    <_>
      <internalNodes>
        0 -1 34835 -469311486 1087358993 -1173798782 -2062576506
        1913295238 34105858 1381114534 -780150671</internalNodes>
      <leafValues>
        -5.1142454147338867e-01 4.0745070576667786e-01</leafValues></_>
    <_>
      <internalNodes>
        0 -1 35052 -1172309216 -1593589629 339841117 -1596669945
        -1924602677 -1982920568 -795949010 942060310</internalNodes>
      <leafValues>
        -5.9806609153747559e-01 3.6417269706726074e-01</leafValues></_>
    <_>
      <internalNodes>
        0 -1 18072 1510445201 1745181 648801241 425440525 -980326638
        -1978136658 -1657043201 -1660166625</internalNodes>
      <leafValues>
        -3.9141932129859924e-01 5.6463116407394409e-01</leafValues></_>
    <_>
      <internalNodes>
        0 -1 23724 -902568414 1806593847 -332905206 -794042482
        -152218595 44595167 1717978242 -205556294</internalNodes>
      <leafValues>
        -4.4183108210563660e-01 4.6962398290634155e-01</leafValues></_></weakClassifiers></stage10>
</opencv_storage>
