<?xml version="1.0"?>
<opencv_storage>
<stage15>
  <maxWeakCount>16</maxWeakCount>
  <stageThreshold>-7.1371793746948242e-01</stageThreshold>
  <weakClassifiers>
    <_>
      <internalNodes>
        0 -1 22805 -17069862 -545260049 721291460 565705626 -26787 -1
        221236372 -808719170</internalNodes>
      <leafValues>
        -5.9674501419067383e-02 8.1156122684478760e-01</leafValues></_>
    <_>
      <internalNodes>
        0 -1 33151 -3435041 1738145727 -49699 -1107427329 1870635000
        -1103200257 -827340392 -1665143333</internalNodes>
      <leafValues>
        -2.1321713924407959e-01 6.7272365093231201e-01</leafValues></_>
    <_>
      <internalNodes>
        0 -1 31183 -546854033 -23400449 -1226195239 -84271109 254545418
        -297963668 -284040977 -84156965</internalNodes>
      <leafValues>
        -3.3852350711822510e-01 5.3590792417526245e-01</leafValues></_>
    <_>
      <internalNodes>
        0 -1 1407 -866926394 -1627398286 -1157632001 -671122104
        1109378835 -293703946 1056284622 -824185326</internalNodes>
      <leafValues>
        -3.8217747211456299e-01 4.4288739562034607e-01</leafValues></_>
    <_>
      <internalNodes>
        0 -1 14358 289409212 1569788246 1078005843 324880663 -2129126248
        -1692780370 -1274754149 797574850</internalNodes>
      <leafValues>
        -4.7977909445762634e-01 3.7070313096046448e-01</leafValues></_>
    <_>
      <internalNodes>
        0 -1 20796 697335541 -979439404 -1031220929 -1951461298
        -322256740 -398859125 -351624816 -1430762796</internalNodes>
      <leafValues>
        -4.9194744229316711e-01 3.4560459852218628e-01</leafValues></_>
    <_>
      <internalNodes>
        0 -1 21909 134955523 -166247677 -1535030185 -670449631
        -2071491857 -372604783 -805187859 -2112633269</internalNodes>
      <leafValues>
        -4.8398461937904358e-01 3.4429350495338440e-01</leafValues></_>
    <_>
      <internalNodes>
        0 -1 16977 299943667 1059546626 -1981715013 53543568 168157206
        1112178826 283134127 254861514</internalNodes>
      <leafValues>
        -4.8248818516731262e-01 3.5662093758583069e-01</leafValues></_>
    <_>
      <internalNodes>
        0 -1 35685 1995826090 959594678 152193320 1392630612 -624262180
        1074006156 2021888643 -605629531</internalNodes>
      <leafValues>
        -4.2330196499824524e-01 4.2838227748870850e-01</leafValues></_>
    <_>
      <internalNodes>
        0 -1 36927 -276846157 -712847264 -785249600 -2109300652
        -1068801705 1477444128 -377284416 -1594593244</internalNodes>
      <leafValues>
        -4.0279504656791687e-01 4.3206182122230530e-01</leafValues></_>
    <_>
      <internalNodes>
        0 -1 28275 -1906678699 -1320836927 1493188977 -76606365
        -1831542351 -1131838846 806673034 -1120389087</internalNodes>
      <leafValues>
        -4.7503069043159485e-01 3.7846696376800537e-01</leafValues></_>
    <_>
      <internalNodes>
        0 -1 25845 1869311914 1360333470 1552156110 321881314 289555290
        1109526191 -896939342 -624887177</internalNodes>
      <leafValues>
        -4.0644368529319763e-01 4.4117102026939392e-01</leafValues></_>
    <_>
      <internalNodes>
        0 -1 35418 2069343144 824251011 2098204 1384126635 138420433
        1646272640 -913732097 2079815210</internalNodes>
      <leafValues>
        -5.2414292097091675e-01 3.5925099253654480e-01</leafValues></_>
    <_>
      <internalNodes>
        0 -1 13317 1346409535 42242423 113121177 1571945269 50906268
        -1250163049 952025339 197037880</internalNodes>
      <leafValues>
        -4.0317451953887939e-01 4.6289929747581482e-01</leafValues></_>
    <_>
      <internalNodes>
        0 -1 34578 -956284672 -545205646 51118088 1537021955 573742692
        1259339776 394408111 990388852</internalNodes>
      <leafValues>
        -6.1347365379333496e-01 3.0353584885597229e-01</leafValues></_>
    <_>
      <internalNodes>
        0 -1 7757 1415418079 810549806 -1006534379 890564615 1879774222
        989856776 1225654697 1698734091</internalNodes>
      <leafValues>
        -5.0823676586151123e-01 3.4891971945762634e-01</leafValues></_></weakClassifiers></stage15>
</opencv_storage>
