<?xml version="1.0"?>
<opencv_storage>
<stage8>
  <maxWeakCount>12</maxWeakCount>
  <stageThreshold>-8.0823719501495361e-01</stageThreshold>
  <weakClassifiers>
    <_>
      <internalNodes>
        0 -1 30052 -1073692672 -11018894 -8912897 -772016722 -1075091477
        -1318945 -402654258 -2143042398</internalNodes>
      <leafValues>
        -1.8440464138984680e-01 8.0751484632492065e-01</leafValues></_>
    <_>
      <internalNodes>
        0 -1 31515 2139094807 1968422779 -585 -557217 -548994 -16842793
        -8388641 2038103899</internalNodes>
      <leafValues>
        -3.7499508261680603e-01 6.4244163036346436e-01</leafValues></_>
    <_>
      <internalNodes>
        0 -1 25643 -1073495901 -536889489 -605028353 -747636937
        -606144513 -33587265 -611586049 -904928817</internalNodes>
      <leafValues>
        -3.0217316746711731e-01 7.3742562532424927e-01</leafValues></_>
    <_>
      <internalNodes>
        0 -1 26733 -1341122700 -1118549839 -2063378089 -8310563
        -758894337 -1079357288 -1177777409 706743564</internalNodes>
      <leafValues>
        -7.1325683593750000e-01 3.4981498122215271e-01</leafValues></_>
    <_>
      <internalNodes>
        0 -1 19612 -705707510 297001538 590530 1419202755 1195031435
        269113602 -804781553 1469048751</internalNodes>
      <leafValues>
        -5.1098310947418213e-01 4.5032075047492981e-01</leafValues></_>
    <_>
      <internalNodes>
        0 -1 29664 -39850234 -1032917394 -1368591604 -1599445120
        -1795909866 5453805 1025475346 -1210063953</internalNodes>
      <leafValues>
        -4.5875266194343567e-01 4.8785260319709778e-01</leafValues></_>
    <_>
      <internalNodes>
        0 -1 22351 1167066312 387743800 1124599199 -1759572707 706784171
        -628486085 269394607 -1148715000</internalNodes>
      <leafValues>
        -5.6214809417724609e-01 4.1374993324279785e-01</leafValues></_>
    <_>
      <internalNodes>
        0 -1 34560 -472522198 -1460521364 1260987424 -92606622 398055047
        101988334 364630445 -69212162</internalNodes>
      <leafValues>
        -4.4540205597877502e-01 5.3122550249099731e-01</leafValues></_>
    <_>
      <internalNodes>
        0 -1 36534 -951062778 1393138999 104859424 -795880422 1115807779
        873595906 -209083343 -1044920345</internalNodes>
      <leafValues>
        -5.1150333881378174e-01 4.7331124544143677e-01</leafValues></_>
    <_>
      <internalNodes>
        0 -1 20295 8935637 -686548903 1359319513 890716529 -1473977639
        -550500216 -1442735381 188353496</internalNodes>
      <leafValues>
        -6.3231444358825684e-01 3.5878887772560120e-01</leafValues></_>
    <_>
      <internalNodes>
        0 -1 28566 -532109176 -1591951336 1627456769 -50121172
        -525323107 -150470581 -1421184371 -1364483221</internalNodes>
      <leafValues>
        -5.5096840858459473e-01 3.9150032401084900e-01</leafValues></_>
    <_>
      <internalNodes>
        0 -1 20504 -46937598 -995715060 -805191166 -754745334 1354990011
        6291522 1392611840 -475273413</internalNodes>
      <leafValues>
        -4.6114212274551392e-01 4.7241142392158508e-01</leafValues></_></weakClassifiers></stage8>
</opencv_storage>
