<?xml version="1.0"?>
<opencv_storage>
<stage10>
  <maxWeakCount>17</maxWeakCount>
  <stageThreshold>-1.1371639966964722e+00</stageThreshold>
  <weakClassifiers>
    <_>
      <internalNodes>
        0 -1 717496 1.2455785181373358e-03</internalNodes>
      <leafValues>
        -5.7432430982589722e-01 4.6812748908996582e-01</leafValues></_>
    <_>
      <internalNodes>
        0 -1 867027 -1.9213173072785139e-03</internalNodes>
      <leafValues>
        -7.1036201715469360e-01 2.5434851646423340e-01</leafValues></_>
    <_>
      <internalNodes>
        0 -1 13279 5.2056200802326202e-02</internalNodes>
      <leafValues>
        -3.8336023688316345e-01 4.2566844820976257e-01</leafValues></_>
    <_>
      <internalNodes>
        0 -1 15952 4.7544896602630615e-02</internalNodes>
      <leafValues>
        -2.6670104265213013e-01 5.5431032180786133e-01</leafValues></_>
    <_>
      <internalNodes>
        0 -1 785787 3.9564194157719612e-03</internalNodes>
      <leafValues>
        1.9360701739788055e-01 -7.9715186357498169e-01</leafValues></_>
    <_>
      <internalNodes>
        0 -1 466135 6.6454673651605844e-04</internalNodes>
      <leafValues>
        -2.8308165073394775e-01 5.3048992156982422e-01</leafValues></_>
    <_>
      <internalNodes>
        0 -1 816397 -1.4208657667040825e-03</internalNodes>
      <leafValues>
        -9.3364208936691284e-01 1.4936636388301849e-01</leafValues></_>
    <_>
      <internalNodes>
        0 -1 770136 1.9578941282816231e-04</internalNodes>
      <leafValues>
        1.6777130961418152e-01 -6.4055526256561279e-01</leafValues></_>
    <_>
      <internalNodes>
        0 -1 720785 -8.4494450129568577e-04</internalNodes>
      <leafValues>
        5.6237202882766724e-01 -2.5787055492401123e-01</leafValues></_>
    <_>
      <internalNodes>
        0 -1 357086 -3.4992970526218414e-02</internalNodes>
      <leafValues>
        -8.7461012601852417e-01 1.4384095370769501e-01</leafValues></_>
    <_>
      <internalNodes>
        0 -1 326371 4.9116991460323334e-02</internalNodes>
      <leafValues>
        1.0460077971220016e-01 -9.3823373317718506e-01</leafValues></_>
    <_>
      <internalNodes>
        0 -1 489363 7.6385829597711563e-03</internalNodes>
      <leafValues>
        9.4930954277515411e-02 -8.8779860734939575e-01</leafValues></_>
    <_>
      <internalNodes>
        0 -1 163954 3.8061011582612991e-04</internalNodes>
      <leafValues>
        -4.7855722904205322e-01 2.3373270034790039e-01</leafValues></_>
    <_>
      <internalNodes>
        0 -1 762323 1.7538585234433413e-04</internalNodes>
      <leafValues>
        1.4246058464050293e-01 -8.0616950988769531e-01</leafValues></_>
    <_>
      <internalNodes>
        0 -1 930099 2.6336128357797861e-03</internalNodes>
      <leafValues>
        -4.9516600370407104e-01 2.3811915516853333e-01</leafValues></_>
    <_>
      <internalNodes>
        0 -1 505507 -2.5779668241739273e-02</internalNodes>
      <leafValues>
        -9.2342299222946167e-01 1.1862330883741379e-01</leafValues></_>
    <_>
      <internalNodes>
        0 -1 839799 9.8178419284522533e-04</internalNodes>
      <leafValues>
        -2.4851733446121216e-01 6.4240908622741699e-01</leafValues></_></weakClassifiers></stage10>
</opencv_storage>
