<?xml version="1.0"?>
<opencv_storage>
<stage7>
  <maxWeakCount>15</maxWeakCount>
  <stageThreshold>-1.4251142740249634e+00</stageThreshold>
  <weakClassifiers>
    <_>
      <internalNodes>
        0 -1 791576 1.8569793552160263e-02</internalNodes>
      <leafValues>
        -2.4869565665721893e-01 6.1103451251983643e-01</leafValues></_>
    <_>
      <internalNodes>
        0 -1 832087 -2.8788042254745960e-03</internalNodes>
      <leafValues>
        3.6488306522369385e-01 -4.8740130662918091e-01</leafValues></_>
    <_>
      <internalNodes>
        0 -1 910689 2.3019206710159779e-03</internalNodes>
      <leafValues>
        2.0248930156230927e-01 -8.2471424341201782e-01</leafValues></_>
    <_>
      <internalNodes>
        0 -1 232037 -4.6590130776166916e-02</internalNodes>
      <leafValues>
        3.8711258769035339e-01 -4.0380838513374329e-01</leafValues></_>
    <_>
      <internalNodes>
        0 -1 807268 1.8199379555881023e-03</internalNodes>
      <leafValues>
        -2.1820344030857086e-01 6.9434785842895508e-01</leafValues></_>
    <_>
      <internalNodes>
        0 -1 994249 1.3557835482060909e-03</internalNodes>
      <leafValues>
        -2.2443541884422302e-01 6.2170076370239258e-01</leafValues></_>
    <_>
      <internalNodes>
        0 -1 675635 -3.0725958640687168e-04</internalNodes>
      <leafValues>
        -8.5245114564895630e-01 1.6576011478900909e-01</leafValues></_>
    <_>
      <internalNodes>
        0 -1 938920 7.5569853652268648e-04</internalNodes>
      <leafValues>
        -2.2311949729919434e-01 6.3175684213638306e-01</leafValues></_>
    <_>
      <internalNodes>
        0 -1 608280 3.1350890640169382e-04</internalNodes>
      <leafValues>
        1.7775325477123260e-01 -8.1552088260650635e-01</leafValues></_>
    <_>
      <internalNodes>
        0 -1 361807 -1.1022788239642978e-03</internalNodes>
      <leafValues>
        5.8245003223419189e-01 -2.8106704354286194e-01</leafValues></_>
    <_>
      <internalNodes>
        0 -1 720060 1.4469127636402845e-03</internalNodes>
      <leafValues>
        2.7092024683952332e-01 -6.3516426086425781e-01</leafValues></_>
    <_>
      <internalNodes>
        0 -1 347036 1.3460294576361775e-04</internalNodes>
      <leafValues>
        1.9464559853076935e-01 -7.2873568534851074e-01</leafValues></_>
    <_>
      <internalNodes>
        0 -1 679091 2.4063664022833109e-03</internalNodes>
      <leafValues>
        -2.9277071356773376e-01 5.2431756258010864e-01</leafValues></_>
    <_>
      <internalNodes>
        0 -1 599779 -4.2884118854999542e-02</internalNodes>
      <leafValues>
        -7.6420009136199951e-01 2.0432631671428680e-01</leafValues></_>
    <_>
      <internalNodes>
        0 -1 376 3.3898115158081055e-02</internalNodes>
      <leafValues>
        -2.1029946208000183e-01 7.0173335075378418e-01</leafValues></_></weakClassifiers></stage7>
</opencv_storage>
