<?xml version="1.0"?>
<opencv_storage>
<stage1>
  <maxWeakCount>9</maxWeakCount>
  <stageThreshold>-1.8208272457122803e+00</stageThreshold>
  <weakClassifiers>
    <_>
      <internalNodes>
        0 -1 925019 1.5149692073464394e-02</internalNodes>
      <leafValues>
        -5.6250000000000000e-01 7.4619287252426147e-01</leafValues></_>
    <_>
      <internalNodes>
        0 -1 598986 1.0658428072929382e-02</internalNodes>
      <leafValues>
        -6.6797053813934326e-01 5.5201494693756104e-01</leafValues></_>
    <_>
      <internalNodes>
        0 -1 243145 -2.1118200384080410e-03</internalNodes>
      <leafValues>
        3.8051283359527588e-01 -7.3324990272521973e-01</leafValues></_>
    <_>
      <internalNodes>
        0 -1 907652 -7.8147873282432556e-03</internalNodes>
      <leafValues>
        5.7040315866470337e-01 -5.5789464712142944e-01</leafValues></_>
    <_>
      <internalNodes>
        0 -1 184951 -3.7042886018753052e-02</internalNodes>
      <leafValues>
        7.5903314352035522e-01 -3.5402855277061462e-01</leafValues></_>
    <_>
      <internalNodes>
        0 -1 534566 1.2379873078316450e-03</internalNodes>
      <leafValues>
        -3.5053461790084839e-01 8.3070379495620728e-01</leafValues></_>
    <_>
      <internalNodes>
        0 -1 17839 9.7695402801036835e-03</internalNodes>
      <leafValues>
        -3.2793870568275452e-01 6.0715717077255249e-01</leafValues></_>
    <_>
      <internalNodes>
        0 -1 401143 -3.0133802443742752e-02</internalNodes>
      <leafValues>
        7.4522638320922852e-01 -2.8339761495590210e-01</leafValues></_>
    <_>
      <internalNodes>
        0 -1 533169 -1.1529850307852030e-03</internalNodes>
      <leafValues>
        7.3842656612396240e-01 -2.7831381559371948e-01</leafValues></_></weakClassifiers></stage1>
</opencv_storage>
