<?xml version="1.0"?>
<opencv_storage>
<cascade>
  <stageType>BOOST</stageType>
  <featureType>HAAR</featureType>
  <height>20</height>
  <width>60</width>
  <stageParams>
    <boostType>GAB</boostType>
    <minHitRate>9.9800002574920654e-01</minHitRate>
    <maxFalseAlarm>4.0000000596046448e-01</maxFalseAlarm>
    <weightTrimRate>9.4999999999999996e-01</weightTrimRate>
    <maxDepth>1</maxDepth>
    <maxWeakCount>100</maxWeakCount></stageParams>
  <featureParams>
    <maxCatCount>0</maxCatCount>
    <featSize>1</featSize>
    <mode>ALL</mode></featureParams>
  <stageNum>16</stageNum>
  <stages>
    <!-- stage 0 -->
    <_>
      <maxWeakCount>5</maxWeakCount>
      <stageThreshold>-1.5032035112380981e+00</stageThreshold>
      <weakClassifiers>
        <_>
          <internalNodes>
            0 -1 110 2.3133810609579086e-02</internalNodes>
          <leafValues>
            -6.8627452850341797e-01 8.8709676265716553e-01</leafValues></_>
        <_>
          <internalNodes>
            0 -1 94 4.9313884228467941e-03</internalNodes>
          <leafValues>
            -5.5377429723739624e-01 8.2889103889465332e-01</leafValues></_>
        <_>
          <internalNodes>
            0 -1 24 3.4801408648490906e-02</internalNodes>
          <leafValues>
            -5.1704716682434082e-01 8.6942422389984131e-01</leafValues></_>
        <_>
          <internalNodes>
            0 -1 56 4.7628418542444706e-03</internalNodes>
          <leafValues>
            -6.4427828788757324e-01 6.1929184198379517e-01</leafValues></_>
        <_>
          <internalNodes>
            0 -1 31 2.1678954362869263e-02</internalNodes>
          <leafValues>
            -4.8830062150955200e-01 8.8850545883178711e-01</leafValues></_></weakClassifiers></_>
    <!-- stage 1 -->
    <_>
      <maxWeakCount>6</maxWeakCount>
      <stageThreshold>-7.7462005615234375e-01</stageThreshold>
      <weakClassifiers>
        <_>
          <internalNodes>
            0 -1 9 1.0963054001331329e-01</internalNodes>
          <leafValues>
            -4.3295019865036011e-01 9.4077450037002563e-01</leafValues></_>
        <_>
          <internalNodes>
            0 -1 116 8.1698745489120483e-03</internalNodes>
          <leafValues>
            -5.2028930187225342e-01 8.1372553110122681e-01</leafValues></_>
        <_>
          <internalNodes>
            0 -1 25 -4.0900520980358124e-04</internalNodes>
          <leafValues>
            5.4327279329299927e-01 -8.8746219873428345e-01</leafValues></_>
        <_>
          <internalNodes>
            0 -1 7 -2.3828329518437386e-02</internalNodes>
          <leafValues>
            8.1396335363388062e-01 -5.6066328287124634e-01</leafValues></_>
        <_>
          <internalNodes>
            0 -1 21 -5.2709233015775681e-02</internalNodes>
          <leafValues>
            8.0992835760116577e-01 -4.2384654283523560e-01</leafValues></_>
        <_>
          <internalNodes>
            0 -1 75 1.4934164937585592e-04</internalNodes>
          <leafValues>
            -7.1426105499267578e-01 6.1985653638839722e-01</leafValues></_></weakClassifiers></_>
    <!-- stage 2 -->
    <_>
      <maxWeakCount>6</maxWeakCount>
      <stageThreshold>-7.1345430612564087e-01</stageThreshold>
      <weakClassifiers>
        <_>
          <internalNodes>
            0 -1 51 1.1358408257365227e-02</internalNodes>
          <leafValues>
            -5.9302324056625366e-01 7.6136362552642822e-01</leafValues></_>
        <_>
          <internalNodes>
            0 -1 123 1.9667070358991623e-02</internalNodes>
          <leafValues>
            -5.7456827163696289e-01 6.6069483757019043e-01</leafValues></_>
        <_>
          <internalNodes>
            0 -1 70 -1.5216269530355930e-03</internalNodes>
          <leafValues>
            5.7208818197250366e-01 -6.0380893945693970e-01</leafValues></_>
        <_>
          <internalNodes>
            0 -1 32 -2.7835048735141754e-02</internalNodes>
          <leafValues>
            7.6788032054901123e-01 -4.2013522982597351e-01</leafValues></_>
        <_>
          <internalNodes>
            0 -1 119 -1.1233273893594742e-02</internalNodes>
          <leafValues>
            6.8952047824859619e-01 -5.2363371849060059e-01</leafValues></_>
        <_>
          <internalNodes>
            0 -1 59 6.4961781026795506e-04</internalNodes>
          <leafValues>
            -3.6219760775566101e-01 7.6915013790130615e-01</leafValues></_></weakClassifiers></_>
    <!-- stage 3 -->
    <_>
      <maxWeakCount>10</maxWeakCount>
      <stageThreshold>-6.1382687091827393e-01</stageThreshold>
      <weakClassifiers>
        <_>
          <internalNodes>
            0 -1 92 -1.9449908286333084e-03</internalNodes>
          <leafValues>
            7.4615383148193359e-01 -4.8888888955116272e-01</leafValues></_>
        <_>
          <internalNodes>
            0 -1 117 -4.7231443226337433e-02</internalNodes>
          <leafValues>
            8.1656271219253540e-01 -3.3458456397056580e-01</leafValues></_>
        <_>
          <internalNodes>
            0 -1 15 -1.5615190565586090e-01</internalNodes>
          <leafValues>
            8.6073970794677734e-01 -3.1054034829139709e-01</leafValues></_>
        <_>
          <internalNodes>
            0 -1 99 -3.0968158971518278e-03</internalNodes>
          <leafValues>
            -7.1496576070785522e-01 3.8538721203804016e-01</leafValues></_>
        <_>
          <internalNodes>
            0 -1 120 1.2969446834176779e-03</internalNodes>
          <leafValues>
            -7.1431106328964233e-01 3.3512860536575317e-01</leafValues></_>
        <_>
          <internalNodes>
            0 -1 3 1.9762601703405380e-02</internalNodes>
          <leafValues>
            -4.2020672559738159e-01 5.7768708467483521e-01</leafValues></_>
        <_>
          <internalNodes>
            0 -1 49 1.0105438996106386e-03</internalNodes>
          <leafValues>
            3.1039953231811523e-01 -7.9318696260452271e-01</leafValues></_>
        <_>
          <internalNodes>
            0 -1 58 -4.7645147424191236e-04</internalNodes>
          <leafValues>
            6.8066054582595825e-01 -4.2329001426696777e-01</leafValues></_>
        <_>
          <internalNodes>
            0 -1 106 1.5673083253204823e-03</internalNodes>
          <leafValues>
            -3.8740864396095276e-01 7.5137168169021606e-01</leafValues></_>
        <_>
          <internalNodes>
            0 -1 44 2.1610022522509098e-03</internalNodes>
          <leafValues>
            -2.7771678566932678e-01 8.6572271585464478e-01</leafValues></_></weakClassifiers></_>
    <!-- stage 4 -->
    <_>
      <maxWeakCount>5</maxWeakCount>
      <stageThreshold>-4.0354204177856445e-01</stageThreshold>
      <weakClassifiers>
        <_>
          <internalNodes>
            0 -1 38 1.9654776901006699e-02</internalNodes>
          <leafValues>
            -3.4099617600440979e-01 8.8610476255416870e-01</leafValues></_>
        <_>
          <internalNodes>
            0 -1 91 8.8971303775906563e-03</internalNodes>
          <leafValues>
            -2.6716062426567078e-01 8.5403919219970703e-01</leafValues></_>
        <_>
          <internalNodes>
            0 -1 33 -2.7394302189350128e-02</internalNodes>
          <leafValues>
            -9.8561167716979980e-01 3.8572886586189270e-01</leafValues></_>
        <_>
          <internalNodes>
            0 -1 64 -1.6194917261600494e-02</internalNodes>
          <leafValues>
            -9.1677117347717285e-01 2.5075080990791321e-01</leafValues></_>
        <_>
          <internalNodes>
            0 -1 16 3.2041594386100769e-01</internalNodes>
          <leafValues>
            -3.8554275035858154e-01 7.9756939411163330e-01</leafValues></_></weakClassifiers></_>
    <!-- stage 5 -->
    <_>
      <maxWeakCount>6</maxWeakCount>
      <stageThreshold>-1.0017225742340088e+00</stageThreshold>
      <weakClassifiers>
        <_>
          <internalNodes>
            0 -1 53 1.9463907927274704e-02</internalNodes>
          <leafValues>
            6.8858128786087036e-01 -8.0327868461608887e-01</leafValues></_>
        <_>
          <internalNodes>
            0 -1 46 -3.0001446604728699e-02</internalNodes>
          <leafValues>
            8.7657904624938965e-01 -4.6058472990989685e-01</leafValues></_>
        <_>
          <internalNodes>
            0 -1 42 -6.6281229257583618e-02</internalNodes>
          <leafValues>
            7.4482703208923340e-01 -4.5312505960464478e-01</leafValues></_>
        <_>
          <internalNodes>
            0 -1 112 -3.2436801120638847e-03</internalNodes>
          <leafValues>
            -8.2917773723602295e-01 4.5080870389938354e-01</leafValues></_>
        <_>
          <internalNodes>
            0 -1 8 -5.2322536706924438e-02</internalNodes>
          <leafValues>
            8.4913676977157593e-01 -3.9513900876045227e-01</leafValues></_>
        <_>
          <internalNodes>
            0 -1 89 2.5564737734384835e-04</internalNodes>
          <leafValues>
            4.4772264361381531e-01 -7.4241012334823608e-01</leafValues></_></weakClassifiers></_>
    <!-- stage 6 -->
    <_>
      <maxWeakCount>8</maxWeakCount>
      <stageThreshold>-9.9356359243392944e-01</stageThreshold>
      <weakClassifiers>
        <_>
          <internalNodes>
            0 -1 86 -2.0358018446131609e-05</internalNodes>
          <leafValues>
            7.6237624883651733e-01 -4.3589743971824646e-01</leafValues></_>
        <_>
          <internalNodes>
            0 -1 5 3.1020682305097580e-02</internalNodes>
          <leafValues>
            -4.8074933886528015e-01 6.4988332986831665e-01</leafValues></_>
        <_>
          <internalNodes>
            0 -1 95 -1.8654540181159973e-03</internalNodes>
          <leafValues>
            -8.3175599575042725e-01 3.5041990876197815e-01</leafValues></_>
        <_>
          <internalNodes>
            0 -1 11 2.0569935441017151e-02</internalNodes>
          <leafValues>
            3.4963867068290710e-01 -7.0778733491897583e-01</leafValues></_>
        <_>
          <internalNodes>
            0 -1 26 -2.0923216361552477e-03</internalNodes>
          <leafValues>
            3.4647402167320251e-01 -5.9737133979797363e-01</leafValues></_>
        <_>
          <internalNodes>
            0 -1 22 6.4252223819494247e-04</internalNodes>
          <leafValues>
            2.2497867047786713e-01 -9.6108853816986084e-01</leafValues></_>
        <_>
          <internalNodes>
            0 -1 101 -2.5592476595193148e-04</internalNodes>
          <leafValues>
            2.0614226162433624e-01 -8.2591813802719116e-01</leafValues></_>
        <_>
          <internalNodes>
            0 -1 126 2.2715583327226341e-04</internalNodes>
          <leafValues>
            -5.9571659564971924e-01 3.2390400767326355e-01</leafValues></_></weakClassifiers></_>
    <!-- stage 7 -->
    <_>
      <maxWeakCount>7</maxWeakCount>
      <stageThreshold>-1.0801131725311279e+00</stageThreshold>
      <weakClassifiers>
        <_>
          <internalNodes>
            0 -1 90 2.3977672681212425e-03</internalNodes>
          <leafValues>
            6.4467006921768188e-01 -7.4311923980712891e-01</leafValues></_>
        <_>
          <internalNodes>
            0 -1 107 -1.0648930445313454e-02</internalNodes>
          <leafValues>
            7.3008310794830322e-01 -4.2680171132087708e-01</leafValues></_>
        <_>
          <internalNodes>
            0 -1 65 3.4646799322217703e-03</internalNodes>
          <leafValues>
            -6.2929141521453857e-01 4.2735865712165833e-01</leafValues></_>
        <_>
          <internalNodes>
            0 -1 14 -3.6846242845058441e-02</internalNodes>
          <leafValues>
            7.1908450126647949e-01 -4.0797618031501770e-01</leafValues></_>
        <_>
          <internalNodes>
            0 -1 36 -6.7101910710334778e-02</internalNodes>
          <leafValues>
            8.0708932876586914e-01 -3.3032947778701782e-01</leafValues></_>
        <_>
          <internalNodes>
            0 -1 77 1.0710671544075012e-02</internalNodes>
          <leafValues>
            -2.6252540946006775e-01 8.7549775838851929e-01</leafValues></_>
        <_>
          <internalNodes>
            0 -1 48 -1.5530444215983152e-04</internalNodes>
          <leafValues>
            -8.3502233028411865e-01 3.3214098215103149e-01</leafValues></_></weakClassifiers></_>
    <!-- stage 8 -->
    <_>
      <maxWeakCount>10</maxWeakCount>
      <stageThreshold>-5.2797299623489380e-01</stageThreshold>
      <weakClassifiers>
        <_>
          <internalNodes>
            0 -1 50 2.5450894609093666e-03</internalNodes>
          <leafValues>
            -5.8139532804489136e-01 6.5674257278442383e-01</leafValues></_>
        <_>
          <internalNodes>
            0 -1 27 -2.3089308291673660e-02</internalNodes>
          <leafValues>
            6.9048231840133667e-01 -3.2595637440681458e-01</leafValues></_>
        <_>
          <internalNodes>
            0 -1 28 -8.7118774652481079e-02</internalNodes>
          <leafValues>
            5.5428099632263184e-01 -3.9419081807136536e-01</leafValues></_>
        <_>
          <internalNodes>
            0 -1 129 1.0916676837950945e-03</internalNodes>
          <leafValues>
            -2.6526620984077454e-01 8.8716149330139160e-01</leafValues></_>
        <_>
          <internalNodes>
            0 -1 124 -4.4942594831809402e-04</internalNodes>
          <leafValues>
            7.4683737754821777e-01 -2.9922905564308167e-01</leafValues></_>
        <_>
          <internalNodes>
            0 -1 37 1.1679267045110464e-03</internalNodes>
          <leafValues>
            -2.8499305248260498e-01 7.6807838678359985e-01</leafValues></_>
        <_>
          <internalNodes>
            0 -1 125 -3.9040115661919117e-03</internalNodes>
          <leafValues>
            5.8176809549331665e-01 -3.6564397811889648e-01</leafValues></_>
        <_>
          <internalNodes>
            0 -1 17 2.5500964839011431e-03</internalNodes>
          <leafValues>
            -2.3474425077438354e-01 8.8778513669967651e-01</leafValues></_>
        <_>
          <internalNodes>
            0 -1 35 3.1151191797107458e-04</internalNodes>
          <leafValues>
            -3.1579408049583435e-01 6.6756600141525269e-01</leafValues></_>
        <_>
          <internalNodes>
            0 -1 52 -4.4365855865180492e-03</internalNodes>
          <leafValues>
            5.5952328443527222e-01 -3.7308236956596375e-01</leafValues></_></weakClassifiers></_>
    <!-- stage 9 -->
    <_>
      <maxWeakCount>7</maxWeakCount>
      <stageThreshold>-7.9651929438114166e-02</stageThreshold>
      <weakClassifiers>
        <_>
          <internalNodes>
            0 -1 20 1.4386611990630627e-02</internalNodes>
          <leafValues>
            6.2711864709854126e-01 -6.3636362552642822e-01</leafValues></_>
        <_>
          <internalNodes>
            0 -1 54 -5.1638200879096985e-02</internalNodes>
          <leafValues>
            8.7312704324722290e-01 -2.9151043295860291e-01</leafValues></_>
        <_>
          <internalNodes>
            0 -1 80 1.5831850469112396e-03</internalNodes>
          <leafValues>
            -2.0224091410636902e-01 9.0491282939910889e-01</leafValues></_>
        <_>
          <internalNodes>
            0 -1 85 2.7740775840356946e-04</internalNodes>
          <leafValues>
            2.9634022712707520e-01 -8.0263900756835938e-01</leafValues></_>
        <_>
          <internalNodes>
            0 -1 60 9.2090596444904804e-04</internalNodes>
          <leafValues>
            -3.1445422768592834e-01 8.4043264389038086e-01</leafValues></_>
        <_>
          <internalNodes>
            0 -1 19 2.0386856049299240e-03</internalNodes>
          <leafValues>
            2.7310684323310852e-01 -7.9390406608581543e-01</leafValues></_>
        <_>
          <internalNodes>
            0 -1 97 1.9163035321980715e-03</internalNodes>
          <leafValues>
            -3.1168350577354431e-01 7.8333497047424316e-01</leafValues></_></weakClassifiers></_>
    <!-- stage 10 -->
    <_>
      <maxWeakCount>9</maxWeakCount>
      <stageThreshold>-5.8616536855697632e-01</stageThreshold>
      <weakClassifiers>
        <_>
          <internalNodes>
            0 -1 79 5.6396247819066048e-03</internalNodes>
          <leafValues>
            -4.4871795177459717e-01 6.8014705181121826e-01</leafValues></_>
        <_>
          <internalNodes>
            0 -1 88 -2.8289221227169037e-03</internalNodes>
          <leafValues>
            -9.3298882246017456e-01 3.0877283215522766e-01</leafValues></_>
        <_>
          <internalNodes>
            0 -1 63 2.9083194676786661e-03</internalNodes>
          <leafValues>
            -5.5863106250762939e-01 3.9830133318901062e-01</leafValues></_>
        <_>
          <internalNodes>
            0 -1 105 8.4562390111386776e-04</internalNodes>
          <leafValues>
            -6.0682851076126099e-01 3.0531644821166992e-01</leafValues></_>
        <_>
          <internalNodes>
            0 -1 127 -1.6069390112534165e-03</internalNodes>
          <leafValues>
            2.7501013875007629e-01 -6.0091412067413330e-01</leafValues></_>
        <_>
          <internalNodes>
            0 -1 111 -1.5644045197404921e-04</internalNodes>
          <leafValues>
            -8.5875540971755981e-01 2.0351928472518921e-01</leafValues></_>
        <_>
          <internalNodes>
            0 -1 66 3.5747699439525604e-03</internalNodes>
          <leafValues>
            -5.1901131868362427e-01 3.0574238300323486e-01</leafValues></_>
        <_>
          <internalNodes>
            0 -1 18 -2.6199121493846178e-03</internalNodes>
          <leafValues>
            -6.8217611312866211e-01 2.9344335198402405e-01</leafValues></_>
        <_>
          <internalNodes>
            0 -1 23 -1.5917713753879070e-03</internalNodes>
          <leafValues>
            5.2975237369537354e-01 -3.6504653096199036e-01</leafValues></_></weakClassifiers></_>
    <!-- stage 11 -->
    <_>
      <maxWeakCount>9</maxWeakCount>
      <stageThreshold>-5.1940548419952393e-01</stageThreshold>
      <weakClassifiers>
        <_>
          <internalNodes>
            0 -1 78 3.2002100488170981e-04</internalNodes>
          <leafValues>
            6.1224490404129028e-01 -5.3571426868438721e-01</leafValues></_>
        <_>
          <internalNodes>
            0 -1 6 4.3162152171134949e-02</internalNodes>
          <leafValues>
            -4.2955127358436584e-01 5.6115329265594482e-01</leafValues></_>
        <_>
          <internalNodes>
            0 -1 1 3.7124276161193848e-02</internalNodes>
          <leafValues>
            -3.2404071092605591e-01 7.0219087600708008e-01</leafValues></_>
        <_>
          <internalNodes>
            0 -1 43 8.1705086631700397e-04</internalNodes>
          <leafValues>
            -2.4105864763259888e-01 7.9246878623962402e-01</leafValues></_>
        <_>
          <internalNodes>
            0 -1 41 1.0733943199738860e-03</internalNodes>
          <leafValues>
            -2.4011075496673584e-01 8.6815726757049561e-01</leafValues></_>
        <_>
          <internalNodes>
            0 -1 34 -9.7317807376384735e-04</internalNodes>
          <leafValues>
            7.3931926488876343e-01 -2.4128131568431854e-01</leafValues></_>
        <_>
          <internalNodes>
            0 -1 71 -6.9962639827281237e-04</internalNodes>
          <leafValues>
            -8.8766521215438843e-01 2.8203248977661133e-01</leafValues></_>
        <_>
          <internalNodes>
            0 -1 98 9.8280026577413082e-04</internalNodes>
          <leafValues>
            -3.0630621314048767e-01 7.1645027399063110e-01</leafValues></_>
        <_>
          <internalNodes>
            0 -1 103 4.2136991396546364e-04</internalNodes>
          <leafValues>
            -4.0647885203361511e-01 5.2592068910598755e-01</leafValues></_></weakClassifiers></_>
    <!-- stage 12 -->
    <_>
      <maxWeakCount>11</maxWeakCount>
      <stageThreshold>-6.4334720373153687e-01</stageThreshold>
      <weakClassifiers>
        <_>
          <internalNodes>
            0 -1 114 4.7879619523882866e-03</internalNodes>
          <leafValues>
            -4.3703705072402954e-01 6.3539820909500122e-01</leafValues></_>
        <_>
          <internalNodes>
            0 -1 57 4.7634425573050976e-03</internalNodes>
          <leafValues>
            -4.3819990754127502e-01 4.4161570072174072e-01</leafValues></_>
        <_>
          <internalNodes>
            0 -1 29 1.9597404170781374e-03</internalNodes>
          <leafValues>
            -2.1330979466438293e-01 8.0884259939193726e-01</leafValues></_>
        <_>
          <internalNodes>
            0 -1 55 3.1793862581253052e-03</internalNodes>
          <leafValues>
            2.9925823211669922e-01 -7.1413040161132813e-01</leafValues></_>
        <_>
          <internalNodes>
            0 -1 76 1.1395795736461878e-03</internalNodes>
          <leafValues>
            -3.4072008728981018e-01 6.6845828294754028e-01</leafValues></_>
        <_>
          <internalNodes>
            0 -1 12 -5.0002086907625198e-02</internalNodes>
          <leafValues>
            -7.0394682884216309e-01 3.2854375243186951e-01</leafValues></_>
        <_>
          <internalNodes>
            0 -1 83 1.2051319936290383e-03</internalNodes>
          <leafValues>
            -3.0111047625541687e-01 7.6849484443664551e-01</leafValues></_>
        <_>
          <internalNodes>
            0 -1 13 -8.3414209075272083e-04</internalNodes>
          <leafValues>
            3.8675278425216675e-01 -4.9630060791969299e-01</leafValues></_>
        <_>
          <internalNodes>
            0 -1 84 -1.3245655281934887e-04</internalNodes>
          <leafValues>
            -7.4609494209289551e-01 2.4793639779090881e-01</leafValues></_>
        <_>
          <internalNodes>
            0 -1 82 -1.5983621124178171e-03</internalNodes>
          <leafValues>
            -6.7495083808898926e-01 2.5459960103034973e-01</leafValues></_>
        <_>
          <internalNodes>
            0 -1 121 -5.3573946934193373e-04</internalNodes>
          <leafValues>
            7.1933275461196899e-01 -2.7738568186759949e-01</leafValues></_></weakClassifiers></_>
    <!-- stage 13 -->
    <_>
      <maxWeakCount>11</maxWeakCount>
      <stageThreshold>-1.0847400426864624e+00</stageThreshold>
      <weakClassifiers>
        <_>
          <internalNodes>
            0 -1 93 7.7824166510254145e-04</internalNodes>
          <leafValues>
            5.8642971515655518e-01 -7.7777779102325439e-01</leafValues></_>
        <_>
          <internalNodes>
            0 -1 2 1.0338066145777702e-02</internalNodes>
          <leafValues>
            -5.6407320499420166e-01 4.1092213988304138e-01</leafValues></_>
        <_>
          <internalNodes>
            0 -1 72 3.5151967313140631e-03</internalNodes>
          <leafValues>
            -6.7796677350997925e-01 3.7299486994743347e-01</leafValues></_>
        <_>
          <internalNodes>
            0 -1 96 -4.3738895328715444e-04</internalNodes>
          <leafValues>
            -8.5860425233840942e-01 1.8894831836223602e-01</leafValues></_>
        <_>
          <internalNodes>
            0 -1 10 -1.8340069800615311e-02</internalNodes>
          <leafValues>
            6.7213517427444458e-01 -3.0816215276718140e-01</leafValues></_>
        <_>
          <internalNodes>
            0 -1 39 -1.7503682523965836e-02</internalNodes>
          <leafValues>
            -9.7165554761886597e-01 2.0959879457950592e-01</leafValues></_>
        <_>
          <internalNodes>
            0 -1 102 -1.9520900677889585e-03</internalNodes>
          <leafValues>
            4.1656720638275146e-01 -4.5471629500389099e-01</leafValues></_>
        <_>
          <internalNodes>
            0 -1 118 4.4117477955296636e-04</internalNodes>
          <leafValues>
            -2.4260063469409943e-01 7.0613276958465576e-01</leafValues></_>
        <_>
          <internalNodes>
            0 -1 62 -2.6459505897946656e-04</internalNodes>
          <leafValues>
            -8.7796789407730103e-01 2.1709026396274567e-01</leafValues></_>
        <_>
          <internalNodes>
            0 -1 115 1.8550353124737740e-02</internalNodes>
          <leafValues>
            2.2726845741271973e-01 -8.0870157480239868e-01</leafValues></_>
        <_>
          <internalNodes>
            0 -1 47 -5.2755484357476234e-03</internalNodes>
          <leafValues>
            7.4866783618927002e-01 -2.6655665040016174e-01</leafValues></_></weakClassifiers></_>
    <!-- stage 14 -->
    <_>
      <maxWeakCount>9</maxWeakCount>
      <stageThreshold>-3.9696365594863892e-01</stageThreshold>
      <weakClassifiers>
        <_>
          <internalNodes>
            0 -1 108 3.2773725688457489e-03</internalNodes>
          <leafValues>
            5.9666669368743896e-01 -5.7999998331069946e-01</leafValues></_>
        <_>
          <internalNodes>
            0 -1 74 7.8354350989684463e-04</internalNodes>
          <leafValues>
            -1.9061858952045441e-01 8.9159339666366577e-01</leafValues></_>
        <_>
          <internalNodes>
            0 -1 67 2.0781285129487514e-03</internalNodes>
          <leafValues>
            -2.3631884157657623e-01 6.8750423192977905e-01</leafValues></_>
        <_>
          <internalNodes>
            0 -1 30 -3.2508119475096464e-03</internalNodes>
          <leafValues>
            -8.5146635770797729e-01 2.4987943470478058e-01</leafValues></_>
        <_>
          <internalNodes>
            0 -1 128 -2.3234698921442032e-02</internalNodes>
          <leafValues>
            5.6837558746337891e-01 -3.2750320434570313e-01</leafValues></_>
        <_>
          <internalNodes>
            0 -1 81 2.2294581867754459e-03</internalNodes>
          <leafValues>
            -3.5046252608299255e-01 6.3095068931579590e-01</leafValues></_>
        <_>
          <internalNodes>
            0 -1 73 5.9225561562925577e-04</internalNodes>
          <leafValues>
            -2.5999626517295837e-01 8.3402889966964722e-01</leafValues></_>
        <_>
          <internalNodes>
            0 -1 113 2.6968540623784065e-04</internalNodes>
          <leafValues>
            3.2244983315467834e-01 -6.7472338676452637e-01</leafValues></_>
        <_>
          <internalNodes>
            0 -1 40 6.8938191980123520e-03</internalNodes>
          <leafValues>
            1.7270371317863464e-01 -9.1941624879837036e-01</leafValues></_></weakClassifiers></_>
    <!-- stage 15 -->
    <_>
      <maxWeakCount>11</maxWeakCount>
      <stageThreshold>-5.3622376918792725e-01</stageThreshold>
      <weakClassifiers>
        <_>
          <internalNodes>
            0 -1 45 -2.2629729937762022e-03</internalNodes>
          <leafValues>
            -6.1797749996185303e-01 5.8101475238800049e-01</leafValues></_>
        <_>
          <internalNodes>
            0 -1 0 1.4591958373785019e-02</internalNodes>
          <leafValues>
            -3.4742468595504761e-01 5.9235060214996338e-01</leafValues></_>
        <_>
          <internalNodes>
            0 -1 87 4.0503079071640968e-03</internalNodes>
          <leafValues>
            -5.4502069950103760e-01 3.7420886754989624e-01</leafValues></_>
        <_>
          <internalNodes>
            0 -1 69 7.4461288750171661e-04</internalNodes>
          <leafValues>
            -2.4169421195983887e-01 7.2849041223526001e-01</leafValues></_>
        <_>
          <internalNodes>
            0 -1 61 4.3478999286890030e-03</internalNodes>
          <leafValues>
            2.4126341938972473e-01 -7.1124649047851563e-01</leafValues></_>
        <_>
          <internalNodes>
            0 -1 4 3.0440632253885269e-03</internalNodes>
          <leafValues>
            1.8484047055244446e-01 -8.6789894104003906e-01</leafValues></_>
        <_>
          <internalNodes>
            0 -1 109 -5.8141918852925301e-03</internalNodes>
          <leafValues>
            5.3706955909729004e-01 -3.5040429234504700e-01</leafValues></_>
        <_>
          <internalNodes>
            0 -1 68 5.1778260967694223e-05</internalNodes>
          <leafValues>
            -4.7552731633186340e-01 3.8278883695602417e-01</leafValues></_>
        <_>
          <internalNodes>
            0 -1 104 6.5431087277829647e-03</internalNodes>
          <leafValues>
            2.7575770020484924e-01 -7.4055999517440796e-01</leafValues></_>
        <_>
          <internalNodes>
            0 -1 100 1.2565607903525233e-04</internalNodes>
          <leafValues>
            2.5207588076591492e-01 -6.2465441226959229e-01</leafValues></_>
        <_>
          <internalNodes>
            0 -1 122 -1.2614244595170021e-02</internalNodes>
          <leafValues>
            2.9750180244445801e-01 -5.3981137275695801e-01</leafValues></_></weakClassifiers></_></stages>
  <features>
    <_>
      <rects>
        <_>
          0 1 14 10 -1.</_>
        <_>
          0 1 7 5 2.</_>
        <_>
          7 6 7 5 2.</_></rects>
      <tilted>0</tilted></_>
    <_>
      <rects>
        <_>
          0 3 12 12 -1.</_>
        <_>
          6 3 6 12 2.</_></rects>
      <tilted>0</tilted></_>
    <_>
      <rects>
        <_>
          0 3 24 12 -1.</_>
        <_>
          0 3 12 6 2.</_>
        <_>
          12 9 12 6 2.</_></rects>
      <tilted>0</tilted></_>
    <_>
      <rects>
        <_>
          0 5 14 14 -1.</_>
        <_>
          7 5 7 14 2.</_></rects>
      <tilted>0</tilted></_>
    <_>
      <rects>
        <_>
          0 11 6 4 -1.</_>
        <_>
          0 13 6 2 2.</_></rects>
      <tilted>0</tilted></_>
    <_>
      <rects>
        <_>
          0 11 60 5 -1.</_>
        <_>
          15 11 30 5 2.</_></rects>
      <tilted>0</tilted></_>
    <_>
      <rects>
        <_>
          3 4 54 4 -1.</_>
        <_>
          3 6 54 2 2.</_></rects>
      <tilted>0</tilted></_>
    <_>
      <rects>
        <_>
          4 0 27 8 -1.</_>
        <_>
          4 2 27 4 2.</_></rects>
      <tilted>0</tilted></_>
    <_>
      <rects>
        <_>
          4 1 37 6 -1.</_>
        <_>
          4 3 37 2 3.</_></rects>
      <tilted>0</tilted></_>
    <_>
      <rects>
        <_>
          5 3 37 16 -1.</_>
        <_>
          5 7 37 8 2.</_></rects>
      <tilted>0</tilted></_>
    <_>
      <rects>
        <_>
          6 3 24 4 -1.</_>
        <_>
          6 4 24 2 2.</_></rects>
      <tilted>0</tilted></_>
    <_>
      <rects>
        <_>
          7 7 45 6 -1.</_>
        <_>
          22 9 15 2 9.</_></rects>
      <tilted>0</tilted></_>
    <_>
      <rects>
        <_>
          8 4 30 9 -1.</_>
        <_>
          18 7 10 3 9.</_></rects>
      <tilted>0</tilted></_>
    <_>
      <rects>
        <_>
          8 6 24 4 -1.</_>
        <_>
          16 6 8 4 3.</_></rects>
      <tilted>0</tilted></_>
    <_>
      <rects>
        <_>
          9 0 21 8 -1.</_>
        <_>
          9 2 21 4 2.</_></rects>
      <tilted>0</tilted></_>
    <_>
      <rects>
        <_>
          9 0 44 9 -1.</_>
        <_>
          9 3 44 3 3.</_></rects>
      <tilted>0</tilted></_>
    <_>
      <rects>
        <_>
          9 0 46 20 -1.</_>
        <_>
          9 5 46 10 2.</_></rects>
      <tilted>0</tilted></_>
    <_>
      <rects>
        <_>
          9 9 3 6 -1.</_>
        <_>
          10 9 1 6 3.</_></rects>
      <tilted>0</tilted></_>
    <_>
      <rects>
        <_>
          10 0 12 5 -1.</_>
        <_>
          14 0 4 5 3.</_></rects>
      <tilted>0</tilted></_>
    <_>
      <rects>
        <_>
          10 3 12 3 -1.</_>
        <_>
          14 3 4 3 3.</_></rects>
      <tilted>0</tilted></_>
    <_>
      <rects>
        <_>
          10 5 36 9 -1.</_>
        <_>
          19 5 18 9 2.</_></rects>
      <tilted>0</tilted></_>
    <_>
      <rects>
        <_>
          10 14 43 6 -1.</_>
        <_>
          10 17 43 3 2.</_></rects>
      <tilted>0</tilted></_>
    <_>
      <rects>
        <_>
          11 3 6 1 -1.</_>
        <_>
          13 3 2 1 3.</_></rects>
      <tilted>0</tilted></_>
    <_>
      <rects>
        <_>
          12 2 4 12 -1.</_>
        <_>
          13 2 2 12 2.</_></rects>
      <tilted>0</tilted></_>
    <_>
      <rects>
        <_>
          12 3 23 10 -1.</_>
        <_>
          12 8 23 5 2.</_></rects>
      <tilted>0</tilted></_>
    <_>
      <rects>
        <_>
          12 4 24 5 -1.</_>
        <_>
          18 4 12 5 2.</_></rects>
      <tilted>0</tilted></_>
    <_>
      <rects>
        <_>
          12 5 28 4 -1.</_>
        <_>
          19 5 14 4 2.</_></rects>
      <tilted>0</tilted></_>
    <_>
      <rects>
        <_>
          12 13 18 4 -1.</_>
        <_>
          12 15 18 2 2.</_></rects>
      <tilted>0</tilted></_>
    <_>
      <rects>
        <_>
          13 0 35 9 -1.</_>
        <_>
          13 3 35 3 3.</_></rects>
      <tilted>0</tilted></_>
    <_>
      <rects>
        <_>
          13 8 3 6 -1.</_>
        <_>
          14 8 1 6 3.</_></rects>
      <tilted>0</tilted></_>
    <_>
      <rects>
        <_>
          13 16 12 4 -1.</_>
        <_>
          16 16 6 4 2.</_></rects>
      <tilted>0</tilted></_>
    <_>
      <rects>
        <_>
          14 11 28 6 -1.</_>
        <_>
          14 13 28 2 3.</_></rects>
      <tilted>0</tilted></_>
    <_>
      <rects>
        <_>
          15 1 27 6 -1.</_>
        <_>
          15 3 27 2 3.</_></rects>
      <tilted>0</tilted></_>
    <_>
      <rects>
        <_>
          15 4 24 8 -1.</_>
        <_>
          21 4 12 8 2.</_></rects>
      <tilted>0</tilted></_>
    <_>
      <rects>
        <_>
          15 8 8 1 -1.</_>
        <_>
          17 8 4 1 2.</_></rects>
      <tilted>0</tilted></_>
    <_>
      <rects>
        <_>
          16 8 3 2 -1.</_>
        <_>
          17 8 1 2 3.</_></rects>
      <tilted>0</tilted></_>
    <_>
      <rects>
        <_>
          16 14 27 6 -1.</_>
        <_>
          16 17 27 3 2.</_></rects>
      <tilted>0</tilted></_>
    <_>
      <rects>
        <_>
          17 8 3 4 -1.</_>
        <_>
          18 8 1 4 3.</_></rects>
      <tilted>0</tilted></_>
    <_>
      <rects>
        <_>
          17 11 25 6 -1.</_>
        <_>
          17 13 25 2 3.</_></rects>
      <tilted>0</tilted></_>
    <_>
      <rects>
        <_>
          18 8 27 4 -1.</_>
        <_>
          18 10 27 2 2.</_></rects>
      <tilted>0</tilted></_>
    <_>
      <rects>
        <_>
          18 9 28 1 -1.</_>
        <_>
          32 9 14 1 2.</_></rects>
      <tilted>0</tilted></_>
    <_>
      <rects>
        <_>
          18 10 3 2 -1.</_>
        <_>
          19 10 1 2 3.</_></rects>
      <tilted>0</tilted></_>
    <_>
      <rects>
        <_>
          18 13 34 6 -1.</_>
        <_>
          18 16 34 3 2.</_></rects>
      <tilted>0</tilted></_>
    <_>
      <rects>
        <_>
          19 8 3 2 -1.</_>
        <_>
          20 8 1 2 3.</_></rects>
      <tilted>0</tilted></_>
    <_>
      <rects>
        <_>
          19 9 4 3 -1.</_>
        <_>
          20 9 2 3 2.</_></rects>
      <tilted>0</tilted></_>
    <_>
      <rects>
        <_>
          19 17 12 3 -1.</_>
        <_>
          22 17 6 3 2.</_></rects>
      <tilted>0</tilted></_>
    <_>
      <rects>
        <_>
          20 2 23 6 -1.</_>
        <_>
          20 4 23 2 3.</_></rects>
      <tilted>0</tilted></_>
    <_>
      <rects>
        <_>
          20 13 14 3 -1.</_>
        <_>
          20 14 14 1 3.</_></rects>
      <tilted>0</tilted></_>
    <_>
      <rects>
        <_>
          21 4 3 1 -1.</_>
        <_>
          22 4 1 1 3.</_></rects>
      <tilted>0</tilted></_>
    <_>
      <rects>
        <_>
          21 4 12 3 -1.</_>
        <_>
          24 4 6 3 2.</_></rects>
      <tilted>0</tilted></_>
    <_>
      <rects>
        <_>
          21 6 24 3 -1.</_>
        <_>
          29 6 8 3 3.</_></rects>
      <tilted>0</tilted></_>
    <_>
      <rects>
        <_>
          22 6 24 3 -1.</_>
        <_>
          30 7 8 1 9.</_></rects>
      <tilted>0</tilted></_>
    <_>
      <rects>
        <_>
          22 14 2 6 -1.</_>
        <_>
          22 17 2 3 2.</_></rects>
      <tilted>0</tilted></_>
    <_>
      <rects>
        <_>
          22 15 30 5 -1.</_>
        <_>
          32 15 10 5 3.</_></rects>
      <tilted>0</tilted></_>
    <_>
      <rects>
        <_>
          23 13 26 4 -1.</_>
        <_>
          23 15 26 2 2.</_></rects>
      <tilted>0</tilted></_>
    <_>
      <rects>
        <_>
          23 16 21 3 -1.</_>
        <_>
          30 16 7 3 3.</_></rects>
      <tilted>0</tilted></_>
    <_>
      <rects>
        <_>
          24 4 24 5 -1.</_>
        <_>
          30 4 12 5 2.</_></rects>
      <tilted>0</tilted></_>
    <_>
      <rects>
        <_>
          24 5 18 4 -1.</_>
        <_>
          30 5 6 4 3.</_></rects>
      <tilted>0</tilted></_>
    <_>
      <rects>
        <_>
          24 7 4 2 -1.</_>
        <_>
          26 7 2 2 2.</_></rects>
      <tilted>0</tilted></_>
    <_>
      <rects>
        <_>
          24 10 3 2 -1.</_>
        <_>
          25 10 1 2 3.</_></rects>
      <tilted>0</tilted></_>
    <_>
      <rects>
        <_>
          24 11 3 2 -1.</_>
        <_>
          25 11 1 2 3.</_></rects>
      <tilted>0</tilted></_>
    <_>
      <rects>
        <_>
          25 2 12 18 -1.</_>
        <_>
          25 2 6 9 2.</_>
        <_>
          31 11 6 9 2.</_></rects>
      <tilted>0</tilted></_>
    <_>
      <rects>
        <_>
          25 4 2 2 -1.</_>
        <_>
          26 4 1 2 2.</_></rects>
      <tilted>0</tilted></_>
    <_>
      <rects>
        <_>
          25 6 15 3 -1.</_>
        <_>
          30 6 5 3 3.</_></rects>
      <tilted>0</tilted></_>
    <_>
      <rects>
        <_>
          26 3 16 16 -1.</_>
        <_>
          34 3 8 16 2.</_></rects>
      <tilted>0</tilted></_>
    <_>
      <rects>
        <_>
          26 4 18 5 -1.</_>
        <_>
          32 4 6 5 3.</_></rects>
      <tilted>0</tilted></_>
    <_>
      <rects>
        <_>
          26 7 30 4 -1.</_>
        <_>
          26 7 15 2 2.</_>
        <_>
          41 9 15 2 2.</_></rects>
      <tilted>0</tilted></_>
    <_>
      <rects>
        <_>
          26 8 3 3 -1.</_>
        <_>
          27 9 1 1 9.</_></rects>
      <tilted>0</tilted></_>
    <_>
      <rects>
        <_>
          26 9 24 2 -1.</_>
        <_>
          38 9 12 2 2.</_></rects>
      <tilted>0</tilted></_>
    <_>
      <rects>
        <_>
          26 10 3 2 -1.</_>
        <_>
          27 10 1 2 3.</_></rects>
      <tilted>0</tilted></_>
    <_>
      <rects>
        <_>
          26 11 26 4 -1.</_>
        <_>
          26 11 13 2 2.</_>
        <_>
          39 13 13 2 2.</_></rects>
      <tilted>0</tilted></_>
    <_>
      <rects>
        <_>
          26 18 8 2 -1.</_>
        <_>
          28 18 4 2 2.</_></rects>
      <tilted>0</tilted></_>
    <_>
      <rects>
        <_>
          27 5 18 4 -1.</_>
        <_>
          33 5 6 4 3.</_></rects>
      <tilted>0</tilted></_>
    <_>
      <rects>
        <_>
          27 9 3 1 -1.</_>
        <_>
          28 9 1 1 3.</_></rects>
      <tilted>0</tilted></_>
    <_>
      <rects>
        <_>
          27 10 3 1 -1.</_>
        <_>
          28 10 1 1 3.</_></rects>
      <tilted>0</tilted></_>
    <_>
      <rects>
        <_>
          27 10 23 4 -1.</_>
        <_>
          27 12 23 2 2.</_></rects>
      <tilted>0</tilted></_>
    <_>
      <rects>
        <_>
          27 11 3 2 -1.</_>
        <_>
          28 11 1 2 3.</_></rects>
      <tilted>0</tilted></_>
    <_>
      <rects>
        <_>
          28 0 13 6 -1.</_>
        <_>
          28 2 13 2 3.</_></rects>
      <tilted>0</tilted></_>
    <_>
      <rects>
        <_>
          28 5 8 1 -1.</_>
        <_>
          30 5 4 1 2.</_></rects>
      <tilted>0</tilted></_>
    <_>
      <rects>
        <_>
          28 6 18 3 -1.</_>
        <_>
          34 7 6 1 9.</_></rects>
      <tilted>0</tilted></_>
    <_>
      <rects>
        <_>
          28 7 3 4 -1.</_>
        <_>
          29 7 1 4 3.</_></rects>
      <tilted>0</tilted></_>
    <_>
      <rects>
        <_>
          28 8 3 7 -1.</_>
        <_>
          29 8 1 7 3.</_></rects>
      <tilted>0</tilted></_>
    <_>
      <rects>
        <_>
          28 10 20 4 -1.</_>
        <_>
          38 10 10 4 2.</_></rects>
      <tilted>0</tilted></_>
    <_>
      <rects>
        <_>
          28 11 3 2 -1.</_>
        <_>
          29 11 1 2 3.</_></rects>
      <tilted>0</tilted></_>
    <_>
      <rects>
        <_>
          29 3 4 2 -1.</_>
        <_>
          30 3 2 2 2.</_></rects>
      <tilted>0</tilted></_>
    <_>
      <rects>
        <_>
          29 4 4 2 -1.</_>
        <_>
          30 4 2 2 2.</_></rects>
      <tilted>0</tilted></_>
    <_>
      <rects>
        <_>
          29 7 5 8 -1.</_>
        <_>
          29 9 5 4 2.</_></rects>
      <tilted>0</tilted></_>
    <_>
      <rects>
        <_>
          29 11 5 6 -1.</_>
        <_>
          29 13 5 2 3.</_></rects>
      <tilted>0</tilted></_>
    <_>
      <rects>
        <_>
          29 17 12 3 -1.</_>
        <_>
          32 17 6 3 2.</_></rects>
      <tilted>0</tilted></_>
    <_>
      <rects>
        <_>
          30 3 4 3 -1.</_>
        <_>
          31 3 2 3 2.</_></rects>
      <tilted>0</tilted></_>
    <_>
      <rects>
        <_>
          30 4 12 2 -1.</_>
        <_>
          34 4 4 2 3.</_></rects>
      <tilted>0</tilted></_>
    <_>
      <rects>
        <_>
          30 5 5 6 -1.</_>
        <_>
          30 7 5 2 3.</_></rects>
      <tilted>0</tilted></_>
    <_>
      <rects>
        <_>
          30 7 20 1 -1.</_>
        <_>
          40 7 10 1 2.</_></rects>
      <tilted>0</tilted></_>
    <_>
      <rects>
        <_>
          31 4 6 3 -1.</_>
        <_>
          33 4 2 3 3.</_></rects>
      <tilted>0</tilted></_>
    <_>
      <rects>
        <_>
          31 5 6 6 -1.</_>
        <_>
          33 7 2 2 9.</_></rects>
      <tilted>0</tilted></_>
    <_>
      <rects>
        <_>
          32 3 9 5 -1.</_>
        <_>
          35 3 3 5 3.</_></rects>
      <tilted>0</tilted></_>
    <_>
      <rects>
        <_>
          32 4 4 3 -1.</_>
        <_>
          33 4 2 3 2.</_></rects>
      <tilted>0</tilted></_>
    <_>
      <rects>
        <_>
          32 6 3 9 -1.</_>
        <_>
          33 6 1 9 3.</_></rects>
      <tilted>0</tilted></_>
    <_>
      <rects>
        <_>
          33 1 2 14 -1.</_>
        <_>
          33 1 1 7 2.</_>
        <_>
          34 8 1 7 2.</_></rects>
      <tilted>0</tilted></_>
    <_>
      <rects>
        <_>
          33 1 16 17 -1.</_>
        <_>
          37 1 8 17 2.</_></rects>
      <tilted>0</tilted></_>
    <_>
      <rects>
        <_>
          33 4 6 1 -1.</_>
        <_>
          35 4 2 1 3.</_></rects>
      <tilted>0</tilted></_>
    <_>
      <rects>
        <_>
          33 6 14 3 -1.</_>
        <_>
          40 6 7 3 2.</_></rects>
      <tilted>0</tilted></_>
    <_>
      <rects>
        <_>
          33 10 9 5 -1.</_>
        <_>
          36 10 3 5 3.</_></rects>
      <tilted>0</tilted></_>
    <_>
      <rects>
        <_>
          33 12 6 2 -1.</_>
        <_>
          33 13 6 1 2.</_></rects>
      <tilted>0</tilted></_>
    <_>
      <rects>
        <_>
          35 0 16 12 -1.</_>
        <_>
          35 0 8 6 2.</_>
        <_>
          43 6 8 6 2.</_></rects>
      <tilted>0</tilted></_>
    <_>
      <rects>
        <_>
          35 12 16 3 -1.</_>
        <_>
          39 12 8 3 2.</_></rects>
      <tilted>0</tilted></_>
    <_>
      <rects>
        <_>
          36 6 8 6 -1.</_>
        <_>
          38 6 4 6 2.</_></rects>
      <tilted>0</tilted></_>
    <_>
      <rects>
        <_>
          36 13 8 4 -1.</_>
        <_>
          36 15 8 2 2.</_></rects>
      <tilted>0</tilted></_>
    <_>
      <rects>
        <_>
          37 1 12 8 -1.</_>
        <_>
          40 1 6 8 2.</_></rects>
      <tilted>0</tilted></_>
    <_>
      <rects>
        <_>
          37 1 8 6 -1.</_>
        <_>
          37 4 8 3 2.</_></rects>
      <tilted>0</tilted></_>
    <_>
      <rects>
        <_>
          37 4 13 15 -1.</_>
        <_>
          37 9 13 5 3.</_></rects>
      <tilted>0</tilted></_>
    <_>
      <rects>
        <_>
          38 19 3 1 -1.</_>
        <_>
          39 19 1 1 3.</_></rects>
      <tilted>0</tilted></_>
    <_>
      <rects>
        <_>
          39 1 6 5 -1.</_>
        <_>
          42 1 3 5 2.</_></rects>
      <tilted>0</tilted></_>
    <_>
      <rects>
        <_>
          39 5 10 10 -1.</_>
        <_>
          44 5 5 10 2.</_></rects>
      <tilted>0</tilted></_>
    <_>
      <rects>
        <_>
          40 6 8 5 -1.</_>
        <_>
          42 8 4 5 2.</_></rects>
      <tilted>1</tilted></_>
    <_>
      <rects>
        <_>
          40 8 9 6 -1.</_>
        <_>
          43 10 3 2 9.</_></rects>
      <tilted>0</tilted></_>
    <_>
      <rects>
        <_>
          41 4 9 6 -1.</_>
        <_>
          39 6 9 2 3.</_></rects>
      <tilted>1</tilted></_>
    <_>
      <rects>
        <_>
          42 8 18 9 -1.</_>
        <_>
          51 8 9 9 2.</_></rects>
      <tilted>0</tilted></_>
    <_>
      <rects>
        <_>
          42 9 3 1 -1.</_>
        <_>
          43 9 1 1 3.</_></rects>
      <tilted>0</tilted></_>
    <_>
      <rects>
        <_>
          42 12 18 3 -1.</_>
        <_>
          51 12 9 3 2.</_></rects>
      <tilted>0</tilted></_>
    <_>
      <rects>
        <_>
          43 5 8 8 -1.</_>
        <_>
          43 9 8 4 2.</_></rects>
      <tilted>0</tilted></_>
    <_>
      <rects>
        <_>
          43 9 3 1 -1.</_>
        <_>
          44 9 1 1 3.</_></rects>
      <tilted>0</tilted></_>
    <_>
      <rects>
        <_>
          43 12 16 5 -1.</_>
        <_>
          51 12 8 5 2.</_></rects>
      <tilted>0</tilted></_>
    <_>
      <rects>
        <_>
          44 4 6 9 -1.</_>
        <_>
          41 7 6 3 3.</_></rects>
      <tilted>1</tilted></_>
    <_>
      <rects>
        <_>
          45 9 2 2 -1.</_>
        <_>
          46 9 1 2 2.</_></rects>
      <tilted>0</tilted></_>
    <_>
      <rects>
        <_>
          46 11 14 1 -1.</_>
        <_>
          53 11 7 1 2.</_></rects>
      <tilted>0</tilted></_>
    <_>
      <rects>
        <_>
          46 13 2 2 -1.</_>
        <_>
          46 13 1 2 2.</_></rects>
      <tilted>1</tilted></_>
    <_>
      <rects>
        <_>
          47 1 12 16 -1.</_>
        <_>
          47 1 6 8 2.</_>
        <_>
          53 9 6 8 2.</_></rects>
      <tilted>0</tilted></_>
    <_>
      <rects>
        <_>
          48 0 12 14 -1.</_>
        <_>
          48 0 6 7 2.</_>
        <_>
          54 7 6 7 2.</_></rects>
      <tilted>0</tilted></_>
    <_>
      <rects>
        <_>
          49 9 3 2 -1.</_>
        <_>
          50 9 1 2 3.</_></rects>
      <tilted>0</tilted></_></features></cascade>
</opencv_storage>
