<?xml version="1.0"?>
<opencv_storage>
<stage0>
  <maxWeakCount>5</maxWeakCount>
  <stageThreshold>-1.5032035112380981e+00</stageThreshold>
  <weakClassifiers>
    <_>
      <internalNodes>
        0 -1 862760 2.3133810609579086e-02</internalNodes>
      <leafValues>
        -6.8627452850341797e-01 8.8709676265716553e-01</leafValues></_>
    <_>
      <internalNodes>
        0 -1 770263 4.9313884228467941e-03</internalNodes>
      <leafValues>
        -5.5377429723739624e-01 8.2889103889465332e-01</leafValues></_>
    <_>
      <internalNodes>
        0 -1 353733 3.4801408648490906e-02</internalNodes>
      <leafValues>
        -5.1704716682434082e-01 8.6942422389984131e-01</leafValues></_>
    <_>
      <internalNodes>
        0 -1 637829 4.7628418542444706e-03</internalNodes>
      <leafValues>
        -6.4427828788757324e-01 6.1929184198379517e-01</leafValues></_>
    <_>
      <internalNodes>
        0 -1 418292 2.1678954362869263e-02</internalNodes>
      <leafValues>
        -4.8830062150955200e-01 8.8850545883178711e-01</leafValues></_></weakClassifiers></stage0>
</opencv_storage>
