<?xml version="1.0"?>
<opencv_storage>
<stage6>
  <maxWeakCount>8</maxWeakCount>
  <stageThreshold>-9.9356359243392944e-01</stageThreshold>
  <weakClassifiers>
    <_>
      <internalNodes>
        0 -1 738033 -2.0358018446131609e-05</internalNodes>
      <leafValues>
        7.6237624883651733e-01 -4.3589743971824646e-01</leafValues></_>
    <_>
      <internalNodes>
        0 -1 24857 3.1020682305097580e-02</internalNodes>
      <leafValues>
        -4.8074933886528015e-01 6.4988332986831665e-01</leafValues></_>
    <_>
      <internalNodes>
        0 -1 784408 -1.8654540181159973e-03</internalNodes>
      <leafValues>
        -8.3175599575042725e-01 3.5041990876197815e-01</leafValues></_>
    <_>
      <internalNodes>
        0 -1 223714 2.0569935441017151e-02</internalNodes>
      <leafValues>
        3.4963867068290710e-01 -7.0778733491897583e-01</leafValues></_>
    <_>
      <internalNodes>
        0 -1 356982 -2.0923216361552477e-03</internalNodes>
      <leafValues>
        3.4647402167320251e-01 -5.9737133979797363e-01</leafValues></_>
    <_>
      <internalNodes>
        0 -1 325321 6.4252223819494247e-04</internalNodes>
      <leafValues>
        2.2497867047786713e-01 -9.6108853816986084e-01</leafValues></_>
    <_>
      <internalNodes>
        0 -1 804843 -2.5592476595193148e-04</internalNodes>
      <leafValues>
        2.0614226162433624e-01 -8.2591813802719116e-01</leafValues></_>
    <_>
      <internalNodes>
        0 -1 971638 2.2715583327226341e-04</internalNodes>
      <leafValues>
        -5.9571659564971924e-01 3.2390400767326355e-01</leafValues></_></weakClassifiers></stage6>
</opencv_storage>
