<?xml version="1.0"?>
<opencv_storage>
<stage8>
  <maxWeakCount>10</maxWeakCount>
  <stageThreshold>-5.2797299623489380e-01</stageThreshold>
  <weakClassifiers>
    <_>
      <internalNodes>
        0 -1 577301 2.5450894609093666e-03</internalNodes>
      <leafValues>
        -5.8139532804489136e-01 6.5674257278442383e-01</leafValues></_>
    <_>
      <internalNodes>
        0 -1 368516 -2.3089308291673660e-02</internalNodes>
      <leafValues>
        6.9048231840133667e-01 -3.2595637440681458e-01</leafValues></_>
    <_>
      <internalNodes>
        0 -1 373369 -8.7118774652481079e-02</internalNodes>
      <leafValues>
        5.5428099632263184e-01 -3.9419081807136536e-01</leafValues></_>
    <_>
      <internalNodes>
        0 -1 995118 1.0916676837950945e-03</internalNodes>
      <leafValues>
        -2.6526620984077454e-01 8.8716149330139160e-01</leafValues></_>
    <_>
      <internalNodes>
        0 -1 960732 -4.4942594831809402e-04</internalNodes>
      <leafValues>
        7.4683737754821777e-01 -2.9922905564308167e-01</leafValues></_>
    <_>
      <internalNodes>
        0 -1 487649 1.1679267045110464e-03</internalNodes>
      <leafValues>
        -2.8499305248260498e-01 7.6807838678359985e-01</leafValues></_>
    <_>
      <internalNodes>
        0 -1 971225 -3.9040115661919117e-03</internalNodes>
      <leafValues>
        5.8176809549331665e-01 -3.6564397811889648e-01</leafValues></_>
    <_>
      <internalNodes>
        0 -1 282329 2.5500964839011431e-03</internalNodes>
      <leafValues>
        -2.3474425077438354e-01 8.8778513669967651e-01</leafValues></_>
    <_>
      <internalNodes>
        0 -1 463482 3.1151191797107458e-04</internalNodes>
      <leafValues>
        -3.1579408049583435e-01 6.6756600141525269e-01</leafValues></_>
    <_>
      <internalNodes>
        0 -1 606753 -4.4365855865180492e-03</internalNodes>
      <leafValues>
        5.5952328443527222e-01 -3.7308236956596375e-01</leafValues></_></weakClassifiers></stage8>
</opencv_storage>
