<?xml version="1.0"?>
<opencv_storage>
<stage3>
  <maxWeakCount>10</maxWeakCount>
  <stageThreshold>-6.1382687091827393e-01</stageThreshold>
  <weakClassifiers>
    <_>
      <internalNodes>
        0 -1 756014 -1.9449908286333084e-03</internalNodes>
      <leafValues>
        7.4615383148193359e-01 -4.8888888955116272e-01</leafValues></_>
    <_>
      <internalNodes>
        0 -1 929091 -4.7231443226337433e-02</internalNodes>
      <leafValues>
        8.1656271219253540e-01 -3.3458456397056580e-01</leafValues></_>
    <_>
      <internalNodes>
        0 -1 265308 -1.5615190565586090e-01</internalNodes>
      <leafValues>
        8.6073970794677734e-01 -3.1054034829139709e-01</leafValues></_>
    <_>
      <internalNodes>
        0 -1 798003 -3.0968158971518278e-03</internalNodes>
      <leafValues>
        -7.1496576070785522e-01 3.8538721203804016e-01</leafValues></_>
    <_>
      <internalNodes>
        0 -1 938007 1.2969446834176779e-03</internalNodes>
      <leafValues>
        -7.1431106328964233e-01 3.3512860536575317e-01</leafValues></_>
    <_>
      <internalNodes>
        0 -1 13808 1.9762601703405380e-02</internalNodes>
      <leafValues>
        -4.2020672559738159e-01 5.7768708467483521e-01</leafValues></_>
    <_>
      <internalNodes>
        0 -1 573576 1.0105438996106386e-03</internalNodes>
      <leafValues>
        3.1039953231811523e-01 -7.9318696260452271e-01</leafValues></_>
    <_>
      <internalNodes>
        0 -1 641912 -4.7645147424191236e-04</internalNodes>
      <leafValues>
        6.8066054582595825e-01 -4.2329001426696777e-01</leafValues></_>
    <_>
      <internalNodes>
        0 -1 849961 1.5673083253204823e-03</internalNodes>
      <leafValues>
        -3.8740864396095276e-01 7.5137168169021606e-01</leafValues></_>
    <_>
      <internalNodes>
        0 -1 535896 2.1610022522509098e-03</internalNodes>
      <leafValues>
        -2.7771678566932678e-01 8.6572271585464478e-01</leafValues></_></weakClassifiers></stage3>
</opencv_storage>
