<?xml version="1.0"?>
<opencv_storage>
<stage6>
  <maxWeakCount>12</maxWeakCount>
  <stageThreshold>-8.9104765653610229e-01</stageThreshold>
  <weakClassifiers>
    <_>
      <internalNodes>
        0 -1 30167 -190056756 1023192959 -3 2147475455 -554752872
        888700128 -37749348 -1694770692</internalNodes>
      <leafValues>
        -2.9439809918403625e-01 8.0390471220016479e-01</leafValues></_>
    <_>
      <internalNodes>
        0 -1 27632 1592221533 1557946207 -553648165 1610424151
        -597700689 -672270401 -22020129 1527242075</internalNodes>
      <leafValues>
        -4.6797499060630798e-01 6.3199871778488159e-01</leafValues></_>
    <_>
      <internalNodes>
        0 -1 30232 -4562 93892548 1868607016 626061290 1987395964
        341071804 1329931552 -18433</internalNodes>
      <leafValues>
        -4.4072297215461731e-01 6.2559849023818970e-01</leafValues></_>
    <_>
      <internalNodes>
        0 -1 22926 -72514132 832353228 18882560 1399415071 373907872
        672141384 1636348392 2126510575</internalNodes>
      <leafValues>
        -6.0187596082687378e-01 4.6487972140312195e-01</leafValues></_>
    <_>
      <internalNodes>
        0 -1 25840 -412433758 1145880584 -1853767398 -762411218
        -1337949305 1090544025 -1055760318 -675285297</internalNodes>
      <leafValues>
        -4.8527848720550537e-01 5.4757761955261230e-01</leafValues></_>
    <_>
      <internalNodes>
        0 -1 12582 96095953 -1210642349 -1744465411 -737603247
        -1457461062 -910979926 -93541700 -1103619672</internalNodes>
      <leafValues>
        -5.4004770517349243e-01 4.8694917559623718e-01</leafValues></_>
    <_>
      <internalNodes>
        0 -1 387 -421928448 -134283273 -1426129089 -805867666
        -2072594441 -805371905 -1400936770 -287336317</internalNodes>
      <leafValues>
        -4.9098539352416992e-01 5.3225547075271606e-01</leafValues></_>
    <_>
      <internalNodes>
        0 -1 19029 93379064 -1794637584 -2122085931 2102231640 176344252
        -35077430 -1953850949 -1162344440</internalNodes>
      <leafValues>
        -5.7023942470550537e-01 4.5118331909179688e-01</leafValues></_>
    <_>
      <internalNodes>
        0 -1 22920 -392247678 -253053649 -269573086 1791585966
        -478243810 283459007 876541622 -752887889</internalNodes>
      <leafValues>
        -4.4906011223793030e-01 5.8403658866882324e-01</leafValues></_>
    <_>
      <internalNodes>
        0 -1 18786 -19942518 1548283978 -2147417984 1940242443
        1852510346 303906817 17400522 1939993242</internalNodes>
      <leafValues>
        -5.9603130817413330e-01 4.2892467975616455e-01</leafValues></_>
    <_>
      <internalNodes>
        0 -1 33471 -502272222 -536832951 -332914688 1642774664
        1880609127 596246562 -1561992957 -738991765</internalNodes>
      <leafValues>
        -5.1496112346649170e-01 4.7925055027008057e-01</leafValues></_>
    <_>
      <internalNodes>
        0 -1 16468 -207641086 -673344764 1698748791 -227299309
        -2147376086 -1996486656 -482155779 992086914</internalNodes>
      <leafValues>
        -6.7295527458190918e-01 3.7903106212615967e-01</leafValues></_></weakClassifiers></stage6>
</opencv_storage>
