<?xml version="1.0"?>
<opencv_storage>
<stage15>
  <maxWeakCount>17</maxWeakCount>
  <stageThreshold>-2.5347125530242920e-01</stageThreshold>
  <weakClassifiers>
    <_>
      <internalNodes>
        0 -1 30612 252381198 -553680930 -1360142849 -538972195
        1850673282 -282177748 -2098623288 -565451297</internalNodes>
      <leafValues>
        -5.7906460016965866e-02 7.7183830738067627e-01</leafValues></_>
    <_>
      <internalNodes>
        0 -1 27227 -1026 -2297858 -268682856 1800715966 894040060
        236519292 -537100456 -338690177</internalNodes>
      <leafValues>
        -2.9467818140983582e-01 5.8153873682022095e-01</leafValues></_>
    <_>
      <internalNodes>
        0 -1 22009 -70542594 -14330918 1141395222 323584530 -651584504
        -1828552702 -2063236867 1334401727</internalNodes>
      <leafValues>
        -4.7907814383506775e-01 3.9490008354187012e-01</leafValues></_>
    <_>
      <internalNodes>
        0 -1 33517 -1487158275 427819031 -989707301 -507928047
        -1063120228 -1475619840 -1085101352 -339756484</internalNodes>
      <leafValues>
        -4.4419437646865845e-01 4.0005400776863098e-01</leafValues></_>
    <_>
      <internalNodes>
        0 -1 25657 147213783 -1025517 -922446343 -1332844512 -2130118407
        -74773854 -2080326409 -1089973796</internalNodes>
      <leafValues>
        -4.8526254296302795e-01 3.6101993918418884e-01</leafValues></_>
    <_>
      <internalNodes>
        0 -1 35170 -393223168 58810664 1103233056 -720637946 1151652763
        25649153 1913430242 -221777409</internalNodes>
      <leafValues>
        -4.1988438367843628e-01 4.0035626292228699e-01</leafValues></_>
    <_>
      <internalNodes>
        0 -1 11934 -1591716207 1431310929 -930590497 -1256389805
        1481660381 -1192742872 556845545 108351489</internalNodes>
      <leafValues>
        -5.4277002811431885e-01 2.8770682215690613e-01</leafValues></_>
    <_>
      <internalNodes>
        0 -1 36007 -301990655 274300927 -8388719 -67833933 -600182984
        -836807459 1836834145 -647768713</internalNodes>
      <leafValues>
        -3.9781174063682556e-01 4.3389984965324402e-01</leafValues></_>
    <_>
      <internalNodes>
        0 -1 25224 -492834010 -986762137 -1360362968 1902189195
        -511929076 170292735 -182275626 -612893249</internalNodes>
      <leafValues>
        -3.5829758644104004e-01 4.9685364961624146e-01</leafValues></_>
    <_>
      <internalNodes>
        0 -1 23644 689606431 1034159254 1005223929 2108838034
        -1460761756 -571715708 -1561957891 -563353993</internalNodes>
      <leafValues>
        -3.5066574811935425e-01 4.9964410066604614e-01</leafValues></_>
    <_>
      <internalNodes>
        0 -1 14286 1360134371 269229727 -1324584009 285349265
        -2121195206 975667265 162560414 677959338</internalNodes>
      <leafValues>
        -4.4415393471717834e-01 3.9966872334480286e-01</leafValues></_>
    <_>
      <internalNodes>
        0 -1 20402 -544235520 -1606090584 -2138602659 327403808
        -1685778230 67145984 1912678989 1471150991</internalNodes>
      <leafValues>
        -4.4952175021171570e-01 3.7492522597312927e-01</leafValues></_>
    <_>
      <internalNodes>
        0 -1 581 -330571014 -368920545 268505423 -301449143 553736302
        1644232705 -1018576548 -454536481</internalNodes>
      <leafValues>
        -4.5026963949203491e-01 3.7566152215003967e-01</leafValues></_>
    <_>
      <internalNodes>
        0 -1 25152 2076702478 416915529 1963163659 291186857 1384140490
        470623112 109526 2041508247</internalNodes>
      <leafValues>
        -4.5515885949134827e-01 3.6503523588180542e-01</leafValues></_>
    <_>
      <internalNodes>
        0 -1 14480 38818933 1607547529 -2125201039 -1114106575
        -2000676674 -28757493 -1448523722 -1140829599</internalNodes>
      <leafValues>
        -4.4967648386955261e-01 3.8584512472152710e-01</leafValues></_>
    <_>
      <internalNodes>
        0 -1 11132 1606352887 -619708276 316112893 1096185047 1229206762
        -866090800 1383884895 -71075640</internalNodes>
      <leafValues>
        -2.9072380065917969e-01 5.9213751554489136e-01</leafValues></_>
    <_>
      <internalNodes>
        0 -1 21276 867106946 897688402 340426762 1238487162 1646942438
        1242710150 -1576811611 1448315150</internalNodes>
      <leafValues>
        -5.8025127649307251e-01 3.1495919823646545e-01</leafValues></_></weakClassifiers></stage15>
</opencv_storage>
