<?xml version="1.0"?>
<opencv_storage>
<stage5>
  <maxWeakCount>12</maxWeakCount>
  <stageThreshold>-7.7494257688522339e-01</stageThreshold>
  <weakClassifiers>
    <_>
      <internalNodes>
        0 -1 27227 -201812 1862856700 -268682856 -1143685444 901789692
        227573629 1475637188 -257</internalNodes>
      <leafValues>
        -1.1818943917751312e-01 8.4536802768707275e-01</leafValues></_>
    <_>
      <internalNodes>
        0 -1 18655 -570451286 -24849 149889120 535816107 -419431468
        -1091698689 -471946822 -20972821</internalNodes>
      <leafValues>
        -5.2953034639358521e-01 6.4755189418792725e-01</leafValues></_>
    <_>
      <internalNodes>
        0 -1 17672 275796212 -641396455 17864151 489232523 -1736165208
        -96413271 806403071 1058540572</internalNodes>
      <leafValues>
        -6.5798687934875488e-01 4.5564430952072144e-01</leafValues></_>
    <_>
      <internalNodes>
        0 -1 26282 -1073224057 -244716547 1677721599 -738197621
        -965214349 -274726925 2146950823 -471342517</internalNodes>
      <leafValues>
        -3.5680738091468811e-01 8.3375728130340576e-01</leafValues></_>
    <_>
      <internalNodes>
        0 -1 34540 -488652542 1185654440 -2094595296 -772103408
        -148636373 1176989446 1653076630 -201593909</internalNodes>
      <leafValues>
        -4.2141333222389221e-01 6.5951246023178101e-01</leafValues></_>
    <_>
      <internalNodes>
        0 -1 21530 1418203288 -1641905440 1293431069 521865401
        -1576922952 -1710751592 1057139643 237508616</internalNodes>
      <leafValues>
        -6.6492289304733276e-01 3.8939869403839111e-01</leafValues></_>
    <_>
      <internalNodes>
        0 -1 399 -294459838 -744783706 -2112864161 -199440379 1613317584
        -74334079 -795835156 -16778572</internalNodes>
      <leafValues>
        -6.2995004653930664e-01 4.1535022854804993e-01</leafValues></_>
    <_>
      <internalNodes>
        0 -1 33867 -939794422 1103347787 18483776 1790984340 -226342898
        58925577 -251523047 -142345989</internalNodes>
      <leafValues>
        -5.0527650117874146e-01 5.1362919807434082e-01</leafValues></_>
    <_>
      <internalNodes>
        0 -1 19612 -684726110 1124583427 266274 1366024713 1082151304
        1610629184 1526833162 2071714575</internalNodes>
      <leafValues>
        -5.1418268680572510e-01 5.0154930353164673e-01</leafValues></_>
    <_>
      <internalNodes>
        0 -1 27253 -1525957856 2014384535 -1324646120 -806107128
        -1731884353 -380862390 -1700640022 -305461466</internalNodes>
      <leafValues>
        -6.0646754503250122e-01 4.4861277937889099e-01</leafValues></_>
    <_>
      <internalNodes>
        0 -1 20780 -1148171011 -741866657 1409343991 1468792853
        -1238513525 -1149238752 723622077 -1343746688</internalNodes>
      <leafValues>
        -5.0624579191207886e-01 5.0679731369018555e-01</leafValues></_>
    <_>
      <internalNodes>
        0 -1 24516 -310644860 -689259034 -1696420092 -381338400
        -479000800 338851164 -1217972736 -80478486</internalNodes>
      <leafValues>
        -4.5382338762283325e-01 6.0285508632659912e-01</leafValues></_></weakClassifiers></stage5>
</opencv_storage>
