<?xml version="1.0"?>
<opencv_storage>
<stage14>
  <maxWeakCount>17</maxWeakCount>
  <stageThreshold>-6.9508612155914307e-01</stageThreshold>
  <weakClassifiers>
    <_>
      <internalNodes>
        0 -1 32245 142345352 2104584117 -2140882864 -13353340
        -1621227940 -1613007372 -250120 -1073857352</internalNodes>
      <leafValues>
        -2.4050633609294891e-01 7.5020539760589600e-01</leafValues></_>
    <_>
      <internalNodes>
        0 -1 30141 -826806561 -1076695045 1644115967 -169624005
        247905258 -285229575 15715051 8904842</internalNodes>
      <leafValues>
        -3.9773979783058167e-01 5.4873979091644287e-01</leafValues></_>
    <_>
      <internalNodes>
        0 -1 985 -460920600 -1071223207 -989855676 -1041743023
        1510099861 -1148778430 -821974593 -1680896933</internalNodes>
      <leafValues>
        -5.3054797649383545e-01 3.6439287662506104e-01</leafValues></_>
    <_>
      <internalNodes>
        0 -1 31646 -13404329 -289576971 -83886593 -67659945 -274741879
        -838904473 1293782093 -121936265</internalNodes>
      <leafValues>
        -3.5902938246726990e-01 5.0994676351547241e-01</leafValues></_>
    <_>
      <internalNodes>
        0 -1 15324 1359090128 453050576 1368576183 524171743 -2147089876
        -1743124216 575276027 800729787</internalNodes>
      <leafValues>
        -4.3648773431777954e-01 4.0695181488990784e-01</leafValues></_>
    <_>
      <internalNodes>
        0 -1 35694 -82850525 1879134593 -1929295568 -786384768
        -1073586043 -1198800896 -1274304463 -108793163</internalNodes>
      <leafValues>
        -4.7213128209114075e-01 3.6472794413566589e-01</leafValues></_>
    <_>
      <internalNodes>
        0 -1 10916 -1871712003 -1816844323 1610600443 -1779271681
        -1594642279 1865793532 712631915 693886207</internalNodes>
      <leafValues>
        -4.0811532735824585e-01 4.3387445807456970e-01</leafValues></_>
    <_>
      <internalNodes>
        0 -1 17829 1292915455 2097616147 228513277 637604565 -350287831
        -631633792 1646266891 1514787291</internalNodes>
      <leafValues>
        -4.1690289974212646e-01 4.0933609008789063e-01</leafValues></_>
    <_>
      <internalNodes>
        0 -1 14775 328602709 -1683746318 1381557 798294160 471996604
        -619997016 427826392 464002444</internalNodes>
      <leafValues>
        -6.7482811212539673e-01 2.6766157150268555e-01</leafValues></_>
    <_>
      <internalNodes>
        0 -1 34860 1551481464 827801773 151728 499339391 1745158382
        1241514100 -523507005 -830550177</internalNodes>
      <leafValues>
        -4.4300174713134766e-01 3.9132922887802124e-01</leafValues></_>
    <_>
      <internalNodes>
        0 -1 17232 2005933176 -1305257512 369135901 882071669 -365427246
        -1724345847 -389407685 1032454625</internalNodes>
      <leafValues>
        -5.1598042249679565e-01 3.2760578393936157e-01</leafValues></_>
    <_>
      <internalNodes>
        0 -1 34855 -1008344382 -135602131 598622259 -1046580722
        -1373145329 1077437823 1123530203 -8388625</internalNodes>
      <leafValues>
        -3.2282176613807678e-01 5.2444142103195190e-01</leafValues></_>
    <_>
      <internalNodes>
        0 -1 676 -368195798 -2000399733 -1741634342 709384774 1082569025
        67293185 -245816128 -825248633</internalNodes>
      <leafValues>
        -5.4616028070449829e-01 3.2329961657524109e-01</leafValues></_>
    <_>
      <internalNodes>
        0 -1 30942 -1895254671 746831959 1082780831 -703070172 453779685
        -1374060373 562172764 -1909828304</internalNodes>
      <leafValues>
        -4.9029830098152161e-01 3.4700685739517212e-01</leafValues></_>
    <_>
      <internalNodes>
        0 -1 27150 1506474979 1997578666 1165082722 -1741045662
        -1060310654 -1615282016 -1593665285 1089863486</internalNodes>
      <leafValues>
        -4.1439425945281982e-01 4.3135607242584229e-01</leafValues></_>
    <_>
      <internalNodes>
        0 -1 30753 -918365052 1691112724 -645822286 -158935778 545792177
        1887674499 2005519272 913469840</internalNodes>
      <leafValues>
        -5.6140416860580444e-01 2.9526484012603760e-01</leafValues></_>
    <_>
      <internalNodes>
        0 -1 7239 -361673413 101875795 54621174 -1678097344 713604335
        -611762005 -905835939 708326969</internalNodes>
      <leafValues>
        -4.5552957057952881e-01 3.6752623319625854e-01</leafValues></_></weakClassifiers></stage14>
</opencv_storage>
