<?xml version="1.0"?>
<opencv_storage>
<stage7>
  <maxWeakCount>13</maxWeakCount>
  <stageThreshold>-5.3140586614608765e-01</stageThreshold>
  <weakClassifiers>
    <_>
      <internalNodes>
        0 -1 27695 2160 -360451 2113888125 -1827331 -1614807044
        -268500993 -1210667011 -1081599812</internalNodes>
      <leafValues>
        -2.2234891355037689e-01 7.9926455020904541e-01</leafValues></_>
    <_>
      <internalNodes>
        0 -1 26530 -272634961 -1690911123 -1073742111 -805376225
        -335565046 -1398870097 -612639732 -1886388289</internalNodes>
      <leafValues>
        -4.2690548300743103e-01 6.2664282321929932e-01</leafValues></_>
    <_>
      <internalNodes>
        0 -1 27857 -76866 -944992224 1224745690 -1975219710 1892172428
        717488144 1895897272 -17749</internalNodes>
      <leafValues>
        -4.9318218231201172e-01 5.0960266590118408e-01</leafValues></_>
    <_>
      <internalNodes>
        0 -1 10992 -797773317 -720345477 1568142781 -711918081 274276603
        -1358805658 408387423 403699711</internalNodes>
      <leafValues>
        -4.3462958931922913e-01 5.3938335180282593e-01</leafValues></_>
    <_>
      <internalNodes>
        0 -1 27341 942671160 1594884280 1563559359 1069483277 1645777833
        -1195767672 -1691465317 -1087759352</internalNodes>
      <leafValues>
        -5.3851461410522461e-01 4.2609280347824097e-01</leafValues></_>
    <_>
      <internalNodes>
        0 -1 33291 504502161 1440291098 -2071602209 489230833
        -1467822869 -1173714815 152857513 -1986504652</internalNodes>
      <leafValues>
        -5.6542253494262695e-01 3.7734684348106384e-01</leafValues></_>
    <_>
      <internalNodes>
        0 -1 33337 1293155888 268570502 -792690251 -657362859 1226172618
        -846282356 -926234405 -1244986989</internalNodes>
      <leafValues>
        -5.1930522918701172e-01 4.3407487869262695e-01</leafValues></_>
    <_>
      <internalNodes>
        0 -1 31211 -1744851382 -987135219 -1056800572 85016711
        -619935829 -341065591 -2103612785 -1433670723</internalNodes>
      <leafValues>
        -4.7482076287269592e-01 4.4441011548042297e-01</leafValues></_>
    <_>
      <internalNodes>
        0 -1 11060 -682233633 -250563494 2058878875 1560493810 308115466
        -671080360 1557576703 521134809</internalNodes>
      <leafValues>
        -4.0988522768020630e-01 5.3652375936508179e-01</leafValues></_>
    <_>
      <internalNodes>
        0 -1 27998 470841076 1603355033 75666389 -10414859 -1269296964
        -1363523437 -947271189 -1147134216</internalNodes>
      <leafValues>
        -5.7835054397583008e-01 3.9887210726737976e-01</leafValues></_>
    <_>
      <internalNodes>
        0 -1 21324 -53984218 1652783520 1074012160 1082261536
        -1610440288 134742017 1359962411 1944277242</internalNodes>
      <leafValues>
        -6.0054308176040649e-01 3.7628784775733948e-01</leafValues></_>
    <_>
      <internalNodes>
        0 -1 16259 -201291752 525505875 34738357 -1794797487 1476939704
        -14841843 16853150 506087459</internalNodes>
      <leafValues>
        -4.9818372726440430e-01 4.2951476573944092e-01</leafValues></_>
    <_>
      <internalNodes>
        0 -1 35244 1870392593 360693676 -4291 -1108344837 1073473489
        -1108423041 -1216529039 -1943014081</internalNodes>
      <leafValues>
        -4.5101320743560791e-01 5.0489014387130737e-01</leafValues></_></weakClassifiers></stage7>
</opencv_storage>
