<?xml version="1.0"?>
<opencv_storage>
<stage0>
  <maxWeakCount>10</maxWeakCount>
  <stageThreshold>-1.4637955427169800e+00</stageThreshold>
  <weakClassifiers>
    <_>
      <internalNodes>
        0 -1 129612 8.4926463663578033e-02</internalNodes>
      <leafValues>
        -4.0684410929679871e-01 9.5290422439575195e-01</leafValues></_>
    <_>
      <internalNodes>
        0 -1 754840 1.6151613090187311e-03</internalNodes>
      <leafValues>
        -3.6900237202644348e-01 8.4408992528915405e-01</leafValues></_>
    <_>
      <internalNodes>
        0 -1 947777 1.3675360009074211e-02</internalNodes>
      <leafValues>
        -4.7541990876197815e-01 6.7708003520965576e-01</leafValues></_>
    <_>
      <internalNodes>
        0 -1 324857 -2.5275282561779022e-02</internalNodes>
      <leafValues>
        8.2353055477142334e-01 -3.1953451037406921e-01</leafValues></_>
    <_>
      <internalNodes>
        0 -1 566320 -3.5122521221637726e-02</internalNodes>
      <leafValues>
        -8.7400394678115845e-01 3.8158547878265381e-01</leafValues></_>
    <_>
      <internalNodes>
        0 -1 59314 -2.8340259566903114e-02</internalNodes>
      <leafValues>
        6.9513946771621704e-01 -4.0306860208511353e-01</leafValues></_>
    <_>
      <internalNodes>
        0 -1 303051 -1.6472917195642367e-05</internalNodes>
      <leafValues>
        4.1789460182189941e-01 -6.9065231084823608e-01</leafValues></_>
    <_>
      <internalNodes>
        0 -1 585697 -2.6444220915436745e-02</internalNodes>
      <leafValues>
        8.5267478227615356e-01 -3.3194661140441895e-01</leafValues></_>
    <_>
      <internalNodes>
        0 -1 534577 1.8155279103666544e-03</internalNodes>
      <leafValues>
        -2.3766781389713287e-01 8.7871563434600830e-01</leafValues></_>
    <_>
      <internalNodes>
        0 -1 390071 1.7097789794206619e-02</internalNodes>
      <leafValues>
        2.9054713249206543e-01 -8.7352848052978516e-01</leafValues></_></weakClassifiers></stage0>
</opencv_storage>
