<?xml version="1.0"?>
<opencv_storage>
<cascade>
  <stageType>BOOST</stageType>
  <featureType>LBP</featureType>
  <height>20</height>
  <width>100</width>
  <stageParams>
    <boostType>GAB</boostType>
    <minHitRate>9.9900001287460327e-01</minHitRate>
    <maxFalseAlarm>3.0000001192092896e-01</maxFalseAlarm>
    <weightTrimRate>9.4999999999999996e-01</weightTrimRate>
    <maxDepth>1</maxDepth>
    <maxWeakCount>100</maxWeakCount></stageParams>
  <featureParams>
    <maxCatCount>256</maxCatCount>
    <featSize>1</featSize></featureParams>
  <stageNum>20</stageNum>
  <stages>
    <!-- stage 0 -->
    <_>
      <maxWeakCount>7</maxWeakCount>
      <stageThreshold>-6.2931507825851440e-01</stageThreshold>
      <weakClassifiers>
        <_>
          <internalNodes>
            0 -1 87 -1976434688 2009021176 939409151 -545310478
            -352343298 -16385 -1426068822 -1140872470</internalNodes>
          <leafValues>
            -6.6988211870193481e-01 9.0321874618530273e-01</leafValues></_>
        <_>
          <internalNodes>
            0 -1 58 -1055862052 1502909904 -1459607107 1594396692
            -1878485828 -664788800 -343373060 -1995956072</internalNodes>
          <leafValues>
            -6.6048163175582886e-01 7.7017909288406372e-01</leafValues></_>
        <_>
          <internalNodes>
            0 -1 128 -660930488 -57905 417153151 892601557 -33567761
            -285213314 1220909230 -358094385</internalNodes>
          <leafValues>
            -6.0205590724945068e-01 7.2822868824005127e-01</leafValues></_>
        <_>
          <internalNodes>
            0 -1 35 268464344 831520788 318854527 286330905 -2004836179
            -1182367736 134858975 506069160</internalNodes>
          <leafValues>
            -6.1895287036895752e-01 6.7223048210144043e-01</leafValues></_>
        <_>
          <internalNodes>
            0 -1 163 -1962679648 1560722850 455454476 1038139193
            1799199115 -1375895618 -1347809525 -36117</internalNodes>
          <leafValues>
            -6.4368265867233276e-01 6.9482165575027466e-01</leafValues></_>
        <_>
          <internalNodes>
            0 -1 110 -1069528380 -787444718 1895859613 -15597056
            -888665138 -336412662 46779806 -1624356549</internalNodes>
          <leafValues>
            -6.2059140205383301e-01 6.2491488456726074e-01</leafValues></_>
        <_>
          <internalNodes>
            0 -1 45 -805306288 -720371380 135731607 500912148
            -2130671394 -83361646 679512266 -1908932092</internalNodes>
          <leafValues>
            -6.1742579936981201e-01 6.0232096910476685e-01</leafValues></_></weakClassifiers></_>
    <!-- stage 1 -->
    <_>
      <maxWeakCount>6</maxWeakCount>
      <stageThreshold>-1.0488822460174561e+00</stageThreshold>
      <weakClassifiers>
        <_>
          <internalNodes>
            0 -1 60 1574141 928849149 1072644095 1001983231 804142335
            -1090633732 532025343 145229992</internalNodes>
          <leafValues>
            -6.8397289514541626e-01 8.8990032672882080e-01</leafValues></_>
        <_>
          <internalNodes>
            0 -1 102 -42959363 -5227016 -131073 -221700 -1140981765
            -1112002568 -458753 -1346893704</internalNodes>
          <leafValues>
            -5.6491130590438843e-01 8.6120188236236572e-01</leafValues></_>
        <_>
          <internalNodes>
            0 -1 42 268439760 -1659760240 -1728032291 386957633
            268733689 -90603382 977283278 436733952</internalNodes>
          <leafValues>
            -6.8574756383895874e-01 6.8823838233947754e-01</leafValues></_>
        <_>
          <internalNodes>
            0 -1 199 1363017045 1427226737 1695797565 890179989
            -96944707 1005150620 -89596195 -574908227</internalNodes>
          <leafValues>
            -6.5459293127059937e-01 7.0735073089599609e-01</leafValues></_>
        <_>
          <internalNodes>
            0 -1 47 1013993717 -580112579 1064427519 524027836
            -1396817921 -1107667011 -1364161284 -1350562792</internalNodes>
          <leafValues>
            -5.8792269229888916e-01 7.8215748071670532e-01</leafValues></_>
        <_>
          <internalNodes>
            0 -1 44 1109398744 -1659364328 -1087463745 1024460889
            652246187 -644801376 -2079290133 252333184</internalNodes>
          <leafValues>
            -6.1580097675323486e-01 7.2737973928451538e-01</leafValues></_></weakClassifiers></_>
    <!-- stage 2 -->
    <_>
      <maxWeakCount>8</maxWeakCount>
      <stageThreshold>-7.4331301450729370e-01</stageThreshold>
      <weakClassifiers>
        <_>
          <internalNodes>
            0 -1 156 -54658040 405339760 -4099 -1 -1091899768
            -1196413256 -1310740 -69214273</internalNodes>
          <leafValues>
            -4.1981613636016846e-01 8.6507409811019897e-01</leafValues></_>
        <_>
          <internalNodes>
            0 -1 151 4305 -134923267 -1073741825 -184450 -1242112289
            -32769 -1611333649 -1147590009</internalNodes>
          <leafValues>
            -5.3579235076904297e-01 8.0023217201232910e-01</leafValues></_>
        <_>
          <internalNodes>
            0 -1 92 -654839590 2146393855 149880956 199211936 -546 -257
            -1972391846 -335548466</internalNodes>
          <leafValues>
            -5.0714427232742310e-01 6.8851149082183838e-01</leafValues></_>
        <_>
          <internalNodes>
            0 -1 85 -1783595524 -1655140104 -540214273 -575321036
            -1078944004 -1078034715 -314917121 -1954018872</internalNodes>
          <leafValues>
            -5.8220595121383667e-01 6.4942854642868042e-01</leafValues></_>
        <_>
          <internalNodes>
            0 -1 142 218110837 -552580783 -1996172547 1565266845
            -1442799363 -1197383287 -1887379812 -1423441608</internalNodes>
          <leafValues>
            -6.4307886362075806e-01 5.2500760555267334e-01</leafValues></_>
        <_>
          <internalNodes>
            0 -1 169 84941296 1436057681 1959286175 -7139171 -2004778031
            -1444396879 -2010469953 -1887435984</internalNodes>
          <leafValues>
            -6.2423968315124512e-01 5.3671151399612427e-01</leafValues></_>
        <_>
          <internalNodes>
            0 -1 205 -1050851 1551761343 -17251 -132106 1031730841
            -1921008169 -142832231 -855900801</internalNodes>
          <leafValues>
            -4.6017378568649292e-01 7.2478944063186646e-01</leafValues></_>
        <_>
          <internalNodes>
            0 -1 48 -1871621899 -266259036 435944447 1370952191
            -2005364600 -1398705171 -725886213 989560239</internalNodes>
          <leafValues>
            -4.9555543065071106e-01 5.9276163578033447e-01</leafValues></_></weakClassifiers></_>
    <!-- stage 3 -->
    <_>
      <maxWeakCount>11</maxWeakCount>
      <stageThreshold>-5.9044826030731201e-01</stageThreshold>
      <weakClassifiers>
        <_>
          <internalNodes>
            0 -1 170 -1073692672 -680329393 -136380417 -143274070
            -286266369 -293732881 -1343753285 -1073496058</internalNodes>
          <leafValues>
            -2.5398313999176025e-01 8.5066545009613037e-01</leafValues></_>
        <_>
          <internalNodes>
            0 -1 15 -570098180 -114790408 1877244350 -572457218
            2134179324 -1090494600 -593141761 -12654609</internalNodes>
          <leafValues>
            -4.7369766235351563e-01 7.2830581665039063e-01</leafValues></_>
        <_>
          <internalNodes>
            0 -1 33 1347547615 1361110352 -176751107 1427240439 237821
            -1123650074 283097849 219113455</internalNodes>
          <leafValues>
            -4.4759672880172729e-01 7.0018583536148071e-01</leafValues></_>
        <_>
          <internalNodes>
            0 -1 146 1599073031 -76156931 -1343569955 -4236355
            -2094035704 -1909485945 -1416968178 -810555889</internalNodes>
          <leafValues>
            -5.2076649665832520e-01 5.6955862045288086e-01</leafValues></_>
        <_>
          <internalNodes>
            0 -1 31 -1817182179 -112062311 285479131 491786689
            -1603737445 -123699072 151590971 193464328</internalNodes>
          <leafValues>
            -6.1754423379898071e-01 4.7939133644104004e-01</leafValues></_>
        <_>
          <internalNodes>
            0 -1 49 285260112 419954948 352387357 387252237 136350872
            268435784 -2139053857 1269762563</internalNodes>
          <leafValues>
            -5.3272742033004761e-01 5.3334653377532959e-01</leafValues></_>
        <_>
          <internalNodes>
            0 -1 177 -878199300 1442583831 -2147378415 386121747
            -1324926336 956302080 -1822214052 -1647638488</internalNodes>
          <leafValues>
            -6.8662583827972412e-01 3.7102583050727844e-01</leafValues></_>
        <_>
          <internalNodes>
            0 -1 116 -119879426 1606085942 754877427 423641184
            1878510270 -1610858534 1862221755 -55589606</internalNodes>
          <leafValues>
            -4.6558523178100586e-01 6.0674339532852173e-01</leafValues></_>
        <_>
          <internalNodes>
            0 -1 129 -2134375920 -577219630 -1861168944 1535656278
            -2120682783 -888641535 -1174252823 722361513</internalNodes>
          <leafValues>
            -7.2105312347412109e-01 3.8770887255668640e-01</leafValues></_>
        <_>
          <internalNodes>
            0 -1 212 1896186498 1909686280 336072728 360177678
            1380009029 822161982 59230463 2080350887</internalNodes>
          <leafValues>
            -6.5552693605422974e-01 4.1623562574386597e-01</leafValues></_>
        <_>
          <internalNodes>
            0 -1 46 273176053 -1860562597 -1862189027 -1717694375
            2105580226 -117866366 -402113540 -1384105464</internalNodes>
          <leafValues>
            -5.9725356101989746e-01 4.5615723729133606e-01</leafValues></_></weakClassifiers></_>
    <!-- stage 4 -->
    <_>
      <maxWeakCount>10</maxWeakCount>
      <stageThreshold>-9.3103450536727905e-01</stageThreshold>
      <weakClassifiers>
        <_>
          <internalNodes>
            0 -1 24 1003503100 -5186052 -8454149 -541278220 -570894852
            -1075265544 -376837 789055624</internalNodes>
          <leafValues>
            -3.9470654726028442e-01 8.2984238862991333e-01</leafValues></_>
        <_>
          <internalNodes>
            0 -1 179 1365201695 -619490437 -1051340045 -375950655
            1644898987 -1163240951 1657360763 1581727771</internalNodes>
          <leafValues>
            -5.8297115564346313e-01 6.4546293020248413e-01</leafValues></_>
        <_>
          <internalNodes>
            0 -1 106 -932394820 -83308492 -879093793 -1681910898
            -1434325765 -39190464 -972824434 -1936936021</internalNodes>
          <leafValues>
            -5.6268632411956787e-01 5.8029305934906006e-01</leafValues></_>
        <_>
          <internalNodes>
            0 -1 137 -100795400 -276279228 -988249712 826835464
            1220630728 1361608964 1460158464 -1345</internalNodes>
          <leafValues>
            -5.4039287567138672e-01 5.5677115917205811e-01</leafValues></_>
        <_>
          <internalNodes>
            0 -1 32 990909969 -652926831 -1258224609 454365543
            -1744764185 -1166015862 864064443 -1621163967</internalNodes>
          <leafValues>
            -5.3451335430145264e-01 5.7367134094238281e-01</leafValues></_>
        <_>
          <internalNodes>
            0 -1 206 -799541455 -648638014 -1862118957 2097537033
            -968111734 -121073524 -402207157 -1975867630</internalNodes>
          <leafValues>
            -5.1956075429916382e-01 5.6729817390441895e-01</leafValues></_>
        <_>
          <internalNodes>
            0 -1 72 -1044127582 1397424195 -2147352062 1393676805
            1382666691 27262985 -938818374 1407706075</internalNodes>
          <leafValues>
            -5.4597628116607666e-01 5.2779042720794678e-01</leafValues></_>
        <_>
          <internalNodes>
            0 -1 81 1048583504 457752601 1225872927 31295933 -1449099110
            -1433794406 545816729 153620748</internalNodes>
          <leafValues>
            -6.4931321144104004e-01 4.4143536686897278e-01</leafValues></_>
        <_>
          <internalNodes>
            0 -1 14 -102062666 1465833738 -1919942438 -1929237038
            1753481901 -350156589 2016608989 -19215765</internalNodes>
          <leafValues>
            -5.5679100751876831e-01 4.9613943696022034e-01</leafValues></_>
        <_>
          <internalNodes>
            0 -1 117 -396110078 -1004875594 -804141752 1363199821
            -1969225710 19038249 -1341963374 -259276041</internalNodes>
          <leafValues>
            -4.9890896677970886e-01 5.6039738655090332e-01</leafValues></_></weakClassifiers></_>
    <!-- stage 5 -->
    <_>
      <maxWeakCount>11</maxWeakCount>
      <stageThreshold>-1.2362520694732666e+00</stageThreshold>
      <weakClassifiers>
        <_>
          <internalNodes>
            0 -1 93 -636562808 -50221 -553741610 1071607486 -1359024146
            -18350217 -1108413954 -671138069</internalNodes>
          <leafValues>
            -1.3811188936233521e-01 8.3976125717163086e-01</leafValues></_>
        <_>
          <internalNodes>
            0 -1 178 -67305474 428376052 532463608 1038925756 1567923629
            1442592700 -65537 -6426881</internalNodes>
          <leafValues>
            -4.3865779042243958e-01 6.3891690969467163e-01</leafValues></_>
        <_>
          <internalNodes>
            0 -1 61 277893336 -1793454016 -1455267973 902500764
            -1601662213 -1081466712 -2000582261 -2002839125</internalNodes>
          <leafValues>
            -5.5067098140716553e-01 5.3030341863632202e-01</leafValues></_>
        <_>
          <internalNodes>
            0 -1 2 -867253562 -640515750 -115769059 -746379215
            -1945919392 -1191016410 -892754773 -275832058</internalNodes>
          <leafValues>
            -5.4601824283599854e-01 4.6312370896339417e-01</leafValues></_>
        <_>
          <internalNodes>
            0 -1 160 -227045099 -679774337 738176799 327069278
            -1615485304 -314573315 -2012903224 -393236833</internalNodes>
          <leafValues>
            -4.2255017161369324e-01 5.9337484836578369e-01</leafValues></_>
        <_>
          <internalNodes>
            0 -1 201 154145149 -782495619 -989732865 -40252171
            -1199516931 -1164443519 -1954540872 -1359476507</internalNodes>
          <leafValues>
            -5.2132689952850342e-01 4.8686888813972473e-01</leafValues></_>
        <_>
          <internalNodes>
            0 -1 126 -611349630 1007882263 332936 290280265 1076368436
            237510914 -268399730 1873508283</internalNodes>
          <leafValues>
            -5.4626274108886719e-01 4.4772279262542725e-01</leafValues></_>
        <_>
          <internalNodes>
            0 -1 197 1486354192 1141237761 -1819157476 -240031103
            -827938204 -1424914384 1489762840 -112465503</internalNodes>
          <leafValues>
            -6.8653416633605957e-01 3.4307149052619934e-01</leafValues></_>
        <_>
          <internalNodes>
            0 -1 64 136876120 428969989 269570331 1037242385 -1182756678
            -1617811287 -654142625 -1692792748</internalNodes>
          <leafValues>
            -5.6310623884201050e-01 4.4184738397598267e-01</leafValues></_>
        <_>
          <internalNodes>
            0 -1 77 -117460230 294748807 10289242 1620263723 -1073160833
            -819983703 -1819285170 -909400186</internalNodes>
          <leafValues>
            -4.9985975027084351e-01 4.7923687100410461e-01</leafValues></_>
        <_>
          <internalNodes>
            0 -1 95 957616377 1607991324 287381977 1528502685 -401958816
            -2555696 -1987532545 -1626335168</internalNodes>
          <leafValues>
            -5.2044993638992310e-01 5.0595051050186157e-01</leafValues></_></weakClassifiers></_>
    <!-- stage 6 -->
    <_>
      <maxWeakCount>13</maxWeakCount>
      <stageThreshold>-5.1820623874664307e-01</stageThreshold>
      <weakClassifiers>
        <_>
          <internalNodes>
            0 -1 154 -1341652976 -16828643 -33685569 -49283 -1140850949
            -1 -570540610 -556859334</internalNodes>
          <leafValues>
            -3.4877735376358032e-01 7.9843318462371826e-01</leafValues></_>
        <_>
          <internalNodes>
            0 -1 147 -272178296 -529076293 -1179807961 -1657148913
            -575161157 -4784129 -1077936753 -1577345</internalNodes>
          <leafValues>
            -3.7923780083656311e-01 6.8605005741119385e-01</leafValues></_>
        <_>
          <internalNodes>
            0 -1 203 -35653707 223722971 -33573315 -1268318977
            -713036323 -587336195 -33563139 -575144449</internalNodes>
          <leafValues>
            -4.4217273592948914e-01 5.8307558298110962e-01</leafValues></_>
        <_>
          <internalNodes>
            0 -1 145 -212345708 -212778361 -1785637379 -75350015
            -1456780904 -900687221 -2143158120 955232907</internalNodes>
          <leafValues>
            -5.0597673654556274e-01 5.2904564142227173e-01</leafValues></_>
        <_>
          <internalNodes>
            0 -1 39 1359016831 2138136598 2147348223 1941563363
            997261179 -1681926674 -152338435 -1114245129</internalNodes>
          <leafValues>
            -4.3351450562477112e-01 5.7527858018875122e-01</leafValues></_>
        <_>
          <internalNodes>
            0 -1 76 -585580364 -1177223055 268506197 -1793523299
            -1701825606 -1683472253 -1714906177 243925120</internalNodes>
          <leafValues>
            -5.6237691640853882e-01 4.0449714660644531e-01</leafValues></_>
        <_>
          <internalNodes>
            0 -1 67 -1037319102 1342751003 1073872904 1401456165
            574843233 495452424 558006710 1630528351</internalNodes>
          <leafValues>
            -5.7631802558898926e-01 4.0579611063003540e-01</leafValues></_>
        <_>
          <internalNodes>
            0 -1 26 -1857022699 25719443 -1996422923 461672473 838892202
            -1466376029 947945724 -1911527320</internalNodes>
          <leafValues>
            -5.4324990510940552e-01 4.3937394022941589e-01</leafValues></_>
        <_>
          <internalNodes>
            0 -1 223 -660150528 -1973404252 -1343509069 -906479104
            566306249 175470325 2004222369 -117446230</internalNodes>
          <leafValues>
            -4.2999282479286194e-01 5.2523803710937500e-01</leafValues></_>
        <_>
          <internalNodes>
            0 -1 96 -1874046479 -116781036 1494522045 -1660792807
            -1945581141 -16530274 -114687779 -1431299656</internalNodes>
          <leafValues>
            -5.2118223905563354e-01 4.2907136678695679e-01</leafValues></_>
        <_>
          <internalNodes>
            0 -1 3 -1060976122 -32470574 -2144414446 -817741272
            1074528400 -1207730152 -939371605 1078061078</internalNodes>
          <leafValues>
            -6.0475707054138184e-01 3.8410493731498718e-01</leafValues></_>
        <_>
          <internalNodes>
            0 -1 229 -346034207 251826643 1098990114 -2070527550
            2131441702 2068611088 1506158624 -961096764</internalNodes>
          <leafValues>
            -5.5053323507308960e-01 4.1573828458786011e-01</leafValues></_>
        <_>
          <internalNodes>
            0 -1 115 -379941862 -543686196 -721153701 -1325342606
            589930653 -1710389192 705134703 -98154982</internalNodes>
          <leafValues>
            -5.0401240587234497e-01 4.7539940476417542e-01</leafValues></_></weakClassifiers></_>
    <!-- stage 7 -->
    <_>
      <maxWeakCount>13</maxWeakCount>
      <stageThreshold>-5.8046567440032959e-01</stageThreshold>
      <weakClassifiers>
        <_>
          <internalNodes>
            0 -1 187 -225860 -1 -1074003969 2147483647 -25314326 -4
            -1342686274 -306184514</internalNodes>
          <leafValues>
            -2.3798626661300659e-01 8.0155640840530396e-01</leafValues></_>
        <_>
          <internalNodes>
            0 -1 55 1317702408 419562760 -1694474999 521997580
            -1343304296 -1380446705 -150033137 -343987045</internalNodes>
          <leafValues>
            -4.3256735801696777e-01 6.2128108739852905e-01</leafValues></_>
        <_>
          <internalNodes>
            0 -1 94 -711865420 2068885520 310380672 -108500668
            1481167610 880871052 461899918 -4334209</internalNodes>
          <leafValues>
            -5.1424640417098999e-01 5.2227187156677246e-01</leafValues></_>
        <_>
          <internalNodes>
            0 -1 71 -1744775689 -4849813 -1103364097 1160396473
            -70586377 -1124155441 -353437697 -1080296529</internalNodes>
          <leafValues>
            -4.2875888943672180e-01 5.9687590599060059e-01</leafValues></_>
        <_>
          <internalNodes>
            0 -1 51 286291216 -574064623 -1249570467 -653197111
            -1810868008 -576026550 -1426028037 723583041</internalNodes>
          <leafValues>
            -6.1479741334915161e-01 3.8921901583671570e-01</leafValues></_>
        <_>
          <internalNodes>
            0 -1 161 1707246720 473728369 -1919909749 -1340897275
            -1713665397 -1954381686 1590409359 -32522021</internalNodes>
          <leafValues>
            -5.1545876264572144e-01 4.3393510580062866e-01</leafValues></_>
        <_>
          <internalNodes>
            0 -1 53 1906317588 1595420824 -1266645611 -1860890543
            914383016 -1723096935 956992059 445130890</internalNodes>
          <leafValues>
            -5.4830729961395264e-01 4.0344905853271484e-01</leafValues></_>
        <_>
          <internalNodes>
            0 -1 16 1980533890 -1077180918 1292632194 -1350516581
            -1840971568 -72347448 -2142880950 -1958536805</internalNodes>
          <leafValues>
            -5.3661042451858521e-01 4.3205049633979797e-01</leafValues></_>
        <_>
          <internalNodes>
            0 -1 54 -782502281 1409425408 1895300479 1430780530
            -1057508115 -511106625 -227676555 1001343679</internalNodes>
          <leafValues>
            -4.1676062345504761e-01 5.6756150722503662e-01</leafValues></_>
        <_>
          <internalNodes>
            0 -1 219 -659560669 10796967 -25167016 -1259044876 -165931
            -9109508 -54526671 -671875081</internalNodes>
          <leafValues>
            -4.4852277636528015e-01 4.9904593825340271e-01</leafValues></_>
        <_>
          <internalNodes>
            0 -1 88 -1743503203 -779911150 -585540267 1058099404
            -2118098821 -98123647 -1739597669 -1419089666</internalNodes>
          <leafValues>
            -4.9877610802650452e-01 4.5007532835006714e-01</leafValues></_>
        <_>
          <internalNodes>
            0 -1 130 -1062567808 1385927818 -1852784547 151240706
            277037209 -400998386 1619757987 1086714506</internalNodes>
          <leafValues>
            -6.3527113199234009e-01 3.4855729341506958e-01</leafValues></_>
        <_>
          <internalNodes>
            0 -1 108 335565968 -780073966 318773727 -1579460836
            -1197628740 -1167523781 1059201980 -1087894408</internalNodes>
          <leafValues>
            -6.0493957996368408e-01 3.7482297420501709e-01</leafValues></_></weakClassifiers></_>
    <!-- stage 8 -->
    <_>
      <maxWeakCount>14</maxWeakCount>
      <stageThreshold>-7.3674041032791138e-01</stageThreshold>
      <weakClassifiers>
        <_>
          <internalNodes>
            0 -1 207 -564182255 360037853 -8555183 1434304501 -2239315
            2110258608 -41978091 2111686589</internalNodes>
          <leafValues>
            -9.2876464128494263e-02 8.2054203748703003e-01</leafValues></_>
        <_>
          <internalNodes>
            0 -1 120 -570762498 -906285084 -47269889 -540792786 -45089
            -1 -1116815697 -914700113</internalNodes>
          <leafValues>
            -3.8873466849327087e-01 6.7429327964782715e-01</leafValues></_>
        <_>
          <internalNodes>
            0 -1 1 -1001536274 -50369705 -67112961 -538238674 -812242761
            -276828450 -2030067714 -806927866</internalNodes>
          <leafValues>
            -4.4720155000686646e-01 5.4362744092941284e-01</leafValues></_>
        <_>
          <internalNodes>
            0 -1 25 -800160552 402784676 436273565 1090715676 -91189092
            -133029719 23239867 185532715</internalNodes>
          <leafValues>
            -4.5131394267082214e-01 5.1212757825851440e-01</leafValues></_>
        <_>
          <internalNodes>
            0 -1 191 1830225478 -1693253501 1108443334 -132988715
            1783825930 -50179789 1201653480 -606350529</internalNodes>
          <leafValues>
            -5.5185663700103760e-01 4.2056056857109070e-01</leafValues></_>
        <_>
          <internalNodes>
            0 -1 29 1316297149 -1141419837 -855568295 -1087106315
            -1416330497 -609613310 -394082055 -1450702708</internalNodes>
          <leafValues>
            -5.1187515258789063e-01 4.5082253217697144e-01</leafValues></_>
        <_>
          <internalNodes>
            0 -1 220 -1229 -1069221977 -50309 -696287814 -4723280
            -1711835289 -134226571 -33571337</internalNodes>
          <leafValues>
            -4.0134936571121216e-01 5.2738738059997559e-01</leafValues></_>
        <_>
          <internalNodes>
            0 -1 168 805319889 513589721 1090834893 -720692773
            -939478530 1797260002 11577759 790102708</internalNodes>
          <leafValues>
            -5.1774168014526367e-01 4.2112755775451660e-01</leafValues></_>
        <_>
          <internalNodes>
            0 -1 131 -1024465782 2855311 1076490386 294601734 1637967371
            -1999880184 -200783742 1137177103</internalNodes>
          <leafValues>
            -5.3179025650024414e-01 4.2337745428085327e-01</leafValues></_>
        <_>
          <internalNodes>
            0 -1 111 -862040129 422098784 1073092799 1899106376
            -269500529 -1211473113 -889356556 262896287</internalNodes>
          <leafValues>
            -4.4132602214813232e-01 5.2247714996337891e-01</leafValues></_>
        <_>
          <internalNodes>
            0 -1 181 805384483 -151355183 -1992244017 -1224650748
            -264197937 -360643200 -889134326 -1626268164</internalNodes>
          <leafValues>
            -5.9509927034378052e-01 3.6067402362823486e-01</leafValues></_>
        <_>
          <internalNodes>
            0 -1 225 -1069091372 -1597767628 -2121758448 -1793486655
            277405844 -1736339328 1771196800 -627078515</internalNodes>
          <leafValues>
            -4.3550738692283630e-01 5.2156531810760498e-01</leafValues></_>
        <_>
          <internalNodes>
            0 -1 18 -883364652 1401193956 688669068 780202107 1082360982
            814383529 -2078127864 -13987109</internalNodes>
          <leafValues>
            -5.1263976097106934e-01 4.3969371914863586e-01</leafValues></_>
        <_>
          <internalNodes>
            0 -1 184 -1304376284 156893225 1090519336 1899168435
            -1462728232 -1878458208 -1467839011 -1879179083</internalNodes>
          <leafValues>
            -5.5478763580322266e-01 3.8751742243766785e-01</leafValues></_></weakClassifiers></_>
    <!-- stage 9 -->
    <_>
      <maxWeakCount>13</maxWeakCount>
      <stageThreshold>-5.4811352491378784e-01</stageThreshold>
      <weakClassifiers>
        <_>
          <internalNodes>
            0 -1 209 -33690243 499080541 -4771 364764669 -41967619
            -33411 -570597955 1577025021</internalNodes>
          <leafValues>
            -4.7308318316936493e-02 8.3247542381286621e-01</leafValues></_>
        <_>
          <internalNodes>
            0 -1 121 -831864630 -78348678 -5 -34563130 -826822762 -69825
            -1174679625 -39323650</internalNodes>
          <leafValues>
            -3.7532171607017517e-01 6.3521605730056763e-01</leafValues></_>
        <_>
          <internalNodes>
            0 -1 175 1297862423 896384863 -2163234 1610579743 -549478498
            -16842858 -536870946 1240694271</internalNodes>
          <leafValues>
            -4.7161364555358887e-01 5.2924537658691406e-01</leafValues></_>
        <_>
          <internalNodes>
            0 -1 164 -1065270750 -1283612474 1090779167 -1188302709
            -217464389 -375848401 -2008970438 -2147229150</internalNodes>
          <leafValues>
            -4.9971064925193787e-01 4.6634429693222046e-01</leafValues></_>
        <_>
          <internalNodes>
            0 -1 13 1107358206 -172621806 18896153 1024328000 9202589
            -1182070322 155920826 238181990</internalNodes>
          <leafValues>
            -5.9164446592330933e-01 3.7445381283760071e-01</leafValues></_>
        <_>
          <internalNodes>
            0 -1 174 -60886118 286015686 1614840852 824219904 1111773856
            1004017920 -402615128 -268442181</internalNodes>
          <leafValues>
            -4.8898071050643921e-01 4.3712103366851807e-01</leafValues></_>
        <_>
          <internalNodes>
            0 -1 68 542922205 -115388333 420204117 -40828787 -754568485
            -75439918 -2147300612 -1095224212</internalNodes>
          <leafValues>
            -5.6617730855941772e-01 3.6862397193908691e-01</leafValues></_>
        <_>
          <internalNodes>
            0 -1 9 -882382321 135710536 67125582 -1061025206 1084839435
            1087014971 1145823704 -1597247234</internalNodes>
          <leafValues>
            -5.0239539146423340e-01 4.4406047463417053e-01</leafValues></_>
        <_>
          <internalNodes>
            0 -1 89 1964212746 429068423 329261194 1394081798 1913082026
            170393728 -1568519766 2005398411</internalNodes>
          <leafValues>
            -5.7560968399047852e-01 3.9873287081718445e-01</leafValues></_>
        <_>
          <internalNodes>
            0 -1 215 2019015050 2064024202 2097408 -7922989 1084425134
            1212153872 -351763975 -73862977</internalNodes>
          <leafValues>
            -4.8037534952163696e-01 4.5496478676795959e-01</leafValues></_>
        <_>
          <internalNodes>
            0 -1 75 1294485 277970961 -1188529473 291344543 269027722
            270142410 551617195 523076265</internalNodes>
          <leafValues>
            -5.2326339483261108e-01 4.2065194249153137e-01</leafValues></_>
        <_>
          <internalNodes>
            0 -1 5 71615190 -179158909 -1860618239 -1104936949
            1107856893 -494923645 -905854898 -820582250</internalNodes>
          <leafValues>
            -5.3225022554397583e-01 4.2659932374954224e-01</leafValues></_>
        <_>
          <internalNodes>
            0 -1 78 -661659646 1925509394 -1014300525 -720650227
            -517963378 -1055357558 1769997271 1393542023</internalNodes>
          <leafValues>
            -4.9443739652633667e-01 4.5981910824775696e-01</leafValues></_></weakClassifiers></_>
    <!-- stage 10 -->
    <_>
      <maxWeakCount>12</maxWeakCount>
      <stageThreshold>-7.9061490297317505e-01</stageThreshold>
      <weakClassifiers>
        <_>
          <internalNodes>
            0 -1 159 -1405157376 -16875659 -4 -1140886018 -1344348928
            -131075 -1002453816 -328005619</internalNodes>
          <leafValues>
            -2.7223721146583557e-01 7.7805799245834351e-01</leafValues></_>
        <_>
          <internalNodes>
            0 -1 8 -144249122 -331795 -273674334 -38080786 1306541698
            -1078394884 2005012279 -524353</internalNodes>
          <leafValues>
            -4.4095778465270996e-01 5.9967041015625000e-01</leafValues></_>
        <_>
          <internalNodes>
            0 -1 189 1887436309 1922613264 -1542402733 1522368631
            -1006531893 -1034780672 -1026891654 923002931</internalNodes>
          <leafValues>
            -5.4260867834091187e-01 4.4575303792953491e-01</leafValues></_>
        <_>
          <internalNodes>
            0 -1 97 -1072971262 -586161417 -138455395 -1041236562
            -834737238 -1195574362 -494934073 1113575947</internalNodes>
          <leafValues>
            -4.7571089863777161e-01 4.9400034546852112e-01</leafValues></_>
        <_>
          <internalNodes>
            0 -1 38 806377077 -170847848 -1593255465 -1110294255
            -628708925 -116621170 -1174366039 -1348991328</internalNodes>
          <leafValues>
            -5.4938083887100220e-01 4.3849819898605347e-01</leafValues></_>
        <_>
          <internalNodes>
            0 -1 158 -34078722 1378138108 -37901400 1039412984
            -176851144 500448638 -34210305 -352321921</internalNodes>
          <leafValues>
            -4.2669481039047241e-01 5.7995551824569702e-01</leafValues></_>
        <_>
          <internalNodes>
            0 -1 90 319331544 268505232 -1592683105 255263913 -265760597
            -2004877063 -368794113 254693483</internalNodes>
          <leafValues>
            -5.1566439867019653e-01 4.5048972964286804e-01</leafValues></_>
        <_>
          <internalNodes>
            0 -1 155 96135285 1173880638 -33604455 -67141763 -1348478983
            -352485386 -1034580532 -1632049834</internalNodes>
          <leafValues>
            -3.8725057244300842e-01 5.7879036664962769e-01</leafValues></_>
        <_>
          <internalNodes>
            0 -1 218 286281816 -1118732011 1342374169 -15134656
            -645895528 -1664450503 34086972 672728112</internalNodes>
          <leafValues>
            -6.3840317726135254e-01 3.7190529704093933e-01</leafValues></_>
        <_>
          <internalNodes>
            0 -1 135 14960659 -653180879 -1593763889 -205252585
            -1878480582 -133521272 -778514182 -1165294655</internalNodes>
          <leafValues>
            -5.6921952962875366e-01 3.7883022427558899e-01</leafValues></_>
        <_>
          <internalNodes>
            0 -1 204 -389356030 606216977 1224753152 1650491714
            1521017627 75629319 1795354821 -896537110</internalNodes>
          <leafValues>
            -5.0988650321960449e-01 4.5465305447578430e-01</leafValues></_>
        <_>
          <internalNodes>
            0 -1 112 -404044670 1953444490 -1035151792 1394987294
            -697043776 -1606363446 -679610157 -1275857601</internalNodes>
          <leafValues>
            -4.2884415388107300e-01 5.1796245574951172e-01</leafValues></_></weakClassifiers></_>
    <!-- stage 11 -->
    <_>
      <maxWeakCount>13</maxWeakCount>
      <stageThreshold>-1.1651486158370972e+00</stageThreshold>
      <weakClassifiers>
        <_>
          <internalNodes>
            0 -1 99 750002172 528293332 536805373 -1109901860 2079653884
            -1078395235 -2002849804 144704000</internalNodes>
          <leafValues>
            -5.6984478235244751e-01 7.4410772323608398e-01</leafValues></_>
        <_>
          <internalNodes>
            0 -1 162 -1694465152 -818137742 721553464 -35143752
            -1177600049 -273679571 -281021697 -67117905</internalNodes>
          <leafValues>
            -5.1025009155273438e-01 5.5322033166885376e-01</leafValues></_>
        <_>
          <internalNodes>
            0 -1 34 1359082487 1465474372 -33685505 -680002065
            -318013569 -637566979 -137510913 -78407681</internalNodes>
          <leafValues>
            -3.9199066162109375e-01 6.8864166736602783e-01</leafValues></_>
        <_>
          <internalNodes>
            0 -1 143 -269484455 -579866625 -16417 -1075855396 -3145974
            -553648193 -406929442 1968371657</internalNodes>
          <leafValues>
            -4.0101268887519836e-01 5.8027565479278564e-01</leafValues></_>
        <_>
          <internalNodes>
            0 -1 107 -22289376 281473030 262148 1091109423 304268160
            17305640 1161970182 1536156671</internalNodes>
          <leafValues>
            -5.8202725648880005e-01 4.0609610080718994e-01</leafValues></_>
        <_>
          <internalNodes>
            0 -1 148 -1067326553 -285739105 -6313 -402659450 -1375731761
            -344588677 -169361849 -1072180862</internalNodes>
          <leafValues>
            -3.6590978503227234e-01 6.2534457445144653e-01</leafValues></_>
        <_>
          <internalNodes>
            0 -1 202 319948661 -787412433 1083397149 -250379709
            537428141 716046436 -400412739 -1174427347</internalNodes>
          <leafValues>
            -4.6029376983642578e-01 4.9890339374542236e-01</leafValues></_>
        <_>
          <internalNodes>
            0 -1 109 -2146418479 -717029179 -939409057 1499414745
            -1568609895 -1686110154 -1107173751 213522591</internalNodes>
          <leafValues>
            -5.6563848257064819e-01 3.8475605845451355e-01</leafValues></_>
        <_>
          <internalNodes>
            0 -1 136 -326703862 167964846 553711078 -1073232768
            1510556226 1074331658 1100730817 1195897346</internalNodes>
          <leafValues>
            -5.7347148656845093e-01 3.8152703642845154e-01</leafValues></_>
        <_>
          <internalNodes>
            0 -1 20 -965754038 -83536858 -1039888172 1837371660
            805341344 -115343216 25184641 -24120629</internalNodes>
          <leafValues>
            -4.8316898941993713e-01 4.6192741394042969e-01</leafValues></_>
        <_>
          <internalNodes>
            0 -1 127 361005464 412647569 59777329 -7010020 738355455
            -1678572647 -1954002805 -1364324056</internalNodes>
          <leafValues>
            -5.5696207284927368e-01 4.1154494881629944e-01</leafValues></_>
        <_>
          <internalNodes>
            0 -1 183 964677290 253755716 303038608 874305997 1109729446
            1512114448 1614943886 -1679870998</internalNodes>
          <leafValues>
            -5.0929355621337891e-01 4.4259974360466003e-01</leafValues></_>
        <_>
          <internalNodes>
            0 -1 30 1210634975 28417305 1174428181 813084937 1161826527
            948577408 -893730157 1530519754</internalNodes>
          <leafValues>
            -4.8286387324333191e-01 4.7604265809059143e-01</leafValues></_></weakClassifiers></_>
    <!-- stage 12 -->
    <_>
      <maxWeakCount>14</maxWeakCount>
      <stageThreshold>-7.8521680831909180e-01</stageThreshold>
      <weakClassifiers>
        <_>
          <internalNodes>
            0 -1 172 271594900 1610498038 1073573887 1073494011
            -1074151937 -131075 -1476509697 531891608</internalNodes>
          <leafValues>
            -4.0916809439659119e-01 7.6175934076309204e-01</leafValues></_>
        <_>
          <internalNodes>
            0 -1 200 -46137347 876412855 -302121603 369032119 -28760
            2103408508 -44088003 2105535995</internalNodes>
          <leafValues>
            -4.0894278883934021e-01 5.9701949357986450e-01</leafValues></_>
        <_>
          <internalNodes>
            0 -1 157 -80216579 -604012675 -1556398089 -142622829
            -1628468275 -1360007811 1146814684 -1161853218</internalNodes>
          <leafValues>
            -3.7116736173629761e-01 6.6652399301528931e-01</leafValues></_>
        <_>
          <internalNodes>
            0 -1 84 1095241852 398037269 -879479777 -1187413731
            287311864 -653655911 -1741118565 193471384</internalNodes>
          <leafValues>
            -5.6580013036727905e-01 3.8039749860763550e-01</leafValues></_>
        <_>
          <internalNodes>
            0 -1 173 -641668470 -1878962173 -2147237568 -208602937
            -133983986 -380908373 1150809738 1077404162</internalNodes>
          <leafValues>
            -5.4019844532012939e-01 3.7708511948585510e-01</leafValues></_>
        <_>
          <internalNodes>
            0 -1 221 540294517 479992976 -737701793 -1211037479
            -1979661671 -81674231 -1070405891 -1160248664</internalNodes>
          <leafValues>
            -5.6789928674697876e-01 3.5540297627449036e-01</leafValues></_>
        <_>
          <internalNodes>
            0 -1 149 2127865729 -278282497 -1089069313 -1410465859
            -1443921234 -1091809361 -489012049 -338168313</internalNodes>
          <leafValues>
            -3.7819576263427734e-01 5.2724635601043701e-01</leafValues></_>
        <_>
          <internalNodes>
            0 -1 56 1895388255 -805306365 520197017 419713295
            -2006757826 -1431666558 1610850433 672696971</internalNodes>
          <leafValues>
            -4.6530064940452576e-01 4.3714585900306702e-01</leafValues></_>
        <_>
          <internalNodes>
            0 -1 118 77725905 -171376253 -654097065 1217974368
            -1316228445 -545196544 -1961718901 14927802</internalNodes>
          <leafValues>
            -6.3421463966369629e-01 3.2758149504661560e-01</leafValues></_>
        <_>
          <internalNodes>
            0 -1 230 -945029259 2137456243 -655656 -885490320 1165485943
            1196294005 1979700164 -186323132</internalNodes>
          <leafValues>
            -4.0052157640457153e-01 5.0305813550949097e-01</leafValues></_>
        <_>
          <internalNodes>
            0 -1 12 1749328606 -641548215 5665613 1846566916 -92205077
            -98434919 1212364955 1734567619</internalNodes>
          <leafValues>
            -5.1143449544906616e-01 4.0848934650421143e-01</leafValues></_>
        <_>
          <internalNodes>
            0 -1 144 -934371296 -1026522426 411058457 -401241640
            671806061 -401946608 1346574568 1159193443</internalNodes>
          <leafValues>
            -5.4738676548004150e-01 3.8179793953895569e-01</leafValues></_>
        <_>
          <internalNodes>
            0 -1 91 2124775799 -671088638 917514041 1371038811
            -452008721 -1467777001 1173475833 -1438659845</internalNodes>
          <leafValues>
            -3.2555752992630005e-01 6.3266986608505249e-01</leafValues></_>
        <_>
          <internalNodes>
            0 -1 28 1387271309 154243461 559421859 2034350081 38375083
            1225261112 185168335 655155369</internalNodes>
          <leafValues>
            -4.6649339795112610e-01 4.5103481411933899e-01</leafValues></_></weakClassifiers></_>
    <!-- stage 13 -->
    <_>
      <maxWeakCount>15</maxWeakCount>
      <stageThreshold>-3.2116577029228210e-01</stageThreshold>
      <weakClassifiers>
        <_>
          <internalNodes>
            0 -1 139 -1073692640 -286262806 -524381 -277351279
            -303039043 -34817 -739383579 -1874735008</internalNodes>
          <leafValues>
            -1.6144017875194550e-01 7.8443628549575806e-01</leafValues></_>
        <_>
          <internalNodes>
            0 -1 198 -551555107 -704806985 -4329579 -1107591237
            -33559811 -2261507 -584291 -35651649</internalNodes>
          <leafValues>
            -3.0835002660751343e-01 6.5349364280700684e-01</leafValues></_>
        <_>
          <internalNodes>
            0 -1 65 -251660833 -654166494 1975907573 151093229 679472879
            -1187081355 1492869943 143591423</internalNodes>
          <leafValues>
            -3.8886657357215881e-01 5.7195228338241577e-01</leafValues></_>
        <_>
          <internalNodes>
            0 -1 176 1151304075 -1053437695 1145247577 -78540791
            710658698 -301793149 -928256817 5763811</internalNodes>
          <leafValues>
            -4.8909428715705872e-01 4.2377972602844238e-01</leafValues></_>
        <_>
          <internalNodes>
            0 -1 21 1056991 -1181599230 -851732417 2082320395 1128865946
            -1820327808 -1998616435 2072607403</internalNodes>
          <leafValues>
            -5.7063275575637817e-01 3.5936138033866882e-01</leafValues></_>
        <_>
          <internalNodes>
            0 -1 208 -822876210 -526321500 -944716696 -738623845
            911866062 1411393584 1601680556 -1</internalNodes>
          <leafValues>
            -4.0093934535980225e-01 4.9034616351127625e-01</leafValues></_>
        <_>
          <internalNodes>
            0 -1 83 -2013230820 288430610 -1615077827 456773887
            880789977 -1357965936 -1626642953 -1146372226</internalNodes>
          <leafValues>
            -3.4109544754028320e-01 5.4484176635742188e-01</leafValues></_>
        <_>
          <internalNodes>
            0 -1 210 422605269 -134401840 -1828633799 -1088732903
            -1207940451 -402120559 -1946151763 462161316</internalNodes>
          <leafValues>
            -5.5192363262176514e-01 3.4882119297981262e-01</leafValues></_>
        <_>
          <internalNodes>
            0 -1 193 -1489424896 -1188019959 -2078652212 288247888
            1477576968 -132120568 1030416584 -889271043</internalNodes>
          <leafValues>
            -6.0203057527542114e-01 3.2917758822441101e-01</leafValues></_>
        <_>
          <internalNodes>
            0 -1 10 -367595525 1109319872 -1509797861 -364060542
            -586757617 1179320450 25772435 -1005600629</internalNodes>
          <leafValues>
            -4.8773491382598877e-01 4.0902286767959595e-01</leafValues></_>
        <_>
          <internalNodes>
            0 -1 80 -804265822 1401438848 -532659962 831194115
            -234633329 1073891361 1460388041 1471146755</internalNodes>
          <leafValues>
            -5.2810722589492798e-01 4.0665480494499207e-01</leafValues></_>
        <_>
          <internalNodes>
            0 -1 22 -1190497803 -409976751 -733785673 -1747446761
            -1408041998 -1627324413 -368908629 981740404</internalNodes>
          <leafValues>
            -5.1962232589721680e-01 4.2510861158370972e-01</leafValues></_>
        <_>
          <internalNodes>
            0 -1 222 529638334 2051082373 1073791019 -124698623
            1279475849 -1052221424 -1845389173 461754286</internalNodes>
          <leafValues>
            -5.0455373525619507e-01 4.2424771189689636e-01</leafValues></_>
        <_>
          <internalNodes>
            0 -1 231 -1351096817 -1959862403 1845493680 -1763508620
            1199544119 -395593955 -990333119 -202086464</internalNodes>
          <leafValues>
            -4.3536350131034851e-01 5.0893157720565796e-01</leafValues></_>
        <_>
          <internalNodes>
            0 -1 194 1198507266 1348824878 -1476449370 1660910591
            -1334888773 558046311 -461912846 -884754769</internalNodes>
          <leafValues>
            -4.1303744912147522e-01 5.0541794300079346e-01</leafValues></_></weakClassifiers></_>
    <!-- stage 14 -->
    <_>
      <maxWeakCount>14</maxWeakCount>
      <stageThreshold>-1.0810836553573608e+00</stageThreshold>
      <weakClassifiers>
        <_>
          <internalNodes>
            0 -1 113 -118585126 -33572100 -1073741825 -1462700 -83891969
            -1 -1430313989 -823220054</internalNodes>
          <leafValues>
            -4.5244690030813217e-02 8.0348652601242065e-01</leafValues></_>
        <_>
          <internalNodes>
            0 -1 213 -751307469 -177864912 2146959159 -135004298
            -1074003973 -8912905 775349935 -1461454077</internalNodes>
          <leafValues>
            -2.4941337108612061e-01 6.6891306638717651e-01</leafValues></_>
        <_>
          <internalNodes>
            0 -1 140 -10551586 -1243836416 -360546152 -208123390
            320979620 2015928768 1107388636 -21238205</internalNodes>
          <leafValues>
            -4.7047829627990723e-01 4.7117945551872253e-01</leafValues></_>
        <_>
          <internalNodes>
            0 -1 36 -1859096239 -678424427 -721101475 1561133237
            953157771 -559284023 704924138 982324003</internalNodes>
          <leafValues>
            -4.9981704354286194e-01 4.4190251827239990e-01</leafValues></_>
        <_>
          <internalNodes>
            0 -1 125 -1024801150 1088819460 -1199446686 1378258947
            -1878812472 12724642 -796770236 -762578997</internalNodes>
          <leafValues>
            -4.8074135184288025e-01 4.1173273324966431e-01</leafValues></_>
        <_>
          <internalNodes>
            0 -1 153 -652210084 -217953149 -1073521775 -601810431
            -920047125 -368918525 -2145328901 -1912077290</internalNodes>
          <leafValues>
            -6.0449934005737305e-01 2.9025843739509583e-01</leafValues></_>
        <_>
          <internalNodes>
            0 -1 133 476582200 -577699816 185667737 2130938233
            -1962931856 -1089469984 285903867 -1616770816</internalNodes>
          <leafValues>
            -5.6982409954071045e-01 3.3715444803237915e-01</leafValues></_>
        <_>
          <internalNodes>
            0 -1 74 -462499840 610275408 1073873033 1971326996 707897021
            74987657 35750022 2141192127</internalNodes>
          <leafValues>
            -5.5339068174362183e-01 3.1931585073471069e-01</leafValues></_>
        <_>
          <internalNodes>
            0 -1 132 292629128 1266692530 553855792 291074305 1107991179
            -1777728896 -931811585 -1344103581</internalNodes>
          <leafValues>
            -5.4242163896560669e-01 3.5701239109039307e-01</leafValues></_>
        <_>
          <internalNodes>
            0 -1 59 104355285 -1076232128 1502221191 125832185
            -804578375 -762701274 -1416971623 -1733818800</internalNodes>
          <leafValues>
            -5.4562729597091675e-01 3.6432346701622009e-01</leafValues></_>
        <_>
          <internalNodes>
            0 -1 37 -800082721 -233815728 314570603 1429437042 360535744
            -2013122496 1348321023 1577695891</internalNodes>
          <leafValues>
            -4.5615831017494202e-01 4.8590359091758728e-01</leafValues></_>
        <_>
          <internalNodes>
            0 -1 100 -523059198 1233162247 -1794029175 -788311800
            587401899 -1988050911 1176691296 -208679689</internalNodes>
          <leafValues>
            -4.5925891399383545e-01 4.5764550566673279e-01</leafValues></_>
        <_>
          <internalNodes>
            0 -1 224 1368892697 965054473 134357136 293700112
            -1148698183 -624961399 -1165817379 203051060</internalNodes>
          <leafValues>
            -5.7077944278717041e-01 3.8073921203613281e-01</leafValues></_>
        <_>
          <internalNodes>
            0 -1 6 -1400126754 -468397774 376960 -838811578 -2147386828
            1359719297 1913195342 -16352679</internalNodes>
          <leafValues>
            -5.5737006664276123e-01 3.6220377683639526e-01</leafValues></_></weakClassifiers></_>
    <!-- stage 15 -->
    <_>
      <maxWeakCount>14</maxWeakCount>
      <stageThreshold>-9.0698915719985962e-01</stageThreshold>
      <weakClassifiers>
        <_>
          <internalNodes>
            0 -1 192 -250248 -1090618180 -273150476 2147229688
            -268694664 -1208647748 1073489404 -1107413984</internalNodes>
          <leafValues>
            -4.5067697763442993e-01 7.4914711713790894e-01</leafValues></_>
        <_>
          <internalNodes>
            0 -1 79 -2011637505 -738183678 -705318917 296451319
            -1460297489 -80922419 -1597506049 136707071</internalNodes>
          <leafValues>
            -3.8843542337417603e-01 5.7049876451492310e-01</leafValues></_>
        <_>
          <internalNodes>
            0 -1 4 -825758652 2147444346 -17895793 -137105461 -568052430
            -1118340 -285229074 -671233537</internalNodes>
          <leafValues>
            -4.4116449356079102e-01 5.0530517101287842e-01</leafValues></_>
        <_>
          <internalNodes>
            0 -1 195 -437588730 1644937355 1431356688 -1002241635
            2082533411 81936 2000913216 -1262235209</internalNodes>
          <leafValues>
            -5.1487416028976440e-01 4.1781875491142273e-01</leafValues></_>
        <_>
          <internalNodes>
            0 -1 167 -71379298 2033246412 -650084264 -246578667
            -475529080 672694916 1087150232 -70266165</internalNodes>
          <leafValues>
            -4.7451996803283691e-01 4.5770007371902466e-01</leafValues></_>
        <_>
          <internalNodes>
            0 -1 228 1658844944 -1668941499 49217 1379223824 -930572282
            -1073577976 -301283185 711378688</internalNodes>
          <leafValues>
            -5.4618567228317261e-01 3.7006539106369019e-01</leafValues></_>
        <_>
          <internalNodes>
            0 -1 50 1526728920 857047057 1896423519 361448595 1375734216
            -1682306943 948840603 1044787232</internalNodes>
          <leafValues>
            -5.5307990312576294e-01 3.8310283422470093e-01</leafValues></_>
        <_>
          <internalNodes>
            0 -1 73 444851231 -175816672 -1279819021 1469862067
            1575158411 -611053438 -1321439048 -6568485</internalNodes>
          <leafValues>
            -3.2032150030136108e-01 6.7272353172302246e-01</leafValues></_>
        <_>
          <internalNodes>
            0 -1 134 138418421 -213893111 -788467563 -70692143
            2013368747 -904294271 -1828027981 982392428</internalNodes>
          <leafValues>
            -6.6499608755111694e-01 3.2324233651161194e-01</leafValues></_>
        <_>
          <internalNodes>
            0 -1 214 -490085118 1368310216 1109803070 -754959869
            -251522517 524488 -2046651954 1403253391</internalNodes>
          <leafValues>
            -5.7566869258880615e-01 3.2829242944717407e-01</leafValues></_>
        <_>
          <internalNodes>
            0 -1 17 -387006397 2146385005 1845493502 -606340874
            753694027 1862107133 1090518485 537116962</internalNodes>
          <leafValues>
            -4.1084587574005127e-01 4.6835118532180786e-01</leafValues></_>
        <_>
          <internalNodes>
            0 -1 41 -604972010 1368466513 269944912 298659932 -930991992
            -2105538349 655102462 437064015</internalNodes>
          <leafValues>
            -4.7065764665603638e-01 4.4438880681991577e-01</leafValues></_>
        <_>
          <internalNodes>
            0 -1 141 119034197 -314326298 -2147479149 1030983941
            -2004630529 -83877752 -1055377259 -1130755560</internalNodes>
          <leafValues>
            -4.5009455084800720e-01 4.3512046337127686e-01</leafValues></_>
        <_>
          <internalNodes>
            0 -1 171 -1423898386 1812009609 25723295 -2146344903
            1225261704 -1425014367 -2012960568 -1559576565</internalNodes>
          <leafValues>
            -5.3368920087814331e-01 3.8732296228408813e-01</leafValues></_></weakClassifiers></_>
    <!-- stage 16 -->
    <_>
      <maxWeakCount>16</maxWeakCount>
      <stageThreshold>-3.2451611757278442e-01</stageThreshold>
      <weakClassifiers>
        <_>
          <internalNodes>
            0 -1 211 1903162384 6607984 1040186625 276659960 -41984619
            1566013301 -33563375 -176654923</internalNodes>
          <leafValues>
            -2.8464978933334351e-01 7.6434046030044556e-01</leafValues></_>
        <_>
          <internalNodes>
            0 -1 165 -75629740 -604012747 -490736131 -66977 -1906341492
            -33600001 139365528 -35730726</internalNodes>
          <leafValues>
            -3.3033561706542969e-01 6.2570303678512573e-01</leafValues></_>
        <_>
          <internalNodes>
            0 -1 7 1969156162 -243908542 1103544644 -285044470
            1241972995 -635437048 553927040 -210527745</internalNodes>
          <leafValues>
            -4.8837408423423767e-01 4.2293354868888855e-01</leafValues></_>
        <_>
          <internalNodes>
            0 -1 82 -159387489 -1742698974 -2031158665 285217310
            -1094095041 -4520553 -1426561155 -1977460646</internalNodes>
          <leafValues>
            -4.2648285627365112e-01 4.6354183554649353e-01</leafValues></_>
        <_>
          <internalNodes>
            0 -1 152 -1176505348 957360618 -511606768 817103368
            2076258898 1528397874 1628187480 -7447</internalNodes>
          <leafValues>
            -4.4008949398994446e-01 4.6007946133613586e-01</leafValues></_>
        <_>
          <internalNodes>
            0 -1 188 -821261312 -1449308956 1660946765 1213579377
            1410959624 -1400461178 -385771281 -74595606</internalNodes>
          <leafValues>
            -5.8029639720916748e-01 3.1862494349479675e-01</leafValues></_>
        <_>
          <internalNodes>
            0 -1 43 419958936 506531845 185664669 219090953 176708792
            -1819279117 -1974891841 454961577</internalNodes>
          <leafValues>
            -5.3590667247772217e-01 3.5320061445236206e-01</leafValues></_>
        <_>
          <internalNodes>
            0 -1 138 69207249 -1861406575 -1056943295 -921738993
            -113188684 -905673535 -553053013 -1161750382</internalNodes>
          <leafValues>
            -6.1311185359954834e-01 3.0977442860603333e-01</leafValues></_>
        <_>
          <internalNodes>
            0 -1 57 80794557 722633355 21197663 1367450625 140935212
            139362947 -913832249 1326203128</internalNodes>
          <leafValues>
            -4.9326893687248230e-01 3.7812381982803345e-01</leafValues></_>
        <_>
          <internalNodes>
            0 -1 185 -796687976 270401538 -2130373631 -1013952503
            -1065311537 -1962737661 -565499748 -1733582648</internalNodes>
          <leafValues>
            -4.9586567282676697e-01 3.7729248404502869e-01</leafValues></_>
        <_>
          <internalNodes>
            0 -1 226 1250928014 1109416064 -2063415288 1403195395
            -779450237 1619066929 -796163639 -1337949839</internalNodes>
          <leafValues>
            -4.5257186889648438e-01 4.2585223913192749e-01</leafValues></_>
        <_>
          <internalNodes>
            0 -1 27 -349966336 -672261377 -16883969 -536916825
            -138966322 -1098911938 1052724885 -548069933</internalNodes>
          <leafValues>
            -3.5551270842552185e-01 5.0965839624404907e-01</leafValues></_>
        <_>
          <internalNodes>
            0 -1 98 -767141814 -703474212 55095944 1360073025 436207802
            -1879015167 -2126317318 -486329361</internalNodes>
          <leafValues>
            -4.3636500835418701e-01 4.3751993775367737e-01</leafValues></_>
        <_>
          <internalNodes>
            0 -1 180 470826269 -1063644584 -1325328929 -1022406588
            -1342143731 -1476296567 -1651762983 -1631819719</internalNodes>
          <leafValues>
            -5.5852401256561279e-01 3.5779947042465210e-01</leafValues></_>
        <_>
          <internalNodes>
            0 -1 101 -105659392 -795764216 -62906290 835293220
            -2141123968 8530432 671117803 2138825290</internalNodes>
          <leafValues>
            -5.1026445627212524e-01 3.7893837690353394e-01</leafValues></_>
        <_>
          <internalNodes>
            0 -1 103 -132321892 1024737556 1409286609 487686149
            -2004350320 -1195366400 1083185704 -1119117308</internalNodes>
          <leafValues>
            -4.7233825922012329e-01 3.9616557955741882e-01</leafValues></_></weakClassifiers></_>
    <!-- stage 17 -->
    <_>
      <maxWeakCount>14</maxWeakCount>
      <stageThreshold>-4.2656716704368591e-01</stageThreshold>
      <weakClassifiers>
        <_>
          <internalNodes>
            0 -1 119 -671139700 -1645215889 578701416 308572412
            -1217396824 -1895825553 16711880 117176031</internalNodes>
          <leafValues>
            -1.7602996528148651e-01 7.7484571933746338e-01</leafValues></_>
        <_>
          <internalNodes>
            0 -1 190 2044722967 190513151 2147475325 -262281 2144720332
            -15204362 2013232954 -658768482</internalNodes>
          <leafValues>
            -2.8646466135978699e-01 6.2460595369338989e-01</leafValues></_>
        <_>
          <internalNodes>
            0 -1 105 -1894066786 461505146 352519184 286037344
            -963444716 -286326524 -1056964147 -1620682573</internalNodes>
          <leafValues>
            -5.2082347869873047e-01 4.3674293160438538e-01</leafValues></_>
        <_>
          <internalNodes>
            0 -1 124 -505685070 428741272 1350574928 17432624 268574859
            1275069186 382202159 1274015306</internalNodes>
          <leafValues>
            -4.8170760273933411e-01 4.8528817296028137e-01</leafValues></_>
        <_>
          <internalNodes>
            0 -1 0 -497375644 -787273657 268441360 -989683194 -535829760
            -92258301 -920456625 -1054146046</internalNodes>
          <leafValues>
            -5.7881289720535278e-01 3.6058723926544189e-01</leafValues></_>
        <_>
          <internalNodes>
            0 -1 217 -745749637 -616357186 356517968 -518572997
            -166428242 708846128 -141556804 788143387</internalNodes>
          <leafValues>
            -3.9052349328994751e-01 5.3519779443740845e-01</leafValues></_>
        <_>
          <internalNodes>
            0 -1 166 -809764310 1241164950 1674044612 -781526495
            -2024370357 676670726 -445460326 -544737073</internalNodes>
          <leafValues>
            -3.8517791032791138e-01 5.2934688329696655e-01</leafValues></_>
        <_>
          <internalNodes>
            0 -1 86 941624405 -1290578796 -1870019373 -918290239
            -394215263 -662682608 2072687329 177735876</internalNodes>
          <leafValues>
            -7.8157013654708862e-01 2.8455704450607300e-01</leafValues></_>
        <_>
          <internalNodes>
            0 -1 216 -1190738912 -1581248368 16793684 1344606336
            -1853846852 100663298 33555905 1007315195</internalNodes>
          <leafValues>
            -6.4654481410980225e-01 3.5059785842895508e-01</leafValues></_>
        <_>
          <internalNodes>
            0 -1 104 -1086808579 -1642821609 301862171 -1652655767
            128879865 -816561121 1272449211 -1890867218</internalNodes>
          <leafValues>
            -3.4767416119575500e-01 6.4254534244537354e-01</leafValues></_>
        <_>
          <internalNodes>
            0 -1 70 -192841534 -889114608 18612374 927689163 142975623
            403243066 -762138405 1425533183</internalNodes>
          <leafValues>
            -4.6608343720436096e-01 4.5788395404815674e-01</leafValues></_>
        <_>
          <internalNodes>
            0 -1 40 2110391208 -82554734 25698540 -1013068671
            -2077674838 1107316737 1369563854 997059307</internalNodes>
          <leafValues>
            -5.1460748910903931e-01 4.1073745489120483e-01</leafValues></_>
        <_>
          <internalNodes>
            0 -1 114 -523851517 -1687513643 -1346552045 -777060548
            -2099861605 -828051649 56079075 -73678661</internalNodes>
          <leafValues>
            -3.0865970253944397e-01 7.0266318321228027e-01</leafValues></_>
        <_>
          <internalNodes>
            0 -1 23 1507726491 1546272377 530255801 1503751091
            1783666149 -888228233 786423279 -1880693121</internalNodes>
          <leafValues>
            -2.9572656750679016e-01 6.7870754003524780e-01</leafValues></_></weakClassifiers></_>
    <!-- stage 18 -->
    <_>
      <maxWeakCount>9</maxWeakCount>
      <stageThreshold>-1.0287042856216431e+00</stageThreshold>
      <weakClassifiers>
        <_>
          <internalNodes>
            0 -1 186 1212630040 534749149 2147475327 1602052061
            1339969372 2147450743 509034476 1561354199</internalNodes>
          <leafValues>
            -3.2360097765922546e-01 8.0504488945007324e-01</leafValues></_>
        <_>
          <internalNodes>
            0 -1 182 -2124750118 268435456 268959744 538574913 71303328
            16449 -2146926591 683628738</internalNodes>
          <leafValues>
            -5.3951150178909302e-01 6.4876145124435425e-01</leafValues></_>
        <_>
          <internalNodes>
            0 -1 227 -897064002 319893120 654385668 -1067422552
            -2119056189 35660324 -1489636094 -625622950</internalNodes>
          <leafValues>
            -4.3762722611427307e-01 7.8346025943756104e-01</leafValues></_>
        <_>
          <internalNodes>
            0 -1 66 1493176336 269590528 1114115 285220883 -1610336255
            -889175936 142606479 189472913</internalNodes>
          <leafValues>
            -5.8505541086196899e-01 6.0818523168563843e-01</leafValues></_>
        <_>
          <internalNodes>
            0 -1 11 -1056882622 1342702083 0 -2080374655 1687797890
            -2147418111 142614556 -310253280</internalNodes>
          <leafValues>
            -6.2193083763122559e-01 5.7536214590072632e-01</leafValues></_>
        <_>
          <internalNodes>
            0 -1 62 -770742398 -1828383168 16777330 594004 293618433
            402682432 -804887411 -507276914</internalNodes>
          <leafValues>
            -5.1375442743301392e-01 7.1300166845321655e-01</leafValues></_>
        <_>
          <internalNodes>
            0 -1 63 -1073360726 -1040154047 140682285 1260437632
            -2111831550 -1672704896 -2061811573 -1961695089</internalNodes>
          <leafValues>
            -4.3665489554405212e-01 8.1375879049301147e-01</leafValues></_>
        <_>
          <internalNodes>
            0 -1 122 -838548974 -788528896 262359 58720268 -2013263863
            704643073 -2013198335 890355978</internalNodes>
          <leafValues>
            -6.2683337926864624e-01 5.6425178050994873e-01</leafValues></_>
        <_>
          <internalNodes>
            0 -1 19 -313610425 1514316480 2070592410 -2111641888
            1314953306 -1869560560 1851778679 -1706642977</internalNodes>
          <leafValues>
            -5.2254217863082886e-01 6.8401187658309937e-01</leafValues></_></weakClassifiers></_>
    <!-- stage 19 -->
    <_>
      <maxWeakCount>6</maxWeakCount>
      <stageThreshold>-4.0437719225883484e-01</stageThreshold>
      <weakClassifiers>
        <_>
          <internalNodes>
            0 -1 186 1212630040 534749149 2147475325 1602052061
            1340002124 2147450743 509034444 1276145479</internalNodes>
          <leafValues>
            -5.1552796363830566e-01 9.3322664499282837e-01</leafValues></_>
        <_>
          <internalNodes>
            0 -1 196 1631633866 -821942240 49293570 -1944032246
            240123904 173293904 84937216 383022628</internalNodes>
          <leafValues>
            -4.8058801889419556e-01 9.2485100030899048e-01</leafValues></_>
        <_>
          <internalNodes>
            0 -1 69 -1048211446 1048580 134348800 268698306 35750920
            134267144 1076101194 168189954</internalNodes>
          <leafValues>
            -5.7009619474411011e-01 9.0695065259933472e-01</leafValues></_>
        <_>
          <internalNodes>
            0 -1 123 -2091543659 2017341430 9175464 -2146426526
            243216418 695726071 42237953 310546498</internalNodes>
          <leafValues>
            -5.1660537719726563e-01 9.8238611221313477e-01</leafValues></_>
        <_>
          <internalNodes>
            0 -1 150 1621133366 403318073 256647987 -1338995992
            -2062547926 1142175524 593780754 1753924449</internalNodes>
          <leafValues>
            -5.2058339118957520e-01 9.2233324050903320e-01</leafValues></_>
        <_>
          <internalNodes>
            0 -1 52 -921534460 2097153 16 -1995964415 524290 277088256
            -2147450871 10618888</internalNodes>
          <leafValues>
            -6.9264745712280273e-01 7.9627221822738647e-01</leafValues></_></weakClassifiers></_></stages>
  <features>
    <_>
      <rect>
        0 0 11 5</rect></_>
    <_>
      <rect>
        0 1 12 4</rect></_>
    <_>
      <rect>
        0 1 13 5</rect></_>
    <_>
      <rect>
        0 2 8 5</rect></_>
    <_>
      <rect>
        0 3 15 3</rect></_>
    <_>
      <rect>
        0 3 28 4</rect></_>
    <_>
      <rect>
        0 6 10 2</rect></_>
    <_>
      <rect>
        0 7 11 4</rect></_>
    <_>
      <rect>
        0 7 16 4</rect></_>
    <_>
      <rect>
        0 8 5 2</rect></_>
    <_>
      <rect>
        0 8 8 2</rect></_>
    <_>
      <rect>
        0 8 11 2</rect></_>
    <_>
      <rect>
        0 13 12 1</rect></_>
    <_>
      <rect>
        0 13 18 2</rect></_>
    <_>
      <rect>
        1 8 12 4</rect></_>
    <_>
      <rect>
        1 9 25 3</rect></_>
    <_>
      <rect>
        1 10 17 2</rect></_>
    <_>
      <rect>
        2 0 5 4</rect></_>
    <_>
      <rect>
        2 10 10 3</rect></_>
    <_>
      <rect>
        3 7 19 1</rect></_>
    <_>
      <rect>
        4 7 10 1</rect></_>
    <_>
      <rect>
        5 4 20 2</rect></_>
    <_>
      <rect>
        7 0 3 1</rect></_>
    <_>
      <rect>
        7 10 21 2</rect></_>
    <_>
      <rect>
        7 11 25 3</rect></_>
    <_>
      <rect>
        7 12 21 1</rect></_>
    <_>
      <rect>
        8 0 5 1</rect></_>
    <_>
      <rect>
        8 5 8 1</rect></_>
    <_>
      <rect>
        9 8 28 2</rect></_>
    <_>
      <rect>
        12 2 3 1</rect></_>
    <_>
      <rect>
        12 6 20 2</rect></_>
    <_>
      <rect>
        14 1 25 2</rect></_>
    <_>
      <rect>
        14 5 9 1</rect></_>
    <_>
      <rect>
        15 6 17 1</rect></_>
    <_>
      <rect>
        16 3 15 3</rect></_>
    <_>
      <rect>
        16 4 15 1</rect></_>
    <_>
      <rect>
        16 5 9 1</rect></_>
    <_>
      <rect>
        16 7 16 1</rect></_>
    <_>
      <rect>
        17 3 3 1</rect></_>
    <_>
      <rect>
        17 4 15 3</rect></_>
    <_>
      <rect>
        17 9 5 2</rect></_>
    <_>
      <rect>
        17 11 12 1</rect></_>
    <_>
      <rect>
        18 4 10 1</rect></_>
    <_>
      <rect>
        18 12 20 1</rect></_>
    <_>
      <rect>
        19 13 18 1</rect></_>
    <_>
      <rect>
        19 16 10 1</rect></_>
    <_>
      <rect>
        20 1 4 1</rect></_>
    <_>
      <rect>
        20 1 6 1</rect></_>
    <_>
      <rect>
        20 5 14 1</rect></_>
    <_>
      <rect>
        20 12 23 1</rect></_>
    <_>
      <rect>
        21 12 11 1</rect></_>
    <_>
      <rect>
        22 5 8 1</rect></_>
    <_>
      <rect>
        22 8 4 1</rect></_>
    <_>
      <rect>
        23 13 10 1</rect></_>
    <_>
      <rect>
        24 7 12 1</rect></_>
    <_>
      <rect>
        24 12 25 1</rect></_>
    <_>
      <rect>
        25 6 13 1</rect></_>
    <_>
      <rect>
        25 9 19 2</rect></_>
    <_>
      <rect>
        25 12 16 2</rect></_>
    <_>
      <rect>
        26 1 5 1</rect></_>
    <_>
      <rect>
        26 2 15 2</rect></_>
    <_>
      <rect>
        26 5 10 1</rect></_>
    <_>
      <rect>
        26 8 4 2</rect></_>
    <_>
      <rect>
        26 8 8 1</rect></_>
    <_>
      <rect>
        26 13 16 1</rect></_>
    <_>
      <rect>
        27 6 11 1</rect></_>
    <_>
      <rect>
        27 12 12 1</rect></_>
    <_>
      <rect>
        28 7 2 2</rect></_>
    <_>
      <rect>
        29 2 3 1</rect></_>
    <_>
      <rect>
        29 7 3 2</rect></_>
    <_>
      <rect>
        29 9 4 2</rect></_>
    <_>
      <rect>
        30 3 12 3</rect></_>
    <_>
      <rect>
        30 7 3 2</rect></_>
    <_>
      <rect>
        30 8 9 1</rect></_>
    <_>
      <rect>
        30 9 2 2</rect></_>
    <_>
      <rect>
        30 11 16 1</rect></_>
    <_>
      <rect>
        30 13 8 1</rect></_>
    <_>
      <rect>
        31 5 18 2</rect></_>
    <_>
      <rect>
        31 6 2 2</rect></_>
    <_>
      <rect>
        31 6 9 1</rect></_>
    <_>
      <rect>
        31 7 2 2</rect></_>
    <_>
      <rect>
        31 13 17 1</rect></_>
    <_>
      <rect>
        32 7 11 1</rect></_>
    <_>
      <rect>
        32 12 13 1</rect></_>
    <_>
      <rect>
        32 13 11 1</rect></_>
    <_>
      <rect>
        32 14 9 1</rect></_>
    <_>
      <rect>
        33 3 2 1</rect></_>
    <_>
      <rect>
        33 3 15 3</rect></_>
    <_>
      <rect>
        33 4 7 1</rect></_>
    <_>
      <rect>
        33 6 4 2</rect></_>
    <_>
      <rect>
        33 12 17 1</rect></_>
    <_>
      <rect>
        34 8 8 1</rect></_>
    <_>
      <rect>
        35 5 16 2</rect></_>
    <_>
      <rect>
        35 6 15 1</rect></_>
    <_>
      <rect>
        35 8 4 3</rect></_>
    <_>
      <rect>
        35 17 11 1</rect></_>
    <_>
      <rect>
        36 3 5 1</rect></_>
    <_>
      <rect>
        36 5 2 2</rect></_>
    <_>
      <rect>
        36 10 4 1</rect></_>
    <_>
      <rect>
        36 14 6 2</rect></_>
    <_>
      <rect>
        37 7 2 1</rect></_>
    <_>
      <rect>
        37 8 2 2</rect></_>
    <_>
      <rect>
        37 11 14 3</rect></_>
    <_>
      <rect>
        38 10 1 2</rect></_>
    <_>
      <rect>
        38 12 8 1</rect></_>
    <_>
      <rect>
        39 5 8 2</rect></_>
    <_>
      <rect>
        39 6 8 1</rect></_>
    <_>
      <rect>
        39 8 2 2</rect></_>
    <_>
      <rect>
        39 16 7 1</rect></_>
    <_>
      <rect>
        40 4 4 1</rect></_>
    <_>
      <rect>
        40 6 9 1</rect></_>
    <_>
      <rect>
        40 7 7 1</rect></_>
    <_>
      <rect>
        40 8 3 1</rect></_>
    <_>
      <rect>
        41 3 11 3</rect></_>
    <_>
      <rect>
        41 7 2 1</rect></_>
    <_>
      <rect>
        41 7 8 1</rect></_>
    <_>
      <rect>
        41 7 9 1</rect></_>
    <_>
      <rect>
        41 8 2 1</rect></_>
    <_>
      <rect>
        42 5 3 1</rect></_>
    <_>
      <rect>
        42 7 12 1</rect></_>
    <_>
      <rect>
        43 5 8 2</rect></_>
    <_>
      <rect>
        43 6 6 1</rect></_>
    <_>
      <rect>
        43 7 7 1</rect></_>
    <_>
      <rect>
        43 7 12 2</rect></_>
    <_>
      <rect>
        43 9 2 2</rect></_>
    <_>
      <rect>
        44 8 2 1</rect></_>
    <_>
      <rect>
        44 9 3 2</rect></_>
    <_>
      <rect>
        44 13 7 1</rect></_>
    <_>
      <rect>
        45 4 12 3</rect></_>
    <_>
      <rect>
        45 5 6 1</rect></_>
    <_>
      <rect>
        45 6 3 2</rect></_>
    <_>
      <rect>
        45 7 2 2</rect></_>
    <_>
      <rect>
        45 10 14 2</rect></_>
    <_>
      <rect>
        46 13 7 1</rect></_>
    <_>
      <rect>
        47 4 2 1</rect></_>
    <_>
      <rect>
        47 5 3 1</rect></_>
    <_>
      <rect>
        47 7 2 2</rect></_>
    <_>
      <rect>
        47 9 2 3</rect></_>
    <_>
      <rect>
        48 5 2 1</rect></_>
    <_>
      <rect>
        48 5 2 2</rect></_>
    <_>
      <rect>
        48 9 2 3</rect></_>
    <_>
      <rect>
        48 17 6 1</rect></_>
    <_>
      <rect>
        49 3 5 1</rect></_>
    <_>
      <rect>
        49 3 17 3</rect></_>
    <_>
      <rect>
        49 7 2 2</rect></_>
    <_>
      <rect>
        49 7 10 1</rect></_>
    <_>
      <rect>
        49 7 15 2</rect></_>
    <_>
      <rect>
        49 10 16 1</rect></_>
    <_>
      <rect>
        50 6 2 2</rect></_>
    <_>
      <rect>
        50 7 13 2</rect></_>
    <_>
      <rect>
        50 9 2 2</rect></_>
    <_>
      <rect>
        51 5 3 1</rect></_>
    <_>
      <rect>
        51 10 2 2</rect></_>
    <_>
      <rect>
        52 0 8 4</rect></_>
    <_>
      <rect>
        52 4 6 2</rect></_>
    <_>
      <rect>
        52 6 9 1</rect></_>
    <_>
      <rect>
        52 6 16 4</rect></_>
    <_>
      <rect>
        52 7 8 1</rect></_>
    <_>
      <rect>
        52 9 2 3</rect></_>
    <_>
      <rect>
        53 6 7 1</rect></_>
    <_>
      <rect>
        53 7 8 1</rect></_>
    <_>
      <rect>
        53 9 11 1</rect></_>
    <_>
      <rect>
        53 9 11 2</rect></_>
    <_>
      <rect>
        53 9 12 2</rect></_>
    <_>
      <rect>
        54 6 2 2</rect></_>
    <_>
      <rect>
        54 7 7 1</rect></_>
    <_>
      <rect>
        54 9 2 1</rect></_>
    <_>
      <rect>
        54 9 2 3</rect></_>
    <_>
      <rect>
        54 14 9 1</rect></_>
    <_>
      <rect>
        54 16 3 1</rect></_>
    <_>
      <rect>
        55 5 2 2</rect></_>
    <_>
      <rect>
        55 8 9 1</rect></_>
    <_>
      <rect>
        56 4 2 1</rect></_>
    <_>
      <rect>
        56 7 2 2</rect></_>
    <_>
      <rect>
        56 9 2 3</rect></_>
    <_>
      <rect>
        57 2 14 4</rect></_>
    <_>
      <rect>
        57 7 4 2</rect></_>
    <_>
      <rect>
        57 8 14 4</rect></_>
    <_>
      <rect>
        57 9 4 3</rect></_>
    <_>
      <rect>
        58 1 10 4</rect></_>
    <_>
      <rect>
        58 3 6 1</rect></_>
    <_>
      <rect>
        58 5 2 1</rect></_>
    <_>
      <rect>
        58 9 3 2</rect></_>
    <_>
      <rect>
        58 10 3 2</rect></_>
    <_>
      <rect>
        58 11 7 1</rect></_>
    <_>
      <rect>
        58 12 14 2</rect></_>
    <_>
      <rect>
        59 1 9 4</rect></_>
    <_>
      <rect>
        59 4 7 5</rect></_>
    <_>
      <rect>
        59 8 9 2</rect></_>
    <_>
      <rect>
        60 0 13 5</rect></_>
    <_>
      <rect>
        60 4 13 3</rect></_>
    <_>
      <rect>
        61 7 6 2</rect></_>
    <_>
      <rect>
        61 10 8 3</rect></_>
    <_>
      <rect>
        63 8 6 2</rect></_>
    <_>
      <rect>
        65 8 2 1</rect></_>
    <_>
      <rect>
        65 10 2 1</rect></_>
    <_>
      <rect>
        65 10 4 1</rect></_>
    <_>
      <rect>
        66 5 11 4</rect></_>
    <_>
      <rect>
        66 9 10 3</rect></_>
    <_>
      <rect>
        67 7 10 4</rect></_>
    <_>
      <rect>
        67 8 11 4</rect></_>
    <_>
      <rect>
        68 1 6 1</rect></_>
    <_>
      <rect>
        68 11 7 2</rect></_>
    <_>
      <rect>
        69 7 10 4</rect></_>
    <_>
      <rect>
        69 9 1 1</rect></_>
    <_>
      <rect>
        69 10 10 3</rect></_>
    <_>
      <rect>
        70 0 10 5</rect></_>
    <_>
      <rect>
        70 9 8 3</rect></_>
    <_>
      <rect>
        70 10 2 1</rect></_>
    <_>
      <rect>
        71 8 8 4</rect></_>
    <_>
      <rect>
        71 17 3 1</rect></_>
    <_>
      <rect>
        72 6 9 4</rect></_>
    <_>
      <rect>
        72 7 3 2</rect></_>
    <_>
      <rect>
        73 0 9 5</rect></_>
    <_>
      <rect>
        73 8 2 1</rect></_>
    <_>
      <rect>
        73 8 3 2</rect></_>
    <_>
      <rect>
        73 10 2 1</rect></_>
    <_>
      <rect>
        73 11 3 1</rect></_>
    <_>
      <rect>
        75 15 5 1</rect></_>
    <_>
      <rect>
        76 6 8 3</rect></_>
    <_>
      <rect>
        76 9 8 2</rect></_>
    <_>
      <rect>
        77 1 3 1</rect></_>
    <_>
      <rect>
        77 2 3 5</rect></_>
    <_>
      <rect>
        77 9 1 1</rect></_>
    <_>
      <rect>
        78 11 6 3</rect></_>
    <_>
      <rect>
        79 10 1 1</rect></_>
    <_>
      <rect>
        81 5 4 3</rect></_>
    <_>
      <rect>
        81 8 3 2</rect></_>
    <_>
      <rect>
        85 0 5 5</rect></_>
    <_>
      <rect>
        88 7 4 2</rect></_>
    <_>
      <rect>
        91 5 3 3</rect></_>
    <_>
      <rect>
        94 7 2 2</rect></_></features></cascade>
</opencv_storage>
