<?xml version="1.0"?>
<opencv_storage>
<stage17>
  <maxWeakCount>14</maxWeakCount>
  <stageThreshold>-4.2656716704368591e-01</stageThreshold>
  <weakClassifiers>
    <_>
      <internalNodes>
        0 -1 69984 -671139700 -1645215889 578701416 308572412
        -1217396824 -1895825553 16711880 117176031</internalNodes>
      <leafValues>
        -1.7602996528148651e-01 7.7484571933746338e-01</leafValues></_>
    <_>
      <internalNodes>
        0 -1 87931 2044722967 190513151 2147475325 -262281 2144720332
        -15204362 2013232954 -658768482</internalNodes>
      <leafValues>
        -2.8646466135978699e-01 6.2460595369338989e-01</leafValues></_>
    <_>
      <internalNodes>
        0 -1 66116 -1894066786 461505146 352519184 286037344 -963444716
        -286326524 -1056964147 -1620682573</internalNodes>
      <leafValues>
        -5.2082347869873047e-01 4.3674293160438538e-01</leafValues></_>
    <_>
      <internalNodes>
        0 -1 71293 -505685070 428741272 1350574928 17432624 268574859
        1275069186 382202159 1274015306</internalNodes>
      <leafValues>
        -4.8170760273933411e-01 4.8528817296028137e-01</leafValues></_>
    <_>
      <internalNodes>
        0 -1 64 -497375644 -787273657 268441360 -989683194 -535829760
        -92258301 -920456625 -1054146046</internalNodes>
      <leafValues>
        -5.7881289720535278e-01 3.6058723926544189e-01</leafValues></_>
    <_>
      <internalNodes>
        0 -1 97044 -745749637 -616357186 356517968 -518572997 -166428242
        708846128 -141556804 788143387</internalNodes>
      <leafValues>
        -3.9052349328994751e-01 5.3519779443740845e-01</leafValues></_>
    <_>
      <internalNodes>
        0 -1 82893 -809764310 1241164950 1674044612 -781526495
        -2024370357 676670726 -445460326 -544737073</internalNodes>
      <leafValues>
        -3.8517791032791138e-01 5.2934688329696655e-01</leafValues></_>
    <_>
      <internalNodes>
        0 -1 57920 941624405 -1290578796 -1870019373 -918290239
        -394215263 -662682608 2072687329 177735876</internalNodes>
      <leafValues>
        -7.8157013654708862e-01 2.8455704450607300e-01</leafValues></_>
    <_>
      <internalNodes>
        0 -1 97014 -1190738912 -1581248368 16793684 1344606336
        -1853846852 100663298 33555905 1007315195</internalNodes>
      <leafValues>
        -6.4654481410980225e-01 3.5059785842895508e-01</leafValues></_>
    <_>
      <internalNodes>
        0 -1 65354 -1086808579 -1642821609 301862171 -1652655767
        128879865 -816561121 1272449211 -1890867218</internalNodes>
      <leafValues>
        -3.4767416119575500e-01 6.4254534244537354e-01</leafValues></_>
    <_>
      <internalNodes>
        0 -1 52831 -192841534 -889114608 18612374 927689163 142975623
        403243066 -762138405 1425533183</internalNodes>
      <leafValues>
        -4.6608343720436096e-01 4.5788395404815674e-01</leafValues></_>
    <_>
      <internalNodes>
        0 -1 33736 2110391208 -82554734 25698540 -1013068671 -2077674838
        1107316737 1369563854 997059307</internalNodes>
      <leafValues>
        -5.1460748910903931e-01 4.1073745489120483e-01</leafValues></_>
    <_>
      <internalNodes>
        0 -1 68747 -523851517 -1687513643 -1346552045 -777060548
        -2099861605 -828051649 56079075 -73678661</internalNodes>
      <leafValues>
        -3.0865970253944397e-01 7.0266318321228027e-01</leafValues></_>
    <_>
      <internalNodes>
        0 -1 15661 1507726491 1546272377 530255801 1503751091 1783666149
        -888228233 786423279 -1880693121</internalNodes>
      <leafValues>
        -2.9572656750679016e-01 6.7870754003524780e-01</leafValues></_></weakClassifiers></stage17>
</opencv_storage>
