<?xml version="1.0"?>
<opencv_storage>
<stage5>
  <maxWeakCount>11</maxWeakCount>
  <stageThreshold>-1.2362520694732666e+00</stageThreshold>
  <weakClassifiers>
    <_>
      <internalNodes>
        0 -1 61040 -636562808 -50221 -553741610 1071607486 -1359024146
        -18350217 -1108413954 -671138069</internalNodes>
      <leafValues>
        -1.3811188936233521e-01 8.3976125717163086e-01</leafValues></_>
    <_>
      <internalNodes>
        0 -1 85628 -67305474 428376052 532463608 1038925756 1567923629
        1442592700 -65537 -6426881</internalNodes>
      <leafValues>
        -4.3865779042243958e-01 6.3891690969467163e-01</leafValues></_>
    <_>
      <internalNodes>
        0 -1 47967 277893336 -1793454016 -1455267973 902500764
        -1601662213 -1081466712 -2000582261 -2002839125</internalNodes>
      <leafValues>
        -5.5067098140716553e-01 5.3030341863632202e-01</leafValues></_>
    <_>
      <internalNodes>
        0 -1 274 -867253562 -640515750 -115769059 -746379215 -1945919392
        -1191016410 -892754773 -275832058</internalNodes>
      <leafValues>
        -5.4601824283599854e-01 4.6312370896339417e-01</leafValues></_>
    <_>
      <internalNodes>
        0 -1 81853 -227045099 -679774337 738176799 327069278 -1615485304
        -314573315 -2012903224 -393236833</internalNodes>
      <leafValues>
        -4.2255017161369324e-01 5.9337484836578369e-01</leafValues></_>
    <_>
      <internalNodes>
        0 -1 93645 154145149 -782495619 -989732865 -40252171 -1199516931
        -1164443519 -1954540872 -1359476507</internalNodes>
      <leafValues>
        -5.2132689952850342e-01 4.8686888813972473e-01</leafValues></_>
    <_>
      <internalNodes>
        0 -1 72448 -611349630 1007882263 332936 290280265 1076368436
        237510914 -268399730 1873508283</internalNodes>
      <leafValues>
        -5.4626274108886719e-01 4.4772279262542725e-01</leafValues></_>
    <_>
      <internalNodes>
        0 -1 92530 1486354192 1141237761 -1819157476 -240031103
        -827938204 -1424914384 1489762840 -112465503</internalNodes>
      <leafValues>
        -6.8653416633605957e-01 3.4307149052619934e-01</leafValues></_>
    <_>
      <internalNodes>
        0 -1 48624 136876120 428969989 269570331 1037242385 -1182756678
        -1617811287 -654142625 -1692792748</internalNodes>
      <leafValues>
        -5.6310623884201050e-01 4.4184738397598267e-01</leafValues></_>
    <_>
      <internalNodes>
        0 -1 55414 -117460230 294748807 10289242 1620263723 -1073160833
        -819983703 -1819285170 -909400186</internalNodes>
      <leafValues>
        -4.9985975027084351e-01 4.7923687100410461e-01</leafValues></_>
    <_>
      <internalNodes>
        0 -1 61603 957616377 1607991324 287381977 1528502685 -401958816
        -2555696 -1987532545 -1626335168</internalNodes>
      <leafValues>
        -5.2044993638992310e-01 5.0595051050186157e-01</leafValues></_></weakClassifiers></stage5>
</opencv_storage>
