<?xml version="1.0"?>
<opencv_storage>
<stage6>
  <maxWeakCount>13</maxWeakCount>
  <stageThreshold>-5.1820623874664307e-01</stageThreshold>
  <weakClassifiers>
    <_>
      <internalNodes>
        0 -1 80656 -1341652976 -16828643 -33685569 -49283 -1140850949 -1
        -570540610 -556859334</internalNodes>
      <leafValues>
        -3.4877735376358032e-01 7.9843318462371826e-01</leafValues></_>
    <_>
      <internalNodes>
        0 -1 78036 -272178296 -529076293 -1179807961 -1657148913
        -575161157 -4784129 -1077936753 -1577345</internalNodes>
      <leafValues>
        -3.7923780083656311e-01 6.8605005741119385e-01</leafValues></_>
    <_>
      <internalNodes>
        0 -1 94594 -35653707 223722971 -33573315 -1268318977 -713036323
        -587336195 -33563139 -575144449</internalNodes>
      <leafValues>
        -4.4217273592948914e-01 5.8307558298110962e-01</leafValues></_>
    <_>
      <internalNodes>
        0 -1 77840 -212345708 -212778361 -1785637379 -75350015
        -1456780904 -900687221 -2143158120 955232907</internalNodes>
      <leafValues>
        -5.0597673654556274e-01 5.2904564142227173e-01</leafValues></_>
    <_>
      <internalNodes>
        0 -1 33201 1359016831 2138136598 2147348223 1941563363 997261179
        -1681926674 -152338435 -1114245129</internalNodes>
      <leafValues>
        -4.3351450562477112e-01 5.7527858018875122e-01</leafValues></_>
    <_>
      <internalNodes>
        0 -1 54537 -585580364 -1177223055 268506197 -1793523299
        -1701825606 -1683472253 -1714906177 243925120</internalNodes>
      <leafValues>
        -5.6237691640853882e-01 4.0449714660644531e-01</leafValues></_>
    <_>
      <internalNodes>
        0 -1 51167 -1037319102 1342751003 1073872904 1401456165
        574843233 495452424 558006710 1630528351</internalNodes>
      <leafValues>
        -5.7631802558898926e-01 4.0579611063003540e-01</leafValues></_>
    <_>
      <internalNodes>
        0 -1 16089 -1857022699 25719443 -1996422923 461672473 838892202
        -1466376029 947945724 -1911527320</internalNodes>
      <leafValues>
        -5.4324990510940552e-01 4.3937394022941589e-01</leafValues></_>
    <_>
      <internalNodes>
        0 -1 98973 -660150528 -1973404252 -1343509069 -906479104
        566306249 175470325 2004222369 -117446230</internalNodes>
      <leafValues>
        -4.2999282479286194e-01 5.2523803710937500e-01</leafValues></_>
    <_>
      <internalNodes>
        0 -1 62012 -1874046479 -116781036 1494522045 -1660792807
        -1945581141 -16530274 -114687779 -1431299656</internalNodes>
      <leafValues>
        -5.2118223905563354e-01 4.2907136678695679e-01</leafValues></_>
    <_>
      <internalNodes>
        0 -1 442 -1060976122 -32470574 -2144414446 -817741272 1074528400
        -1207730152 -939371605 1078061078</internalNodes>
      <leafValues>
        -6.0475707054138184e-01 3.8410493731498718e-01</leafValues></_>
    <_>
      <internalNodes>
        0 -1 102725 -346034207 251826643 1098990114 -2070527550
        2131441702 2068611088 1506158624 -961096764</internalNodes>
      <leafValues>
        -5.5053323507308960e-01 4.1573828458786011e-01</leafValues></_>
    <_>
      <internalNodes>
        0 -1 68771 -379941862 -543686196 -721153701 -1325342606
        589930653 -1710389192 705134703 -98154982</internalNodes>
      <leafValues>
        -5.0401240587234497e-01 4.7539940476417542e-01</leafValues></_></weakClassifiers></stage6>
</opencv_storage>
