<?xml version="1.0"?>
<opencv_storage>
<stage0>
  <maxWeakCount>7</maxWeakCount>
  <stageThreshold>-6.2931507825851440e-01</stageThreshold>
  <weakClassifiers>
    <_>
      <internalNodes>
        0 -1 57987 -1976434688 2009021176 939409151 -545310478
        -352343298 -16385 -1426068822 -1140872470</internalNodes>
      <leafValues>
        -6.6988211870193481e-01 9.0321874618530273e-01</leafValues></_>
    <_>
      <internalNodes>
        0 -1 47056 -1055862052 1502909904 -1459607107 1594396692
        -1878485828 -664788800 -343373060 -1995956072</internalNodes>
      <leafValues>
        -6.6048163175582886e-01 7.7017909288406372e-01</leafValues></_>
    <_>
      <internalNodes>
        0 -1 73236 -660930488 -57905 417153151 892601557 -33567761
        -285213314 1220909230 -358094385</internalNodes>
      <leafValues>
        -6.0205590724945068e-01 7.2822868824005127e-01</leafValues></_>
    <_>
      <internalNodes>
        0 -1 31458 268464344 831520788 318854527 286330905 -2004836179
        -1182367736 134858975 506069160</internalNodes>
      <leafValues>
        -6.1895287036895752e-01 6.7223048210144043e-01</leafValues></_>
    <_>
      <internalNodes>
        0 -1 81979 -1962679648 1560722850 455454476 1038139193
        1799199115 -1375895618 -1347809525 -36117</internalNodes>
      <leafValues>
        -6.4368265867233276e-01 6.9482165575027466e-01</leafValues></_>
    <_>
      <internalNodes>
        0 -1 67472 -1069528380 -787444718 1895859613 -15597056
        -888665138 -336412662 46779806 -1624356549</internalNodes>
      <leafValues>
        -6.2059140205383301e-01 6.2491488456726074e-01</leafValues></_>
    <_>
      <internalNodes>
        0 -1 37566 -805306288 -720371380 135731607 500912148 -2130671394
        -83361646 679512266 -1908932092</internalNodes>
      <leafValues>
        -6.1742579936981201e-01 6.0232096910476685e-01</leafValues></_></weakClassifiers></stage0>
</opencv_storage>
