<?xml version="1.0"?>
<opencv_storage>
<stage12>
  <maxWeakCount>14</maxWeakCount>
  <stageThreshold>-7.8521680831909180e-01</stageThreshold>
  <weakClassifiers>
    <_>
      <internalNodes>
        0 -1 84432 271594900 1610498038 1073573887 1073494011
        -1074151937 -131075 -1476509697 531891608</internalNodes>
      <leafValues>
        -4.0916809439659119e-01 7.6175934076309204e-01</leafValues></_>
    <_>
      <internalNodes>
        0 -1 93356 -46137347 876412855 -302121603 369032119 -28760
        2103408508 -44088003 2105535995</internalNodes>
      <leafValues>
        -4.0894278883934021e-01 5.9701949357986450e-01</leafValues></_>
    <_>
      <internalNodes>
        0 -1 80882 -80216579 -604012675 -1556398089 -142622829
        -1628468275 -1360007811 1146814684 -1161853218</internalNodes>
      <leafValues>
        -3.7116736173629761e-01 6.6652399301528931e-01</leafValues></_>
    <_>
      <internalNodes>
        0 -1 57385 1095241852 398037269 -879479777 -1187413731 287311864
        -653655911 -1741118565 193471384</internalNodes>
      <leafValues>
        -5.6580013036727905e-01 3.8039749860763550e-01</leafValues></_>
    <_>
      <internalNodes>
        0 -1 84628 -641668470 -1878962173 -2147237568 -208602937
        -133983986 -380908373 1150809738 1077404162</internalNodes>
      <leafValues>
        -5.4019844532012939e-01 3.7708511948585510e-01</leafValues></_>
    <_>
      <internalNodes>
        0 -1 98712 540294517 479992976 -737701793 -1211037479
        -1979661671 -81674231 -1070405891 -1160248664</internalNodes>
      <leafValues>
        -5.6789928674697876e-01 3.5540297627449036e-01</leafValues></_>
    <_>
      <internalNodes>
        0 -1 78887 2127865729 -278282497 -1089069313 -1410465859
        -1443921234 -1091809361 -489012049 -338168313</internalNodes>
      <leafValues>
        -3.7819576263427734e-01 5.2724635601043701e-01</leafValues></_>
    <_>
      <internalNodes>
        0 -1 46548 1895388255 -805306365 520197017 419713295 -2006757826
        -1431666558 1610850433 672696971</internalNodes>
      <leafValues>
        -4.6530064940452576e-01 4.3714585900306702e-01</leafValues></_>
    <_>
      <internalNodes>
        0 -1 69779 77725905 -171376253 -654097065 1217974368 -1316228445
        -545196544 -1961718901 14927802</internalNodes>
      <leafValues>
        -6.3421463966369629e-01 3.2758149504661560e-01</leafValues></_>
    <_>
      <internalNodes>
        0 -1 103290 -945029259 2137456243 -655656 -885490320 1165485943
        1196294005 1979700164 -186323132</internalNodes>
      <leafValues>
        -4.0052157640457153e-01 5.0305813550949097e-01</leafValues></_>
    <_>
      <internalNodes>
        0 -1 1870 1749328606 -641548215 5665613 1846566916 -92205077
        -98434919 1212364955 1734567619</internalNodes>
      <leafValues>
        -5.1143449544906616e-01 4.0848934650421143e-01</leafValues></_>
    <_>
      <internalNodes>
        0 -1 77809 -934371296 -1026522426 411058457 -401241640 671806061
        -401946608 1346574568 1159193443</internalNodes>
      <leafValues>
        -5.4738676548004150e-01 3.8179793953895569e-01</leafValues></_>
    <_>
      <internalNodes>
        0 -1 59835 2124775799 -671088638 917514041 1371038811 -452008721
        -1467777001 1173475833 -1438659845</internalNodes>
      <leafValues>
        -3.2555752992630005e-01 6.3266986608505249e-01</leafValues></_>
    <_>
      <internalNodes>
        0 -1 19294 1387271309 154243461 559421859 2034350081 38375083
        1225261112 185168335 655155369</internalNodes>
      <leafValues>
        -4.6649339795112610e-01 4.5103481411933899e-01</leafValues></_></weakClassifiers></stage12>
</opencv_storage>
