<?xml version="1.0"?>
<opencv_storage>
<stage1>
  <maxWeakCount>6</maxWeakCount>
  <stageThreshold>-1.0488822460174561e+00</stageThreshold>
  <weakClassifiers>
    <_>
      <internalNodes>
        0 -1 47623 1574141 928849149 1072644095 1001983231 804142335
        -1090633732 532025343 145229992</internalNodes>
      <leafValues>
        -6.8397289514541626e-01 8.8990032672882080e-01</leafValues></_>
    <_>
      <internalNodes>
        0 -1 64049 -42959363 -5227016 -131073 -221700 -1140981765
        -1112002568 -458753 -1346893704</internalNodes>
      <leafValues>
        -5.6491130590438843e-01 8.6120188236236572e-01</leafValues></_>
    <_>
      <internalNodes>
        0 -1 34875 268439760 -1659760240 -1728032291 386957633 268733689
        -90603382 977283278 436733952</internalNodes>
      <leafValues>
        -6.8574756383895874e-01 6.8823838233947754e-01</leafValues></_>
    <_>
      <internalNodes>
        0 -1 93308 1363017045 1427226737 1695797565 890179989 -96944707
        1005150620 -89596195 -574908227</internalNodes>
      <leafValues>
        -6.5459293127059937e-01 7.0735073089599609e-01</leafValues></_>
    <_>
      <internalNodes>
        0 -1 37797 1013993717 -580112579 1064427519 524027836
        -1396817921 -1107667011 -1364161284 -1350562792</internalNodes>
      <leafValues>
        -5.8792269229888916e-01 7.8215748071670532e-01</leafValues></_>
    <_>
      <internalNodes>
        0 -1 37456 1109398744 -1659364328 -1087463745 1024460889
        652246187 -644801376 -2079290133 252333184</internalNodes>
      <leafValues>
        -6.1580097675323486e-01 7.2737973928451538e-01</leafValues></_></weakClassifiers></stage1>
</opencv_storage>
