<?xml version="1.0"?>
<opencv_storage>
<stage7>
  <maxWeakCount>13</maxWeakCount>
  <stageThreshold>-5.8046567440032959e-01</stageThreshold>
  <weakClassifiers>
    <_>
      <internalNodes>
        0 -1 87084 -225860 -1 -1074003969 2147483647 -25314326 -4
        -1342686274 -306184514</internalNodes>
      <leafValues>
        -2.3798626661300659e-01 8.0155640840530396e-01</leafValues></_>
    <_>
      <internalNodes>
        0 -1 45498 1317702408 419562760 -1694474999 521997580
        -1343304296 -1380446705 -150033137 -343987045</internalNodes>
      <leafValues>
        -4.3256735801696777e-01 6.2128108739852905e-01</leafValues></_>
    <_>
      <internalNodes>
        0 -1 61166 -711865420 2068885520 310380672 -108500668 1481167610
        880871052 461899918 -4334209</internalNodes>
      <leafValues>
        -5.1424640417098999e-01 5.2227187156677246e-01</leafValues></_>
    <_>
      <internalNodes>
        0 -1 53706 -1744775689 -4849813 -1103364097 1160396473 -70586377
        -1124155441 -353437697 -1080296529</internalNodes>
      <leafValues>
        -4.2875888943672180e-01 5.9687590599060059e-01</leafValues></_>
    <_>
      <internalNodes>
        0 -1 41650 286291216 -574064623 -1249570467 -653197111
        -1810868008 -576026550 -1426028037 723583041</internalNodes>
      <leafValues>
        -6.1479741334915161e-01 3.8921901583671570e-01</leafValues></_>
    <_>
      <internalNodes>
        0 -1 81975 1707246720 473728369 -1919909749 -1340897275
        -1713665397 -1954381686 1590409359 -32522021</internalNodes>
      <leafValues>
        -5.1545876264572144e-01 4.3393510580062866e-01</leafValues></_>
    <_>
      <internalNodes>
        0 -1 43943 1906317588 1595420824 -1266645611 -1860890543
        914383016 -1723096935 956992059 445130890</internalNodes>
      <leafValues>
        -5.4830729961395264e-01 4.0344905853271484e-01</leafValues></_>
    <_>
      <internalNodes>
        0 -1 3712 1980533890 -1077180918 1292632194 -1350516581
        -1840971568 -72347448 -2142880950 -1958536805</internalNodes>
      <leafValues>
        -5.3661042451858521e-01 4.3205049633979797e-01</leafValues></_>
    <_>
      <internalNodes>
        0 -1 45069 -782502281 1409425408 1895300479 1430780530
        -1057508115 -511106625 -227676555 1001343679</internalNodes>
      <leafValues>
        -4.1676062345504761e-01 5.6756150722503662e-01</leafValues></_>
    <_>
      <internalNodes>
        0 -1 98448 -659560669 10796967 -25167016 -1259044876 -165931
        -9109508 -54526671 -671875081</internalNodes>
      <leafValues>
        -4.4852277636528015e-01 4.9904593825340271e-01</leafValues></_>
    <_>
      <internalNodes>
        0 -1 58055 -1743503203 -779911150 -585540267 1058099404
        -2118098821 -98123647 -1739597669 -1419089666</internalNodes>
      <leafValues>
        -4.9877610802650452e-01 4.5007532835006714e-01</leafValues></_>
    <_>
      <internalNodes>
        0 -1 73368 -1062567808 1385927818 -1852784547 151240706
        277037209 -400998386 1619757987 1086714506</internalNodes>
      <leafValues>
        -6.3527113199234009e-01 3.4855729341506958e-01</leafValues></_>
    <_>
      <internalNodes>
        0 -1 66746 335565968 -780073966 318773727 -1579460836
        -1197628740 -1167523781 1059201980 -1087894408</internalNodes>
      <leafValues>
        -6.0493957996368408e-01 3.7482297420501709e-01</leafValues></_></weakClassifiers></stage7>
</opencv_storage>
