<?xml version="1.0"?>
<opencv_storage>
<stage13>
  <maxWeakCount>15</maxWeakCount>
  <stageThreshold>-3.2116577029228210e-01</stageThreshold>
  <weakClassifiers>
    <_>
      <internalNodes>
        0 -1 76586 -1073692640 -286262806 -524381 -277351279 -303039043
        -34817 -739383579 -1874735008</internalNodes>
      <leafValues>
        -1.6144017875194550e-01 7.8443628549575806e-01</leafValues></_>
    <_>
      <internalNodes>
        0 -1 92693 -551555107 -704806985 -4329579 -1107591237 -33559811
        -2261507 -584291 -35651649</internalNodes>
      <leafValues>
        -3.0835002660751343e-01 6.5349364280700684e-01</leafValues></_>
    <_>
      <internalNodes>
        0 -1 49594 -251660833 -654166494 1975907573 151093229 679472879
        -1187081355 1492869943 143591423</internalNodes>
      <leafValues>
        -3.8886657357215881e-01 5.7195228338241577e-01</leafValues></_>
    <_>
      <internalNodes>
        0 -1 85518 1151304075 -1053437695 1145247577 -78540791 710658698
        -301793149 -928256817 5763811</internalNodes>
      <leafValues>
        -4.8909428715705872e-01 4.2377972602844238e-01</leafValues></_>
    <_>
      <internalNodes>
        0 -1 11015 1056991 -1181599230 -851732417 2082320395 1128865946
        -1820327808 -1998616435 2072607403</internalNodes>
      <leafValues>
        -5.7063275575637817e-01 3.5936138033866882e-01</leafValues></_>
    <_>
      <internalNodes>
        0 -1 95298 -822876210 -526321500 -944716696 -738623845 911866062
        1411393584 1601680556 -1</internalNodes>
      <leafValues>
        -4.0093934535980225e-01 4.9034616351127625e-01</leafValues></_>
    <_>
      <internalNodes>
        0 -1 57345 -2013230820 288430610 -1615077827 456773887 880789977
        -1357965936 -1626642953 -1146372226</internalNodes>
      <leafValues>
        -3.4109544754028320e-01 5.4484176635742188e-01</leafValues></_>
    <_>
      <internalNodes>
        0 -1 96005 422605269 -134401840 -1828633799 -1088732903
        -1207940451 -402120559 -1946151763 462161316</internalNodes>
      <leafValues>
        -5.5192363262176514e-01 3.4882119297981262e-01</leafValues></_>
    <_>
      <internalNodes>
        0 -1 90477 -1489424896 -1188019959 -2078652212 288247888
        1477576968 -132120568 1030416584 -889271043</internalNodes>
      <leafValues>
        -6.0203057527542114e-01 3.2917758822441101e-01</leafValues></_>
    <_>
      <internalNodes>
        0 -1 1382 -367595525 1109319872 -1509797861 -364060542
        -586757617 1179320450 25772435 -1005600629</internalNodes>
      <leafValues>
        -4.8773491382598877e-01 4.0902286767959595e-01</leafValues></_>
    <_>
      <internalNodes>
        0 -1 55540 -804265822 1401438848 -532659962 831194115 -234633329
        1073891361 1460388041 1471146755</internalNodes>
      <leafValues>
        -5.2810722589492798e-01 4.0665480494499207e-01</leafValues></_>
    <_>
      <internalNodes>
        0 -1 14124 -1190497803 -409976751 -733785673 -1747446761
        -1408041998 -1627324413 -368908629 981740404</internalNodes>
      <leafValues>
        -5.1962232589721680e-01 4.2510861158370972e-01</leafValues></_>
    <_>
      <internalNodes>
        0 -1 98758 529638334 2051082373 1073791019 -124698623 1279475849
        -1052221424 -1845389173 461754286</internalNodes>
      <leafValues>
        -5.0455373525619507e-01 4.2424771189689636e-01</leafValues></_>
    <_>
      <internalNodes>
        0 -1 103714 -1351096817 -1959862403 1845493680 -1763508620
        1199544119 -395593955 -990333119 -202086464</internalNodes>
      <leafValues>
        -4.3536350131034851e-01 5.0893157720565796e-01</leafValues></_>
    <_>
      <internalNodes>
        0 -1 91931 1198507266 1348824878 -1476449370 1660910591
        -1334888773 558046311 -461912846 -884754769</internalNodes>
      <leafValues>
        -4.1303744912147522e-01 5.0541794300079346e-01</leafValues></_></weakClassifiers></stage13>
</opencv_storage>
