<?xml version="1.0"?>
<opencv_storage>
<stage11>
  <maxWeakCount>13</maxWeakCount>
  <stageThreshold>-1.1651486158370972e+00</stageThreshold>
  <weakClassifiers>
    <_>
      <internalNodes>
        0 -1 62843 750002172 528293332 536805373 -1109901860 2079653884
        -1078395235 -2002849804 144704000</internalNodes>
      <leafValues>
        -5.6984478235244751e-01 7.4410772323608398e-01</leafValues></_>
    <_>
      <internalNodes>
        0 -1 81976 -1694465152 -818137742 721553464 -35143752
        -1177600049 -273679571 -281021697 -67117905</internalNodes>
      <leafValues>
        -5.1025009155273438e-01 5.5322033166885376e-01</leafValues></_>
    <_>
      <internalNodes>
        0 -1 31320 1359082487 1465474372 -33685505 -680002065 -318013569
        -637566979 -137510913 -78407681</internalNodes>
      <leafValues>
        -3.9199066162109375e-01 6.8864166736602783e-01</leafValues></_>
    <_>
      <internalNodes>
        0 -1 77563 -269484455 -579866625 -16417 -1075855396 -3145974
        -553648193 -406929442 1968371657</internalNodes>
      <leafValues>
        -4.0101268887519836e-01 5.8027565479278564e-01</leafValues></_>
    <_>
      <internalNodes>
        0 -1 66345 -22289376 281473030 262148 1091109423 304268160
        17305640 1161970182 1536156671</internalNodes>
      <leafValues>
        -5.8202725648880005e-01 4.0609610080718994e-01</leafValues></_>
    <_>
      <internalNodes>
        0 -1 78779 -1067326553 -285739105 -6313 -402659450 -1375731761
        -344588677 -169361849 -1072180862</internalNodes>
      <leafValues>
        -3.6590978503227234e-01 6.2534457445144653e-01</leafValues></_>
    <_>
      <internalNodes>
        0 -1 94084 319948661 -787412433 1083397149 -250379709 537428141
        716046436 -400412739 -1174427347</internalNodes>
      <leafValues>
        -4.6029376983642578e-01 4.9890339374542236e-01</leafValues></_>
    <_>
      <internalNodes>
        0 -1 67255 -2146418479 -717029179 -939409057 1499414745
        -1568609895 -1686110154 -1107173751 213522591</internalNodes>
      <leafValues>
        -5.6563848257064819e-01 3.8475605845451355e-01</leafValues></_>
    <_>
      <internalNodes>
        0 -1 75667 -326703862 167964846 553711078 -1073232768 1510556226
        1074331658 1100730817 1195897346</internalNodes>
      <leafValues>
        -5.7347148656845093e-01 3.8152703642845154e-01</leafValues></_>
    <_>
      <internalNodes>
        0 -1 9410 -965754038 -83536858 -1039888172 1837371660 805341344
        -115343216 25184641 -24120629</internalNodes>
      <leafValues>
        -4.8316898941993713e-01 4.6192741394042969e-01</leafValues></_>
    <_>
      <internalNodes>
        0 -1 72651 361005464 412647569 59777329 -7010020 738355455
        -1678572647 -1954002805 -1364324056</internalNodes>
      <leafValues>
        -5.5696207284927368e-01 4.1154494881629944e-01</leafValues></_>
    <_>
      <internalNodes>
        0 -1 86548 964677290 253755716 303038608 874305997 1109729446
        1512114448 1614943886 -1679870998</internalNodes>
      <leafValues>
        -5.0929355621337891e-01 4.4259974360466003e-01</leafValues></_>
    <_>
      <internalNodes>
        0 -1 24596 1210634975 28417305 1174428181 813084937 1161826527
        948577408 -893730157 1530519754</internalNodes>
      <leafValues>
        -4.8286387324333191e-01 4.7604265809059143e-01</leafValues></_></weakClassifiers></stage11>
</opencv_storage>
