<?xml version="1.0"?>
<opencv_storage>
<stage4>
  <maxWeakCount>10</maxWeakCount>
  <stageThreshold>-9.3103450536727905e-01</stageThreshold>
  <weakClassifiers>
    <_>
      <internalNodes>
        0 -1 15767 1003503100 -5186052 -8454149 -541278220 -570894852
        -1075265544 -376837 789055624</internalNodes>
      <leafValues>
        -3.9470654726028442e-01 8.2984238862991333e-01</leafValues></_>
    <_>
      <internalNodes>
        0 -1 86010 1365201695 -619490437 -1051340045 -375950655
        1644898987 -1163240951 1657360763 1581727771</internalNodes>
      <leafValues>
        -5.8297115564346313e-01 6.4546293020248413e-01</leafValues></_>
    <_>
      <internalNodes>
        0 -1 66208 -932394820 -83308492 -879093793 -1681910898
        -1434325765 -39190464 -972824434 -1936936021</internalNodes>
      <leafValues>
        -5.6268632411956787e-01 5.8029305934906006e-01</leafValues></_>
    <_>
      <internalNodes>
        0 -1 75803 -100795400 -276279228 -988249712 826835464 1220630728
        1361608964 1460158464 -1345</internalNodes>
      <leafValues>
        -5.4039287567138672e-01 5.5677115917205811e-01</leafValues></_>
    <_>
      <internalNodes>
        0 -1 28040 990909969 -652926831 -1258224609 454365543
        -1744764185 -1166015862 864064443 -1621163967</internalNodes>
      <leafValues>
        -5.3451335430145264e-01 5.7367134094238281e-01</leafValues></_>
    <_>
      <internalNodes>
        0 -1 94873 -799541455 -648638014 -1862118957 2097537033
        -968111734 -121073524 -402207157 -1975867630</internalNodes>
      <leafValues>
        -5.1956075429916382e-01 5.6729817390441895e-01</leafValues></_>
    <_>
      <internalNodes>
        0 -1 54095 -1044127582 1397424195 -2147352062 1393676805
        1382666691 27262985 -938818374 1407706075</internalNodes>
      <leafValues>
        -5.4597628116607666e-01 5.2779042720794678e-01</leafValues></_>
    <_>
      <internalNodes>
        0 -1 56004 1048583504 457752601 1225872927 31295933 -1449099110
        -1433794406 545816729 153620748</internalNodes>
      <leafValues>
        -6.4931321144104004e-01 4.4143536686897278e-01</leafValues></_>
    <_>
      <internalNodes>
        0 -1 3479 -102062666 1465833738 -1919942438 -1929237038
        1753481901 -350156589 2016608989 -19215765</internalNodes>
      <leafValues>
        -5.5679100751876831e-01 4.9613943696022034e-01</leafValues></_>
    <_>
      <internalNodes>
        0 -1 68823 -396110078 -1004875594 -804141752 1363199821
        -1969225710 19038249 -1341963374 -259276041</internalNodes>
      <leafValues>
        -4.9890896677970886e-01 5.6039738655090332e-01</leafValues></_></weakClassifiers></stage4>
</opencv_storage>
