<?xml version="1.0"?>
<opencv_storage>
<stage9>
  <maxWeakCount>13</maxWeakCount>
  <stageThreshold>-5.4811352491378784e-01</stageThreshold>
  <weakClassifiers>
    <_>
      <internalNodes>
        0 -1 95845 -33690243 499080541 -4771 364764669 -41967619 -33411
        -570597955 1577025021</internalNodes>
      <leafValues>
        -4.7308318316936493e-02 8.3247542381286621e-01</leafValues></_>
    <_>
      <internalNodes>
        0 -1 71081 -831864630 -78348678 -5 -34563130 -826822762 -69825
        -1174679625 -39323650</internalNodes>
      <leafValues>
        -3.7532171607017517e-01 6.3521605730056763e-01</leafValues></_>
    <_>
      <internalNodes>
        0 -1 85236 1297862423 896384863 -2163234 1610579743 -549478498
        -16842858 -536870946 1240694271</internalNodes>
      <leafValues>
        -4.7161364555358887e-01 5.2924537658691406e-01</leafValues></_>
    <_>
      <internalNodes>
        0 -1 82715 -1065270750 -1283612474 1090779167 -1188302709
        -217464389 -375848401 -2008970438 -2147229150</internalNodes>
      <leafValues>
        -4.9971064925193787e-01 4.6634429693222046e-01</leafValues></_>
    <_>
      <internalNodes>
        0 -1 1883 1107358206 -172621806 18896153 1024328000 9202589
        -1182070322 155920826 238181990</internalNodes>
      <leafValues>
        -5.9164446592330933e-01 3.7445381283760071e-01</leafValues></_>
    <_>
      <internalNodes>
        0 -1 84740 -60886118 286015686 1614840852 824219904 1111773856
        1004017920 -402615128 -268442181</internalNodes>
      <leafValues>
        -4.8898071050643921e-01 4.3712103366851807e-01</leafValues></_>
    <_>
      <internalNodes>
        0 -1 52074 542922205 -115388333 420204117 -40828787 -754568485
        -75439918 -2147300612 -1095224212</internalNodes>
      <leafValues>
        -5.6617730855941772e-01 3.6862397193908691e-01</leafValues></_>
    <_>
      <internalNodes>
        0 -1 1370 -882382321 135710536 67125582 -1061025206 1084839435
        1087014971 1145823704 -1597247234</internalNodes>
      <leafValues>
        -5.0239539146423340e-01 4.4406047463417053e-01</leafValues></_>
    <_>
      <internalNodes>
        0 -1 58258 1964212746 429068423 329261194 1394081798 1913082026
        170393728 -1568519766 2005398411</internalNodes>
      <leafValues>
        -5.7560968399047852e-01 3.9873287081718445e-01</leafValues></_>
    <_>
      <internalNodes>
        0 -1 96957 2019015050 2064024202 2097408 -7922989 1084425134
        1212153872 -351763975 -73862977</internalNodes>
      <leafValues>
        -4.8037534952163696e-01 4.5496478676795959e-01</leafValues></_>
    <_>
      <internalNodes>
        0 -1 54453 1294485 277970961 -1188529473 291344543 269027722
        270142410 551617195 523076265</internalNodes>
      <leafValues>
        -5.2326339483261108e-01 4.2065194249153137e-01</leafValues></_>
    <_>
      <internalNodes>
        0 -1 732 71615190 -179158909 -1860618239 -1104936949 1107856893
        -494923645 -905854898 -820582250</internalNodes>
      <leafValues>
        -5.3225022554397583e-01 4.2659932374954224e-01</leafValues></_>
    <_>
      <internalNodes>
        0 -1 55448 -661659646 1925509394 -1014300525 -720650227
        -517963378 -1055357558 1769997271 1393542023</internalNodes>
      <leafValues>
        -4.9443739652633667e-01 4.5981910824775696e-01</leafValues></_></weakClassifiers></stage9>
</opencv_storage>
