<?xml version="1.0"?>
<opencv_storage>
<stage10>
  <maxWeakCount>12</maxWeakCount>
  <stageThreshold>-7.9061490297317505e-01</stageThreshold>
  <weakClassifiers>
    <_>
      <internalNodes>
        0 -1 81789 -1405157376 -16875659 -4 -1140886018 -1344348928
        -131075 -1002453816 -328005619</internalNodes>
      <leafValues>
        -2.7223721146583557e-01 7.7805799245834351e-01</leafValues></_>
    <_>
      <internalNodes>
        0 -1 1284 -144249122 -331795 -273674334 -38080786 1306541698
        -1078394884 2005012279 -524353</internalNodes>
      <leafValues>
        -4.4095778465270996e-01 5.9967041015625000e-01</leafValues></_>
    <_>
      <internalNodes>
        0 -1 87646 1887436309 1922613264 -1542402733 1522368631
        -1006531893 -1034780672 -1026891654 923002931</internalNodes>
      <leafValues>
        -5.4260867834091187e-01 4.4575303792953491e-01</leafValues></_>
    <_>
      <internalNodes>
        0 -1 62208 -1072971262 -586161417 -138455395 -1041236562
        -834737238 -1195574362 -494934073 1113575947</internalNodes>
      <leafValues>
        -4.7571089863777161e-01 4.9400034546852112e-01</leafValues></_>
    <_>
      <internalNodes>
        0 -1 33004 806377077 -170847848 -1593255465 -1110294255
        -628708925 -116621170 -1174366039 -1348991328</internalNodes>
      <leafValues>
        -5.4938083887100220e-01 4.3849819898605347e-01</leafValues></_>
    <_>
      <internalNodes>
        0 -1 80987 -34078722 1378138108 -37901400 1039412984 -176851144
        500448638 -34210305 -352321921</internalNodes>
      <leafValues>
        -4.2669481039047241e-01 5.7995551824569702e-01</leafValues></_>
    <_>
      <internalNodes>
        0 -1 58739 319331544 268505232 -1592683105 255263913 -265760597
        -2004877063 -368794113 254693483</internalNodes>
      <leafValues>
        -5.1566439867019653e-01 4.5048972964286804e-01</leafValues></_>
    <_>
      <internalNodes>
        0 -1 80822 96135285 1173880638 -33604455 -67141763 -1348478983
        -352485386 -1034580532 -1632049834</internalNodes>
      <leafValues>
        -3.8725057244300842e-01 5.7879036664962769e-01</leafValues></_>
    <_>
      <internalNodes>
        0 -1 98134 286281816 -1118732011 1342374169 -15134656 -645895528
        -1664450503 34086972 672728112</internalNodes>
      <leafValues>
        -6.3840317726135254e-01 3.7190529704093933e-01</leafValues></_>
    <_>
      <internalNodes>
        0 -1 75519 14960659 -653180879 -1593763889 -205252585
        -1878480582 -133521272 -778514182 -1165294655</internalNodes>
      <leafValues>
        -5.6921952962875366e-01 3.7883022427558899e-01</leafValues></_>
    <_>
      <internalNodes>
        0 -1 94635 -389356030 606216977 1224753152 1650491714 1521017627
        75629319 1795354821 -896537110</internalNodes>
      <leafValues>
        -5.0988650321960449e-01 4.5465305447578430e-01</leafValues></_>
    <_>
      <internalNodes>
        0 -1 67608 -404044670 1953444490 -1035151792 1394987294
        -697043776 -1606363446 -679610157 -1275857601</internalNodes>
      <leafValues>
        -4.2884415388107300e-01 5.1796245574951172e-01</leafValues></_></weakClassifiers></stage10>
</opencv_storage>
