<?xml version="1.0"?>
<opencv_storage>
<stage8>
  <maxWeakCount>14</maxWeakCount>
  <stageThreshold>-7.3674041032791138e-01</stageThreshold>
  <weakClassifiers>
    <_>
      <internalNodes>
        0 -1 95288 -564182255 360037853 -8555183 1434304501 -2239315
        2110258608 -41978091 2111686589</internalNodes>
      <leafValues>
        -9.2876464128494263e-02 8.2054203748703003e-01</leafValues></_>
    <_>
      <internalNodes>
        0 -1 71002 -570762498 -906285084 -47269889 -540792786 -45089 -1
        -1116815697 -914700113</internalNodes>
      <leafValues>
        -3.8873466849327087e-01 6.7429327964782715e-01</leafValues></_>
    <_>
      <internalNodes>
        0 -1 267 -1001536274 -50369705 -67112961 -538238674 -812242761
        -276828450 -2030067714 -806927866</internalNodes>
      <leafValues>
        -4.4720155000686646e-01 5.4362744092941284e-01</leafValues></_>
    <_>
      <internalNodes>
        0 -1 15826 -800160552 402784676 436273565 1090715676 -91189092
        -133029719 23239867 185532715</internalNodes>
      <leafValues>
        -4.5131394267082214e-01 5.1212757825851440e-01</leafValues></_>
    <_>
      <internalNodes>
        0 -1 88891 1830225478 -1693253501 1108443334 -132988715
        1783825930 -50179789 1201653480 -606350529</internalNodes>
      <leafValues>
        -5.5185663700103760e-01 4.2056056857109070e-01</leafValues></_>
    <_>
      <internalNodes>
        0 -1 23922 1316297149 -1141419837 -855568295 -1087106315
        -1416330497 -609613310 -394082055 -1450702708</internalNodes>
      <leafValues>
        -5.1187515258789063e-01 4.5082253217697144e-01</leafValues></_>
    <_>
      <internalNodes>
        0 -1 98536 -1229 -1069221977 -50309 -696287814 -4723280
        -1711835289 -134226571 -33571337</internalNodes>
      <leafValues>
        -4.0134936571121216e-01 5.2738738059997559e-01</leafValues></_>
    <_>
      <internalNodes>
        0 -1 83101 805319889 513589721 1090834893 -720692773 -939478530
        1797260002 11577759 790102708</internalNodes>
      <leafValues>
        -5.1774168014526367e-01 4.2112755775451660e-01</leafValues></_>
    <_>
      <internalNodes>
        0 -1 73436 -1024465782 2855311 1076490386 294601734 1637967371
        -1999880184 -200783742 1137177103</internalNodes>
      <leafValues>
        -5.3179025650024414e-01 4.2337745428085327e-01</leafValues></_>
    <_>
      <internalNodes>
        0 -1 67544 -862040129 422098784 1073092799 1899106376 -269500529
        -1211473113 -889356556 262896287</internalNodes>
      <leafValues>
        -4.4132602214813232e-01 5.2247714996337891e-01</leafValues></_>
    <_>
      <internalNodes>
        0 -1 86266 805384483 -151355183 -1992244017 -1224650748
        -264197937 -360643200 -889134326 -1626268164</internalNodes>
      <leafValues>
        -5.9509927034378052e-01 3.6067402362823486e-01</leafValues></_>
    <_>
      <internalNodes>
        0 -1 99876 -1069091372 -1597767628 -2121758448 -1793486655
        277405844 -1736339328 1771196800 -627078515</internalNodes>
      <leafValues>
        -4.3550738692283630e-01 5.2156531810760498e-01</leafValues></_>
    <_>
      <internalNodes>
        0 -1 5723 -883364652 1401193956 688669068 780202107 1082360982
        814383529 -2078127864 -13987109</internalNodes>
      <leafValues>
        -5.1263976097106934e-01 4.3969371914863586e-01</leafValues></_>
    <_>
      <internalNodes>
        0 -1 86601 -1304376284 156893225 1090519336 1899168435
        -1462728232 -1878458208 -1467839011 -1879179083</internalNodes>
      <leafValues>
        -5.5478763580322266e-01 3.8751742243766785e-01</leafValues></_></weakClassifiers></stage8>
</opencv_storage>
